5009 64
的 0.016815659 0.106619745 -0.098714165 0.022222342 -0.39253134 -0.08533455 0.005999718 -0.054777388 -0.23302014 0.069151744 0.02465204 -0.23400144 0.14268947 -0.051362604 0.012460227 -0.17113681 -0.110199645 0.007208317 0.03997056 -0.15424465 0.07376847 -0.09615847 -0.12202962 0.05870368 -0.0388465 -0.011677163 -0.018574236 0.20553833 0.25216472 0.13971929 0.17424853 0.1375501 0.13003595 0.23290874 0.12161643 -0.2493668 -0.05411093 -0.41282976 -0.11483191 0.007634423 -0.12835151 0.051557966 0.01914778 0.12990567 0.014688126 0.28498325 1.1416734e-05 -0.07660725 -0.07957367 0.1006361 -0.025500044 -0.1380512 -0.1690305 -0.16442953 -0.1269971 -0.031105805 0.17447712 0.14631636 0.0070074736 0.14493906 -0.089329146 0.06274362 0.09042131 -0.07085568
了 0.088153675 -0.010959553 0.004667437 0.18145385 -0.2977399 -0.041199878 -0.12879926 0.093200825 -0.20512697 0.17142339 -0.019363202 -0.2246702 0.04123574 0.025544109 -0.045839127 0.046198618 -0.12367515 -0.026548674 -0.2687374 -0.21609686 0.15427531 0.036146376 -0.13743544 0.10721074 0.09456354 -0.1299452 0.07650727 0.22081374 0.099027246 0.011152053 0.17889595 0.14340125 0.05493758 0.017900923 0.06493391 -0.29939884 0.0432252 -0.17088686 0.13672669 -0.02898629 -0.05866735 0.09745203 0.16039455 0.19944791 0.18588196 0.4080199 -0.23748629 -0.101136185 -0.09164561 0.12568669 0.05512774 -0.16613421 -0.14723781 -0.20181076 0.046810083 -0.14065543 0.06265854 -0.09891644 0.28147987 0.12530589 -0.04258688 0.09303811 0.08648944 -0.2941162
是 -0.0059997337 -0.010681003 -0.0061818203 0.09092769 -0.08863667 0.012923785 -0.070355095 -0.14885786 -0.24077226 0.19291323 0.19500756 -0.16597494 0.06473723 -0.03643853 0.01985593 -0.15797926 -0.100081675 0.2025704 -0.2657617 -0.15935233 0.054681476 -0.054493137 -0.057764675 -0.0053356234 -0.021459492 -0.11597321 0.17013238 0.13911068 0.17883918 0.10586357 0.24453071 0.27076074 0.09171268 0.26986992 0.19867231 -0.041650325 0.032769676 -0.4322287 0.049853683 -0.1613194 -0.06523356 0.01652 -0.04879336 0.13128601 -0.02291167 0.34284925 0.14613844 -0.20476852 -0.061318025 0.04727687 -0.0632379 -0.29153877 -0.16172369 -0.08829513 0.03531091 0.031148868 0.032229062 0.15455957 0.21512622 0.17523159 -0.17348205 0.16734003 0.08174526 -0.29043102
我 -0.11459187 -0.020654798 0.054376382 0.14274248 -0.37471732 0.28951678 -0.031249803 0.030846834 -0.13986431 0.11581582 0.13308512 -0.26633713 0.0023149997 0.072645895 0.17303634 0.04618087 -0.051652946 0.009366212 -0.19364806 -0.34553295 0.08386626 -0.057855546 0.036927074 0.12726189 0.18713397 -0.11723397 0.009085528 0.14742701 0.07686157 0.096013635 0.27666745 0.23081437 0.003291375 0.09521623 0.13138773 -0.1460165 -0.11146866 -0.23637196 -0.011950718 -0.031749744 -0.065857485 0.035627868 0.16593543 0.32907924 -0.010920741 0.41919115 -0.106536694 -0.15017867 0.08142753 0.21727392 0.008561488 -0.22061963 0.0038190354 -0.01925268 -0.071738884 -0.049813647 -0.06260921 -0.18257403 0.040082887 0.20216763 -0.13411379 -0.048605535 0.10066539 -0.07646898
也 -0.03353798 -0.07875632 0.16525836 -0.043035064 -0.336605 0.09886811 0.041559502 0.025730962 -0.10413035 0.22979794 0.09251959 -0.29656303 0.23562388 -0.104114935 0.017021595 -0.17113532 -0.14889611 0.026509646 -0.16293073 -0.23489791 0.17705145 -0.031237673 -0.03282214 0.029217869 -0.10123256 -0.010636594 -0.10321077 -0.03180856 0.07116156 0.025666812 0.04726176 0.14934574 0.009825676 0.2163769 0.10152208 -0.27555594 -0.01961623 -0.27276132 0.06796851 0.0140753705 -0.049777042 0.13896745 0.24298692 0.078946084 -0.00037238875 0.2663906 -0.20054904 -0.1427342 -0.08971392 0.1691783 -0.06253241 -0.21898077 -0.22359262 -0.33732805 -0.024047317 -0.09066061 -0.013140524 -0.10977173 0.14279391 0.03246422 -0.008270067 -0.06773957 -0.0023810302 -0.2891426
就 -0.07638322 -0.10306004 0.16656974 0.15315992 -0.3572517 0.07296929 0.058972117 -0.084480375 -0.12553099 0.047155794 0.08850582 -0.39244357 0.09550967 0.050266657 0.03207997 -0.011116288 0.0077664726 -0.07514329 -0.18704394 -0.141826 0.12783049 -0.08116725 -0.06305194 0.09411715 -0.11348865 0.03701931 0.0077822297 0.28036225 0.22837965 0.20772001 0.14042188 0.14907505 0.066818096 0.092726484 0.02058354 -0.25954008 -0.052728593 -0.18267393 -0.0029920542 -0.000102650796 -0.1469404 0.058043335 0.08793317 0.22444446 0.2676422 0.355435 -0.16182968 -0.012104623 -0.04300447 0.15151425 -0.056411337 -0.24694717 -0.018773085 -0.27680704 -0.0054363576 0.021912843 0.05634834 -0.09813009 0.17766802 0.008641905 -0.12516874 0.15302293 0.119769394 -0.26496404
不 -0.039074 0.04662608 0.052974507 0.2557142 -0.2529287 -0.052639965 -0.15826863 -0.05800992 -0.06191203 -0.19323936 0.19183382 -0.22284177 0.31194162 -0.0886075 0.1498669 0.11714685 0.11149631 0.02704891 -0.25860342 -0.15415172 0.20998187 -0.14393018 0.048713036 0.11725791 -0.040197674 0.020463055 0.1941109 0.19560376 0.00033718988 0.12431191 0.05739436 0.41889074 -0.16746272 0.25325626 0.2950977 -0.060763557 0.23823036 -0.3887188 0.031125005 0.08719846 -0.12034538 0.015619038 0.08271418 0.040605042 0.05047909 0.4043373 -0.048019305 -0.08515987 -0.065971315 0.16020475 -0.17624313 -0.1325571 -0.20548165 -0.21488743 -0.045301355 -0.056316104 -0.18409607 0.08672982 0.17223231 0.15543646 -0.10611978 0.03069739 0.28934327 -0.14429037
都 -0.04065294 0.03776739 0.09634317 0.13183856 -0.28390998 0.14977331 -0.066666655 -0.15766852 -0.3540256 0.17869303 0.11822558 -0.10461454 0.036933437 0.059693392 0.008005926 -0.23325188 -0.1697135 0.032936756 -0.24712726 -0.22484785 0.14406666 -0.17480418 -0.1155847 0.15659603 0.112084255 -0.09632278 -0.012284204 -0.002180886 0.0820819 0.06977594 0.33230025 0.052846093 -0.05646223 0.15255147 0.15645932 -0.23373972 -0.10348062 -0.25631475 0.06164732 4.4970548e-05 -0.14975388 0.13243878 0.085054174 0.11805979 0.07829998 0.38342294 -0.035244238 -0.04493072 -0.062176365 -0.09632853 -0.1206223 -0.18787266 -0.11610127 -0.29532135 -0.0091576185 -0.0041462774 0.091176786 0.06653363 0.05187628 0.07140673 -0.059477363 -0.007109525 0.23407096 -0.089369185
你 -0.12170938 0.16060644 0.24851865 0.1815181 -0.29664004 0.28393793 0.020528601 0.13196318 -0.2281736 0.095548786 0.022526372 -0.3745968 0.33260894 -0.100614265 0.040050734 0.044657644 -0.08711806 0.22816655 -0.025360439 -0.15878652 0.06385347 -0.110364445 0.12287299 0.3537067 0.068951145 -0.08667848 -0.1756627 0.01433886 0.26884475 0.21557687 0.15438889 0.25705913 -0.09558809 0.24379674 -0.04280618 -0.18183067 0.11228288 -0.041200787 -0.023506237 -0.22625647 0.0027436027 0.011703206 0.06242008 0.2196861 0.1798965 0.24182186 -0.029873202 -0.08133334 0.07674837 0.0458392 -0.15054055 -0.37760124 -0.05678959 -0.17917605 -0.008848497 0.011580282 0.18550658 0.08409539 0.008031041 0.14911184 0.024974154 0.11959047 0.2609324 -0.23772736
人 0.0022296463 0.18488282 0.03464723 0.24851653 -0.26019964 0.20011413 -0.15243758 0.0074341907 -0.41886824 0.1578159 0.17534003 -0.2679608 0.13744883 0.10081248 0.09670906 -0.20087856 -0.1528408 0.02102748 -0.1843228 -0.32068112 0.19919115 -0.06490648 0.12558189 0.24056283 -0.17592765 0.15689206 -0.017381927 0.03787417 0.035628866 0.19727209 0.30514932 0.20257965 -0.026179602 0.3033322 0.069070525 -0.14220163 -0.085286275 -0.2675023 -0.09860529 -0.16770324 -0.13788724 0.30163568 -0.14203773 0.2048529 0.24567337 0.101159394 0.09173424 -0.31825477 -0.1530136 0.2799974 -0.38687274 -0.16944952 -0.36205685 -0.27460596 0.10302779 0.1881218 0.17692636 -0.18000254 -0.1747844 -0.21108669 -0.1408153 -0.2033641 0.11668541 0.18501861
森林 0.14944816 0.16315204 0.14462905 0.30953214 -0.18400776 0.2271697 -0.13234323 -0.14193988 -0.4115186 0.15351802 0.18837497 -0.32300207 0.19065535 0.14288647 -0.0762842 0.10265915 -0.1573138 0.09843958 -0.42520717 -0.3167138 0.14237238 -0.22845675 0.1664085 0.19640559 -0.25726348 0.13423602 -0.07836771 0.002732046 -0.117554694 0.16124274 0.42847836 0.2116709 -0.12586428 0.26731545 0.07896868 -0.1177333 -0.009681082 -0.22972366 -0.22288929 -0.12666336 -0.12028644 0.19449319 -0.069586605 0.12529875 0.11428505 0.2349792 0.19209564 -0.25711477 -0.22946787 0.40355083 -0.4285828 -0.060449854 -0.53173286 -0.4061263 0.13062473 0.08847218 0.10203864 -0.16641392 -0.09807863 -0.2837517 -0.26381478 -0.1844325 0.32989052 0.23597321
有 0.05954382 0.20998088 0.041575197 0.01827671 -0.2617573 0.2153 -0.07877854 -0.0018013419 -0.14793456 -0.13703476 0.061967786 -0.10329726 0.073516734 0.0927136 0.018505774 -0.17059495 -0.13922824 0.004302226 -0.3267143 -0.26087216 0.15445651 -0.05736329 -0.08340322 0.110985726 0.24741219 -0.05101137 -0.040110115 0.25140435 0.19012572 0.046621613 0.088970125 0.5149593 0.015474635 0.10057553 0.33668256 -0.23417343 0.011527414 -0.19898649 -0.12061299 0.046338256 -0.17992339 0.088008694 0.03391351 0.16870733 -0.036210623 0.26611766 0.064124264 -0.06776135 -0.1673041 0.18260615 -0.21274792 -0.11373793 0.044372164 -0.13351357 -0.1796772 -0.11868344 0.1339078 0.43496573 0.08708154 0.12794195 0.0036790203 0.17670761 0.33139047 -0.20247401
和 0.04688807 0.121106386 0.15942785 0.123396866 -0.30555692 -0.09697377 -0.08486163 -0.11853125 -0.36755478 0.11126394 -0.045280423 -0.20486856 0.24965107 -0.0963208 0.013946418 -0.21635917 -0.06529991 -0.04307653 -0.25486252 -0.27236542 0.10367949 -0.07009141 -0.025767766 0.1367695 -0.22062393 -0.0004643585 -0.0505036 0.05993739 0.13467021 -0.07877764 0.23420507 0.27415282 -0.07410324 0.25952923 0.21388784 -0.18241613 -0.016097317 -0.37855843 -0.03652432 -0.11437864 -0.051059723 0.0511113 -0.096956156 -0.1519408 0.23847297 0.29928738 -0.019699093 -0.08068937 -0.17008114 -0.03656479 -0.4345506 -0.24716005 -0.12501141 -0.078549534 0.10440856 -0.021800142 0.2679133 0.013553851 -0.026715446 0.027804771 -0.05337126 -0.07226793 0.23426911 -0.29340634
发动机 0.054097235 -0.19695257 -0.2030841 0.21826415 -0.15396594 0.054805957 0.088324614 -0.023078805 0.1584473 0.040122177 0.011758973 -0.3426324 -0.07018068 -0.2947105 -0.084449954 -0.10215544 -0.010147402 0.06763449 -0.18720591 -0.45765692 0.1651436 -0.34114832 -0.5527162 -0.10360408 0.007285918 -0.039988436 0.16727269 0.13376646 0.19327815 -0.032546073 -0.1626007 0.26421958 0.23482187 0.07615746 0.061988678 -0.24958748 -0.008220104 -0.40894613 0.14679645 0.2823557 0.16688439 -0.021016713 -0.2170442 0.100925505 0.36279944 0.5753907 0.15606365 -0.038146853 0.067999974 -0.009024007 -0.3311579 -0.16877094 -0.20128001 -0.56248933 0.17515634 0.11166339 0.3069254 0.20988385 0.3230358 -0.071404554 -0.11059771 0.16037232 0.024925046 -0.24771792
油耗 -0.15207928 -0.17464343 0.118146636 -0.45235917 0.004814882 0.018890811 -0.14677583 0.11103878 -0.008936338 0.15445094 0.22580199 -0.42680195 0.10642897 -0.20115101 0.1691515 0.21679896 0.23532602 0.51666033 -0.08726006 -0.2326854 0.21096395 0.041230343 -0.07123414 0.074394226 -0.27684045 -0.0491623 0.03878659 -0.017162861 -0.25490698 -0.062882625 0.39968917 -0.21428345 0.17612128 0.116856635 -0.1405268 -0.6310857 -0.12606552 -0.41649523 -0.22221066 -0.17136197 0.041593373 0.040488075 0.3028707 -0.049753323 0.25952128 0.6846568 0.0865461 0.28219295 0.11924531 0.2935043 -0.28937435 -0.11379908 -0.5009915 -0.16278462 -0.0694912 -0.1424565 -0.1876596 -0.081897594 0.24371754 -0.07217587 -0.19278497 -0.31182948 0.2808197 -0.27014998
机油 -0.16150966 0.08490737 0.029115083 0.44749188 -0.03811895 0.3405469 0.1687137 0.0765214 0.005493921 -0.27638105 -0.12696925 -0.51308006 -0.2272093 -0.2003869 -0.07501909 -0.08031396 -0.2140114 0.1297984 -0.17490299 -0.45525956 0.061843056 -0.15404138 -0.54185337 0.24525625 0.031868402 0.0013330928 -0.12167317 -0.14055529 0.11977894 -0.44654402 -0.08380309 0.36055356 0.3192659 0.3001522 -0.07173491 -0.32042462 -0.25423557 -0.6839683 0.09977722 -0.118216336 0.052166183 -0.05145831 0.10859333 0.15894684 -0.22489773 0.5390603 -0.12668924 -0.3813044 0.043804333 -0.2471576 0.13677727 0.093595214 -0.40835008 0.020074239 0.062751785 0.11396596 0.27994442 0.10247949 0.5383412 0.27434298 0.13671505 0.2850686 0.092827335 -0.26809514
在 -0.19630212 -0.02385846 -0.14420755 0.13238573 -0.11690752 -0.053679373 -0.10446045 -0.17592143 -0.1806662 0.06734706 -0.24565351 -0.26468372 0.059878692 -0.117005266 -0.13105854 -0.061826784 -0.33871865 0.25138846 -0.121954836 -0.089650266 0.26913053 -0.17983802 -0.07621161 -0.07899474 0.06282838 -0.24162978 0.038837984 0.073003516 0.08861871 0.22162354 -0.076962486 0.1572752 0.31044114 0.13048674 0.07487281 -0.4162892 0.23581694 -0.22592022 0.058728196 -0.13165465 0.044576813 0.10699303 -0.0010345745 0.1436964 0.1843491 0.49432045 0.04968446 -0.14259219 0.075544775 -0.050109103 -0.067550264 -0.3558788 -0.0666168 -0.23373963 0.005518162 0.012755493 0.032743264 0.114865854 0.22616252 0.17188114 -0.10970934 0.062656865 0.24525593 -0.0016076686
车 -0.07087393 0.071120895 0.060030956 0.05725421 -0.39905864 0.2616551 -0.0060369344 -0.06401924 -0.3461161 0.13781607 0.03272564 -0.21168183 0.08301439 0.028270425 0.099028416 -0.092515774 -0.1143982 -0.0030620894 -0.42268944 -0.1240506 0.1533666 -0.23723763 0.103378475 0.14764555 -0.29867372 0.022324638 -0.10033566 0.08960495 0.13684526 0.12169063 0.41141498 0.17831223 0.081724055 0.30726582 0.097188644 -0.08611643 -0.031303234 -0.15081227 -0.050168447 -0.21465573 -0.2811473 -0.02950794 0.075255536 0.0725937 0.10336058 0.35906464 -0.12812158 0.06639083 0.113826126 0.08727924 -0.3377028 -0.23909152 -0.17354015 -0.29118952 -0.03902183 -0.010194756 -0.16924702 0.071349025 0.15585959 0.013778557 -0.06948705 0.061194874 0.21091817 -0.041991506
好 -0.08642982 -0.08215365 0.04780109 -0.17126937 -0.546981 -0.088613056 -0.13745524 0.20390543 -0.47834775 0.2038866 -0.022086099 -0.38588113 0.19013551 0.07477925 -0.040512744 -0.09055842 0.0017436052 -0.043004576 -0.2195049 -0.46500486 0.09288199 -0.010721916 0.12722597 0.17865461 -0.10756966 -0.01075633 -0.16024317 0.04478424 0.1284821 0.0578994 0.10833644 0.011797198 0.050464712 0.16535701 0.20078197 -0.11446046 -0.14416273 -0.3436708 -0.2139345 -0.0703443 -0.047531955 -0.09980272 0.053782985 -0.038279757 -0.027551565 0.19358997 0.05965885 -0.042344444 -0.03346343 0.058541697 -0.1890917 -0.11798154 -0.09703134 -0.26289186 0.04449909 0.10345749 0.005395211 0.10968226 0.2338121 0.1858686 0.17952786 0.016578844 0.1715257 -0.028390426
可以 -0.18042152 0.16230094 0.17714919 0.015332793 -0.4757957 -0.25449553 -0.05216141 0.13000168 -0.44009334 -0.035845157 -0.11407071 -0.11236495 0.47867557 -0.10214566 -0.05717642 -0.0088433465 0.014156218 0.01132365 -0.088546455 -0.05028169 0.018864566 0.08126619 -0.14387894 0.23067294 -0.13702065 -0.086608455 -0.005971149 0.06921615 0.43054903 0.21550211 0.1014607 0.24606538 0.18062516 0.044009954 0.20877253 -0.28188166 0.104286686 -0.3277 -0.014945827 -0.020300556 0.07220707 0.2278263 0.07748664 0.033168275 0.056002494 0.3023255 -0.1017393 0.0042231344 -0.107990526 -0.0775005 -0.15766147 -0.09438034 -0.095283575 -0.07465024 -0.276689 -0.09441404 0.05645249 0.25825402 0.06543128 0.061993677 -0.09304416 0.03439242 0.25954652 -0.11668412
价格 0.15909335 0.46350208 -0.051142305 -0.19916755 -0.82257533 0.086692214 0.28845608 0.0056008906 -0.45631915 -0.11233203 0.34625074 0.056017295 0.5666812 -0.08181653 -0.43286788 -0.06393078 0.043291137 -0.038019918 0.09600976 0.048994347 -0.14602554 0.08401845 0.02023948 0.25282967 0.05063061 -0.12600702 0.12040837 0.12018584 0.11407208 -0.17261498 0.25193074 0.20076396 0.015808035 0.18385735 -0.1435414 -0.58989215 0.00013475108 -0.38179383 -0.027522417 -0.12018722 -0.124402344 0.0391 -0.09171806 0.26501626 0.012431799 0.12563367 -0.072477214 -0.02284883 -0.23086125 0.020139622 0.0606814 -0.13578528 -0.28235042 -0.14525858 -0.05587934 -0.037515108 -0.2755718 0.15009902 -0.038855053 0.2212081 -0.38660973 0.03387898 0.24513227 -0.091478236
动力 0.09497907 0.13678008 0.24584046 -0.009221018 -0.48541436 0.20832445 -0.16177355 -0.15306073 -0.326794 0.026396677 0.3785008 -0.32608643 0.18494572 -0.15598577 0.15691815 -0.27680388 -0.034026075 0.03155963 -0.031178895 -0.11539939 0.027055945 -0.31551492 -0.0021756876 0.3539791 -0.1368111 0.15333202 0.07895994 0.04336661 -0.39851093 0.14759874 -0.19607472 0.028618805 0.04017046 0.34626958 0.15771009 -0.2507689 -0.01825187 -0.42801306 -0.17294936 0.24507569 0.03593575 0.16570939 0.17168674 0.10199058 0.1832315 0.24529724 0.1688155 0.3275108 0.050129063 0.15881659 -0.22274414 -0.15206113 -0.29149342 -0.34138054 -0.02099606 0.4637149 0.05667507 -0.06472637 -0.080952875 -0.07922996 0.31237787 0.05243593 0.3589431 -0.32818502
没 -0.24132335 0.032357037 0.090404876 0.1317881 -0.16842504 0.15680502 0.057171494 0.010638891 -0.083218835 0.19524853 0.23199505 -0.21205069 0.1483847 0.05645495 0.06347527 -0.036735483 -0.36133337 -0.02848689 -0.068898216 -0.12193165 0.09278972 -0.1581859 0.015499164 0.17661189 -0.0007430141 0.050939374 -0.06355164 0.21353309 0.02784477 -0.06590928 0.13533835 0.07099556 -0.08553272 0.2046888 0.04015054 -0.33889887 -0.04655577 -0.3020313 -0.1825504 -0.13969503 0.059118222 0.08921427 0.2324153 0.27729812 0.16435425 0.5307687 -0.236781 -0.046114456 -0.012342442 0.15130585 0.008126779 -0.015441523 0.0043809745 -0.18947431 -0.061425712 -0.07155981 0.012069076 -0.14166136 0.2685126 0.10459395 0.04261303 0.1797213 0.1972617 -0.23174916
就是 -0.058155876 0.05174124 0.1804658 0.1362613 -0.32901338 0.19628078 -0.02318214 -0.115527764 -0.25751022 -0.10299761 0.26249388 -0.15384215 0.10760728 0.011760042 0.053123236 -0.098779246 -0.039318364 -0.1088318 -0.30429894 -0.14558816 0.06829209 -0.12484993 0.25020912 -0.07959681 -0.043384288 0.050232906 0.16154377 0.17355125 0.17454417 0.016113956 0.38345608 0.035548575 -0.009685305 0.04466832 0.14810552 -0.2718233 0.028613023 -0.33533627 -0.049515177 0.09668129 -0.120656595 -0.09946696 0.051809084 0.13232312 -0.051300652 0.32403255 0.13510598 -0.2544664 -0.03142614 0.087639675 -0.17803684 -0.19190097 -0.02424012 -0.56007123 -0.14402498 -0.09877007 0.0041783564 0.13139546 0.089467846 0.036232676 -0.07148728 0.3050622 0.060320646 -0.16818736
吧 0.01668812 0.040781602 0.31412017 -0.09052604 -0.54271656 1.2799435e-05 0.024125917 -0.035011046 -0.12915598 0.16133581 0.11001355 -0.15612286 0.22480449 0.15279388 -0.13268517 0.14360407 0.07486971 -0.10003452 -0.15849929 -0.16054206 0.22332747 -0.19434454 -0.13196981 0.35809857 0.034676082 -0.16140755 -0.00974541 0.1215796 -0.06436078 0.15850118 0.07303439 0.11553662 -0.0007544649 0.04509295 0.063348636 -0.3435879 -0.17814064 -0.40352556 -0.164656 -0.019157317 -0.06295598 0.11741109 0.16861576 0.20496242 0.23311777 0.19101782 -0.0411441 -0.21553674 -0.17339617 -0.07177682 0.024747062 -0.13168944 -0.09778075 -0.16294694 0.0011744456 0.08547176 0.027401391 0.039415684 0.15926532 -0.029504267 -0.088808894 -0.07846338 0.033019632 -0.20255406
没有 -0.15421301 -0.09290163 0.13465984 0.16514544 -0.26973498 -0.060743056 -0.10801022 -0.18460949 -0.35293046 0.17314634 -0.02589202 -0.16065869 -0.0041225324 -0.06952126 -0.1735592 -0.16393383 -0.070899956 0.0669783 -0.23805147 -0.22878602 0.11139273 -0.007920269 -0.043546937 0.18529105 -0.25202703 -0.07327091 -0.18315886 0.22054411 0.23613095 -0.12209227 0.13673298 0.05692424 0.04409354 0.31266782 0.2531145 -0.2913987 0.16812858 -0.32750255 -0.16897991 0.025677213 -0.2178387 -0.0024080463 0.0063523836 0.19684623 0.10300318 0.33769712 0.005377031 -0.046879746 -0.21221782 0.13043962 0.088859156 -0.22681956 -0.12411324 -0.0879877 -0.09572603 0.012507366 0.2020323 0.38630012 -0.023009159 0.026937079 0.095199585 0.074182674 0.056573175 -0.047037184
还是 0.03505824 0.019087395 0.028989738 -0.19948654 -0.37851638 0.11043935 -0.04979273 -0.089087255 -0.24354634 0.10105402 0.2829112 -0.16916554 0.32331577 -0.16873908 0.086748876 -0.09025233 -0.24419017 -0.18430527 -0.075992905 -0.3250653 0.020750647 -0.029452313 0.15364549 0.12761919 0.0614602 -0.19529137 0.15570235 0.09006249 -0.025675721 0.104397275 0.19949754 0.016316235 -0.086120255 0.058795754 0.19320136 -0.28248522 0.077934965 -0.4252218 -0.13282506 -0.22682588 -0.121250756 -0.007015039 -0.075652786 0.07062963 0.25720003 0.26716432 -0.06029937 -0.37388703 -0.120260604 -0.09992256 -0.06949628 -0.12589978 -0.2502015 -0.3139571 0.01525158 0.16676542 0.08874955 0.010771534 0.064883694 0.08154278 -0.21779318 -0.0021319995 0.07929672 -0.06713474
还 0.107866295 0.26972952 -0.11628474 0.11836899 -0.3453709 0.04039429 -0.0743336 -0.06666156 -0.059882075 0.056036055 0.26321018 -0.19780858 0.15224889 -0.02719088 0.06744144 0.075234756 -0.21278988 -0.048665546 -0.1010346 -0.31817433 -0.024926517 0.0010664582 -0.0108352285 0.050741475 -0.042723384 -0.0079722125 0.19588798 0.32119468 0.18178551 0.16365442 0.25520775 -0.024547653 -0.06731379 0.18430823 0.24004155 -0.3651781 0.13857563 -0.35869524 0.0073191663 0.0707902 -0.10948261 0.11698547 0.06462154 0.19849326 -0.08680456 0.29030216 -0.1763288 0.04202217 -0.20041366 0.2931349 -0.093110815 0.07254449 -0.06487822 -0.2594484 -0.11960852 -0.18876491 0.020829242 -0.25977078 0.34005785 0.20451173 -0.05853887 0.117494434 0.07548921 -0.28727335
这个 -0.07354739 -0.11864521 0.016232511 0.105383575 -0.32648864 -0.0028504892 -0.07470034 -0.030452058 -0.06087226 -0.025130965 0.12905549 -0.16525233 0.07675707 -0.043026183 0.10497634 -0.031818848 -0.043577887 -0.14608903 0.017413309 -0.05013363 0.14346275 0.10310445 -0.25396726 0.18784977 0.034719095 -0.015453793 0.057717193 0.17817108 0.52042043 0.07948347 0.31230006 0.34736177 -0.06564216 0.27897942 0.07828282 -0.41715983 0.0012289924 -0.27536845 -0.09219429 -0.015323812 -0.18598822 0.092626184 0.022353511 0.23040558 0.03687082 0.2708488 -0.23655607 -0.032247633 0.105739355 -0.14604852 -0.06471362 -0.10994941 -0.19793284 -0.08654318 -0.04654418 -0.048888896 0.049073003 0.17499457 0.04814183 0.20613706 -0.05125663 0.07355338 0.1816661 -0.2674451
很 0.10643162 -0.10607773 0.30032158 -0.08643461 -0.38575163 0.02740171 0.08586974 0.087488264 -0.36040664 0.29310805 0.1593788 -0.3064866 0.16257498 -0.095553346 0.22177683 -0.18511128 0.026335578 -0.08865682 -0.2560655 -0.29513338 0.16249412 -0.21742536 0.11057057 0.19409685 -0.012152711 0.076560564 0.06224479 0.010752132 0.37274188 -0.018099206 0.11801065 0.038102552 -0.109263465 0.2684885 0.18722302 -0.10541098 -0.22984457 -0.2984864 0.018877199 0.08403705 -0.033998024 0.073383264 0.185503 -0.082139425 0.1287075 0.40915665 0.100668296 -0.009580095 0.010121739 0.005312762 -0.10177849 -0.23555437 -0.107822716 -0.106619075 -0.061228003 0.13524657 -0.035677683 -0.1055036 0.17727587 0.0029249126 -0.22153574 0.14270917 -0.119432285 -0.17159271
要 0.24860248 -0.024895493 0.016305543 -0.0596521 -0.3865723 0.10521254 -0.16354083 -0.082793 -0.2949459 0.001756031 0.111303575 -0.28422698 0.06519944 -0.18189716 -0.025469985 -0.19290282 0.109190494 0.0071999794 -0.06476028 -0.066915385 0.031314928 -0.07322891 -0.07467839 0.06706053 -0.02190859 -0.02992615 -0.13713059 0.04026432 -0.15568839 0.030787902 0.17077817 0.21158107 0.011865049 0.039071925 0.13756709 -0.2205748 0.26853478 -0.3457703 -0.04697394 0.14818431 -0.13458477 0.034430332 -0.12108469 0.4301986 0.22379808 0.3408838 0.10452208 -0.04838451 -0.14316447 0.015320511 -0.25014505 -0.12727301 -0.2950104 -0.20298983 0.06394941 0.17567585 -0.031215377 0.024117608 0.06484713 0.17073607 -0.1686483 0.054114696 0.28319845 -0.20835468
买 0.18305366 0.30588236 0.092919886 0.11710564 -0.6643042 0.13317561 0.081933446 -0.1249745 -0.1651988 0.044886604 0.24764577 -0.29705128 0.44597632 0.09284385 -0.11739508 0.12913035 0.08499363 -0.082485326 -0.22830562 -0.10787912 -0.08555308 -0.008881749 0.052667942 0.51666504 -0.09757084 -0.21628073 0.0059882305 0.114111096 0.004043117 -0.09996647 0.24325171 0.096141696 -0.0817715 0.0018422921 -0.077134795 -0.26041165 -0.26456055 -0.33550477 -0.046933766 -0.0402561 0.00818096 0.1347018 -0.07170632 0.28881758 0.05082891 0.2644564 -0.18920404 -0.3510664 -0.058282856 0.1584744 -0.15586579 -0.30932218 -0.20202109 0.030370304 -0.04745585 -0.040113732 0.04777619 -0.2534024 -0.016163787 0.25374568 -0.051223792 0.3319962 0.09656175 -0.0029200441
说 -0.35887256 0.10710682 0.21092325 0.30467802 -0.51642805 0.08293049 -0.062386964 0.0037619437 0.07957278 0.01423844 0.38503936 -0.1961532 0.23167539 -0.053279497 -0.101057924 -0.060569067 -0.10218636 0.013953452 0.07094352 -0.15902053 0.34674305 -0.16950347 -0.0131072365 0.30456585 0.12919073 -0.11028023 -0.015077219 0.265932 0.30061314 0.066531636 0.33215612 0.17539798 -0.037397824 0.33234644 -0.08342381 -0.32013264 -0.12225755 -0.15441911 -0.039804216 0.14050631 0.13611461 -0.061543223 0.050576273 0.2175995 -0.1720762 0.21158993 -0.107270256 -0.19193709 0.085839175 -0.08319098 -0.056796584 -0.25472546 -0.07170144 -0.09709463 0.046575192 -0.011185976 0.19272947 0.10002724 0.14153962 0.13536972 -0.21920577 0.17826508 0.023906257 -0.32121235
大 -0.07402458 -0.012418489 -0.037138492 0.14192085 -0.22780228 0.28248534 -0.17695197 -0.28797516 -0.15395908 -0.0620612 0.11853501 -0.27571803 0.25979313 -0.04880561 0.38989937 -0.12764075 -0.25113773 -0.1013264 -0.28988615 -0.4382857 0.040947076 -0.07240565 0.0058162524 0.16123605 -0.18447664 0.07952395 0.07754556 -0.05206815 0.17359807 -0.041235633 0.12625104 -0.056241713 0.02587561 -0.090020806 0.23405367 -0.2999682 -0.023155907 -0.47188717 -0.070670664 0.008424741 -0.08932498 0.048351407 -0.013595342 0.18482573 0.16599831 0.3550642 -0.110883616 -0.09066059 -0.08600887 0.15354636 -0.3801334 0.18038005 -0.2957153 -0.36587924 -0.34774876 -0.0047147498 -0.032433335 0.040564083 0.20643182 -0.2402153 -0.20940343 0.05180231 0.0961192 -0.09514038
比 -0.030793386 0.10563616 -0.018780688 -0.037975263 -0.28259185 0.111486234 -0.28252774 -0.3507095 -0.4332178 -0.043661144 0.20715196 -0.4120177 0.234521 -0.11619126 0.1331443 -0.20469397 -0.0063464046 -0.279147 -0.48978284 -0.5158614 0.024717325 0.07838116 0.20128587 0.34363982 -0.19963622 -0.2519738 0.07882358 -0.14331838 0.026187584 0.0030009788 0.33275163 -0.049169347 0.015756454 0.034966446 0.08827525 -0.07379942 0.35664654 -0.14506692 -0.15659046 -0.22748727 -0.043675624 0.18176654 0.0034369347 0.009717061 0.013151369 0.5396645 0.10288271 -0.09655592 -0.22269982 0.37984547 -0.17383616 -0.20224164 -0.32813117 -0.34060082 -0.036620505 0.09994042 0.0062110517 -0.10347784 -0.30699518 -0.108335495 -0.334704 -0.1629571 0.30480912 -0.09893375
换 -0.02359923 0.12092336 -0.033858385 0.11711857 -0.3893893 0.10867563 -0.020091444 0.07464236 0.011221485 0.2797472 0.0321456 -0.35750943 0.11618548 -0.13270749 -0.14708461 0.3363516 -0.2574114 0.18284774 -0.37122032 -0.40183595 -0.058908697 0.116560176 -0.27964514 0.18360384 0.39026293 -0.38826987 -0.38917047 0.22627427 -0.14511505 0.26733655 -0.38771442 0.006196679 0.19902319 0.03347416 0.23814654 0.010046226 -0.21525988 -0.68366444 0.28491986 -0.047272883 -0.33709162 -0.08423932 0.22706258 0.13930818 0.09298936 0.35701284 0.02825467 -0.17787015 0.003928241 -0.104333095 0.20091584 0.20498185 -0.3022565 0.30440545 0.16616443 -0.39315104 0.035922166 0.035844617 0.29617676 0.21104954 -0.15527946 0.29734164 0.11264168 -0.4274347
用 -0.19485144 0.11652416 0.06625614 0.19353466 -0.19733469 0.015608274 0.12343244 -0.022023533 -0.15346351 0.41577873 -0.030022603 -0.29851276 -0.10679961 -0.04692477 0.13444825 -0.03181988 0.08525254 -0.3551543 -0.24181734 -0.2858766 -0.08471544 0.085433245 -0.12811868 0.42613497 0.15958405 -0.25645965 -0.19157825 0.13830917 0.23435093 0.08737199 0.046638303 0.15102221 0.04707014 -0.010865162 0.26702464 -0.41571784 0.005605715 -0.39200783 -0.14289469 -0.13590775 -0.09249213 0.16556951 -0.1380536 0.089496225 -0.05961949 0.6806775 0.0813548 -0.12543069 -0.015118514 -0.14839968 0.2787234 0.14603251 -0.19336954 0.048132125 -0.0722418 -0.014129601 0.057801038 0.09894607 0.10915506 -0.036050916 -0.07851006 0.2444444 -0.008544459 -0.41583437
问题 -0.06731102 -0.0655131 -0.19311687 0.08676126 -0.27363008 0.09894071 0.13008359 0.08004941 -0.10355914 0.07057856 0.38918132 -0.21524529 0.071143925 0.042376388 -0.047163107 -0.20812596 -0.16730104 0.19853875 -0.18234365 -0.29123235 0.044104055 -0.27596924 -0.093176775 0.16086443 -0.10135381 0.0021774431 0.083269276 0.13581815 0.032703537 0.021376047 -0.078302704 0.39932856 0.1058939 0.21678424 0.21572612 -0.19536524 -0.010810839 -0.37148353 0.09383161 0.058790836 0.046977613 0.05470942 0.055856314 0.23211081 0.13869344 0.405277 -0.03287203 0.09588203 0.028002273 -0.047974333 0.10431549 0.024563959 -0.119800694 -0.2658641 -0.17468451 -0.031439517 0.2253896 0.4167596 0.16944909 -0.0550035 -0.025580306 0.1138289 0.12227849 -0.23043357
上 0.10239068 -0.08993557 0.21031679 -0.068651736 -0.24583535 0.16144918 -0.0919224 -0.28846624 -0.23924088 0.0034837318 -0.12405344 -0.12493748 0.18302855 0.02203044 -0.071727686 -0.40165257 -0.12855561 -0.009125955 -0.36161608 -0.21101765 0.16093917 -0.061815605 -0.026509238 0.09893271 0.16567597 -0.06543874 -0.04946057 0.0976063 -0.07311322 0.26667604 0.04688433 0.16375774 0.1795084 0.047087286 0.2574745 -0.3956627 -0.06531895 -0.21183258 -0.049024243 -0.0666837 0.06458035 0.14582624 0.10760812 0.18636596 0.27097395 0.23017517 0.15527718 -0.23929293 0.039766744 0.14608733 -0.18753226 -0.10513475 -0.05115151 -0.031834364 -0.046829566 0.16937628 -0.00981139 0.023023317 -0.17172514 0.24314858 -0.095547535 -0.01400352 0.14314139 -0.38361502
看 0.13794084 0.20430644 0.266913 0.14914186 -0.36339477 0.083383866 -0.06160617 0.055100027 -0.3353063 -0.124960065 -0.13853376 -0.11817841 0.31182975 -0.10963172 -0.11754362 -0.14173692 -0.0886499 0.047579434 -0.012136592 -0.31007272 0.046531282 -0.016789604 0.22642505 0.14625521 -0.087778546 -0.2392139 -0.026980607 -0.065542944 0.19529872 -0.0828318 0.30614373 0.22597462 -0.15696558 0.16705891 0.0010178111 -0.3540408 -0.0995575 -0.29289806 -0.13489258 -0.14395112 0.026072972 0.2164489 0.05395338 0.006110733 0.22390608 0.39131483 -0.11463356 -0.27505988 -0.029266225 0.11401436 -0.1640124 -0.40219754 -0.277937 0.011600233 -0.07017857 -0.0973714 0.16627394 0.047977526 0.037890874 -0.036567837 -0.35690054 0.08180151 0.08695452 -0.21393825
内饰 0.31719488 0.37570077 0.21635757 0.058503672 -0.2819959 -0.06405961 -0.06894424 -0.030199742 -0.8163365 0.19778046 -0.1311878 -0.19981809 0.32886058 0.072982475 0.18095638 0.18339378 0.0390015 -0.04196521 -0.5798549 -0.43387258 0.236134 -0.14609464 0.06750013 -0.051282894 -0.22174397 0.36574677 -0.21914406 0.042453486 0.27873442 0.13017164 0.5357184 0.1818487 -0.15142545 0.62712026 0.3565336 -0.38705507 -0.26657197 -0.30703473 -0.33185846 0.025027411 -0.061639052 -0.18560496 -0.32238904 0.2227271 0.015213438 -0.1569221 0.24135451 -0.5346686 -0.3545013 0.33602506 -0.4147778 0.003916582 -0.0431088 -0.16081268 -0.10313013 -0.01980651 0.20972863 -0.11660615 0.15651625 0.25408098 0.13563125 -0.12957406 -0.06126727 0.33580697
这 -0.0568356 0.11801806 -0.01125749 0.16091453 -0.2466986 -0.043034513 0.017110473 0.03177749 -0.20082025 0.014781956 0.040046882 -0.19378912 0.16692305 0.09264924 0.006858652 -0.14435522 -0.017235769 -0.026863463 -0.23943141 -0.2889214 0.13901524 -0.068817645 0.015580658 0.22326754 0.17500891 -0.22404674 0.08044683 0.15320778 0.10198356 0.12525256 0.4460968 0.14621781 -0.11800934 0.21505252 0.19109051 -0.29376826 -0.15962625 -0.1990708 -0.121296175 -0.16895661 -0.12405945 -0.10582968 0.30561963 0.14981036 0.29230037 0.27020958 -0.101606295 -0.25521684 -0.110356666 0.16067094 -0.18382853 -0.26812866 -0.09767129 -0.10815546 0.10248102 0.018190103 0.2349978 0.0625294 0.041062366 0.17083773 -0.02941848 0.09164127 -0.011078118 0.024904018
款 0.24840054 0.19500324 0.2334966 -0.35759768 -0.13207223 0.11427384 -0.10174682 0.10758873 -0.6515553 0.16517742 0.27028877 -0.05740544 0.12404737 0.010270206 0.05201843 0.5003815 -0.07777509 0.40761942 -0.2533143 -0.17663488 -0.036921963 -0.1811728 -0.36292356 0.19287813 0.033271845 0.038256105 0.15228347 -0.04835718 -0.12797889 -0.52246964 0.37031946 0.1772834 0.3714129 0.1985644 0.07755118 -0.1962192 -0.28221297 -0.50975364 -0.13613434 0.010839323 -0.0032207435 0.058232836 0.4662241 0.11386873 -0.19017953 0.4269261 -0.22244975 -0.12123635 -0.49600646 0.3035699 -0.117163666 -0.5677778 -0.06153348 -0.029835392 0.032611657 0.12821104 0.16934678 0.070368916 0.38620424 0.18729518 0.08835495 -0.008847843 -0.09173645 -0.26707143
感觉 -0.059813738 -0.11631381 0.5116503 -0.19715972 -0.398101 0.1096634 -0.48814586 0.22088705 -0.24497892 0.08712359 0.33412898 -0.13964528 0.26208672 -0.081642635 0.29287133 -0.023787318 -0.2300038 -0.25163049 -0.32105628 -0.5437482 -0.014817329 0.17140749 0.117766455 0.04983056 -0.07282268 0.012670277 0.06750357 0.074026525 0.29455915 -0.027536288 0.15661448 0.012782964 0.11333397 0.23143026 0.0870865 -0.15262769 -0.051414214 -0.34707123 0.071562946 -0.06099616 0.057059813 0.021858675 0.2174521 0.04358726 0.18553653 0.4394989 -0.03692486 -0.06515452 0.08279718 0.1193817 -0.048434462 0.054869812 -0.23442979 -0.28348672 -0.035493195 0.20614713 -0.2776288 0.041974172 0.21027033 -0.09939518 0.1406756 0.20466289 -0.11111176 -0.27125284
多 -0.050615918 -0.0583449 -0.06983594 0.1001147 -0.41998354 -0.04769103 -0.17639278 -0.075898066 -0.11680683 -0.0021325478 -0.14507435 -0.08740781 0.11286546 0.02731478 -0.0330422 0.090323165 0.06708515 -0.011454388 -0.27218142 0.012413719 0.17539282 -0.19746496 0.038980756 0.26783133 -0.017262025 -0.088205315 0.021781774 -0.10425695 0.06352059 -0.07204214 0.29944474 0.034214914 0.12784427 0.014785995 0.112326644 -0.48619097 -0.21797936 -0.2723681 -0.052493345 0.20420243 -0.052114215 0.15600452 0.2998842 0.18217266 0.03258986 0.4578605 0.038722035 0.046984896 0.008629694 -0.073036894 -0.22723825 -0.24867012 -0.44219264 -0.3886012 -0.13121992 -0.049680155 0.07718983 -0.05914093 0.17880489 0.044801585 -0.2085262 0.06795632 0.18741556 -0.022525398
开 -0.35745472 -0.2865736 0.09222266 0.06740273 -0.19248727 0.18287827 -0.12580891 -0.02425325 -0.3869733 0.3604791 0.1773381 -0.3581679 0.07622864 0.15502103 0.29772243 -0.121337764 -0.13104169 0.08034929 -0.33107138 -0.18703751 0.24663617 -0.15643705 0.0632535 -0.10640171 -0.11072433 0.06015912 0.110809214 0.022098498 -0.04550159 0.046288144 0.24506052 -0.060067195 0.06531556 -0.013920918 -0.0219307 -0.1323099 -0.13646199 -0.21693192 -0.19503346 -0.030956734 -0.02917522 0.32685515 0.3668842 0.42003632 0.26858014 0.53287154 0.011782261 0.048154414 0.2729623 0.135177 -0.08341041 0.053919103 0.18494602 -0.29411852 -0.06771711 -0.033454806 0.0025844218 -0.0140663 0.3689985 0.050682176 0.08673919 0.119162485 0.2920063 -0.021432102
会 0.08132567 -0.0911866 -0.07200955 0.054507535 -0.072224304 0.050635427 0.0837317 0.01891147 -0.18126489 0.18905422 -0.0111408485 -0.15734673 0.045591485 0.08556553 -0.10992451 -0.06646879 -0.09963794 0.13505149 -0.06783575 -0.4253799 0.14164191 -0.031554896 -0.179765 -0.06728133 -0.0031467632 0.13411956 0.03960326 0.10069139 0.25935975 0.33413628 -0.42608964 0.12947173 0.17480488 0.15957867 0.35327464 -0.2467902 0.2926599 -0.4945495 -0.08285396 0.1949178 -0.32888752 0.0852505 0.1703986 0.15840016 0.32399622 0.09844566 -0.06026802 -0.09472634 0.008353668 -0.108136445 -0.36916196 -0.403866 -0.026843542 -0.23210874 -0.15625542 -0.01798939 -0.10849838 0.30396545 -0.047346655 0.13919194 0.121927805 0.27457032 -0.08908557 -0.4037113
不是 -0.000654762 0.114060104 -0.029296929 0.13585182 -0.25236535 0.0254879 -0.03893781 -0.009229105 0.040529296 -0.012082294 0.046055328 -0.30968907 0.01830499 -0.11040945 0.06504338 -0.23584127 -0.118242435 -0.032233577 -0.0002733288 -0.08085769 0.05308389 -0.2278373 -0.09707537 -0.13394721 0.18137184 0.1647608 0.040631402 0.35353315 0.393994 0.11046029 0.32052514 0.24092986 -0.12629762 0.2937752 0.18661357 -0.3087152 -0.090291716 -0.46832138 -0.03350634 0.053767275 -0.123004384 0.049927335 -0.00708211 0.04085836 0.09250043 0.22326417 0.15989287 -0.16671371 -0.17067745 0.0027588895 -0.38485023 -0.29725814 0.14527175 -0.36370388 -0.2114669 0.09552342 0.24429345 0.028854193 0.15559731 0.04230172 -0.19847979 0.014517702 0.055501323 -0.18271805
空间 0.18088889 0.19601053 0.15466574 -0.11716759 -0.4138367 0.4423309 0.09233056 -0.06703223 -0.5358196 -0.057364725 0.20270787 -0.4805305 0.2161873 0.2797498 -0.096767 -0.5385894 0.018290937 -0.09998058 -0.48282993 -0.22226426 0.5195685 -0.20139906 0.46103838 0.12844251 -0.2998172 0.20920558 -0.16876309 0.29174027 -0.019150747 -0.034534324 0.16246493 0.26558506 -0.45346287 0.06317604 0.20999141 -0.30409542 0.087283716 -0.30565536 -0.09750239 0.3661404 0.1479814 0.07849418 -0.13008767 0.21054195 0.21489093 0.14383483 0.26221335 -0.36073536 -0.011124574 0.37066054 -0.6237757 0.052425243 -0.4085661 -0.65899575 -0.2637218 0.046044897 -0.07758625 -0.4364895 -0.24354328 -0.4368201 -0.24809685 -0.5536116 0.119019665 0.108822614
高 -0.09320227 -0.14762336 -0.26596728 -0.010118916 -0.17271416 -0.022132248 -0.077381104 0.079886466 -0.21774615 0.18988425 0.05242334 -0.33098778 -0.11507867 -0.26334232 0.017201755 0.15561743 0.071324766 0.1932755 -0.25116175 -0.2783065 0.18730602 -0.1294544 0.08290458 0.37540278 -0.118019804 0.012332692 0.10847589 -0.17603162 0.23592986 0.05067002 0.12991056 -0.011324383 0.2649908 0.18721856 0.16038954 -0.5915692 -0.101287074 -0.3166136 -0.014747283 0.1888382 -0.034379873 0.05519709 -0.100520596 -0.06913643 0.106819645 0.27315548 -0.14321387 -0.124446265 0.028541327 0.11417324 -0.42813322 -0.051328417 -0.26856402 -0.44080007 -0.13781525 0.24565788 -0.20214885 -0.07993428 -0.07525486 0.11644134 0.04854618 -0.1310282 0.07357811 -0.04172456
啊 0.064200096 0.22541386 -0.07115799 0.3230139 -0.29759353 0.18088202 -0.13641745 -0.128844 -0.3000284 0.27675855 0.07923072 -0.24441223 0.082315534 0.042795066 0.13226455 0.06459571 -0.032127805 -0.07982404 -0.020139173 -0.30868286 0.13781515 0.0756976 -0.06159268 0.1615238 -0.027202383 -0.23881556 0.14395404 0.13677363 0.03731217 0.25723815 0.33577245 0.16897602 -0.054181784 0.37642863 0.2669766 -0.2288047 0.01812676 -0.35928705 -0.02529627 0.02872364 -0.03143745 0.065536544 -0.023474926 0.34857872 0.047552157 0.08665624 0.056278076 -0.06140673 0.09614637 0.026852608 0.1947331 -0.42886564 -0.067863494 -0.12189484 0.09184726 -0.26478723 0.14562275 -0.20429765 -0.12235143 0.23144794 -0.056217235 0.11065251 -0.09315295 -0.060783453
配置 0.2649439 0.4301056 0.24470529 -0.10362321 -0.40776458 -0.30058414 -0.1322304 -0.35783243 -0.60488856 -0.2799127 -0.006616255 0.29279307 0.22966535 -0.07186342 0.03886186 -0.271155 -0.1538924 -0.15026069 -0.40479806 -0.08040562 0.031247534 -0.09186333 -0.10387864 0.3289616 -0.11301895 0.4757507 0.032282524 0.32186574 -0.07828434 0.08004057 0.19214034 0.24869893 -0.08538974 0.5471256 0.4150865 -0.65045637 -0.47217047 -0.42835975 -0.22245322 -0.05718539 -0.29352412 -0.14250986 -0.22099651 0.0496444 -0.16601035 0.09548815 -0.04631126 -0.17340547 -0.24228257 0.06292116 -0.4899802 -0.37118912 -0.4128463 -0.25831288 -0.32090846 0.17576891 0.20489652 -0.2830638 -0.45570916 0.02365197 -0.04158965 -0.14774854 0.07724701 0.15211485
烧 -0.30896974 0.0023230708 -0.052005537 0.18858758 -0.03827133 0.68081427 -0.09644828 0.054638807 -0.1185225 -0.17828129 0.21321261 -0.5409 -0.14553615 -0.008782106 0.08464529 0.04966303 -0.078044765 0.3313641 -0.08235669 -0.21170974 -0.026688324 -0.4414628 -0.6273987 0.30804834 0.13137601 0.19275045 0.11368972 0.026945824 0.03630445 -0.4981562 0.03182572 0.32730356 0.24864422 0.5893734 -0.19014426 -0.36982748 -0.21611045 -0.3783356 -0.020780426 0.045182243 0.16413696 -0.08355373 0.26526806 0.31033692 -0.29843438 0.64404744 -0.10189593 -0.5476907 -0.07176787 -0.28103957 0.21902141 0.059697613 -0.19413587 -0.13797599 0.11429677 0.12074317 0.07889406 -0.022378443 0.5953896 0.28781 0.34172913 0.053439736 -0.04695974 -0.3411568
斯巴鲁 -0.11381849 0.16028214 -0.21860324 0.1692591 -0.42770776 -0.031861003 0.065134265 -0.1989206 0.0054535144 0.10808424 0.012866615 -0.24261345 -0.001045802 -0.3055972 -0.020302879 0.028104264 -0.07122381 0.028414946 0.08768013 -0.23758906 0.036240995 -0.07743574 -0.3878791 0.23840582 0.0812617 -0.047230855 0.05047451 0.31651258 0.31465432 -0.0993018 0.34285507 0.35978976 0.09933088 0.25267178 0.273303 -0.3922404 0.15541673 -0.30741337 -0.043620426 -0.038503826 -0.16594402 0.1411783 0.22109085 0.13660148 -0.12288296 0.04583723 0.291019 -0.28759822 -0.17534012 0.017110584 -0.26114342 -0.2267033 -0.14844136 -0.49155357 0.6281301 0.12265253 0.076323025 0.24562109 -0.23920214 0.23309597 0.09978134 -0.059095893 0.16780299 0.07994294
现在 0.0036921848 0.16677958 0.08809877 -0.033079278 -0.5515914 0.20118687 -0.07527745 0.06326011 -0.16079533 0.3750642 0.07020773 -0.32917443 0.20936826 0.27372485 0.04336889 -0.18676932 -0.10484606 0.043850884 -0.012638312 -0.05296155 -0.03657232 -0.038957678 -0.32871178 0.09022575 -0.060552508 0.044381212 0.04689102 0.49075323 -0.12993424 -0.18105282 0.21948966 -0.016104398 0.08491317 0.20776118 0.08317427 -0.12900513 -0.0184678 -0.44679338 -0.12763019 0.011209381 -0.40454528 0.07791011 0.3090885 0.19531307 0.16303134 0.52592975 -0.14003499 0.10414305 -0.08728741 0.22467536 -0.028490575 -0.10185618 -0.08472132 0.19076702 -0.029046323 -0.15535755 -0.1408014 -0.14321229 0.08502477 0.17785648 0.0026938578 0.01643911 -0.03785954 -0.15644854
刹车 -0.031586144 0.0006662976 0.105797395 -0.17126985 -0.054302294 0.039872307 -0.33291057 0.19384167 -0.23837101 0.21367525 0.09512982 -0.17108987 0.38903135 0.09522064 0.31120333 0.1525723 -0.10237565 0.13461098 -0.2941272 -0.514302 0.22863679 0.229067 -0.16031663 -0.13233894 0.21875156 -0.008318276 0.017376415 0.17252783 0.33286145 0.74910283 -0.58270293 0.029989054 -0.22662605 0.30356482 -0.021183273 0.25216654 0.11830889 -0.4153877 -0.06843795 0.24429078 0.036105435 -0.019314393 0.3367217 0.21966013 0.49472728 0.41380778 -0.4148267 0.18694322 0.42161068 -0.5266323 0.08863523 -0.3280733 0.0037362603 -0.2636371 -0.27137944 -0.2814583 -0.16198283 0.11585788 -0.22164176 0.103642635 0.10007171 0.1941709 0.17670378 -0.5776417
过 -0.31424725 -0.2015821 0.14709401 -0.08424876 -0.054943375 0.13776408 -0.18217963 0.020132996 -0.2311395 0.3066819 0.10045692 -0.45085123 0.18302107 0.1222479 0.027272858 0.074136056 -0.47094828 0.24913004 -0.42347938 -0.36668497 0.04573962 -0.13362196 0.040398426 0.10839049 0.167353 -0.25997612 0.20750505 0.14738674 0.16303489 0.20683628 0.10447091 0.12936354 0.094673134 0.29053062 0.13254765 0.13011163 0.17786239 -0.45051262 -0.068982355 -0.26837498 -0.022728661 -0.020336168 0.0757647 0.12249469 0.23832127 0.40399632 -0.25709566 -0.16428223 0.12445472 0.23813657 -0.070665404 -0.09028879 -0.03876805 0.0057445606 -0.2354193 0.090493046 0.17569713 -0.11262911 0.21446896 -0.104863375 -0.23339279 0.03167571 0.0041503436 -0.022337582
到 -0.049309775 -0.20865636 -0.15936731 0.007085539 -0.21502124 -0.03195904 -0.01792047 -0.23437046 -0.12080553 0.19621125 -0.3124783 -0.2702386 0.1219484 -0.16222826 -0.08514965 -0.087421596 -0.06003356 0.066980764 -0.10489056 -0.062443957 0.014087645 0.011946068 -0.2953934 0.14042966 0.003796241 0.08253304 -0.041043345 0.17310497 0.033215314 0.013585389 0.24094228 0.001100475 0.25177297 0.10467168 0.09932283 -0.5057611 0.10701009 -0.34418985 0.20583658 0.023482276 0.0010769276 -0.0016574977 0.17863892 0.27729154 0.04518461 0.55505204 -0.16833633 0.08613732 0.29440108 0.23205999 0.06068443 -0.17313471 0.05725153 -0.045617238 0.0023645142 -0.25624105 0.17236724 0.154773 0.18972364 0.21285474 -0.018640721 0.07315692 0.24324575 -0.28209454
去 0.07888965 0.18719399 0.21336098 0.06187891 -0.47314876 0.15333374 -0.06868627 -0.010624394 0.01595038 0.10595731 0.10714063 -0.30971843 0.11011943 0.011516793 -0.084827766 -0.022551976 0.028376205 0.17098007 -0.066129826 -0.10330898 0.11332024 -0.06499203 0.07968399 0.3518791 0.28317568 -0.16257411 0.18576543 0.0046515404 0.37314546 0.034979586 0.15107223 0.28832838 -0.16111144 0.2748218 -0.1262364 -0.20210224 0.33851746 -0.39079827 0.06315614 -0.03585283 0.12166196 -0.0043485174 -0.036993172 0.31083006 0.27965936 0.20073062 -0.18191263 -0.07037352 0.25751266 0.3615466 0.32974443 -0.2942775 -0.2194324 0.14378434 -0.19264431 -0.044519305 0.14854522 0.034501404 0.2720072 0.19786455 -0.08997848 0.31273943 0.27761403 -0.08168447
一个 0.03692043 0.1732463 0.13676976 0.29819345 -0.19934309 -0.23026766 -0.23804507 0.21661198 -0.32217723 0.059354648 -0.08497147 -0.14791211 -0.023607511 0.15948874 -0.34429216 -0.05523025 -0.12328658 -0.09548958 -0.11620576 -0.23868494 0.25805637 -0.15928522 0.08772857 -0.16901568 0.090531014 -0.40556237 0.03954571 0.6401975 0.18972604 0.046875846 0.19877648 0.2676586 -0.081654176 0.04769746 0.1518092 -0.38178048 -0.004453989 -0.35744837 0.08981054 -0.30181667 -0.024983076 0.41159865 0.22168115 0.24050507 0.33593813 -0.049918294 0.13410667 -0.06261813 -0.19473471 -0.17689931 -0.075015716 -0.29021302 -0.45307544 -0.04931324 0.08210164 -0.0445522 0.075909175 -0.078181684 -0.123861715 -0.002296539 -0.23240618 0.37086898 0.09086537 -0.1912513
什么 0.009869004 0.21733825 0.038065 0.35087803 -0.19565934 0.2809872 0.10913659 0.029753655 0.085445434 -0.026107136 0.05292868 -0.07744408 0.040972684 0.019603124 0.08379255 -0.22951883 -0.23840077 0.17631999 -0.13775875 -0.108320065 -0.01952146 0.031239847 0.0804271 0.26138178 0.17224424 -0.028656645 -0.14512567 0.16084161 0.19254142 0.27822086 0.1526604 0.29655546 -0.1492124 0.48564497 0.16301079 -0.29621953 -0.06295004 -0.2567357 -0.2806593 -0.14062503 -0.21347477 0.14704008 0.028431533 0.17112136 -0.034517184 0.124334045 -0.102746524 -0.16017728 -0.25832185 0.23707202 -0.081085026 -0.36878905 -0.091803655 -0.31335148 0.004126894 -0.15768863 0.05982644 0.10358254 0.0626065 0.23810813 -0.03745948 0.20546965 0.25732237 -0.2309857
四驱 -0.16006368 0.27691025 0.088158734 0.5731331 0.010623712 0.17447971 -0.051936675 0.09553746 -0.36640364 0.6796437 0.29083142 -0.2750565 0.33724308 0.036288455 -0.12548046 -0.13058244 -0.08739077 0.15709224 -0.5693787 -0.3359838 0.11665153 -0.15958336 0.07892267 -0.042985924 -0.28732333 -0.066510916 0.5745417 0.12061808 0.3045727 0.20399183 0.6443678 -0.2541611 0.03624204 0.4505907 -0.04746184 -0.3021908 0.20513722 -0.12049736 -0.017394789 -0.045536086 0.32156795 0.36390126 -0.66216725 0.29212895 0.15052207 0.12463759 0.2775234 -0.017048027 -0.04359327 0.536569 -0.26239967 -0.18595235 -0.3426673 -0.67153835 0.03698959 0.14562865 0.331499 0.029254463 -0.13775675 -0.24260615 -0.22792388 -0.28376204 0.40050063 0.1756622
如果 -0.07520965 0.038054533 0.28670746 -0.1919 -0.32697895 0.030794036 -0.025910866 -0.028804008 -0.2522761 -0.2624042 0.10565694 -0.41617158 0.29871377 -0.15865885 -0.0761885 -0.057062794 0.2027464 0.015937893 -0.15960887 -0.026276369 0.09420198 -0.09784927 -0.17941074 0.22992021 -0.1705583 0.10691869 -0.09512904 0.012438339 0.056788318 0.036964074 -0.11713846 0.22324213 0.11433137 -0.014358456 0.06361207 -0.2623519 0.093377516 -0.67077845 -0.118327245 -0.17913635 -0.32902345 0.0063855024 -0.12508792 0.15112512 0.39338812 0.36761805 0.16231357 -0.05194392 0.03277161 -0.2125682 -0.20341454 -0.0008312719 -0.13199097 0.019153276 0.17391568 -0.114605024 -0.0043900106 0.14337441 0.07682809 0.10857139 -0.21493417 0.122782975 0.12394 -0.11567052
跑 -0.13277654 -0.48476014 -0.34091118 -0.25189865 -0.06295285 -0.007905328 -0.06537685 0.06401963 -0.061638057 0.20605358 0.12550451 -0.84899 0.019030377 -0.094512336 0.12635952 0.036903486 -0.15307829 0.11200321 -0.3549343 0.13785298 0.07185666 -0.021853855 -0.09305587 0.11994851 0.026612971 -0.16624983 -0.17584652 -0.10671146 -0.012050809 -0.018282318 0.20001572 -0.34720355 0.050234728 0.04310457 0.08089515 -0.76597613 0.09029881 -0.3024628 -0.058690567 -0.20150208 0.12365771 -0.034695312 0.3629379 0.13242504 0.24258 0.36813745 0.24788989 0.03735017 0.2925158 0.19610435 0.16466348 -0.016114226 -0.20881158 0.11983711 -0.11860237 -0.1686312 -0.20531707 0.015841277 0.3590323 0.15330821 -0.19489084 0.14350218 0.25589457 -0.56292665
高速 -0.2925566 -0.33070958 0.14051473 -0.49556473 -0.06261365 -0.07043008 0.012939388 -0.3547546 -0.20731732 0.20876966 -0.16640691 -0.45670697 -0.052234318 0.007164866 0.3858314 0.02150533 -0.2746876 0.38521543 -0.28913388 -0.1520839 -0.15440524 -0.1822636 0.047459543 0.16577972 -0.05313864 -0.03072669 0.14144057 -0.18889812 -0.1623055 0.049713958 0.2118354 -0.37037176 0.46642533 0.29458413 0.07646294 -0.3147587 0.16823766 -0.35184026 -0.16526987 -0.12376792 0.23188663 -0.06339344 0.17393762 0.48130783 0.3218305 0.43975106 0.040190354 0.098974615 0.20278177 0.39070874 -0.022032863 -0.008305368 -0.44569895 -0.27246845 -0.407724 0.09875375 0.016764937 -0.14825371 0.5934192 0.065503284 -0.08492693 -0.07113177 0.18633613 -0.4050041
但是 0.036788307 0.09005956 -0.014502749 -0.14019361 -0.40357864 0.14532004 -0.07432346 -0.048715893 0.043101285 0.36922097 0.2863725 -0.16416095 0.14516959 -0.038120184 0.2703704 -0.036892906 0.06000993 -0.13929813 -0.30443192 -0.25239882 -0.021108601 -0.14023483 0.119275376 0.18852134 -0.01282997 0.0011814655 -0.0139292525 0.089865 0.13232781 0.011333583 0.14334819 0.016891008 -0.11378098 0.201665 0.2619995 -0.17506732 -0.021186018 -0.146882 0.04066357 -0.073997766 -0.0120870005 0.13908492 -0.10608648 0.12181039 -0.050353527 0.33342272 0.088037126 -0.3207434 -0.093986325 0.22082873 -0.35350743 -0.47477695 -0.19181415 -0.5006455 -0.070001386 0.3788034 -0.017270897 -0.04913976 0.074674174 0.14364031 -0.1335895 0.027771793 0.115293056 -0.3741052
操控 -0.39519718 0.25830543 0.27629873 0.08594391 -0.18340518 0.016643008 -0.05579269 0.13519144 -0.7441261 0.19757211 0.50493425 -0.29790065 0.1261772 0.050740276 -0.011549514 0.10311094 -0.17697386 0.038468204 -0.68882513 -0.3263818 0.27009884 -0.41266406 0.38052633 0.104438916 0.0037372657 -0.039496705 -0.27125147 0.34787557 -0.057125963 0.24243042 0.31095415 -0.011014008 -0.3156911 0.3314528 0.25017312 -0.084633365 0.23618388 -0.31014287 -0.09425323 -0.16670881 0.044336 0.08119843 -0.19611956 -0.19927962 0.13291512 0.2107712 0.23485693 -0.24656886 0.0028536755 0.26951528 -0.6130413 -0.08089149 -0.29446313 -0.47478008 0.09077422 0.22997937 -0.26279554 -0.23391888 -0.0035763965 -0.13925613 0.0704588 -0.13599554 0.2062802 0.12071524
一样 0.0018639575 0.0031319624 0.21643016 0.06895033 -0.131715 -0.12893394 -0.416935 -0.20852078 -0.28487676 0.1827333 0.34801212 -0.012073819 0.22711453 -0.14651823 0.22582047 -0.064396724 -0.22852783 0.059914462 -0.025377057 -0.3095549 0.09214215 0.07796227 -0.117019534 0.16197447 0.011423394 -0.19130594 -0.053936556 0.15449782 -0.0021068403 0.06284822 0.19025314 0.016319387 -0.25480834 0.3059851 0.29783884 -0.16384378 -0.24201337 -0.52417225 0.3518119 0.10543644 -0.09486423 0.31616324 0.038013 0.09252055 -0.037253957 0.30828434 0.10379229 0.07413796 -0.34833407 -0.08230797 -0.2745543 -0.32075715 -0.2290808 -0.07501652 -0.10550292 0.045144368 -0.099511735 0.088231936 0.02908148 -0.061462283 -0.12428209 0.10138218 0.32644767 -0.3193938
吗 0.12557657 0.14062594 0.1965592 0.28125697 -0.20240055 0.16059095 0.053052474 -0.04569641 -0.13902985 0.20987704 0.06137085 -0.13308308 0.14048095 0.056395788 0.3693781 -0.0043843566 -0.19358349 0.24851312 0.16707073 -0.078417264 0.02380511 -0.124823704 -0.051677983 0.15136887 0.2341518 -0.3444956 0.1884462 0.1749049 0.22703601 0.1537733 0.111513875 0.44687173 0.1161236 -0.00825656 0.13740511 -0.29633242 0.1645758 -0.4783157 -0.1961794 0.12359644 -0.17463785 -0.011021399 0.2944922 0.431438 -0.2589707 0.19944091 -0.18080309 0.049028877 -0.059823822 0.065249175 0.042277154 -0.25494152 -0.04599731 0.058556285 -0.31265324 -0.13035744 0.12836131 0.30039042 -0.1466032 0.21902846 0.07001813 0.19471861 0.19604072 -0.34839803
导航 0.22997735 0.18805191 0.43615043 0.13041429 -0.14008667 -0.6841971 0.19556826 -0.02097008 -0.6287624 0.42197025 -0.11018164 -0.17103076 -0.06394957 -0.0776428 0.33004233 0.19382949 0.15525801 -0.15674661 0.21041253 -0.21376471 -0.60799986 0.17371917 -0.0027578843 0.30499393 0.3480773 -0.3585547 -0.0781108 0.6224246 0.061311383 0.05096793 0.11146497 0.7130139 0.19082825 0.19931254 0.12296813 -0.36635658 0.03066093 0.06496637 0.16350724 0.4318648 -0.3281338 -0.19127211 0.2899796 0.47881246 -0.41990194 0.48255315 -0.37271884 -0.30347225 -0.3832228 -0.0077980906 0.31396097 -0.40694532 -0.26848277 0.1223869 0.07092898 -0.43598282 0.32901597 -0.035512198 -0.14375737 0.41707188 -0.030181844 -0.37140366 0.6133443 -0.38272318
觉得 -0.27620655 -0.13362896 0.24688639 -0.1384248 -0.4288312 0.0009784997 -0.014832312 -0.38144735 -0.18287309 0.30875474 0.13906628 -0.24740258 0.18417932 -0.14962327 0.26285106 0.032876514 0.029000316 -0.2967669 -0.23954289 -0.2814503 0.069220014 0.0520554 -0.08041541 0.21863835 0.0063655158 0.26652884 0.0066777365 0.029575111 0.21302758 0.065654956 0.18846771 0.08260055 -0.15987572 0.37557477 0.21652111 -0.186153 -0.23263162 -0.18493345 -0.08712458 0.08441624 -0.11149046 0.15368529 0.38416228 0.16370524 0.07704905 0.21778893 -0.007830417 -0.419106 0.04898617 0.07874626 -0.16480254 -0.09682589 0.042706687 -0.17284408 -0.23570207 0.15454851 -0.32435557 -0.018041654 -0.006817501 0.09556051 0.077786066 0.15825005 -0.04177727 -0.051477537
公里 -0.14065763 -0.50871366 0.1934429 -0.29449484 -0.24557309 0.26996934 -0.14070815 0.2458441 0.016586868 -0.07710863 -0.33936518 -0.40209338 -0.26372164 -0.18784384 -0.065135054 0.18706706 -0.014979519 0.5034319 -0.34231308 -0.026100403 -0.11123817 0.086557016 -0.36391097 0.06589074 0.013124452 -0.070954844 -0.07201874 -0.09247162 -0.48921034 -0.24994984 0.13872999 -0.08762493 0.2366201 0.3065849 -0.37112293 -0.6674423 -0.30498046 -0.40858772 -0.17958036 -0.35375813 -0.099545844 0.012845176 0.3132742 0.33683106 -0.12899904 0.6755136 -0.1080063 -0.23311888 0.35014853 0.29357013 0.13535595 -0.21772715 -0.3470129 0.14690465 0.07153535 -0.1715255 -0.05217198 -0.22390428 0.55653745 0.3259018 -0.4344623 -0.217715 0.16767132 -0.47750524
但 -0.027769823 -0.018259898 0.014915897 -0.11131604 -0.33711818 0.13829781 -0.10494261 -0.016480839 -0.17213567 0.09109514 0.22992326 -0.31486294 0.38505754 0.094919175 0.02533536 -0.35390854 -0.0721647 -0.05067676 -0.25645873 -0.2689685 0.22776672 0.015578041 -0.2278266 0.0776244 -0.19024451 -0.08828545 0.18116525 -0.11679733 0.091274776 0.118389696 0.050355293 0.090526566 0.07292126 0.08808585 -0.015721267 -0.44060704 0.035172146 -0.3762905 -0.1473699 0.011608563 -0.14059557 0.18592702 -0.15706559 0.026636284 0.20897807 0.13769905 0.025353761 -0.3447989 -0.1922446 0.010434002 -0.18940692 -0.03702105 0.086440645 -0.4835422 0.106534325 0.14664948 -0.11403733 -0.22430025 0.21181847 0.012284479 -0.33988473 0.12412104 0.1662773 -0.05007321
空调 -0.2901255 -0.11222749 0.2554752 0.50255936 0.060307994 0.06254068 0.19845231 0.093026415 -0.40543282 -0.018089674 -0.2798243 -0.2861012 0.17248982 0.071135186 -0.048924614 -0.22117403 0.022956492 -0.060576074 0.00047505932 -0.49855363 0.60504514 0.12044059 0.15636383 0.119297035 -0.04795898 0.014254733 0.39907995 -0.07721179 -0.045850217 -0.012227694 -0.15410812 -0.035947785 0.027149737 -0.20202193 -0.011314894 -0.5691371 -0.36726424 -0.4449236 0.12807743 0.12762196 -0.004477658 -0.08087787 0.41485253 0.34116068 0.09377925 0.5668796 -0.15583606 0.48222867 0.062379666 -0.214919 -0.1000446 0.011785911 0.31160155 0.082914606 -0.29059198 -0.39871445 0.6255381 0.40438265 0.5762083 0.23892651 -0.08873959 0.33124846 0.6981222 -0.13058901
应该 -0.101826124 -0.06627939 0.067495055 0.09261554 -0.2583673 -0.04695108 0.011894965 0.06767852 -0.19885881 0.16012545 0.10541633 -0.24169695 0.19128218 0.11653201 -0.23474607 -0.15298826 -0.25193742 0.089817345 -0.018865928 -0.1497596 0.18273021 0.029242683 -0.14313132 0.14449657 0.22194347 -0.044071242 0.09535332 0.31480032 -0.019105054 0.0821371 -0.17948633 0.30787024 -0.0778328 0.15121381 0.26098663 -0.19170365 0.15517016 -0.45014504 -0.045225464 -0.050927956 0.024744974 -0.0064112544 -0.029137045 0.08743363 0.10365337 0.40546936 0.14790468 0.011879504 -0.25211957 0.07426027 -0.41393343 -0.038557533 -0.18846543 -0.12216429 0.28598765 -0.019482575 -0.0120530855 -0.027951753 0.20231822 -0.009832937 -0.0533344 0.16551764 -0.03403562 -0.34214777
能 -0.18643326 0.11092967 0.35787183 0.281608 -0.366645 0.008433527 -0.07354165 -0.12867853 0.007837714 0.11037447 -0.104129694 0.008958011 0.16213708 0.0900153 0.052857354 -0.15115379 -0.1366313 -0.06384108 -0.107830025 -0.053541083 -0.0846253 -0.09328489 0.17663002 0.10406148 0.26694742 0.055974606 0.059215497 0.17415933 0.32369465 0.2431635 0.32219294 -3.854625e-05 0.010896157 -0.05931826 -0.04249739 -0.44066256 0.16348521 -0.42319402 -0.16979352 -0.03821012 -0.100967064 -0.017573187 0.06118554 0.20531406 -0.017664103 0.1495823 -0.019648997 0.0019224964 -0.054957967 -0.03932384 -0.16962223 -0.17538634 -0.11793933 -0.420792 -0.11278991 -0.09869856 0.150167 -0.057951927 0.102425866 0.48278064 -0.19740468 0.24844646 0.25745672 -0.32178476
比较 0.061712332 0.120317265 0.103370205 -0.09081953 -0.49427262 0.0077819563 -0.14417504 0.10448892 -0.07764103 -0.14836016 0.014412939 -0.12043573 0.3448421 0.01361299 0.12027355 -0.23982535 -0.0008695297 0.018398814 -0.1176286 -0.6130507 0.3259126 -0.078063264 0.3119195 9.082611e-05 0.066329665 0.17432922 -0.17627785 0.05074451 -0.1812217 -0.02642667 0.2045956 0.16201985 0.2512569 0.45041066 0.13658047 -0.34493566 -0.009162891 -0.41377234 -0.14096008 -0.27051753 -0.083684325 0.15963638 0.053658616 -0.17171185 0.14909253 0.21975754 -0.06371816 -0.2847932 0.21643916 0.20781168 -0.17116767 -0.03828234 -0.3709235 -0.14536312 -0.18376651 0.23954575 -0.18158112 -0.14728276 -0.06806454 -0.331129 -0.12267412 -0.16092837 0.22012922 -0.2866428
自己 -0.045610823 0.26515976 0.1112391 -0.016189681 -0.4454994 0.20431103 0.025813384 0.08918557 0.0062743477 -0.19030078 -0.21699592 -0.17863101 0.47798222 -0.2025914 0.0015939511 -0.043287702 0.05392545 -0.047381096 -0.1849513 -0.17728995 0.33118856 0.015123575 -0.21834038 0.15993482 0.20778662 -0.064075455 -0.10530023 0.2034745 0.17555183 0.2477571 0.21925485 0.15203881 -0.22975811 0.3604125 -0.09974022 -0.043534417 -0.2012662 -0.4534814 -0.21006277 -0.18522985 -0.026774019 0.44206446 -0.16605218 0.29488146 0.19025922 0.4894353 -0.03836141 -0.102403045 0.14067045 0.30772668 0.10870632 -0.10154557 -0.35814542 -0.03529766 0.1826953 -0.04962246 0.17490686 0.12237222 0.09177965 -0.19094086 0.08296219 0.3474067 0.12564993 0.050323706
外观 0.24638315 0.41284767 0.11702885 0.010013353 -0.08243682 -0.10357616 0.021638192 0.05590719 -0.45097867 -0.23022087 0.48733124 -0.025165567 0.4091125 0.123362005 0.3010959 0.017560758 -0.00059026043 -0.18969871 -0.49032962 -0.36281958 -0.040871114 -0.37697297 -0.14562611 0.09924348 -0.15026966 0.5771972 0.23587702 0.09685954 0.42069617 -0.23378606 0.5297952 0.40508565 -0.40416795 0.28269178 0.22532423 -0.61163986 -0.25847945 -0.76590025 -0.04236664 0.31524497 -0.022071602 -0.2535059 0.020067768 0.078390114 -0.05975939 -0.010833916 0.23137936 -0.14985245 -0.5435687 0.67190087 -0.44738564 -0.34190068 -0.26970896 -0.072442845 0.08240196 0.16138715 0.0759402 -0.10519554 -0.47893524 -0.05391111 -0.29753175 0.10592869 -0.2046457 0.44090718
底盘 0.36879197 0.090002716 0.55891114 0.1424389 -0.37483522 0.1469555 -0.2601824 0.119558096 -0.29342532 -0.09506917 -0.20305201 -1.0105618 0.1440369 0.46945402 -0.16321081 -0.053698845 -0.14604615 -0.34532595 -0.46845144 -0.050133783 0.02235839 -0.14288081 -0.1389015 0.09311708 0.28564698 -0.030027188 0.118434586 -0.062772095 0.67254364 0.09264073 -0.21066174 -0.111399055 0.07742495 0.15057394 0.22808535 -0.12494511 0.03630183 -0.11226544 -0.07433543 -0.1315878 -0.17242831 0.11894098 0.11419582 -0.18173236 0.08881172 -0.3080641 0.008043581 -0.5348097 0.14839219 0.5082989 -0.45031857 -0.3575242 0.22802648 -0.7303598 -0.08612227 -0.25899088 -0.04093528 0.09214662 0.053308513 -0.18560202 -0.52342296 -0.039900556 0.25861374 -0.19297066
不错 0.18730748 0.068950094 0.18090545 -0.16357176 -0.43705577 -0.045670882 0.086599305 0.38743344 -0.3735607 0.55097705 0.40736875 -0.3461771 0.3926948 0.042758685 0.3657858 -0.18995015 -0.11860107 -0.26459888 -0.4354786 -0.49839726 -0.039872985 0.115531124 0.2739247 0.34284046 -0.21488683 -0.2283315 0.12406982 0.04785705 -0.1562842 0.17059469 0.2659178 0.1911294 -0.021527601 0.10849921 0.24929416 -0.39054856 0.2339341 -0.35984752 0.013858396 -0.1391161 -0.21818955 0.018904539 0.18179221 -0.14144921 0.18636589 0.14448832 0.011206329 -0.1481642 -0.09048234 -0.024571238 -0.12331759 0.030592684 -0.075381175 0.14765851 -0.20187834 0.45453992 0.053781293 -0.28429192 0.31503388 -0.36713892 -0.122332454 -0.078476936 0.054322712 -0.20506184
变速箱 0.1437046 -0.047561776 -0.13343742 0.26601052 0.13808264 0.23010972 0.14984845 0.20669538 -0.038418394 -0.010784606 -0.1623174 0.120902665 -0.060880058 -0.096742794 -0.15099198 0.27771258 -0.21699753 -0.34143454 -0.47825268 -0.20432258 0.09227416 -0.25104967 -0.45276055 0.11471701 -0.021130206 -0.54955864 0.022726212 0.023823835 0.10998141 0.25280914 0.027580308 0.023131527 0.22551553 0.51806307 0.33789805 0.18354882 0.053027786 -0.7809376 -0.1034514 0.037820764 -0.18764941 0.02460828 0.23944767 0.364885 0.13729979 0.53199375 0.3969771 -0.0031081124 0.12795341 0.07450779 -0.32750496 -0.17442887 0.029032763 0.034318306 0.2656866 0.38937083 0.27441758 0.45067415 0.2880534 0.2120035 -0.26604164 0.25520125 0.37923765 -0.39509585
个 -0.05972552 -0.17304815 0.18881454 0.0003521905 -0.17329012 -0.18909639 0.011165425 -0.024558999 -0.23435505 0.3524253 0.23349828 -0.21758023 0.016831208 0.13584958 0.11955398 -0.21784493 0.028931929 0.24843267 -0.19414799 0.108833835 -0.037833173 0.25453928 -0.37357813 0.16598071 0.0155416 -0.25550008 0.20106378 0.1322467 -0.057042133 -0.12993354 0.5337632 0.03278742 0.2411288 -0.049895607 0.065547295 -0.12980793 -0.019157244 -0.35397062 -0.14928298 -0.15924075 -0.08921473 0.016471285 0.34957337 0.35442644 0.21885835 0.44035208 0.24954881 0.0031650802 0.05390081 0.22547074 0.042059783 -0.036449987 -0.38155636 -0.14343613 -0.17951852 -0.19165291 0.039482523 -0.002267738 -0.016908364 0.20254509 -0.15487741 0.02615513 0.2751364 -0.294385
优惠 0.19025917 0.15620221 0.2739422 -0.023230549 -0.98396206 0.2812583 0.11634299 -0.21435453 -0.048931062 0.23596364 0.21128088 0.125645 0.32588318 0.07668535 -0.61231637 0.17011711 -0.3361148 -0.09503768 0.30425602 0.32541955 0.02450498 0.07121077 -0.21909398 0.59442747 0.27486938 -0.093168125 -0.07999589 0.19424774 -0.0046349834 -0.063542105 0.15686056 0.23652826 0.25401905 0.36803034 -0.81212515 -0.54567915 0.1130904 -0.7722613 0.07258426 0.11992114 -0.005779007 -0.06511375 0.27954856 0.32586992 0.35371146 -0.2397897 -0.5412346 -0.21835488 -0.3417338 0.59019476 0.19569704 -0.624437 -0.23330475 -0.006103838 -0.5715707 -0.32879934 -0.43839768 0.3965848 -0.25315055 0.47775403 -0.45686394 -0.24210265 0.20107189 0.23061986
后 0.41221198 -0.1738579 0.17831005 -0.124485336 0.06290468 -0.12103986 -0.3213284 0.008734938 -0.17810293 0.19498448 -0.17722934 -0.09035691 -0.111855686 0.31185928 -0.13545898 -0.023478255 -0.035965275 0.14344339 -0.48030755 -0.36305398 0.30118063 0.06390349 -0.2761882 -0.07114356 -0.025855701 -0.14493221 -0.09511268 0.30875805 0.36362398 0.20689878 -0.04783229 0.37731346 0.2627221 -0.048589364 -0.07392721 -0.2904286 0.07604953 -0.38944155 0.26244366 0.009868394 0.054512214 -0.03029429 0.43850785 0.13852367 0.09870428 0.4363402 -0.16517626 -0.26282585 0.04101608 0.18552041 -0.17759115 -0.0010969187 0.20213345 -0.14508079 -0.07515117 -0.08570597 0.12286005 0.4274076 0.07802119 -0.010126009 -0.10880384 -0.12988302 0.16974844 -0.43875572
的话 -0.006366025 -0.23318109 0.12583655 -0.007292493 -0.43799213 0.043377437 -0.11894573 -0.19912541 -0.25142893 -0.09172288 0.06314815 -0.29623997 0.23948011 -0.016502384 0.032497406 -0.2661528 -0.041656572 0.044519883 -0.34361634 -0.09434579 0.15659739 0.03810747 0.10283557 0.16915156 -0.03902422 -0.32959226 -0.30661398 0.17009026 -0.2610982 0.15970202 0.15195714 0.114230685 0.041257687 0.086421534 0.21063471 -0.2438465 0.124951564 -0.36582416 -0.033678446 -0.03868734 -0.23212458 0.00061068457 -0.027076866 0.25250828 0.3222183 0.18135585 0.039046723 0.1173094 0.20440383 0.14380674 -0.27181825 -0.10481371 -0.3096446 0.010652483 -0.034273222 -0.08514486 0.22408424 0.17470098 0.10769091 -0.17524047 -0.45854437 0.20092148 0.24650764 -0.11383823
保养 -0.029956177 0.6247623 0.006406709 0.4865161 -0.38199127 0.4312574 0.20971392 0.36179823 -0.12669884 0.12994418 0.15607613 -0.2614031 0.0071527157 -0.3099484 -0.29097506 -0.32221305 -0.05582189 0.17476472 -0.29647583 -0.10686645 0.112405255 -0.044391435 -0.031663623 0.03672478 -0.3406002 -0.33954498 -0.20987467 -0.116978385 -0.055251885 -0.2665089 0.07002626 0.1267303 0.127406 -0.017324878 -0.23579137 -0.23090324 -0.29514542 -0.827818 -0.02203948 -0.2740438 -0.116808504 0.10782039 -0.027019966 0.4524822 -0.099135116 0.1602001 -0.11298002 -0.52537704 0.25730243 -0.10909483 0.63181376 -0.13363229 -0.38374275 -0.11976814 0.35279042 -0.03274139 -0.18675588 0.26840502 0.7376056 0.23219657 -0.19507256 0.04850281 0.4046101 -0.3496949
那 -0.14137965 0.099886045 0.024573514 0.22912669 -0.3050171 0.08569411 -0.23911707 -0.2628617 0.06789625 0.0116821565 0.11122427 -0.18533406 0.29628417 0.00869675 0.0032906989 0.2080694 -0.16882421 -0.040777598 -0.06934463 0.24812907 0.088575184 -0.19702105 0.22367808 0.47016868 0.17595087 -0.2978917 -0.015313213 0.27824703 0.3113525 0.28591502 0.13142833 0.26056117 -0.12735964 0.33467513 -0.114193335 -0.40029323 -0.296433 -0.42321363 0.19743524 -0.037492033 -0.1451958 0.085973926 0.053545237 0.56023973 0.14229542 0.19310635 -0.13458465 -0.18251443 0.034791265 -0.09605057 0.024628997 -0.2701797 -0.22152615 0.0100558335 0.089354865 -0.026930634 -0.02037088 0.011170578 0.003979901 0.43567076 -0.07663883 0.22971213 0.04867959 0.008067352
再 -0.035160054 -0.19327684 -0.023321666 0.20111956 -0.19636956 0.18437804 -0.022538355 -0.22558469 -0.16590533 -0.07439083 0.07231153 0.02680778 0.13658108 -0.14427021 -0.2607963 -0.0652732 0.019851934 -0.15512888 -0.0020186023 -0.35840565 -0.00092894846 0.29002732 -0.13803418 0.045481324 -0.14422327 0.15125197 -0.37332028 0.08952692 0.09476041 0.27172956 0.28863272 0.21733719 -0.09398832 0.21943772 -0.07015274 -0.46452487 0.14062326 -0.38876975 0.008664521 0.062231347 -0.081771374 -0.123449974 0.34363073 0.32542822 0.6173309 0.56823105 -0.017205752 -0.28124198 -0.21887434 -0.0751871 -0.022609485 -0.22412 -0.030765211 -0.00048605812 0.19410735 -0.16272451 -0.09717114 -0.04863781 -0.10746531 0.16551347 -0.019517323 0.1817193 -0.09532651 -0.15286678
对 -0.28690585 0.05992446 0.30414727 0.23568344 -0.34868976 0.05756552 -0.15156792 -0.2657373 0.10205104 -0.08118157 0.007975107 -0.40760627 0.16710065 -0.21893999 0.23263536 -0.36979696 0.25214067 0.0056164484 -0.30411464 -0.34491286 0.020142443 -0.3654933 0.034888063 0.167721 0.0324172 0.27390736 -0.1905248 -0.06238086 0.115668036 0.13495445 -0.21572252 0.27555037 0.18588172 0.13452135 0.10329987 -0.35837495 0.05534945 -0.5546143 -0.23245253 0.3041961 -0.16743936 0.13233355 -0.2473621 0.0656818 0.18234459 0.11003867 0.043645106 -0.05492538 -0.075478576 -0.06193974 -0.029637182 -0.21432096 -0.37804848 -0.32214537 -0.2002978 -0.292367 0.19843346 -0.046856448 0.010974173 -0.0077190017 0.1148679 0.17345907 -0.04353049 -0.18382668
知道 0.049860913 -0.04679584 -0.14206226 0.16911623 -0.30142948 0.21958308 -0.20473611 0.25485307 -0.11821457 0.04879319 0.025804447 -0.110118434 0.41782686 -0.072457895 0.27211267 -0.032582693 -0.18095073 0.09903263 -0.099179775 -0.008977201 0.08256074 -0.10246461 0.019313743 0.26826635 0.34907398 -0.2084142 0.4106016 0.14709364 0.24649633 0.14495717 0.1719752 0.4099627 0.018821869 0.36162454 0.08046519 -0.4406459 0.18652786 -0.15728542 -0.0361289 0.15233172 -0.26790094 -0.0768022 0.42916015 0.09716521 -0.0030002613 0.042699143 0.075765096 -0.12824796 0.021820275 0.09479036 -0.029000785 -0.050500084 -0.07777589 -0.20309168 -0.02715143 -0.18425323 0.0738382 0.022205463 0.18871966 -0.058594618 -0.1951727 0.10481209 0.050707143 -0.21784592
不过 -0.19188899 0.0443756 0.32450557 -0.20652713 -0.5816742 0.20162502 0.05836302 0.034564964 -0.29673558 0.17394003 -0.15406536 -0.09456895 0.23251256 -0.19162709 0.04634256 -0.057719003 -0.36223012 -0.4008717 -0.29772547 -0.19154564 0.2003952 -0.03662779 -0.102024265 0.0021680584 -0.11184939 0.034381233 0.09767612 0.082429595 -0.040418644 0.03816507 0.15133211 0.060785253 -0.04447143 0.24185497 -0.067425676 -0.19611485 0.21004254 -0.1939318 -0.08225732 0.13208409 0.00076700206 0.40197802 0.08509729 0.040852588 0.3474882 0.24482566 -0.011299462 -0.44203767 0.005152098 0.13486739 -0.17201799 0.052310728 -0.042809043 -0.22254953 0.09569972 0.0778253 0.13389905 0.02192449 0.21827231 -0.0634546 0.13069047 0.18917327 -0.025676092 -0.52415377
一下 -0.04955562 -0.012027981 0.05069731 -0.16181423 -0.22232364 0.06722668 -0.14827399 0.18873566 -0.2857609 -0.11156684 -0.06918028 -0.14146611 0.3662544 -0.021656802 0.39419618 -0.38099664 -0.16240843 0.14479683 0.1786457 0.09075521 0.48647845 0.21308269 -0.06236211 -0.07670128 0.5313315 -0.07120833 -0.23903458 0.09306278 0.27825966 -0.118029855 0.14244232 0.39625472 0.22547819 0.5285994 0.03932902 -0.37520868 0.153203 -0.50322026 -0.0429081 -0.42151394 -0.07621078 -0.017663863 0.03712139 0.23466961 0.3909583 0.30824113 -0.313884 0.043192398 -0.13019507 0.086181566 0.10817456 -0.009342328 -0.18197732 0.0067924466 0.078886755 0.037183072 0.17355764 0.095323294 -0.01791118 0.06374104 -0.45232746 0.22633605 -0.046696246 -0.108673215
万 0.22914572 -0.015663574 0.08591907 0.055482328 -0.5954326 0.32460922 0.06072509 -0.28332818 -0.4746015 0.4404556 0.021995079 -0.07330484 -0.07752363 -0.13873886 -0.48475254 0.40178367 -0.18632327 0.13457105 -0.17733788 -0.13053444 -0.30565706 0.17096367 -0.5952104 0.19279078 -0.23563012 -0.4165657 -0.14062688 -0.016256258 -0.39394718 0.02595087 0.13699728 0.23092255 0.20714206 0.15622443 -0.25652176 -0.34168637 0.03030276 -0.6593856 -0.028474504 -0.20924757 -0.38634452 0.14677109 -0.10120431 0.26959044 -0.027172053 -0.042087343 0.0037283506 -0.038557317 0.00431046 0.5307367 -0.035727326 -0.4440833 -0.21418805 -0.15994385 0.17739877 -0.40556678 -0.29234967 -0.074518844 0.29418206 0.24129003 -0.2195954 -0.08873255 0.39500993 0.011396365
喜欢 -0.20749295 0.17051399 0.40371734 0.14549854 -0.5809039 0.15688458 -0.016128963 0.2701999 -0.29098904 0.19387564 0.32395637 0.007306704 0.24624571 -0.034304462 0.42835554 -0.2823447 -0.068132184 -0.28506383 -0.33674294 -0.30486932 0.18386291 -0.1461009 0.28641024 0.07977891 -0.22481968 -0.06526867 0.15622829 -0.12851655 0.17377968 -0.024938954 0.43489563 0.32163543 0.003577088 0.42544377 -0.07586176 -0.22502819 -0.20374419 -0.49932387 -0.124602295 0.58533514 0.06617114 0.51921254 0.18937813 0.34235588 -0.042889025 -0.0456528 0.32364744 -0.41489705 -0.056408666 0.32500264 -0.18321109 -0.23810485 -0.012020975 -0.35904235 -0.0062987236 0.10735915 -0.24616759 -0.47693363 0.0076253684 -0.099442825 0.27814153 0.23752809 -0.083255924 0.19254279
还有 0.028904693 0.32954502 0.2899185 0.20761731 -0.178411 0.016624106 -0.093821265 0.15614283 -0.13392377 0.23726675 0.098669246 -0.073609315 0.21955019 -0.24793392 0.11122053 -0.15303135 -0.18095742 0.068680234 -0.2976526 -0.12938541 0.036933523 0.069632106 0.03805445 0.36395505 0.01866475 -0.09423411 0.016149446 -0.072502814 0.12590246 -0.081409834 0.013904243 0.23148775 0.12368796 0.084281884 0.26943594 -0.12804182 -0.32531846 -0.39168552 -0.06252281 0.24851054 -0.2033598 -0.022245456 0.029040167 0.24973042 0.20027262 0.27162158 0.09432573 -0.23435894 -0.050252028 0.14524616 -0.36216688 -0.40374196 0.19773611 -0.4474968 -0.45390967 -0.09430799 0.14802574 -0.117834345 -0.032211542 0.15342398 -0.07946907 0.10870756 0.12749034 -0.025790805
更 -0.18047199 -0.21555264 0.16572373 0.19798389 -0.28768143 0.3065259 -0.0990965 0.28439716 -0.3877936 0.39303342 0.064943306 -0.20479101 0.092437804 0.014135001 -0.099632904 -0.078449346 -0.06263705 0.048191186 0.14847384 -0.39892307 0.2951952 -0.16241878 -0.20437793 -0.09595719 -0.09277289 0.27889788 0.040632993 -0.004009027 0.33312228 0.09695647 -0.26019993 -0.16218325 -0.100482054 0.09121939 0.27947125 -0.5728899 -0.22332084 -0.14406623 -0.1082191 0.098539114 0.19999848 0.38436034 -0.20556912 -0.0558636 0.10619447 0.55915105 0.30104208 -0.3649866 -0.10321418 0.28593776 -0.214035 0.01157426 -0.36885935 -0.4720085 -0.23010907 0.3593707 -0.0076970244 -0.019000102 -0.04308731 -0.19333915 0.15485099 0.24408858 0.26171693 -0.301385
低 0.1373402 -0.08315024 -0.08947808 -0.12287329 0.072459064 0.2126555 -0.023110736 -0.07306346 -0.20571482 0.14015375 0.0779259 -0.5668589 0.065064296 -0.17769104 -0.07129929 -0.075137295 -0.11394141 0.48540512 -0.12984481 -0.42221808 0.33010793 -0.5915612 0.0059671598 0.29567817 -0.38330132 0.25525337 0.04666684 0.14146075 -0.13118029 0.30045852 0.12243456 -0.35298738 0.32709613 0.16236864 0.09552478 -0.72054684 -0.036514368 -0.23050682 -0.20865491 0.20467521 -0.2392272 0.027251747 -0.25944227 -0.26813504 0.11483468 0.14780438 0.088274725 -0.1987393 0.12964816 0.33178458 -0.2603563 -0.16358669 -0.5227201 -0.63520414 -0.3462766 0.075976215 -0.03016295 0.07099561 -0.10632556 -0.08127445 0.05698293 -0.064697675 0.24978217 0.0015904986
性能 -0.34265387 -0.38345638 -0.40495571 0.42326328 -0.27386323 -0.16310413 -0.079782225 -0.09412085 -0.06967033 0.22052322 0.323526 -0.30498132 0.6861123 -0.13827525 -0.149166 -0.07776989 0.1819796 -0.02622139 -0.3881975 -0.3637198 -0.14304389 -0.27641302 0.3074112 0.30446377 -0.070458315 0.17842734 0.04062576 -0.018604822 0.08326976 0.16510747 -0.0862087 -0.05258754 0.17108208 0.2192072 0.45720094 -0.45009014 0.05980545 -0.20788641 0.0050819297 -0.01583835 -0.3209406 0.22515035 -0.16812503 0.12410303 0.11639251 -0.22863255 0.3299066 -0.40359634 -0.56988055 0.14241044 -0.63934296 -0.11969047 -0.46442175 -0.20802239 -0.0022368608 0.27042973 0.2248504 0.2599285 -0.10002954 -0.14806256 0.06989719 -0.030163802 0.54972696 -0.46691203
下 -0.0750223 -0.16569832 -0.028893162 0.34435675 -0.16273384 -0.01718928 -0.20754401 0.012845801 -0.09223082 0.043721266 -0.091643006 -0.158198 0.17125314 0.27519134 0.2518156 -0.28421322 -0.17121981 -0.062749274 -0.08115255 -0.06936027 -0.092404835 -0.07989904 -0.30390242 -0.1545308 -0.15810429 0.021805543 0.14576378 -0.08315236 0.06614032 0.21049263 -0.078836724 0.28455132 0.102359675 0.2620455 0.14834936 -0.3167384 0.33592182 -0.3316925 0.036338083 -0.19137917 0.111806355 0.22828305 0.25573158 0.1955219 0.45842367 0.64872116 -0.30867022 0.04383753 0.06970271 -0.032089446 -0.26628456 -0.1891427 -0.084085435 0.049195174 -0.42570445 -0.048416767 0.0011021084 0.08184648 0.025544478 0.14700781 -0.3625501 -0.12936945 0.22552134 -0.4057955
2 0.32973403 0.12201997 0.33511862 -0.4015557 -0.19159995 0.15899152 -0.11278991 -0.23219731 -0.3037979 0.4610645 0.078252025 -0.16981481 -0.11853624 -0.0669318 -0.2990943 -0.03822778 0.05430151 0.054253284 -0.45304856 -0.38574907 -0.09060139 0.15540653 -0.35440594 0.04084068 -0.2892143 -0.29821357 0.1251143 -0.29825822 -0.06630132 -0.087251455 0.35770914 0.14332776 0.33734125 0.2570463 0.21331708 0.060743984 0.42368266 -0.4778986 -0.11663343 -0.076343134 -0.09438529 0.22640969 -0.085274294 0.24038687 0.10585066 0.46489844 0.0075648795 0.121169455 -0.065555915 0.8679612 -0.05159937 -0.27344674 -0.643083 -0.09572548 -0.22313108 -0.2402703 -0.12827721 0.16260636 0.27240276 -0.12648249 -0.2114381 -0.2583143 0.32499638 -0.27321643
时候 0.110483654 -0.20011933 0.05168733 0.036763117 -0.24323608 0.18103214 -0.21065553 -0.15000926 0.12316889 0.1714446 0.0064686867 -0.20488857 0.1583244 -0.07849607 0.09541369 -0.123802505 -0.19696204 -0.08660428 -0.26878285 -0.23205441 -0.048391376 0.06200035 -0.10633531 -0.042880688 0.15946804 0.11873298 0.27409717 0.07581721 0.04824951 0.017333861 -0.35335746 -0.054211494 0.060693357 -0.103608124 0.11361822 -0.45679072 0.24495365 -0.36442152 0.012567138 0.10847649 -0.22553603 0.29363316 0.13262498 0.24353434 0.23331134 0.6109819 -0.1624684 0.14348954 0.2469945 0.097056486 0.020640967 -0.22857149 0.040913794 -0.3699639 -0.32416338 0.0036138776 -0.05346037 0.21924052 0.066742614 0.3672708 -0.14536259 0.34501112 0.04692036 -0.23693512
给 -0.22027457 0.105137065 0.2577036 0.19975986 -0.38629326 0.14378622 0.010715885 -0.08749405 0.10674567 0.10334024 0.26882717 -0.33037388 0.06598436 -0.047468882 -0.055389736 -0.056862585 -0.14545517 -0.13449346 -0.06932278 -0.10673575 0.04618603 -0.0039011955 0.022300633 0.3535799 0.23437974 -0.04931998 -0.06796974 0.37580302 0.19702555 0.26544404 0.098196566 0.31276995 0.04799371 0.4276624 -0.09085473 -0.011132345 -0.013747648 -0.3469282 -0.11285462 0.048175998 -0.1452541 -0.25372392 0.44759727 0.11196151 0.21120636 0.22439218 0.28018507 -0.2159 0.16833954 0.12790947 0.11889586 -0.13714586 -0.0043156324 -0.13976361 -0.19145505 0.11504175 0.07620941 0.06322938 0.064577356 0.36575988 0.23651278 0.19196045 0.35879043 0.04307441
5 0.3803299 -0.07077304 0.14990118 -0.26456916 -0.69381 0.105693005 0.2682241 0.18988922 -0.21994375 0.7815173 0.03535954 -0.37763837 0.043108273 -0.053582657 -0.20828627 0.006460567 -0.14051177 0.076013155 -0.34533888 -0.38207197 -0.10368715 -0.16705234 -0.20016609 -0.09185152 -0.55779546 -0.14500952 -0.3641566 -0.0072176964 0.020890126 -0.18785618 0.19140495 -0.0745001 -0.16842367 -0.2559021 -0.07699698 -0.7755372 0.1844241 -0.43050793 -0.24834625 -0.20598994 -0.087206505 0.24279438 -0.0106447805 0.10621609 0.06572963 0.2315947 0.024213994 -0.13108665 -0.27543408 0.15074697 -0.25959828 0.19562301 -0.3759026 0.4499146 -0.074831 0.42177096 0.31846127 0.124606304 -0.03282013 -0.13212767 0.0741088 0.26848024 0.41147593 0.09301049
一点 0.046577565 -0.120722964 0.01883466 -0.012153347 -0.5274253 0.09649122 0.08826975 0.07881327 -0.43019405 0.021545006 0.34006917 -0.17853606 0.23334901 0.08826457 0.0058727423 -0.020781437 0.1583359 -0.01218808 -0.2518582 -0.47700906 0.19920285 -0.077081434 0.0006437368 0.015209508 -0.06801863 -0.26439738 -0.21930417 -0.23493065 -0.12441081 -0.0029537492 0.048581123 -0.23759554 -0.09249235 0.20892692 0.107741445 -0.3242538 -0.075706504 -0.14327712 0.117515735 0.06697006 -0.20946448 0.011615377 0.09537019 0.010825092 0.22786213 0.6327518 0.06639769 -0.28686184 -0.10326807 0.2228933 -0.34887567 0.05810169 -0.17025143 -0.55802727 -0.16029273 0.24872747 0.03447651 0.34613252 -0.051398993 -0.20723692 -0.022099327 -0.0021095767 0.02328792 -0.23594345
左右 -0.0019139434 -0.025562264 0.09115384 -0.34906662 -0.14177601 -0.23162211 0.38381702 -0.042273022 -0.39087856 0.16280152 -0.28591388 -0.2198021 0.050440606 -0.11429303 -0.06837107 0.1410953 -0.21423002 0.36969477 -0.1785248 -0.18977508 0.061533127 -0.028442113 -0.5903439 -0.27979648 -0.045654986 -0.28088707 0.2668677 -0.02047829 -0.24405769 -0.3369965 0.38895777 -0.084117554 0.01914866 -0.0656855 0.009819468 -0.39726996 0.3866895 -0.2870168 -0.089248724 -0.116646655 -0.0017966111 -0.08474525 0.5256384 0.55890137 0.20255949 0.42220575 0.14521997 0.19544104 0.2254231 0.26361233 0.1860624 -0.08419847 -0.34802744 -0.26350948 -0.26856688 -0.11629603 -0.17607711 0.045276925 0.43407854 -0.00044248992 -0.5107694 0.0037484062 0.2760507 -0.54265857
很多 -0.09724166 0.13452011 -0.11219465 -0.15357004 -0.64613837 0.32046342 -0.20001078 0.19258456 -0.38246235 -0.10069382 0.053456213 0.21581553 0.4435874 -0.037068132 -0.008640716 -0.24730302 -0.09075966 0.018784363 -0.22167726 -0.27017498 -0.078770615 0.16830905 -0.09953729 0.14414418 0.105561145 0.3607195 -0.22774154 -0.014442436 0.04203065 0.14430736 0.2979259 0.09739243 0.22161357 0.10817454 0.2843769 -0.24654803 -0.049803756 -0.2031348 0.04307601 -0.15115853 -0.12532017 0.096381955 0.10991013 -0.08250515 0.15926413 0.3362096 0.17095722 -0.18516217 -0.0558125 -0.1088341 -0.25037375 -0.26470396 -0.24256013 -0.43513444 -0.10671312 -0.086887665 0.19941795 0.18957174 0.16242397 -0.30935815 -0.30785686 -0.24392004 0.15044169 -0.18577032
才 0.2242274 -0.1591039 -0.30361703 -0.15786225 -0.31722528 0.07661423 -0.18687563 -0.18209352 -0.21820082 0.2714296 0.10963345 -0.19212231 0.09361248 0.11207514 -0.11567329 -0.109047964 0.0430299 0.01798979 -0.21722576 -0.27480003 0.18076126 -0.24251613 -0.46829978 0.15844244 0.17536044 -0.17578362 0.081419505 -0.0051271548 -0.15673238 0.05935354 0.037108522 0.20713852 -0.19629887 0.040663797 0.14458233 -0.38637298 0.0066941273 -0.29052505 -0.07074644 0.07299873 -0.2881387 0.08753371 0.29724646 0.13183635 0.13587059 0.29250765 0.009907846 -0.030218758 0.18477802 0.03409781 -0.08632411 -0.25661558 -0.12600563 -0.20346871 0.1577131 -0.18892561 0.15565766 -0.04541925 0.13048543 0.25502777 -0.031810887 0.02353733 0.11721279 -0.2411646
油 -0.23672864 0.23588327 -0.089292146 -0.010675596 -0.15486664 0.5251099 0.28479558 0.111511834 0.14244853 0.0036972195 -0.25015232 -0.1973605 -0.28344324 -0.233017 0.07700361 0.29694495 -0.17063417 -0.051502153 -0.19741604 -0.37298408 0.33348963 0.41823885 -0.44486156 0.26476926 0.109066784 -0.49603838 -0.41166693 -0.0076204846 -0.06670743 -0.038490303 -0.25850445 -0.21646968 0.20449124 0.21019313 0.09608444 -0.20260286 -0.2355113 -0.81089085 -0.33098444 -0.16981521 -0.3591888 -0.064795084 0.42264822 0.09528634 0.15274641 0.5047489 0.45003748 -0.019644512 0.47353333 0.14987439 0.14545695 -0.397121 -0.38356176 0.3534636 0.2471929 0.12285072 0.009987491 0.29888067 0.2877051 0.18245336 -0.35682613 0.34052527 0.47625354 -0.49993235
肯定 -0.09652194 0.16709572 -0.11613923 0.104750074 -0.34345028 0.32796064 0.13621233 -0.27572712 -0.21621561 0.1533402 0.27111813 -0.18050905 0.25035024 -0.15682471 -0.061478756 -0.0055157305 0.076619886 0.18600349 -0.11200941 -0.13126184 0.001605368 -0.2472343 -0.12933354 0.36408597 -0.23701018 -0.057527095 0.2620792 -0.04988828 -0.017286727 0.39332056 0.12122428 -0.042991035 -0.11477782 0.13897519 0.10085108 -0.41636622 0.07132094 -0.5155064 0.045953847 -0.052519344 -0.1548367 0.07820174 -0.13519907 0.29549882 0.108979985 0.09801892 0.25526926 -0.07012068 -0.36152968 0.22277106 -0.46619818 -0.37259275 -0.042715427 -0.31963187 0.00940669 0.08252934 -0.025322238 -0.27348027 0.09081927 0.042358864 -0.17009035 -0.01981441 0.09139958 0.066528
小 0.053623002 0.08076262 0.2840551 -0.11903514 -0.095350355 0.19592632 -0.23039682 -0.16310436 -0.13106047 0.17311086 0.21481512 -0.22235936 0.22287448 0.24586686 -0.39482597 -0.1092824 -0.11872042 -0.12370286 -0.28544402 -0.39041436 0.039044425 0.1489114 0.31940332 -0.12961945 0.22499779 0.26338175 0.07685896 -0.12278232 -0.049812112 -0.25664368 0.3173483 -0.048650067 -0.35188645 0.07816628 0.4248772 -0.15173459 -0.17340301 -0.71554005 -0.21322408 0.09222756 -0.07156776 -0.08046916 -0.28649852 0.2790563 0.05565476 0.681526 0.28631458 -0.10008956 0.06948186 0.16709872 -0.41379327 -0.007927061 -0.7302969 -0.3086735 -0.01756521 0.16963963 -0.15019065 -0.095708534 0.1693964 -0.055365823 -0.18346746 -0.13814417 0.13520148 0.03542787
年 0.096566476 -0.074795626 0.1540667 -0.36839053 -0.36772454 0.14701505 -0.012219555 0.57670486 -0.14131704 0.5589636 -0.038321104 -0.4573345 -0.006513786 -0.10159985 -0.26861462 0.4612878 0.097041674 0.45330393 -0.26385862 -0.06561515 0.091427624 -0.19779919 -0.6943959 0.36982352 -0.22782624 -0.17073359 -0.105235815 0.014983752 -0.077357665 -0.31557092 0.27563784 0.39371705 0.5398933 0.064736314 0.0899465 -0.026271174 -0.04533607 -0.54377264 0.32903197 -0.12901427 -0.1168368 -0.21546799 0.41928524 0.13344334 -0.08512621 0.4499571 -0.20226328 -0.10632615 -0.057347905 0.30185562 -0.30624837 0.06369189 0.075417735 -0.30450445 0.032037396 0.027573623 0.05473892 -0.0005478266 0.2049462 0.21908304 -0.010042932 -0.14687003 0.42552373 -0.061419085
又 0.1767182 0.058168724 -0.10267718 0.22472423 -0.20095997 0.30743635 -0.25570616 0.05186946 0.07832691 0.382005 0.1550145 -0.5960815 0.30676168 0.25928652 0.05455215 -0.266584 0.18300468 0.01855468 -0.26441148 -0.43317363 -0.36523843 -0.10426121 -0.1037072 0.107606314 0.061797608 -0.07468121 -0.057392877 -0.050930317 0.5066219 0.066208854 -0.2845721 0.32227114 -0.08281172 -0.19591318 0.18480062 -0.2447982 -0.054044448 -0.23113419 -0.29231122 0.21985774 0.32133493 -0.30774617 0.30392662 0.5214756 0.4883778 0.18982734 0.13441627 -0.4055782 -0.1442529 0.212768 -0.14171931 -0.39094093 0.3329908 -0.18214162 -0.038780816 0.05493142 -0.17274474 -0.3141356 0.17081253 -0.00042667455 -0.34824824 0.12241636 0.20324424 -0.06848929
不会 0.17994845 -0.14377938 0.07832802 0.13215712 -0.3634946 0.20675515 0.21296413 0.09027349 0.10107805 0.1684035 -0.1328475 -0.10713967 0.024969008 0.1510055 -0.12824191 -0.2034917 0.04882136 0.20862232 -0.16292891 -0.25173137 0.12705112 -0.01579005 0.0379064 -0.21252643 0.087255776 0.10440122 0.038580146 0.017120536 0.32599297 0.27474463 -0.1370616 0.00036786555 0.17590407 0.102402695 -0.045248955 -0.3571345 -0.31262064 -0.24330701 -0.10933872 0.16973686 -0.2860206 0.31384075 -0.00013191055 0.50082344 0.15184134 0.4603887 -0.36307678 -0.092641525 -0.09376982 -0.030882478 -0.33034775 -0.18421516 -0.12012272 -0.3572378 -0.1674849 -0.016073776 -0.17862529 -0.03412691 0.05882289 0.26643085 0.2704944 0.12119886 -0.010519868 -0.3518869
跟 -0.08354242 0.053918708 0.16297579 0.12056338 -0.28134245 0.50218356 -0.04352583 -0.23549339 -0.36574832 0.034195177 0.07231471 -0.29363352 0.24851285 -0.1090121 -0.053355314 0.046234 -0.104760244 -0.13927887 -0.4131346 -0.18908966 -0.00273533 -0.084404744 0.0084281415 0.11434093 0.090805 -0.18538287 0.026369438 -0.25723022 0.19902968 0.34501 0.554798 0.3387646 -0.04418539 0.16944902 0.17254266 -0.47902313 0.13257541 0.059991624 0.25698376 -0.09339925 0.06614406 0.2508493 -0.039255105 0.1163915 0.14179115 0.14007117 0.10859665 -0.023378685 -0.107063405 0.31461102 -0.2813099 -0.33081648 0.088623255 -0.107108995 0.09610625 -0.19713716 -0.17911178 0.23996966 -0.23066288 -0.049911868 -0.10659743 0.08417795 0.39632237 -0.38777345
等 0.28978738 0.12581967 0.24283305 -0.09054633 -0.48707137 -0.13731785 0.2660667 -0.009668151 -0.20905009 -0.0559932 -0.045393087 -0.15753017 0.4802571 0.2172146 -0.3409245 -0.2083425 -0.025783002 -0.008183144 -0.09931682 -0.09803283 0.14212805 0.021555733 -0.26971498 0.36037183 -0.018582871 0.22974981 0.18162075 0.07285273 0.28297544 0.25172248 0.08483751 0.22275852 0.084842496 0.38152632 -0.20177974 -0.12892054 -0.22291097 -0.9271591 0.22011447 -0.044794954 -0.16358183 0.0016373924 -0.2620189 0.095826484 0.63316625 0.4472578 0.0065200794 0.12535834 0.015502678 -0.1770402 -0.19375752 0.009051988 0.103387184 -0.03128434 -0.2754471 0.106327474 0.22851345 -0.07892493 0.020382235 0.111003906 -0.13273731 -0.2681419 -0.17908789 -0.17513739
所以 -0.31517717 0.16695094 0.11160685 0.14389972 -0.26344305 -0.1278262 -0.05400935 -0.045452163 -0.33883846 -0.09249483 -0.101461954 -0.28143644 0.18817241 -0.16480757 0.1454299 -0.24004833 -0.11822081 0.13007486 0.18293609 -0.3955719 0.09219661 -0.2566284 -0.14590076 0.10275833 0.056719635 -0.065484 -0.15190335 0.24664107 0.2227931 0.03717518 -0.13246001 0.22097908 -0.012607786 0.09589553 0.0933101 -0.3156482 -0.20554003 -0.3329308 -0.101810925 0.22954747 -0.00653994 0.21920724 0.039497737 -0.013995119 0.25493404 0.2264457 0.26019016 -0.19967747 -0.012276881 0.12717597 -0.25744364 -0.19971764 -0.20990317 -0.30657953 -0.04205808 -0.16962531 0.21634229 -0.13385072 -0.021202063 0.029529637 0.09463279 -0.05997847 0.06980664 -0.21146248
正常 -0.08762451 -0.39365867 0.018565273 0.02668278 0.017176762 -0.02614247 0.033546254 0.47796726 -0.15645517 0.13325492 0.10190698 -0.27989143 -0.017354095 -0.09562651 0.09312944 0.16710588 -0.0031519902 0.65420973 -0.21415919 -0.5690734 -0.06658283 -0.21843037 -0.466021 -0.16459516 0.058312997 0.2094701 -0.002261426 0.23832181 0.1568814 0.019833518 -0.0048029246 0.38933253 0.26618907 0.010005638 -0.37736312 -0.14576466 -0.2692488 -0.43582314 -0.12659897 -0.094019055 -0.2832829 0.118538596 0.28429 0.30120844 -0.11570338 0.48333034 -0.21080917 0.40542406 0.43465802 -0.20354772 -0.39353928 -0.29768777 0.17706318 -0.07959982 0.09394375 -0.18707843 -0.03812006 0.5556657 0.3893579 0.04322558 0.12670577 0.13698117 0.45348233 -0.28123462
加速 -0.24042302 -0.46453506 0.1624709 -0.053723738 -0.2137462 -0.08691177 0.12860592 -0.2534836 -0.09091606 -0.1347013 0.23616849 -0.5476206 -0.07882635 -0.39778292 0.6197089 0.18425137 -0.21657656 0.022061355 -0.5166609 -0.30760434 -0.15824941 -0.046704642 -0.10483313 0.116846845 -0.13788784 0.3962878 -0.4883886 0.2899297 -0.08498509 0.49148053 -0.20279245 -0.3808596 0.18714988 0.4438426 0.26927397 -0.6527038 -0.037283953 -0.33679387 -0.1423999 -0.11776996 0.20824727 0.3219653 0.40269646 0.615116 0.45541674 0.20853524 0.10214637 0.83672976 0.10890471 0.089524634 0.17251132 -0.14304703 0.20656991 -0.513577 0.10626397 0.2684009 0.046688125 0.03294456 0.062021323 -0.28551292 0.22178599 0.1362552 0.2067808 -0.06673906
可能 0.01898244 0.27825108 -0.025408337 -0.14914666 -0.36438614 0.19113089 -0.1616627 -0.13130139 0.014036285 0.12737364 0.33090037 0.12001256 0.08418616 0.06171096 -0.14312899 0.09669078 0.20371744 0.21134232 -0.0518991 -0.1460015 0.16433057 0.0043915245 -0.1125478 -0.04787516 -0.19469902 0.16758718 0.10925741 -0.18485217 0.40104476 0.24532485 -0.1271195 0.17595235 0.17597286 0.14559875 0.19492304 -0.46224385 0.07343312 -0.3834486 0.3662209 -0.004775156 -0.18600166 -0.003134346 0.10375606 0.2762291 0.24790992 0.59625405 0.020541484 -0.27213097 -0.0062438846 -0.21668097 -0.034257054 -0.04014513 -0.14962408 -0.2897361 0.016349256 0.12034308 -0.028031653 0.15523054 -0.054023415 0.034533367 -0.17037486 0.16157663 -0.11145314 -0.31608453
一般 -0.14876504 0.039737295 0.12891679 0.038668375 -0.0004802945 0.062660925 -0.21206062 0.09432816 -0.33451587 0.07950053 0.049399354 -0.16846383 0.05619646 0.10526046 0.16620012 -0.08507731 0.06568627 0.26647484 -0.56920207 -0.30774164 0.32135043 -0.4140741 0.0612091 0.28757316 -0.09675353 0.13123092 -0.0071042 0.09743463 0.18231761 0.142184 -0.08851674 0.101231046 -0.0069638127 0.33673608 0.2616006 -0.1517841 -0.25659797 -0.406772 -0.17503737 -0.09846755 -0.4815839 -0.2668489 -0.16431415 0.16643941 0.054653775 0.30846828 -0.11418322 0.1410603 0.41039577 0.3193898 0.24955766 0.004584336 -0.36519992 -0.12389412 -0.2832488 0.15768753 -0.098090574 0.1491547 0.13891834 -0.04341249 -0.0042583495 0.012682514 0.54238856 -0.041357122
有点 0.124787025 0.40067697 0.15233125 0.080409765 -0.22926052 0.17471397 -0.17587082 -0.06303097 -0.28333253 -0.05340018 0.24436665 -0.010570205 0.1800003 -0.107081965 0.2738473 0.1290559 -0.054454263 -0.14442208 -0.5425767 -0.6380596 0.042823207 -0.13079728 0.3173514 0.23696774 -0.03084966 0.051257085 0.12285088 0.43974704 -0.0011817351 0.040897038 0.26611814 0.0946229 -0.033654615 0.15609334 0.25345203 -0.13709523 -0.23306628 -0.2285607 -0.07836254 -0.12155538 -0.2629295 -0.039118722 0.5045536 0.26440227 0.12115183 0.45780447 -0.13391428 0.023837421 -0.009397849 0.01993873 -0.11356924 0.11668395 0.18706605 -0.41034442 -0.112132624 -0.060490742 -0.17870139 -0.015926136 0.22428647 -0.23095372 0.045780078 0.5389344 -0.0030026697 0.018019784
声音 0.47917706 -0.53208935 0.057606295 0.33950287 -0.23626012 0.2214285 -0.043288212 0.0927211 0.09083006 -0.053917397 -0.08721408 -0.4076252 -0.12422395 -0.25799587 0.41285726 0.0737305 -0.5855429 -0.21423015 -0.5087172 -0.82379955 -0.27887064 -0.042224206 0.18666731 -0.38398942 0.519096 0.2012874 0.12627311 0.279923 0.0075347903 0.08448757 -0.25055936 0.34629953 0.22785561 -0.30697426 -0.11781591 -0.20599723 -0.04036657 -0.41561142 0.47003642 0.17059979 0.119132474 0.011705253 -0.1423225 0.6639675 -0.06601611 0.65067863 -0.48506355 -0.24020442 -0.10642237 -0.40157327 -0.12045654 -0.2611463 0.19578551 -0.0038022292 -0.38606066 0.27292693 -0.22171322 0.9402796 0.5229244 -0.17219195 -0.24060959 0.21322365 0.14983916 -0.39283267
建议 -0.038120616 0.2899605 0.07725799 -0.064571194 -0.44390923 -0.003510879 0.06457159 0.019430304 -0.0861326 -0.11519509 0.22236218 -0.18943104 0.3549739 -0.10868063 0.16768076 -0.19672032 0.0905458 -0.24917659 0.028717501 -0.1614448 0.3228352 0.08456826 -0.22662887 0.2364135 -0.07902841 -0.09903256 -0.60070163 0.07249181 0.029527755 -0.032725718 -0.52515376 0.4136371 0.06602946 0.13660303 0.07215082 -0.33243525 0.10137074 -0.7880129 -0.22095262 -0.007766481 -0.086758286 -0.07569409 -0.23370838 0.17646672 0.28565544 0.29771817 -0.0064269835 -0.030485366 0.22467545 0.066329375 -0.109290935 -0.08001349 -0.18823247 -0.054583695 -0.3631934 0.25501806 -0.028617943 0.18840572 0.08082228 0.16985849 -0.2695569 -0.09034749 0.07479678 -0.24135512
噪音 -0.23008327 0.024781123 0.28722832 -0.24534672 -0.16161576 0.12382015 0.0136120785 -0.14083867 -0.29203582 0.37691522 -0.06773876 -0.17649664 0.21682276 -0.15187818 0.13309649 0.32802597 -0.169931 -0.28254378 -0.6316726 -0.78125215 -0.336432 0.23882464 0.13623734 0.060087442 0.31138083 0.20115882 0.01588062 -0.26151663 0.29184812 0.012932666 0.36397898 0.037867647 0.3869928 0.48192215 0.2989082 -0.33545217 0.22755037 -0.07696199 0.22534984 0.07538291 -0.30645785 -0.14537673 -0.099287294 0.14926195 0.10891983 0.21191677 -0.10504461 -0.2870593 0.21956624 -0.2436561 -0.25806323 0.54380035 -0.15090926 -0.1972561 -0.12541255 0.2294371 -0.068210825 0.29325745 0.4334841 -0.11242737 0.00457319 -0.069957286 0.14639802 -0.49438033
差 -0.07845877 -0.18042134 0.2802565 -0.3237829 -0.5294128 0.41180748 -0.016881872 -0.09743813 -0.53335613 0.45516914 -0.08412544 -0.27864012 0.24371874 -0.00027835194 0.19778447 0.28624648 0.11113704 -0.25311983 -0.56549585 -0.31365803 -0.11258823 -0.08455311 0.28729838 0.1940153 -0.09918154 -0.09689438 -0.036039393 -0.012766024 -0.00066439115 0.29282722 0.39585567 -0.10007024 0.23341814 0.40519127 0.34929743 -0.24570961 -0.08894328 -0.24374805 0.018463021 -0.029400887 -0.13708696 -0.07883059 0.019489294 0.04647414 -0.18297932 0.14605749 -0.1439175 0.0749725 0.10934132 -0.005522671 -0.2558749 -0.08300612 -0.061474204 -0.2306657 -0.102182105 0.17879665 0.21587786 0.066769324 0.17308521 0.16682771 0.38248467 -0.4309392 0.44449553 -0.037964597
把 0.19541548 0.2471968 0.06463563 0.28134742 -0.17944832 -0.14752033 -0.2874666 0.17609191 -0.06731571 0.29497495 -0.24302569 -0.30026922 -0.17923132 -0.11253568 0.11594296 0.23312265 0.033146214 -0.24412769 -0.07839152 -0.047136385 0.14668885 -0.02881915 0.015502852 -0.089467645 0.3817016 -0.012904918 0.011250595 0.34521034 0.3811092 0.38087803 0.06424252 0.16242096 0.08348322 -0.123131104 0.021852257 -0.20689893 0.1363686 -0.11066455 0.3544015 -0.19622466 -0.27631247 -0.001335894 0.1090371 0.37322763 0.3830494 0.39864546 -0.17398374 -0.29588896 0.031210188 -0.0108634075 -0.014703408 -0.4910838 0.047986098 -0.42280844 0.12452445 -0.2567405 0.40385675 -0.018874593 0.10318309 0.5697069 0.02873796 0.43429327 0.19626045 -0.17035314
确实 -0.07787442 -0.12754887 0.18957804 -0.2651374 -0.27564046 0.22325835 -0.1973187 0.061055727 -0.14104548 0.36482632 -0.05910615 -0.35749045 0.22449352 -0.046347514 0.24059711 -0.2498558 -0.06899128 -0.3614619 -0.27845412 -0.12121683 0.2658682 -0.24002661 0.012021238 -0.17906629 -0.04754676 0.29698992 0.106392756 0.12262674 -0.01568116 0.012952977 0.4141777 -0.12038743 -0.017790942 0.09083498 0.04658408 -0.5517011 -0.028941927 -0.17633301 0.0014867269 0.082331635 -0.043655638 0.14241219 0.28287363 -0.023037428 0.21349032 0.061743736 -0.022916095 -0.29080284 0.15986605 0.007860132 -0.24159814 -0.22159038 -0.41534355 -0.34561783 -0.13581441 -0.026357798 0.09512703 -0.0016135194 0.18201636 -0.0610937 0.18200289 -0.08374831 -0.09655652 -0.42850062
而且 0.10855076 -0.08325475 -0.112626255 -0.17723 -0.30035496 0.28257018 0.2089469 -0.009000088 -0.19807929 0.050583817 0.20782273 -0.34888145 0.0881177 -0.17789213 -0.07948283 -0.11135705 -0.20188639 -0.108158454 -0.1798208 -0.5573901 0.22496757 -0.15433784 -0.05799835 0.16429305 0.0018736292 -0.18411975 0.3668021 0.1916196 -0.11863694 0.20475337 0.17238164 -0.0812904 -0.099673934 0.04105922 0.113400854 -0.32190683 0.22819543 -0.3701496 -0.3144138 -0.30746356 -0.046133257 -0.06699152 -0.2528046 -0.2670209 0.16287675 0.4204253 0.055285253 -0.051542427 -0.089128345 -0.0031770852 -0.34223652 -0.5491926 -0.50999457 -0.23873681 -0.11603163 -0.050727572 -0.13243936 0.048179522 0.048120275 -0.048928708 0.14161593 -0.302727 -0.022815457 -0.22756721
森 0.06215237 0.23499419 0.3427175 -0.113907926 -0.59775704 0.19245113 0.060688358 0.21674974 -0.6296803 0.20744543 -0.007981855 -0.4228045 0.11812662 -0.028035415 0.060375333 -0.22708736 -0.20924972 -0.17182253 -0.24046616 -0.3890757 0.0915834 -0.29966855 0.22862001 -0.030237652 0.039915837 0.258511 -0.014217003 -0.0517965 0.11470382 -0.098441295 0.3189152 -0.16630535 -0.13423061 -0.15026458 -0.20014252 -0.067949735 0.1687402 -0.060399383 -0.34871915 -0.15053299 0.20703825 0.54369706 -0.047935426 0.3309784 0.2155562 0.1588294 -0.032922503 -0.47865647 0.16125068 0.08972056 -0.5085489 -0.27436253 -0.31037176 -0.6405016 0.25383896 -0.14452398 0.2976518 -0.6489421 0.15413459 -0.015886795 0.035208788 0.15693733 -0.11451141 0.119837485
想 0.084488414 0.19142461 0.24228054 0.23719133 -0.5173644 0.32584882 0.051119443 0.10022116 0.05380558 0.033259243 0.31142136 -0.5627687 0.3976195 0.048864044 0.041971844 -0.1163161 0.042804696 -0.07272809 0.053825546 -0.09835554 -0.011262698 -0.14415447 -0.29101083 0.34632808 0.329038 0.02531412 -0.043286815 -0.31766573 0.034430634 0.2181089 -0.42044324 0.3380703 0.03739664 0.24719754 0.33803093 -0.42873394 0.116189934 0.08578465 -0.40643382 0.27858087 0.114488736 -0.031008584 0.29753602 0.35026458 0.10058445 0.33998913 0.13751295 -0.28641242 0.13768472 0.37018573 0.028510442 -0.28531832 -0.048194643 -0.32173762 -0.15193868 0.08409193 0.07315746 -0.18575333 0.0012316604 0.043765012 -0.12708144 -0.03687072 -0.056928564 -0.12723203
其他 0.13522 0.20093684 0.19905423 0.08662171 -0.18768427 -0.1595963 0.0061532967 -0.18551068 -0.2618862 0.011750809 0.2287163 -0.13746549 0.16225308 -0.11033818 -0.0012386589 -0.12472526 -0.21539792 0.15485635 -0.30093753 -0.38880262 0.2311012 0.047267806 -0.17086643 -0.019313646 -0.15606858 0.08815029 -0.18776058 0.3316015 0.16567905 -0.029331375 0.09463038 0.0495131 -0.112842895 0.5661317 0.13706575 -0.09422599 -0.29085088 -0.4660626 0.24326827 -0.36025563 -0.20480628 0.027470151 -0.3849421 0.22838186 0.28455815 0.29118562 -0.3039081 -0.13215977 -0.39027974 -0.0025945043 0.0719453 -0.16197868 -0.031588305 -0.31572753 -0.18447095 -0.009761692 0.2540262 -0.02884038 0.25856483 0.13117053 0.08886189 -0.023321997 0.17556153 -0.30117172
楼主 0.15699582 0.1580052 0.2606914 -0.07058356 -0.07385899 -0.110781856 0.052318443 0.24699453 -0.13277546 0.04452923 0.24976087 -0.21328697 0.23168062 -0.2662592 0.10260475 -0.002323925 0.16012904 -0.22817928 0.2646144 -0.071961425 0.10984494 -0.16383258 -0.13499776 0.284774 0.20047133 -0.26295835 -0.25598198 -0.06910576 0.22065508 0.200097 0.053235304 0.3289467 0.029885184 0.71098423 0.16641419 -0.30044752 0.015104687 -0.65427434 -0.08720823 -0.113818005 -0.30794784 0.3538798 -0.15531968 0.25866708 0.07332296 0.27414495 -0.26639327 -0.07231731 0.1121804 0.039230734 0.1524352 -0.07737115 -0.08953052 0.2461924 -0.29021052 -0.048476014 0.30687228 0.12941691 0.00642418 0.040766444 -0.16850704 0.13805585 0.1841025 -0.19854935
座椅 0.44281203 0.26850998 -0.10491551 -0.19600047 -0.35716712 -0.10209606 -0.011266571 0.18848625 -0.8248895 0.6777705 -0.1606518 -0.13425146 0.017541759 -0.32806468 0.05270471 -0.30081233 0.14346464 -0.25151554 -0.764871 -0.009838931 0.14456098 0.041644204 0.34861612 -0.061120726 -0.3846094 -0.12639709 0.65605754 -0.024553861 0.4147754 -0.018014785 -0.05102239 0.2733308 0.07646433 -0.03570433 0.44592974 -0.2416515 -0.24000995 -0.21572095 0.17124723 -0.1708551 -0.46217868 -0.10504377 0.58671 0.3110442 0.4141049 0.2870756 -0.22144526 0.02279641 0.101709045 0.16470711 0.026970783 -0.05469356 0.26837182 -0.008541081 -0.5571358 -0.69612014 0.63124925 -0.3765326 -0.104788534 0.14535502 0.07587016 0.16841184 0.29741374 0.4894023
