4696 64
的 0.019703109 0.29026923 -0.078891784 -0.17690575 0.17084761 0.052372154 0.02267604 0.05933493 -0.21498947 0.005002261 0.10009809 -0.1555731 0.011247751 0.025957325 0.087302 0.0436091 0.008686842 -0.039704677 -0.3181423 -0.10142691 -0.109655425 0.0717541 0.13197677 0.05168952 0.006111961 0.1535377 0.1025212 0.05556098 0.12612623 0.20867574 -0.0568091 -0.0120047275 -0.15638648 0.23226352 0.028325228 0.016428398 0.21073273 -0.1292346 -0.3380752 0.27655485 0.06712353 0.06687953 -0.014568936 0.053089663 0.23730275 -0.087828174 -0.062710606 -0.3334826 -0.209223 0.18904121 -0.15680973 -0.15627463 -0.111786075 -0.07079195 -0.015213217 -0.2296171 0.14470349 -0.121703595 -0.19158317 -0.15837291 0.045445617 0.11495927 0.15487832 0.08302155
了 0.026848173 0.25680172 -0.18155554 -0.14344583 0.02553139 0.14984573 -0.011422918 0.0251559 0.013004161 -0.03303973 0.14884935 -0.25630087 0.04531805 0.019738562 0.04424265 0.06986228 -0.053697474 -0.07092913 -0.11142062 -0.09227351 -0.2438613 -0.17859355 0.04285336 0.021552872 0.04977083 0.008825485 0.05385587 0.11344491 -0.031459108 0.19915473 -0.17370854 0.0060812407 -0.036011722 0.19143368 0.034870733 -0.23745528 0.23146366 -0.148749 -0.35769746 0.3107154 -0.035448875 -0.049148306 0.08152825 0.0761504 0.02063392 -0.0046853945 0.09578147 -0.46291357 -0.16447267 0.05030272 -0.24533884 -0.044271097 -0.080493174 -0.19247714 -0.08521004 -0.043287423 0.11547336 -0.22515403 -0.16309501 -0.17685947 0.058549758 0.22383122 0.20200007 0.11249359
是 0.059611257 0.12289489 0.006692283 -0.11607957 0.13455056 0.15531248 -0.09195024 0.09049693 -0.080229804 0.049936343 0.094757274 -0.1608041 -0.018077115 0.12788881 0.15248975 -0.016431434 0.036453005 -0.12373416 -0.33821425 -0.042468585 0.008790913 0.09425712 0.15354107 0.06540549 -0.0036460212 0.04924256 0.13884541 0.019318014 0.08995438 0.31651884 -0.073151514 0.087180085 -0.16794755 0.2762468 -0.00021041768 0.008471376 0.20501837 -0.16366173 -0.33981764 0.26863548 0.09190858 -0.069498844 0.095883705 -0.036252894 0.20085412 -0.06744497 -0.153972 -0.31242326 -0.026040746 0.13986775 -0.14233977 -0.096794315 -0.071963325 -0.10358853 -0.022346864 -0.17118452 0.24889708 -0.17362882 -0.26660907 -0.028367937 0.22199172 0.074267045 0.1683424 0.15399505
我 0.19459853 0.13263267 -0.2147666 -0.22283679 0.11509528 0.16133362 0.016631953 -0.13692275 -0.16367443 -0.11704572 0.17196645 -0.12151157 0.029029202 0.12732062 0.04887278 -0.12933038 -0.0009577459 -0.27672866 -0.281796 -0.089135565 0.018670337 -0.061527148 -0.07664671 0.118799925 -0.05819284 0.055438604 0.1260492 0.07251549 0.018540422 0.21575584 -0.020753523 -0.055091944 -0.120456085 0.14445399 0.0014073574 -0.15261751 0.13293315 -0.14535433 -0.19696446 0.18498185 -0.08624567 -0.043621495 0.1795046 0.008247622 0.07059929 0.043202754 -0.06457869 -0.39748493 -0.09607485 -0.04173477 -0.2553535 0.032714523 -0.10274873 -0.36607927 -0.09810824 -0.06783445 0.1551713 -0.21924205 -0.29537377 0.0021094999 -0.0035029273 0.32029733 0.2599332 0.17811175
也 -0.029935075 0.22548948 -0.012773929 -0.21030055 -0.014480491 0.021936573 0.017887603 0.0753279 -0.05973727 0.15042074 0.06964649 -0.13085587 -0.011745529 0.103605166 0.071393505 -0.012551462 0.09386837 -0.11010187 -0.19681562 -0.15858184 0.06309899 0.06776047 0.10773118 0.07249015 0.05738772 -0.015422536 0.13212349 0.031801626 -0.16278803 0.10246237 -0.27961522 0.11392998 -0.08671312 0.25684243 -0.09531943 -0.20795871 0.0581062 -0.23792656 -0.27068135 0.17295325 0.023597859 -0.0010768 0.16307597 0.114931785 0.29270583 0.03349214 -0.016374812 -0.37131354 -0.21211825 -0.06292575 -0.23452051 -0.051380053 -0.18150356 -0.16196494 -0.23358367 -0.21467684 0.09499714 -0.20076568 -0.15323944 -0.0728926 0.1726409 0.27895707 0.14377262 0.1275498
就 0.013916342 0.3829971 -0.19517677 -0.012240522 -0.058488384 0.023084369 0.064426415 0.16798423 -0.036873594 -0.22005254 0.13167441 -0.07156394 0.052654784 0.034146287 0.2903386 0.05975477 0.13345969 0.046685446 -0.22602212 -0.038641453 0.10224754 -0.07290317 0.27197963 0.20754811 0.21416466 -0.07074866 0.16999681 0.08814932 0.047934264 0.32185256 -0.18514167 -0.106542654 -0.109882295 0.12508355 0.010097717 -0.14934893 0.2363463 -0.09172539 -0.030349743 0.1973468 0.09042246 -0.102847174 0.03240637 0.026195623 0.21320242 0.06412935 -0.08521831 -0.38399902 -0.06550938 0.18150394 -0.21505713 -0.08439231 -0.16011113 -0.18644491 -0.32075053 -0.13836798 -0.115803786 -0.1410666 -0.22909983 -0.15333346 0.16144505 0.22486442 0.24853253 0.08379164
不 -0.010506748 0.25153497 -0.07644789 -0.06053923 0.048090998 0.16275652 0.2117918 0.2992041 -0.08827306 0.034341384 0.12035853 0.03506569 -0.0230772 0.043579027 0.10233108 -0.05005028 -0.06768582 -0.11348424 -0.42864078 -0.12992352 -0.0014669454 0.21648616 0.061148405 0.0026592424 0.18314674 0.038597003 0.07216615 0.20872922 0.12588744 0.04389171 -0.07481553 -0.12462715 0.06714967 0.1977624 -0.13336666 -0.05664069 0.20408103 -0.21442156 -0.28764257 0.24694023 -0.0040549566 0.09029364 0.029776588 0.06626205 0.09414452 -0.06172503 -0.06037395 -0.47856593 -0.1788619 0.23108612 -0.1369267 0.05510437 -0.16163716 -0.18080969 -0.3931034 -0.11276794 0.1388668 -0.15053047 -0.36572337 -0.023112506 0.12883587 0.20431828 0.17740524 -0.02545248
都 0.15298271 0.01307169 0.028464243 -0.124046326 0.03552323 0.06616057 0.063877486 0.07035315 -0.11114892 -0.14660817 0.15776753 -0.21290536 0.17202759 0.05407177 0.12586461 0.034859117 0.066939846 -0.05655324 -0.30757925 -0.052032292 -0.19845931 0.004179662 0.14707619 0.19477986 0.0955105 0.2122921 0.25580132 0.18809861 0.075863756 0.21345535 -0.23601083 -0.075313486 -0.1262897 0.21418938 -0.024400072 -0.14340167 0.18113635 -0.14100541 -0.1960188 0.1951992 -0.04223839 0.060280297 0.060449075 0.056447644 0.33677724 -0.014615634 -0.21635742 -0.40061277 0.012263369 0.12775283 -0.12197231 0.022706598 -0.07626488 -0.057736676 -0.13619037 -0.025023855 0.073843814 -0.12919793 -0.17984408 0.026235657 -0.018218985 0.12489089 0.15906052 0.16822323
你 0.17199828 0.0017619673 -0.079164885 -0.1043721 0.15577812 0.011386034 -0.006387022 -0.079905525 -0.09671945 -0.027025571 0.13572203 -0.2150947 0.020067472 0.031693064 0.27880082 0.09410513 0.07174167 -0.31959775 -0.16804425 -0.015411336 0.17499134 -0.04299568 0.18321607 0.13062005 0.047454003 0.3048367 0.16379568 0.25551897 0.06132779 0.13207209 -0.17236744 -0.037245564 -0.104408935 0.39415553 -0.008720221 -0.12468751 0.14898159 -0.19336069 -0.3954489 0.32222658 0.046467755 0.06135504 -0.018965583 -0.08103646 0.086263 -0.14949504 0.103165224 -0.34339845 -0.06373159 0.057005484 -0.124053955 -0.08199003 0.14624147 -0.061012585 0.022929797 -0.07327214 -0.118070245 -0.09427734 -0.37578365 0.12737311 0.09649325 0.255219 0.31113884 -0.13084202
人 0.26282373 0.064220995 0.034636173 -0.4411139 0.11683255 -0.07558145 -0.042158958 0.04658163 -0.06601718 -0.01678395 0.024425242 -0.25851157 -0.011638512 0.37029192 0.12329662 -0.31205165 0.049135298 -0.2461424 -0.4184125 -0.42496276 -0.2594355 0.08166978 0.2302597 0.099880196 -0.08942929 0.1533976 0.07798761 0.22941022 0.077589594 -0.035922505 -0.36724767 0.029073562 -0.10320786 0.4844264 -0.07604135 -0.102350146 0.16883974 -0.21710618 -0.36833784 0.044648632 0.13860402 -0.045836255 -0.0059538614 0.030133065 0.39513156 -0.14560345 0.09038994 -0.23996925 0.123363554 -0.0029628708 -0.36938956 -0.0578289 -0.051235408 -0.12041058 0.031974528 -0.25168723 0.093050465 -0.23737417 -0.40403196 0.11408224 0.042396557 0.06999649 -0.027001925 -0.067309834
森林 0.29857576 -0.08545878 -0.053207133 -0.5522007 0.2096959 -0.1157924 -0.08752889 -0.090152964 -0.011744409 0.018585885 0.022116762 -0.35306638 0.11548935 0.36931846 0.10140964 -0.042765472 0.015014387 -0.3586061 -0.53966737 -0.22118722 -0.17163824 0.039019607 0.17507187 0.06332511 -0.23182204 0.11220628 0.016954008 0.17797689 0.051229205 0.064195536 -0.35733563 0.13537984 -0.17894739 0.52525336 -0.33329415 -0.056182977 0.2659764 -0.11770293 -0.24571991 0.15525496 0.118012376 0.15545923 -0.04755507 0.030264178 0.51657254 -0.032165665 0.105861284 -0.19295198 0.096308485 -0.1496348 -0.34130308 -0.09506578 -0.06487978 -0.056578808 -0.036691047 -0.33596647 0.24034382 -0.11602684 -0.37396494 0.02293444 0.020528298 0.05224745 -0.10978296 -0.08315139
有 0.04184697 0.30138043 -0.006324827 -0.071726695 0.14126694 -0.07600311 0.00034649577 0.005511901 -0.030097084 0.03169756 0.09606706 -0.084091 0.09831239 -0.024961203 0.18752438 0.00057497376 0.11025133 -0.15577759 -0.1800316 -0.06079739 -0.20515792 -0.013921555 0.20924103 -0.009278703 0.12866001 0.047776837 0.009020837 0.07448243 0.13572355 0.4939569 -0.017326415 -0.029155634 -0.06905514 0.17970116 0.20557435 -0.19738859 0.2569025 -0.1495143 -0.3750025 0.29768932 0.04357878 0.10395448 -0.045426518 0.009822834 0.2986057 0.034705196 -0.036504842 -0.2719613 -0.29167414 0.3332076 -0.16625708 -0.18211699 -0.00015523819 0.038603853 -0.03726582 -0.2615668 0.10887466 -0.20687816 -0.1571019 -0.066429324 0.37589294 0.076621994 0.22174102 0.028412849
和 0.08290808 0.14391136 -0.048786033 -0.11380275 0.2562474 0.26529092 -0.05969562 0.12095625 -0.013992298 0.0041040694 0.046389658 -0.28295392 0.03013076 0.09434044 0.13917483 -0.042171374 0.025879681 -0.09447113 -0.38982615 -0.09190365 0.01870547 0.063595995 0.33516654 0.07606467 -0.12625308 0.1230178 -0.02732436 0.027216703 0.04091467 0.2756965 -0.12571768 0.06928428 -0.25575694 0.39323243 0.0039443676 -0.02039767 0.27615678 -0.17645627 -0.2292021 0.23198569 0.3537745 0.035273407 0.091957144 0.11133211 0.22047873 -0.07271837 -0.14926909 -0.34686854 -0.08539037 0.13855328 -0.33459875 -0.014055935 -0.24903281 -0.09405186 -0.034091935 -0.29597884 0.14936131 -0.32253867 -0.055524047 -0.101159126 0.017693684 -0.04410413 0.07314565 -0.13482472
发动机 -0.31912616 0.42236072 -0.26428905 0.042437077 0.24813388 -0.20860751 0.008836122 0.07393372 -0.018202635 -0.11785162 0.38027877 -0.15109469 -0.14036566 -0.0088230325 0.22335856 0.23654617 0.07284464 0.3544538 -0.21626912 0.08367436 -0.16858615 0.23148853 0.25466904 0.338769 0.1653497 0.11470054 0.29153228 -0.036317747 0.13721843 0.23341663 -0.24665268 0.109246075 0.036795046 0.24766225 -0.066935524 0.1738138 0.1234393 -0.01791593 -0.34677485 0.32510394 -0.019619474 -0.18981674 0.004490509 0.19727585 0.34093872 0.100339584 0.07109513 -0.56064785 -0.09428869 0.4642845 -0.16534425 -0.18820664 -0.19659688 -0.006152191 0.22703257 0.029119343 -0.019214164 -0.06351259 0.05027104 -0.11796339 0.070498705 0.03624211 0.18323456 0.26701838
油耗 -0.018167444 -0.058024213 0.023648974 0.017424785 0.2007647 0.17802966 -0.42162952 0.2547463 -0.46968794 -0.04388064 -0.020360997 0.08640976 0.12855281 0.10057548 -0.06342565 -0.13984786 -0.24713872 -0.179801 -0.15974224 0.1950453 -0.28577617 -0.11215011 -0.20979202 -0.14977519 -0.21174856 0.07762633 0.10606279 0.05526789 0.08760424 0.14035238 -0.00314897 0.13669726 -0.27250397 0.4936953 -0.075662956 -0.07669293 -0.019860778 -0.20713611 -0.17031948 0.22508141 -0.17102395 0.19139913 0.3041566 0.18184486 0.2600127 0.12680335 0.47160938 -0.6613531 0.26131043 0.05885719 -0.76839924 0.53936785 -0.15292594 0.052499384 0.20512314 -0.16056247 0.3203306 -0.018357672 -0.18821241 -0.24364391 0.22081718 0.28038156 0.11845348 0.22603002
机油 -0.37316462 0.24526806 -0.42006403 0.17191957 -0.32140148 -0.2132393 -0.14762582 -0.093907 -0.20263648 -0.20204456 0.25746343 -0.2509523 -0.025767233 0.0007041047 0.3118715 0.14218031 -0.21007496 0.0098202005 0.02291247 0.1321113 0.005308111 -0.16431125 0.21159856 -0.074653916 0.23291275 -0.10896575 0.5065024 -0.0027020364 -0.14518736 -0.016347595 0.121859364 0.124700114 -0.16795066 0.15937176 -0.1878973 -0.0956876 0.38560608 -0.0063540926 -0.36368397 0.17032748 -0.027668826 -0.028771317 -0.061603006 0.25838122 -0.07728176 0.22289321 -0.1892448 -0.63771874 -0.28131127 0.105054006 -0.2953039 -0.5560775 0.117503904 -0.16400875 0.4967737 0.18797031 0.014538221 -0.41515943 -0.43176967 -0.14248085 -0.058782343 0.18839504 0.43439898 0.30036068
在 0.099275604 0.19573103 0.1337364 -0.10548517 0.08721404 0.10946354 -0.20277312 0.21177715 -0.12966904 -0.15223676 -0.039941844 0.06242282 0.27143723 0.20697588 0.12510405 0.05200407 -0.015328024 0.013970521 -0.09517031 -0.14788641 0.0576612 0.10988219 0.16481942 0.16093232 0.038975395 0.055726558 0.060253393 0.12330163 0.19127558 0.1552545 -0.16640021 0.08283923 -0.28897637 0.09887582 0.0685618 -0.13555297 0.23101638 -0.23177306 -0.23363307 0.32042798 0.08819538 -0.022047097 0.027306588 -0.0146044 0.39128742 0.07305295 0.13600165 -0.16934898 -0.15033251 0.13182199 -0.20953493 -0.16275655 -0.1173562 -0.070280254 -0.16474949 0.01719209 0.03563714 -0.14404097 -0.2226193 -0.04430029 0.24443422 0.29453212 0.4121529 0.23140417
车 0.14354548 0.16478947 -0.13903382 -0.08348578 0.046727095 -0.023355272 0.2285478 0.17123951 -0.08463742 0.09177685 0.07713824 -0.09921012 -0.18913218 0.05032319 0.24470024 0.041179538 0.1254959 -0.09133001 -0.44044158 -0.27883878 0.013666852 0.0029051565 -0.12135191 -0.069390155 -0.025022916 0.19784127 0.06732028 0.09959436 0.13604972 0.18648721 -0.170866 0.038123082 0.019105295 0.43132094 0.050515626 -0.16479382 0.14996138 -0.13079873 -0.2114034 0.043855216 0.16851594 -0.021082403 -0.05368473 -0.0033639213 0.39567783 0.12736492 0.08650669 -0.49459764 -0.05267191 0.11035093 -0.28219348 0.082056366 -0.19275485 -0.09860703 -0.0088694645 -0.06584593 0.0068128724 -0.05451753 -0.26761428 0.15404509 -0.04520261 0.22004822 0.2544649 0.19067271
好 0.027882684 -0.10979149 -0.1537997 -0.03791747 0.17001553 0.14205426 0.0702761 0.06555775 -0.216768 0.027788434 -0.25965983 0.009832584 -0.052335285 -0.032295533 -0.019342717 0.1380592 0.20044614 -0.007483334 -0.35565853 -0.06675603 -0.15885665 -0.060294222 0.16956282 0.2651933 -0.24130939 0.16402349 0.28010446 0.11134128 -0.11257345 0.16961557 -0.24149518 -0.18302193 -0.24144149 0.45922756 -0.12089144 -0.34596044 0.20817012 -0.07511933 -0.18699566 -0.0033861008 0.120883636 -0.050747152 0.1719202 -0.043689426 0.16451874 0.13623782 -0.077858366 -0.36132756 -0.112378076 0.062449753 -0.1527674 0.22988985 -0.31997332 -0.18251546 0.07593562 -0.23254688 0.20504102 -0.083706245 -0.26379478 -0.237102 0.31159484 0.34787998 0.08817011 -0.04332899
可以 -0.08594653 -0.05846448 0.07147616 0.0753735 0.4632497 0.056521744 0.022847602 0.035783384 -0.20134808 0.07890231 0.11763831 0.05365878 0.091532655 0.12374954 0.22095639 0.2622418 0.065243274 0.062608704 -0.062786944 0.0031638506 -0.027964527 0.048927885 0.21264485 0.063728444 0.29356238 0.26460975 0.1760662 0.20595118 0.28106943 0.37624058 -0.03516635 -0.0682889 -0.19498593 -0.026724212 -0.06856729 -0.24951671 0.20027171 -0.15081902 -0.19652273 0.17553598 0.16633116 0.20927644 0.08561456 0.057381585 0.054221425 -0.009992351 0.05690044 -0.29541633 -0.17743836 0.16252297 -0.19595216 -0.09115197 -0.32037333 0.010952068 -0.27717644 -0.3847997 0.058720216 -0.20373702 -0.26401442 -0.20185886 0.12894401 0.284193 0.19094159 0.020704724
价格 0.35401237 -0.024623381 0.09767017 -0.03405101 0.040974546 -0.0074635586 0.036245797 -0.04690289 -0.31007904 0.23966503 0.18045658 -0.029692903 -0.021119682 -0.071458235 -0.031083763 -0.15101734 0.10740883 0.10932003 -0.58155245 -0.12129429 0.0118555045 0.11437578 0.41385904 -0.03433131 0.076763585 0.17532243 0.17795691 0.10338199 0.16359924 -0.11653785 -0.114970356 -0.15837929 0.031444293 -0.008007586 -0.093294755 -0.16421267 0.13267966 -0.20126522 -0.38057083 0.40823123 0.13018617 0.44750732 0.08558356 0.11882775 -0.054219432 0.16664407 0.015893204 -0.36692774 -0.17336246 -0.28997108 0.080584936 -0.18948558 -0.14032447 0.31660512 -0.18573856 -0.13088468 0.07610013 -0.6122166 -0.4041885 -0.07119221 -0.12327376 0.55511147 0.21616852 -0.21429917
动力 -0.07531622 0.31833762 -0.04257603 -0.034721904 0.006062621 0.1825717 0.21521789 0.24260634 -0.18445379 0.036986694 -0.3675873 -0.021867275 -0.31707752 0.26747355 0.29022217 -0.0659136 0.077443324 -0.07358094 -0.28331706 -0.27998438 -0.41271693 0.37662476 0.20842287 -0.12070919 0.037701078 0.08343652 0.13618307 0.465423 0.17964493 0.28428373 -0.4129261 -0.20787537 0.036831666 0.32669404 -0.37747163 0.031451423 0.29516667 -0.14930269 -0.18074577 -0.21665965 -0.075616546 0.17286128 0.048067488 0.05303732 0.50609 -0.1028377 0.34115684 -0.44145823 -0.06606663 0.23153841 -0.64418536 0.01898959 -0.23988841 -0.104456104 -0.09931278 -0.3454631 -0.32732427 -0.11606688 -0.2727168 0.08840477 -0.024950458 -0.053705968 -0.0196651 -0.051503435
没 0.08472782 0.23777835 -0.19951053 -0.1310082 -0.15944318 0.015714835 -0.05505016 0.21595442 -0.07551724 -0.25267306 0.053299088 -0.094667986 0.12034095 0.1860471 0.22778301 0.06276271 0.01396714 -0.13190468 -0.32516816 -0.04303054 -0.03365328 -0.15894261 0.050305445 0.06129825 0.019610215 0.20038176 0.1805826 0.14096487 -0.0056035533 0.2747589 -0.12568282 -0.08740143 -0.07414047 0.12736206 -0.075444445 -0.18864404 0.20129484 -0.24765924 -0.2350227 -0.02764879 0.09891245 -0.07528616 0.16439557 -0.024883628 0.033414885 0.23776333 -0.10960462 -0.47403398 -0.07134154 0.13102977 -0.16150291 0.0035618562 -0.1120413 -0.18112278 -0.015075971 -0.19519025 0.031049 -0.1536853 -0.091738395 0.035003632 0.08713712 0.29553786 0.07982486 0.13748397
就是 0.2375875 0.27359936 -0.24643017 -0.047198974 -0.12388044 0.17102309 -0.10949224 0.05181651 -0.21460767 -0.042518627 0.020297246 0.15854374 0.03276094 0.08497382 0.12465674 -0.123431996 0.06854536 -0.008543929 -0.3794948 -0.13915913 0.15064172 -0.047418516 0.092338845 0.15222129 0.0038235525 0.26749188 0.14362662 -0.02711449 -0.036264006 0.30948645 -0.14804895 -0.095177874 -0.15780337 0.19238757 -0.20642483 -0.12517852 0.27905464 -0.38650376 -0.31660765 -0.047685042 0.098054975 -0.08327365 0.032536883 0.030122425 0.20563282 0.20031106 -0.1959829 -0.3344834 -0.14118837 0.2165183 -0.27344298 -0.20758043 -0.044196174 -0.09661735 -0.09332561 -0.24939454 0.17809151 -0.20874605 -0.08104375 -0.19217724 -0.06617905 0.28706768 0.27006555 -0.070038326
吧 0.024199894 0.15006474 -0.08974477 -0.052225433 -0.017606653 -0.01051142 0.11356501 0.21850708 -0.09635632 -0.0938912 0.2620778 -0.088319965 -0.007075148 0.041892804 0.2604003 0.10625958 -0.10389061 -0.06241451 -0.2584768 -0.23993328 -0.11779182 -0.11652303 0.17737132 -0.08558355 0.20769614 0.23016854 0.25526422 0.009186711 -0.15184982 -0.04860522 -0.141334 0.07336337 -0.2531465 0.1824251 -0.11504914 -0.19620855 0.264439 -0.084440604 -0.11649603 0.23576225 -0.038306076 0.10308925 0.15840606 0.10089487 0.24536867 -0.021296687 0.14158599 -0.42433423 -0.05245014 0.23369208 -0.11101374 -0.10627245 -0.16569108 -0.03189201 -0.06978027 -0.27439216 -0.13657138 -0.25560996 -0.033087883 -0.06888416 0.14312387 0.37055978 0.23333444 0.07672261
没有 0.058377273 0.19804372 -0.02604745 -0.12710819 -0.07621814 0.0227758 -0.1262137 -0.05184096 -0.07795079 -0.0024947412 -0.022162091 -0.4751298 0.007868645 0.16546132 0.45927235 -0.06479097 0.09074543 0.068489745 -0.4866651 -0.10682607 -0.19999444 -0.042997472 0.007821908 0.14663465 0.10808367 0.10620168 0.27731368 -0.030361269 -0.017156774 0.16504005 -0.30675423 -0.042769127 -0.06405582 0.3140165 -0.05829389 0.03850441 0.39362535 -0.23242627 -0.2083752 0.23938656 0.0074201347 -0.13614194 0.025484746 0.03597266 0.044551294 -0.037489265 0.12980998 -0.27668563 -0.12592958 0.25188923 -0.28137508 -0.088603936 0.047210693 0.17760658 -0.12122248 -0.26159903 0.057933863 0.016260449 -0.29147705 0.022499356 0.07873006 0.032358542 -0.038644176 -0.02197045
还是 0.17250736 0.26578042 -0.11257498 -0.1355639 0.10094558 0.026905771 0.077137016 -0.033145104 0.015483536 0.1021617 -0.09856909 -0.0215937 -0.096869364 0.22685255 0.043027192 0.13928045 -0.07092572 -0.008205996 -0.27173764 -0.12070148 -0.19744214 0.03115698 0.16716601 -0.19932356 0.023482686 0.10633079 -0.0642554 -0.04108688 0.030823132 0.06454194 -0.3126513 -0.10629191 -0.18286002 0.22341655 -0.34784472 -0.21597144 0.29442242 -0.12325717 -0.24345574 0.15299891 0.015066456 0.1552232 0.06751839 -0.043269183 0.30667803 -0.14178602 0.039773542 -0.39869127 -0.2687352 0.04862053 -0.32044417 0.075456224 -0.21279366 -0.09318229 -0.07755827 -0.4477355 0.05035173 -0.36528876 -0.26434013 0.032015704 0.1290968 0.16389734 0.19277932 -0.11794161
还 0.2828947 0.1767904 -0.0023878964 -0.34891418 -0.015725225 0.15598719 0.036972336 0.075568125 -0.37489066 -0.15963359 0.20686178 -0.16966525 0.18887505 0.10607885 -0.023773847 0.18949331 -0.13367243 -0.079585455 -0.39233986 -0.11340815 -0.123329066 0.2297854 -0.028861139 -0.0016804966 -0.08756852 -0.083712175 0.16791269 0.333621 -0.19137341 0.105852365 -0.07926177 -0.12995432 -0.042901885 0.2975066 -0.2267109 -0.13442816 0.18047994 0.048744753 -0.3371358 0.1637764 0.21783333 6.562532e-05 0.07934383 0.016132342 0.22188625 0.2937089 -0.07745519 -0.40130505 -0.027396046 0.06877866 -0.16841789 0.02112911 -0.10658933 -0.03361705 -0.17628108 -0.3376396 0.24165599 -0.2572532 -0.15402488 -0.21390052 -0.048920207 0.30125245 0.09950478 0.15562192
这个 0.13907303 0.13121039 -0.023055796 -0.12662959 0.16817792 0.0693482 -0.057543796 0.068396546 -0.14124995 -0.12799412 0.008517824 -0.01922519 -0.14742012 -0.15056777 0.23393415 -0.028857637 -0.14697942 0.03272292 -0.29909757 -0.031164734 0.099485785 -0.13263741 -0.056558024 0.06958195 0.23425817 0.17116782 0.1587383 0.14989838 0.23083453 0.06145501 -0.26066703 -0.07288114 -0.12786748 0.10903176 0.052943476 -0.12392087 0.2879013 -0.19068342 -0.25980434 0.33177444 0.024629524 0.13026826 -0.051923983 0.06590594 -0.10022641 0.0039956667 0.15048546 -0.4881076 -0.2848389 0.22008847 -0.113466 -0.14485337 -0.18685497 -0.02967221 -0.039605968 0.07271446 -0.03269497 -0.031248298 -0.25838205 -0.1136655 0.102581576 0.11534679 0.057918258 0.006866639
很 0.026698973 0.18514434 -0.10336422 -0.060946025 0.43723893 0.04354364 0.2627653 -0.08517285 -0.17789903 -0.008004712 0.020240366 0.15701142 -0.082386516 0.19877772 0.18391924 -0.15781352 0.08128868 -0.0898934 -0.26818508 -0.09196713 -0.07171388 -0.09250956 0.11639687 0.16198224 -0.065816596 0.12511714 0.31397188 -0.06664414 -0.017839927 0.17587839 -0.08929858 -0.26323095 -0.09706336 0.159822 -0.23846202 -0.23472716 0.21946865 -0.0034566117 -0.22654814 -0.10528727 -0.09330876 0.0547169 0.09044713 0.036764093 0.22025548 0.06721676 -0.1282381 -0.68361783 -0.014582964 0.10020482 -0.15794723 -0.027845073 -0.39309946 -0.24780434 -0.03978257 -0.11646349 0.16813666 -0.10754354 -0.20460844 -0.24522705 0.1707385 0.05273185 0.07196993 -0.014124889
要 -0.07652798 0.22216424 -0.21382526 -0.20517875 0.22866139 -0.11894951 0.15869471 -0.018385373 -0.08280557 -0.08208147 0.24276578 -0.019174408 0.07780988 0.23430428 0.33338615 0.21740416 -0.0345589 0.023722319 -0.35502496 -0.019673029 -0.13713147 0.1779222 0.27601284 0.089887865 -0.16075182 0.11486325 0.2292579 0.10830429 0.059136927 0.1290025 0.006987735 -0.09057696 -0.05769591 0.19218355 -0.0269252 -0.15354529 0.17916077 -0.016479459 -0.30818346 0.003230738 0.08286822 -0.016724579 -0.11464502 0.11823215 0.17903359 -0.1811269 0.08054448 -0.32218683 -0.2809421 0.21613987 -0.3392919 0.036063846 -0.031182751 -0.34785107 -0.26929182 -0.18059875 0.17672488 -0.32231873 -0.12999043 -0.1207351 0.06339541 -0.06347047 0.19316156 0.21650465
买 0.5504211 0.21404006 -0.21469347 -0.18559529 0.23812138 0.10090544 0.1908885 0.16607073 -0.1703315 0.031195754 -0.17115162 -0.19875114 0.08858732 0.09026835 0.26187918 -0.07292835 0.14683372 -0.11004564 -0.37478307 -0.2928787 0.06534417 0.0015720667 0.05447997 -0.12200267 0.004211801 0.18846613 0.08471494 0.32932377 -0.14353265 -0.079717495 -0.17063668 -0.20000896 -0.13062486 0.10517153 -0.062444184 -0.12692374 0.22210465 -0.21237728 -0.3257457 0.047167506 -0.011444958 0.16368124 0.008666819 0.14821358 0.12742643 0.07354511 0.056589805 -0.49574056 -0.20219171 -0.1707284 -0.06664792 -0.36879227 -0.08190226 -0.12537105 -0.05300446 -0.2327335 -0.16718143 -0.33998767 -0.37322465 -0.22552463 -0.19014795 0.2866979 0.12394491 -0.2841649
说 0.15051004 0.15852216 -0.1165895 -0.18483347 -0.05343047 0.14933778 -0.1286233 -0.107681364 -0.14326075 -0.0459858 0.1221101 -0.24153012 0.10567657 -0.08770532 0.08095342 -0.02594836 0.081185326 -0.025858404 -0.2547865 -0.24637818 0.33881947 0.056668207 0.041629445 0.13454628 0.2532092 0.08353483 0.07155154 -0.12676585 0.012119988 -0.072252944 -0.10745483 -0.016903464 -0.09327984 0.11019595 0.014720795 -0.21523175 0.26456392 -0.031585254 -0.3909288 0.21525414 -0.014366167 -0.08279609 0.1549482 0.019784471 -0.0074179694 0.12949346 0.11554531 -0.31866622 -0.34086803 0.12991773 -0.28333086 -0.26119384 0.19415982 -0.3942667 0.027117278 -0.2120395 0.078732826 -0.2210504 -0.4423007 -0.12722804 -0.029735642 0.30402163 0.18848115 0.022476787
大 0.00034671897 0.25546348 -0.118200436 -0.13980308 0.027572412 -0.11393125 -0.04421339 0.13190399 -0.39567655 0.11450306 0.009998863 -0.1338466 -0.07653731 0.33126518 -0.10805472 5.3897926e-05 -0.052724775 -0.052555453 -0.29784283 -0.29377422 -0.23940572 -0.06115244 -0.012727716 -0.009914931 0.028621864 -0.13466714 0.0050253104 -0.14434631 0.06894516 0.38621932 -0.2774227 -0.031185413 -0.14043093 0.35729373 0.026237544 -0.19461997 0.2835187 -0.3534472 -0.20817433 -0.044724945 0.16815981 -0.1490354 0.13511689 0.1641772 0.17472835 0.16110398 -0.119488664 -0.2332189 -0.18098707 -0.052432563 -0.4655805 -0.10732071 -0.16709745 -0.16156906 -0.3017439 -0.28965306 0.28104547 -0.24340507 -0.2445151 -0.32837832 0.12311092 -0.14340244 0.17298526 0.1912086
比 0.34307685 -0.049717832 -0.0077673723 -0.15276872 0.273728 0.04313603 -0.18701679 0.26845834 -0.17602178 0.22111242 -0.28692868 -0.1796417 0.1989872 0.44952908 0.28647736 0.0924059 0.021480916 -0.116598144 -0.4810931 -0.10483865 -0.46502304 -0.017008055 0.14823076 0.034230534 -0.4283308 0.030667027 0.07042728 -0.12908962 0.047369562 0.10175589 -0.22482376 0.18676527 -0.059010427 0.25988194 -0.33030793 -0.35160136 0.08556266 -0.46024302 -0.2878209 0.44669533 -0.19565287 0.04122325 -0.12090893 -0.16794199 0.22378868 0.17164548 0.088418394 -0.43063742 -0.10241697 -0.00010733596 -0.36843532 0.17266975 0.0036536725 -0.3619501 -0.19051929 -0.3260321 0.19845644 -0.10410677 -0.1296748 -0.026391609 0.1526888 0.07429597 -0.10707547 -0.016415847
换 -0.28323656 -0.05943347 -0.11916117 0.31807595 0.014779199 0.14143324 0.25850707 -0.088255 0.16471715 -0.08596039 -0.08483908 -0.4719274 0.29046503 -0.114905566 0.22647193 0.23816234 -0.30367997 -0.1007751 0.0038646688 0.13080275 -0.099890135 -0.20600268 -0.045901556 -0.048847806 0.016278649 -0.15901174 0.34329394 0.1408741 -0.30403474 0.23833707 -0.09166601 -0.44164217 -0.21787952 0.08425486 -0.12799452 -0.32802352 0.38186815 0.008467931 -0.42023048 0.43255493 -0.04994161 0.045654755 0.05359088 0.47395414 -0.28568634 -0.13005 -0.08361221 -0.57301086 -0.19964157 -0.18661316 0.08513023 -0.30254963 -0.0096296985 -0.25436142 -0.043345887 -0.25790402 0.2069738 -0.41372663 0.026450414 -0.44635424 0.20598546 0.46486285 0.23938811 0.19201863
用 -0.08324367 0.32638535 -0.16939066 -0.02830397 0.034705076 0.28743392 -0.08072621 -0.20297612 -0.14435902 -0.1360029 0.0006944776 -0.25557858 -0.113191985 -0.07935054 0.38251075 0.30879882 -0.15564321 -0.24307398 -0.11675295 0.17762281 -0.2096635 -0.33721134 0.21649034 0.20338018 -0.052526597 -0.244085 0.35258305 -0.013424892 0.114982426 0.041646015 -0.06592886 -0.28748995 -0.0731945 0.14337492 -0.12885232 -0.47416282 0.26690337 -0.38510078 -0.12991463 0.12603101 -0.08831749 -0.16512278 -0.081897154 0.021108141 0.102241985 -0.08675871 -0.011413291 -0.41147554 -0.10975814 0.026884465 -0.22079858 -0.059815146 -0.13620317 -0.13576403 0.02618643 -0.18331483 0.03503016 -0.26067904 -0.14736569 -0.22096246 0.32276216 -0.009681065 0.3869669 -0.06555271
问题 -0.17341483 0.29104003 -0.04085691 0.06985259 -0.25487792 0.019476773 -0.012452608 -0.06660887 0.12149283 0.08860114 0.20978633 -0.2701032 -0.15969624 0.11878806 0.16265137 -0.11532727 -0.009456886 -0.03415108 -0.31937176 -0.09056392 -0.28826934 0.11688802 -0.07770982 0.09516419 0.275138 0.24424866 0.09810566 0.08259476 0.04292797 0.1424436 -0.16574216 -0.029492859 -0.19890578 0.3556405 0.21357925 -0.0714297 0.26408878 -0.13970901 -0.27893096 0.13942152 -0.18037263 0.22527546 0.03326715 0.10657417 -0.15651241 0.13971558 -0.076115295 -0.41022745 -0.12306108 0.43816525 -0.24132949 -0.11601888 -0.30554974 -0.09776893 0.0141718155 -0.03933789 -0.04892788 0.06550842 -0.09884824 -0.08435598 0.2941513 0.31601614 0.28394005 0.16567177
上 0.2136281 0.35474682 0.15198058 -0.055588752 0.19424142 0.23683307 0.13823521 -0.00040625816 -0.10612559 -0.28290498 0.035442226 -0.22897081 0.24866825 0.32867768 0.09206525 -0.15109916 0.122725956 0.13446476 -0.16927104 -0.112735435 -0.11998156 0.1812532 0.3083359 -0.20401077 -0.08087643 -0.052058775 0.14082897 0.11800116 0.24803902 0.27000573 -0.21716274 0.060612384 -0.08262128 -0.07980786 0.18712778 -0.34303743 0.098813884 -0.24300209 -0.34861964 0.12107324 0.030326977 0.10014345 0.17257442 -0.09278675 0.19368736 -0.090090126 0.19971798 -0.40509653 -0.18891476 -0.0006314151 -0.32286114 -0.068005644 -0.19587336 -0.22199659 -0.32206526 0.050853096 -0.03230463 -0.12057208 -0.03725844 -0.10152714 -0.009771465 0.06365853 0.16853869 0.41974464
看 0.06711313 0.053820983 0.16775937 -0.029862802 0.35035685 0.02050736 -0.050725788 -0.17177005 -0.13955155 0.011151744 0.020629067 -0.11308627 0.12294098 0.27518487 0.03881929 -0.11555381 -0.016441744 -0.28414598 -0.271558 -0.11443911 0.13942477 -0.0483156 0.24611606 -0.055825032 0.060167104 0.09745899 0.05303248 0.16095334 -0.083514236 0.17608131 -0.122689 0.13599288 -0.32620007 0.08068483 0.023953428 -0.1497321 0.14699657 -0.26235214 -0.31202734 0.2522105 0.057137128 0.09931067 0.057826236 0.06373385 0.03565562 -0.086534426 0.032931402 -0.32963318 -0.2573517 -0.033501137 -0.3528222 -0.11906033 -0.03502001 -0.12936227 -0.057543337 -0.21065699 0.06997725 -0.29536185 -0.27226597 0.010076462 0.16284181 0.5117805 -0.0084110815 -0.12149419
内饰 0.15104383 0.238256 -0.12823461 -0.4482464 0.119146615 0.28903082 0.07270908 -0.28528318 -0.08508493 -0.25083476 0.31975397 -0.0071684625 -0.062068395 0.31183282 0.11919593 -0.25505993 0.40365177 -0.10264434 -0.7409735 -0.101866715 0.3708868 0.44483697 -0.1890856 0.06857332 -0.32591078 0.17431371 0.20200564 0.17890185 -0.29261994 0.43786725 -0.37624013 0.0012846178 -0.24480236 0.33465698 -0.5069839 -0.6302998 0.19263805 -0.10342831 -0.25547245 -0.009398616 0.17641199 0.4100668 -0.17826384 -0.27882582 0.44581464 -0.2429112 -0.025353964 -0.13087772 0.066230014 0.32920355 -0.5562708 -0.19901063 -0.17501834 -0.11379878 0.11568611 -0.25294492 0.16383307 -0.542741 -0.020454092 0.011064761 -0.2465108 -0.3066288 0.11828735 0.037382584
这 0.09837701 0.18832529 -0.08305265 -0.096728146 0.07425891 0.23044918 0.23561783 -0.017308198 -0.25392476 -0.21072248 0.28092977 0.029288126 0.03127013 0.00998433 -0.14735205 0.09240316 0.17624104 -0.15909071 -0.44186893 -0.2620844 0.012386758 -0.22512732 0.100217246 0.09381592 -0.004027604 0.12948368 0.13564914 0.12682976 -0.07105342 0.08631046 -0.21586455 -0.26551113 -0.027475758 0.24924959 0.089275725 -0.15253489 0.093633704 -0.18206273 -0.19028993 0.31175745 -0.09486108 -0.061904076 0.029982284 0.049874965 0.23128651 -0.007273249 0.030671556 -0.509449 -0.046618767 0.13788062 -0.1380493 -0.060921557 0.0371984 -0.06299692 0.09505068 -0.13805245 -0.011635523 -0.288514 -0.44889697 0.015107675 -0.038366016 0.15461639 -0.016978914 0.037462905
款 0.18005402 0.22633731 -0.1315779 -0.23820251 0.17506778 0.16310017 0.11490406 -0.13043703 -0.25393537 -0.062552065 0.14995167 -0.09490762 -0.17891291 0.0933774 0.08217334 0.015721079 -0.1499899 -0.19895591 -0.28209713 -0.041218765 -0.17069076 -0.15644628 -0.32302213 -0.2177357 0.0125589175 0.024161775 0.29408628 0.12922393 -0.017612498 0.28557986 0.20624767 0.13455258 -0.16718832 0.12896849 -0.15841791 0.028359069 0.3347361 -0.018525818 -0.18762623 0.24575067 -0.16831721 0.12412704 0.15254417 0.038095355 0.20146641 0.11007972 0.14516576 -0.4349451 -0.3517997 -0.016814202 -0.32720125 -0.28099504 -0.10283259 0.2079592 0.3259551 0.003794327 0.0128858145 -0.400841 -0.09812492 -0.26163507 -0.03365007 0.36578485 -0.024528991 0.21978994
感觉 0.17661133 0.17864364 -0.32232463 -0.1838243 0.11681756 -0.08955942 0.2699117 -0.08530793 0.061207853 -0.036368802 -0.06025818 -0.19727856 -0.11754277 0.18815662 -0.3010533 -0.046805847 0.025711808 -0.12131299 -0.5543807 -0.098618045 -0.19845144 -0.081880644 0.029266583 -0.16174994 -0.066437125 -0.07385863 0.06938288 -0.013014779 0.032920543 0.6920994 -0.11576686 0.020139687 -0.06410548 0.32142022 -0.20864306 -0.12366023 0.28294677 -0.08180495 -0.0312026 0.022792617 -0.24128048 -0.065158725 0.29811254 -0.23987834 0.054007493 -0.14622991 -0.11273514 -0.47618923 -0.33354512 0.14412348 -0.50808203 0.40346396 -0.29947695 -0.26868394 -0.09702624 -0.26387295 -0.053982645 -0.11788811 -0.29619086 -0.4130096 0.07303118 0.22651356 -0.23156872 0.21081427
多 -0.0399218 0.34897158 -0.05910481 -0.08919589 0.0035282709 0.11478478 -0.109505326 -0.019712172 -0.27978587 -0.025887974 -0.19737855 0.14371036 -0.024991864 0.1205886 0.21917103 0.050303753 -0.1804569 -0.13226329 -0.38463643 0.049451966 -0.122105755 -0.03661178 0.069203064 -0.12121787 0.032258727 -0.011061358 0.17160596 0.3420611 0.0032018619 0.14168982 -0.17392732 -0.08399674 -0.20655617 0.15876396 -0.23173763 -0.109566405 0.048159923 -0.124528125 -0.44470614 0.15879214 0.10953558 0.10886993 0.11455447 0.1056906 0.1385759 0.17960596 0.045536313 -0.32692882 -0.0124309985 0.24114439 -0.38745 -0.20941608 -0.24406144 -0.0030521604 -0.4309103 -0.15706089 0.040259585 -0.05638248 -0.24258001 -0.18315157 -0.0011452086 0.35896927 0.0865187 0.029040199
开 -0.0047602337 0.068005085 -0.27899876 -0.11326531 -0.0526877 -0.01326884 0.11299325 0.23167284 -0.21299337 -0.033921797 0.1446085 -0.05907877 -0.075314544 0.13886659 0.10642911 0.02973164 -0.20035914 -0.26666975 -0.22451915 -0.19291586 -0.29786748 -0.042095907 -0.1846024 0.12723085 0.018074863 0.03767082 0.073314466 0.20269409 0.20933072 0.36251608 -0.1682943 -0.04623679 0.027063929 0.011988846 -0.053508442 0.019902164 0.18662775 -0.23853463 -0.021051634 -0.097290784 -0.01025082 -0.26395053 0.16616835 -0.2673707 0.15031448 0.15384434 -0.029518208 -0.73097587 0.2512555 0.10361218 -0.25486755 0.2394329 -0.2925765 -0.24718152 -0.07857136 -0.0075476225 0.398026 -0.023321083 -0.50151205 -0.23942636 -0.025136331 0.38961834 0.1420061 0.42566562
会 -0.25901005 0.25366965 -0.10423773 0.044994652 -0.012342995 -0.19979052 0.34430683 -0.055748515 -0.0076948814 -0.00485314 0.038320985 -0.06966395 -0.047211986 -0.041272055 0.00092279667 0.123949885 0.11704722 0.10935246 -0.2054522 -0.10042927 -0.13469654 -0.024624098 0.4383498 0.22441989 0.42178687 0.1426095 0.28608236 0.07450228 0.06302291 0.5275273 0.0886765 -0.24656698 -0.040385697 0.02677909 0.08503116 0.11142919 0.24643779 -0.18073681 -0.08673485 0.28133962 -0.15836643 0.15840809 -0.018308045 -0.014224653 0.21993372 -0.17401788 0.07553232 -0.49385035 -0.025410578 0.3423749 -0.4699323 0.03987119 -0.44510525 -0.06614261 -0.066365704 0.0636895 0.096520774 -0.08114769 0.15831749 -0.12652746 0.072212435 0.11337823 0.14875816 0.17353061
不是 0.06691689 0.44819158 -0.3128582 -0.20337893 0.081349164 0.2495157 0.13228616 0.01686304 -0.10467996 -0.06873766 0.14668716 -0.16664185 -0.077272296 0.039865613 -0.018688746 0.026205698 0.033276744 -0.097269796 -0.3668128 -0.22690377 0.07018353 0.43945485 0.24320178 0.20863864 -0.08227163 0.082922176 -0.010701459 -0.035310384 0.15023184 0.15102413 -0.13848297 -0.1786369 0.07368246 0.08659828 -0.051386077 -0.2770849 0.2452547 -0.0882266 -0.20064811 0.14066005 0.12621856 0.11733745 -0.12821919 0.05941427 0.29996002 -0.1802749 0.06328006 -0.25703552 -0.28845432 0.3650605 -0.09159691 -0.25768647 -0.043113735 -0.4483143 0.12366885 -0.12960432 0.1120256 -0.09348399 -0.36793908 0.04225594 0.10868346 -0.014688339 0.042409357 0.20856762
空间 0.28308904 -0.041557446 0.039804503 -0.3497473 0.18411346 -0.22259851 0.17567581 0.31624645 -0.2432676 -0.11885075 0.035294108 -0.22955751 -0.021697845 0.33739406 0.29297692 -0.092709035 0.043601096 0.14134675 -0.6252892 -0.42823133 -0.046787445 0.23040102 0.27888343 0.016719282 -0.49423906 -0.073869035 0.030831067 0.2741751 0.32693705 0.026163807 -0.3405493 -0.3303976 -0.50110334 0.60560447 -0.24790667 -0.34355575 0.066759214 -0.27711236 -0.082253 -0.4022545 0.38401765 0.20174018 -0.018808398 0.3187518 0.54707944 0.08008648 -0.11200734 0.2333566 -0.20232773 -0.17996414 -0.6762991 0.022436492 -0.6134332 -0.1575038 -0.29024944 -0.47190443 0.16643059 -0.072109185 -0.3502674 0.09923755 -0.092506275 -0.0037558917 -0.039968636 0.24473062
高 -0.12561412 0.06794395 -0.19742326 0.082071476 0.19412434 -0.21277677 -0.12499374 0.20481509 -0.30818915 0.018984852 0.0018791029 -0.04461354 -0.4190059 0.043986697 0.02400309 -0.1631482 0.3184474 -0.1327685 -0.3813571 -0.14417458 -0.16697402 -0.0043588625 0.12597059 0.10231139 -0.0027942425 -0.052270196 0.26096088 0.13392258 -0.18743293 0.04867545 -0.13519157 0.04040672 -0.3391171 0.49645126 -0.20053697 -0.12545179 0.11843615 -0.3085556 -0.28698596 0.20387258 0.19144022 0.0451669 0.03747314 -0.13850456 0.39781734 0.01491713 0.22094056 -0.3204352 0.068557836 -0.06364624 -0.3094677 0.18951546 -0.39239568 0.0076581584 0.11553743 -0.31391564 0.12613133 -0.23184524 -0.00610859 -0.2860517 -0.008164905 0.057773486 0.09879426 0.043586623
啊 0.35422692 0.6385756 -0.38083047 -0.2659567 -0.048161414 0.07696588 -0.06802149 -0.2335354 -0.30477607 -0.04918574 0.06732794 -0.05393883 0.04871253 -0.1739956 0.26397038 -0.15571664 -0.015432089 -0.25538507 -0.28377405 -0.10405069 0.24142638 -0.040303174 -0.10696564 0.10565137 0.038342565 0.007914178 0.12561382 0.1588081 0.08151298 0.054693963 0.00789231 -0.19898917 -0.129235 0.07305493 -0.014216266 0.02848358 0.28727186 -0.29128543 -0.31933686 0.1879457 -0.009673916 0.065038726 -0.037530843 0.018156784 0.05077244 -0.07899118 0.098668076 -0.47824314 0.055029202 -0.101721875 0.07089237 -0.0018443149 0.18315464 -0.270668 -0.18760538 -0.22085543 0.12916054 -0.2950749 -0.26713455 -0.16585752 -0.18805388 0.15441641 0.15274814 0.07395937
配置 0.04299126 0.394007 0.27059487 -0.23305783 0.1426031 0.18606114 -0.018817052 0.031468727 -0.23336622 0.2617045 -0.11545231 0.23322819 -0.3606093 0.014950303 0.33931997 -0.46614924 0.21422024 0.20173913 -0.50396156 -0.42648628 0.11149066 0.24786483 0.011693245 -0.11252942 0.10977272 -0.004968958 0.12254812 0.2814933 0.49683306 0.21826422 -0.45286778 -0.23244545 -0.59453636 0.36693558 -0.30571678 -0.21208207 0.09087845 0.0061441124 -0.24549395 0.24552587 0.41647246 0.398265 -0.12901963 -0.08187178 0.41956133 -0.12758467 0.0757347 0.0012817797 -0.044131067 -0.04182319 -0.026083807 -0.017214002 -0.41071883 0.60975564 -0.05986512 -0.32601663 -0.058899906 -0.5277825 -0.7034627 -0.02890787 -0.23168051 -0.11212236 -0.2988498 0.2636047
烧 -0.23033065 0.5126967 -0.503213 -0.257333 -0.59782326 -0.050862107 -0.28112355 -0.16339292 -0.22247232 -0.02373405 0.2884434 -0.51220655 -0.1363203 0.06897412 0.066649474 0.12276281 -0.29276872 -0.13737409 -0.1510163 -0.20640247 0.23678556 0.16759655 -0.23865007 -0.089202955 0.45052043 -0.17947647 0.605475 0.3619393 -0.06792954 -0.08584137 0.06449218 0.50152075 0.054533787 0.03856668 -0.4689986 0.1883828 0.19662943 0.019037325 -0.3178734 -0.06629337 -0.041701443 -0.1380957 -0.02468679 0.12124358 -0.09784395 0.22916907 -0.09387226 -0.56881577 -0.22515763 -9.337663e-05 -0.5248657 -0.41762668 -0.062588304 -0.23037651 0.6093421 0.119279966 -0.025571408 -0.58396596 -0.3742528 0.0022380068 0.13020195 0.19013123 0.39139012 0.25894672
斯巴鲁 -0.043958835 0.38148868 -0.13969061 -0.39819837 0.011936808 0.054269213 -0.11851492 0.1351419 -0.07362927 0.25703546 0.052800626 -0.17864965 -0.08743552 0.030653207 0.21883035 -0.15298426 -0.25453305 0.0028173884 -0.6918047 -0.08917122 0.28008273 0.18653066 0.34724197 0.44637534 0.25217706 0.14789024 0.2382008 0.171218 0.23334093 -0.20534173 -0.19964635 0.17010374 -0.19031341 0.18002954 -0.17192231 -0.13945812 0.25742212 -0.1325628 -0.40114024 0.44065478 0.12366817 0.022221738 -0.036908142 -0.19012381 0.1346733 0.12411132 0.109749466 -0.3198333 0.06727727 0.11789921 -0.09415806 -0.29926285 0.071090564 -0.07803447 0.037341747 0.133113 0.02588604 -0.34545064 -0.18892844 0.24429204 0.2657478 0.014327382 0.12361195 -0.25743946
现在 0.19106531 0.23027606 -0.20537122 -0.44291508 0.033634722 0.23072712 -0.038707405 0.28055707 -0.38244626 0.091976434 0.10822267 -0.28835016 -0.111469194 -0.03642609 0.023280734 -0.028952168 -0.17601176 -0.17454761 -0.34553832 -0.054727234 -0.10807032 -0.11895559 -0.24183536 0.08608885 -0.03306338 -0.10180382 0.31567892 -0.0018622755 0.061670844 0.1513013 0.121846184 0.10664188 -0.116553724 0.06385029 -0.080309644 -0.15025716 0.22453533 -0.2309412 -0.12012315 0.1681353 -0.14733441 -0.044948522 -0.038790725 0.28051296 0.04193153 0.0028253898 0.15173803 -0.60450333 -0.16014358 -0.037911315 -0.07146667 0.058008954 -0.31622827 0.035941433 -0.057338126 0.011987862 -0.07460854 -0.4775427 -0.20279336 -0.11492105 0.21095529 0.37184864 -0.08762896 0.070512496
刹车 -0.33377162 0.037183776 -0.42987597 -0.1006082 0.2965918 -0.01509061 0.48183337 -0.17260534 0.22096209 -0.15612975 -0.34804925 -0.28367102 0.37031204 -0.26813284 0.02237518 0.08243472 -0.077797405 0.002726362 -0.042613145 -0.19292529 0.45839086 0.016258677 0.25433463 0.17889506 0.38388464 0.50388014 0.26774728 0.0706444 0.20702705 0.6113273 -0.03611218 -0.30189186 -0.14305092 -0.15651451 -0.055207383 -0.017698208 0.22590333 -0.14914931 0.06702027 0.5636913 -0.22386438 0.024176583 0.29656824 -0.028457971 -0.15660843 -0.36133748 0.094556674 -0.6494504 -0.18221045 -0.047940735 0.071304426 0.36238667 -0.23344432 -0.611378 -0.28614375 -0.13366885 -0.06959512 0.2163547 0.34363616 -0.00955683 0.50840366 0.3963422 0.09975068 0.48150012
过 -0.0648181 -0.013748635 -0.21024352 -0.08184385 0.09251393 0.1856067 -0.079727724 -0.023079133 -0.17026596 0.02846626 0.07344223 -0.45077547 0.13791941 0.06603992 -0.12642506 -0.027792266 -0.103835404 -0.18637575 -0.16602515 -0.2300945 -0.2536317 0.26311877 -0.14763322 0.13526775 -0.1927834 -0.015240676 0.15404232 0.29681322 -0.34208313 0.089432694 -0.4378067 0.07631797 -0.08976566 0.35556147 0.19907393 -0.17242418 0.28991047 -0.15096302 0.014582201 0.31484523 -0.12586345 -0.105101086 0.20058271 0.05706481 0.08882733 -0.28123537 0.08632025 -0.38819626 -0.14060955 0.13599592 -0.3353427 0.1213575 -0.11961566 -0.3461771 0.21737142 -0.29707503 0.2611554 0.041167773 -0.37376657 -0.21738014 0.06926725 0.3268095 0.0004012279 0.35939524
到 -0.09339832 0.08963273 -0.19974397 0.063790016 0.019783033 0.12348046 -0.16901474 0.15248545 -0.36412203 -0.23247606 -0.09464417 -0.14189911 0.04431045 0.121832825 0.08736714 0.01983214 -0.0054890234 -0.08344404 -0.07340286 0.2862996 -0.1898255 -0.06767013 0.20182404 0.027970703 0.13953842 0.035799902 0.2957486 0.110900916 0.20281412 0.36181045 -0.20568632 -0.047501083 -0.024708213 0.22140951 0.15274742 -0.026955344 0.16939846 -0.22376834 -0.38306537 0.42267832 0.34960806 -0.12560225 -0.15352358 0.027535414 0.11997165 -0.002543315 0.34719038 -0.29402283 -0.16873792 0.1263227 -0.030229526 0.063385874 0.17924093 0.018017976 -0.13718662 -0.04076299 0.3011989 -0.30962765 -0.15046723 -0.37854844 0.24591553 0.23305182 0.12767889 0.4033224
去 0.26311362 0.10616002 -0.30936602 -0.034658354 0.15242563 -0.019057589 -0.117261894 -0.19586174 -0.1897705 0.032149542 0.23401344 -0.16208933 0.048785623 0.1079896 0.13047452 0.19709836 0.16477707 0.07816479 -0.18161815 0.012418615 -0.15533704 0.286674 0.32419354 0.18644023 -0.22578752 0.27847785 0.13439888 0.25094122 -0.11883733 -0.055809453 -0.54880655 -0.024115322 -0.24192588 0.1957016 0.2158351 -0.03512607 0.3160588 -0.16117217 -0.20095448 0.51107997 -0.15482719 0.08181979 -0.23754303 0.026932107 -0.028456803 0.06478101 0.0064450307 -0.2596586 0.008455483 -0.21180566 -0.06304133 -0.06282657 0.0759651 -0.23257597 0.17240229 -0.07996716 -0.2433496 -0.28435856 -0.5330824 0.040024273 0.056760028 0.5312064 0.064943835 0.09424323
一个 0.2723386 0.12567182 0.1421438 -0.25107443 0.091916725 0.18510415 0.027066007 0.17708702 0.08258208 -0.34234846 0.29206756 -0.13210906 0.16970238 -0.2220624 0.209191 0.21625847 0.08591385 0.0025527133 -0.18347616 -0.116855666 0.017917007 0.058912463 0.5486967 0.052133337 -0.105876684 -0.039001383 0.19757023 0.32127222 -0.02724852 -0.04117346 -0.13249418 0.0074593727 -0.116007514 0.14186335 -0.19846359 -0.09397727 0.20740701 -0.31713232 -0.44397712 0.39309576 0.11842372 0.13684916 0.0058854246 0.16304871 0.12745199 -0.19218408 0.042787552 -0.402106 -0.11544498 0.10129216 0.05942121 -0.020030782 -0.15161116 -0.06348987 -0.12498713 -0.29576853 -0.019086447 -0.0035986078 -0.22795053 -0.12644735 0.20607276 0.045733742 0.14977373 -0.17351674
什么 -0.039983258 0.09002415 0.02632218 -0.33112565 -0.14966232 -0.018792564 0.07562985 0.013282344 0.09861721 -0.038078092 0.06793262 -0.40346944 0.0003126302 0.03111484 -0.0007198859 -0.1841655 -0.037265476 -0.24280126 -0.09950241 0.28045613 0.13085485 -0.009602231 0.16815579 0.19183215 0.2651254 0.104700536 0.1386192 0.009555469 0.03685084 0.10474254 -0.2777561 -0.13658728 -0.1419928 0.19385454 -0.063409165 0.0389 0.33185363 -0.17354904 -0.31244522 0.35206532 0.10522802 0.066724926 0.034335088 0.04823369 0.26460674 0.064399004 -0.005663237 -0.3715493 -0.17785066 0.16852254 -0.1863693 -0.067968786 0.41396672 -0.31148586 -0.21877386 -0.2291474 0.071500964 -0.1861515 -0.24944596 -0.056775317 -0.0027970595 0.29465243 0.30520034 -0.08024585
四驱 0.32081372 -0.172372 -0.08063603 -0.42902684 0.1428942 -0.05491168 -0.21080853 0.05999189 -0.20743382 0.060443424 0.16259302 0.04247043 0.19551533 0.07589936 0.40129504 0.07769954 0.20779057 0.09922359 -0.6154262 -0.49282894 -0.14341976 0.11576284 0.2933169 0.47869104 -0.25964403 0.031052554 0.41306534 0.09719176 0.21268755 -0.14566466 -0.62135345 -0.030440189 -0.013360018 0.78478307 -0.30657437 0.123988084 0.48186573 -0.1982892 -0.25485274 0.17833626 0.05436699 0.03413304 0.18184699 -0.044003878 0.50146323 0.16134556 -0.06663811 0.089537814 0.28876397 0.064549915 -0.16740848 0.32529435 0.03310817 -0.20186682 -0.017105259 -0.19730034 0.21330874 0.019135138 -0.4200828 -0.16668904 0.121252805 -0.010168072 -0.30126104 -0.05892488
如果 0.09072745 0.058915194 0.03909276 0.33608997 0.09379669 0.054564506 0.08171317 0.10663236 0.019303387 -0.111046985 0.03437476 -0.079837926 0.08992887 0.12189636 0.1873507 0.11112962 -0.024578808 -0.018187614 -0.25540337 -0.059398845 -0.13377918 0.3135453 0.14890094 -0.04109358 0.27867362 0.19195253 0.11899246 0.12404158 -0.0019241053 -0.10277019 -0.10111336 -0.06799399 -0.26991656 0.22302464 -0.046818674 -0.05654164 0.22972664 -0.3517674 -0.258875 0.094601385 0.0012537106 0.34647968 -0.080841266 0.3048908 0.23598869 -0.014037157 0.11980544 -0.4159378 -0.2033417 0.17629579 -0.3594346 -0.21747549 -0.17112719 -0.2704607 0.07213149 -0.21810476 -0.09899219 -0.33893624 -0.055659577 0.22459291 0.06671326 0.25213537 0.19884214 0.1830974
跑 0.30045483 0.12189134 -0.2787889 0.36304006 -0.0076870243 0.3554039 -0.21855228 0.25366157 -0.00997594 -0.24122289 -0.1052815 -0.066624716 0.09747798 -0.0045606624 0.01576639 -0.004006285 -0.037110586 -0.25346786 0.06127892 0.168174 -0.13060343 -0.15286615 0.054266326 -0.18747297 0.094518036 -0.053007927 0.21141233 -0.021858549 0.021186674 0.089612596 -0.17954165 -0.08490027 0.056511678 0.3047718 0.1202661 -0.1338247 -0.004482149 -0.069863446 -0.38878363 0.41644508 -0.3294224 -0.2073846 0.41596925 0.11190461 0.009716942 0.38447636 0.5109423 -0.4285462 0.33842427 0.19947475 -0.48632446 0.4200563 -0.1533714 -0.17074856 0.1947813 -0.021951914 0.4798994 -0.19898874 -0.048605613 -0.45819488 0.12909052 0.24598722 0.41670266 0.54630345
高速 0.14723802 0.30456147 -0.26378202 0.14999413 -0.035960313 0.115902685 -0.16017433 -0.009142861 -0.051093914 -0.36509094 -0.037230995 0.07557499 0.21494794 0.32814196 -0.07779706 -0.0038613304 -0.27933976 -0.17559537 -0.03042234 -0.039517637 -0.37209365 0.0724023 -0.091239534 -0.06389677 -0.13311535 0.05749012 0.43668872 -0.008303806 0.10576716 0.3966553 -0.2897539 0.12932338 -0.25256953 0.068417795 0.08078153 -0.04073858 -0.027835853 -0.12119379 -0.24874644 -0.09021418 -0.12690337 -0.036937874 0.65598696 0.044789407 0.37579134 0.31090143 0.39054924 -0.466582 0.29661703 -0.052232794 -0.68198305 0.490261 -0.14065415 -0.13358931 0.096523955 -0.35320124 0.31581983 0.13148902 -0.08567765 -0.2359709 0.15443671 0.2822864 0.24877085 0.57366925
但是 0.26619416 0.37146494 -0.33404464 -0.52549976 0.041327536 -0.14149179 -0.020505883 -0.011748431 -0.0051875203 0.05290339 0.1374907 -0.14392923 0.009428995 0.06336997 0.13432619 -0.32340047 0.08966647 -0.09067543 -0.3119289 -0.15152346 -0.17589992 0.11245576 0.19254458 0.020481544 -0.119486816 0.116314076 0.2305709 0.2597087 -0.054549783 0.103673354 -0.15961725 -0.25027737 -0.28504187 0.11670108 -0.11829592 0.11745597 0.24135375 -0.24691187 -0.39808846 -0.03586018 0.121316575 0.18825324 0.093848616 0.06996275 0.19126861 0.13298076 0.016059337 -0.12855987 -0.20520586 0.0009901103 -0.19818619 0.23341429 -0.2034496 -0.3839359 -0.036720388 -0.1746352 0.06582964 -0.10232878 -0.34611365 -0.14690177 -0.09586408 0.052805316 0.2560429 -0.017760294
操控 0.17956637 -0.3429273 -0.144178 -0.48880956 0.022546966 0.078184746 0.22989585 0.35048887 0.086842336 -0.08914616 0.03653799 -0.33175528 9.4011906e-05 0.17271389 0.23218575 0.045223657 -0.07825461 0.09699149 -0.5457662 -0.40539652 0.12538986 0.032768775 0.13088275 0.115167305 -0.38726994 0.35146385 0.043513596 0.111234434 -0.278823 0.20610891 -0.5550806 -0.049325462 -0.25022855 0.3941061 -0.4922074 -0.066692434 0.14821021 -0.5005257 -0.04970299 -0.12930354 -0.0913233 0.15971749 0.20363404 -0.10747895 0.60994554 -0.0784632 -0.06062197 -0.16847202 0.034227643 -0.0015232922 -0.4356294 0.4302745 -0.2655882 -0.31707993 0.22900465 -0.6082736 -0.023636661 -0.14981052 -0.30517393 0.1287408 -0.037453406 0.19303522 0.03970123 -0.12347614
一样 -0.03460301 0.05584774 0.22054902 -0.035171036 0.23109627 0.28623244 0.33336186 0.033523824 0.03012826 -0.042328857 0.07439798 -0.2738054 0.06474861 -0.034845717 0.11620917 -0.111869045 0.010666231 -0.31699127 -0.39681306 -0.17389016 -0.18191463 0.30853006 0.18351497 0.18636854 0.1000214 -0.15926225 0.1553787 0.10247192 0.2349659 0.42631677 0.08719334 -0.25888085 -0.1876137 0.13676879 -0.21874183 -0.035813317 0.33896792 0.034725584 -0.27464184 0.37269974 0.10748912 0.09599828 0.0058242613 0.06826287 0.27403823 0.027270796 -0.28265956 -0.42922541 -0.33744597 0.28382614 -0.096727066 0.27892002 0.08186065 -0.14364927 -0.12556204 -0.20590678 0.023503462 -0.21789506 -0.112513475 0.027663607 0.19042288 0.09976059 -0.161008 -0.064018495
吗 0.07055135 -0.0577092 -0.19040476 -0.22363865 -0.07425232 0.077480145 -0.03625777 -0.15829791 -0.11140254 -0.16859801 0.057876308 0.124172606 -0.1658564 -0.16043708 0.15330778 -0.036104143 0.11353216 -0.49241054 -0.34669846 0.05583484 0.12569295 -0.10839133 0.23900576 -0.09548256 0.095308006 -0.036980003 0.05568356 0.37858763 0.21574992 0.47960886 0.03952066 -0.28064892 -0.083124615 -0.04726801 0.034673627 -0.18393755 0.49276274 -0.32251358 -0.23594292 0.70027614 0.027802398 0.12764601 0.13256262 0.18371977 0.029289916 -0.10678118 0.25107533 -0.3623012 -0.15969427 0.16333336 -0.039889563 -0.3744443 0.21024352 -0.1589464 -0.27068758 0.17226675 0.25870124 0.058910925 -0.10418164 0.1768648 0.018312888 0.22897936 0.26474446 0.07660842
导航 0.1502588 0.24074322 0.26672235 -0.5210314 0.16412471 0.521722 -0.37173292 -0.44327492 -0.21963324 -0.03699776 0.3703632 -0.18549298 0.26638976 -0.16633609 0.83263505 0.10517436 0.16390441 -0.042954303 -0.069773585 0.08804659 0.33491248 -0.27133533 -0.290193 -0.23875356 -0.17565314 0.27337122 0.5198161 0.5573289 0.57618517 0.48980996 -0.10307386 -0.382997 -0.121605344 0.09969187 0.07717583 -0.52621603 0.15608485 -0.0017422956 -0.077316396 0.3705535 -0.097456664 0.11029025 0.078717954 0.33392575 -0.018926017 -0.29233643 0.16160499 -0.42163667 -0.59062797 -0.26077396 0.28160936 0.130321 -0.07597327 0.38492548 -0.013900435 0.123110205 -0.06982339 -0.43113402 0.04138857 -0.26178688 0.5560598 -0.022533506 0.23345777 -0.28979528
觉得 0.18935525 0.21410532 -0.25497553 -0.0383431 0.1102327 0.06388982 0.16078296 0.028151887 -0.19077663 -0.14000145 -0.06605457 -0.121529974 -0.093759544 0.17385769 0.21452019 -0.07419612 0.04958896 -0.057152893 -0.65239805 -0.26591125 -0.02484659 -0.1700386 0.04645927 -0.06746378 -0.07833239 0.025521282 0.20510219 -0.1763214 0.035973087 0.28968143 -0.28982937 0.07627507 -0.43895036 -0.02661186 -0.13693984 -0.33737943 0.13030258 -0.1311997 0.03679683 0.10690141 0.13321373 -0.1511439 0.28433943 -0.3156305 -0.030504374 0.15777884 0.0015827655 -0.44126815 -0.12017558 0.07094243 -0.13137047 0.03576127 -0.21909958 -0.08199615 -0.066359326 -0.20666645 -0.03463373 -0.26649657 -0.5672397 -0.0921918 0.1154872 0.036945876 0.02932205 0.037361115
公里 0.2253202 0.17599423 0.1658522 0.0988203 -0.26174158 0.0280538 -0.24490014 -0.07783258 -0.1872105 -0.05797735 0.17129217 -0.22699088 0.18201655 0.24036774 0.10154261 -0.032344844 -0.39226606 -0.3153531 0.24319987 0.48961797 -0.1519603 -0.10001795 -0.31015947 -0.2385149 0.013025244 -0.223708 0.2653368 0.118062004 -0.19468473 0.086019844 0.068996444 0.46660605 -0.21345823 0.08216697 -0.09415351 -0.13671337 -0.04833197 -0.050585914 -0.12645139 0.38195416 -0.28263292 0.12687582 0.011918842 0.29226655 0.3341094 0.4167391 0.6396469 -0.84198296 -0.19109605 -0.005427264 -0.5276471 0.04746744 -0.14073753 0.007607735 0.33422253 0.22404511 0.27015042 -0.3840249 -0.29581246 -0.29435444 0.09465962 0.4967843 0.46139878 0.5266011
但 -0.011146656 0.12843625 0.025284275 -0.21295798 0.1424955 -0.08256681 0.111668825 -0.08500744 -0.08762469 -0.059621572 -0.020456757 -0.14650851 0.0068914415 0.33662063 -0.1552202 0.11613721 -0.18611002 0.074584074 -0.5948215 -0.10460133 -0.15260448 0.065354645 0.29861608 0.16603184 0.13124189 -0.10251343 0.14254144 -0.20694773 -0.025935175 0.29569823 -0.17257954 0.0073215594 -0.10234832 0.42332608 -0.32356447 -0.24728906 0.18560146 -0.12097982 -0.19573002 0.11173662 0.1695385 0.19803458 -0.13740806 0.040799882 0.1303154 0.1101544 -0.10577422 -0.2430404 -0.132623 0.14002116 -0.30986464 0.047969062 -0.34219372 -0.39011514 -0.009572022 -0.1526883 0.2939154 -0.33671448 -0.08765306 -0.11830721 0.11252222 0.1742443 0.0028851505 0.029224202
空调 -0.73187125 -0.104266606 0.2695418 0.22671048 0.21516922 -0.2218126 -0.16824552 -0.1394235 -0.058273736 -0.58853513 0.17386982 0.15925038 0.17610833 0.092966884 0.5427453 0.34366912 -0.25631464 -0.13895586 0.24162257 -0.15347107 -0.29753768 -0.13248006 -0.0747506 0.16842088 -0.01160863 0.40286997 -0.20817174 0.19467324 0.04764264 0.40405583 0.113559246 -0.4368966 -0.2025996 0.22672932 0.014905579 -0.076892756 0.15907718 -0.76220065 -0.2439741 0.30751956 0.017925829 0.13554212 -0.07132287 0.046547893 -0.05986072 0.07048597 -0.63273 -0.85634524 0.056318834 0.30311736 -0.14844722 -0.19646694 -0.12132272 0.022706604 -0.07254862 0.23724778 0.43579942 -0.1786039 -0.32652882 -0.21148661 -0.16165845 0.33592045 0.14086385 0.32963085
应该 -0.036429487 0.26431608 0.0449944 -0.12530442 0.08965507 -0.11923829 0.029575927 0.24239086 -0.05647506 0.0065920623 0.14035533 -0.3310266 0.03758533 0.27357426 0.02932252 0.24084581 -0.03834305 -0.16386648 -0.5030143 0.026434889 -0.16721082 0.15216525 0.43580222 -0.22397988 0.05520718 -0.012811115 0.09464641 0.3028589 0.0050122854 0.08191571 -0.18317217 -0.04521359 0.012779167 0.43102765 0.029930744 0.021952515 0.31948853 -0.21341209 -0.41199028 0.12370238 0.01265183 0.12919275 0.029310914 0.07667768 -0.11147376 -0.11794557 0.05064815 -0.27569306 -0.10331962 0.4407441 -0.3021601 -0.07399749 -0.18947914 -0.10463153 -0.20356919 -0.24443696 -0.13586569 -0.27768013 0.21049581 -0.2562046 0.093067765 0.25039414 0.00079147896 0.06093039
能 0.16339651 0.17671108 -0.07466927 0.076565206 0.09305555 0.22085144 0.13019136 0.17790475 -0.1586671 -0.14293188 0.11018219 0.0017389265 -0.038999032 -0.15366635 0.120570734 0.3902403 -0.11184099 -0.21715578 -0.22289294 -0.14414655 0.1521087 -0.10159378 0.2641897 0.20467721 0.047625292 0.14659934 0.08248058 0.12666526 0.088882044 0.10646928 -0.19857134 -0.22112241 0.013125858 -0.08346394 -0.09691409 -0.08559683 0.40280324 -0.19711325 -0.2506378 0.30659 0.24362393 -0.07105762 -0.039223496 0.020979134 0.30211198 -0.0011146305 0.14622213 -0.35709387 -0.053693406 0.16878715 -0.029243004 -0.0015226286 0.02116941 -0.047621936 -0.28333852 0.016146613 0.079350375 -0.083214745 -0.38779473 -0.124797866 0.3875423 0.18769293 0.02924542 0.028215839
比较 -0.015592919 0.47133958 0.013706055 -0.3037632 0.23138262 -0.024229791 0.11303045 0.15832186 -0.14709698 0.3095263 -0.07310814 0.002876747 -0.18885012 0.10929068 -0.096902445 -0.10777927 0.034643523 -0.08380339 -0.26009923 0.08649913 -0.19291182 -0.06422407 0.22837795 -0.21860011 -0.069516234 0.3474463 0.0062339315 -0.103111126 0.23669662 0.19465585 -0.4257024 -0.046263944 -0.29210392 0.30985844 -0.2004863 -0.2085181 0.009505925 -0.043379817 -0.18172535 -0.17172351 -0.05608346 0.2036738 0.11641755 -0.08173796 0.26027137 -0.08019268 -0.28493392 -0.2977821 -0.15201417 0.06763968 -0.35265046 0.19961098 -0.12135207 0.020875586 0.15523419 -0.46019498 0.059525277 -0.21222903 -0.4661307 -0.20661664 0.28638095 0.26352924 0.18027362 0.116243474
自己 -0.07798421 0.06382982 -0.22097838 -0.00919331 0.14016561 -0.23862143 0.10642025 0.11377567 -0.26515254 0.0527481 0.10146594 -0.28010604 0.18941586 0.118872575 0.19939162 0.018650478 -0.20634049 0.100795254 -0.009104485 0.11239847 0.025874835 0.3366824 0.09862356 -0.13226394 -0.05743883 0.3881589 0.22772628 -0.03179445 0.18778309 0.019869275 -0.25890774 -0.01465099 -0.07022586 0.11180566 -0.11399839 -0.21486484 0.1476896 -0.2365562 -0.08112072 0.34472272 0.13456374 -0.21065141 0.08269218 0.09493501 0.24403732 -0.199992 -0.1261524 -0.28827307 0.09732937 -0.13195942 -0.071294576 -0.27203295 -0.12588176 -0.35992283 -0.16864079 -0.15247832 0.021644227 -0.3485237 -0.5855405 -0.24713473 0.05742986 0.24497613 0.4409883 0.106176905
外观 0.37161586 0.15714762 0.0066033974 -0.40048724 0.3745433 0.21621339 -0.122753136 -0.008213359 -0.13616379 0.15429465 0.010302173 0.48536727 -0.31644818 0.16280144 0.13046187 -0.19892581 0.21084097 -0.23348482 -1.1297356 -0.26211956 0.34612468 0.7681918 0.068746865 -0.14860204 -0.28105652 -0.0392626 0.14740245 0.12145244 0.044021774 0.19768089 -0.13469738 -0.6249201 -0.29854357 0.27181992 -0.8457057 0.08994436 0.24922208 0.017349279 -0.28433418 0.4455186 0.09204112 0.4541154 -0.10919502 -0.0674334 0.25534534 -0.17781384 -0.11336572 -0.032262143 -0.30636337 0.20266049 -0.5545249 -0.21918137 -0.4276429 -0.07909409 0.20933938 -0.20548788 -0.213427 -0.44671538 -0.26422086 0.09060746 -0.051201206 -0.22529787 -0.031152224 -0.05670969
底盘 0.2939191 -0.0011029138 -0.0775437 -0.14851099 0.1840968 -0.096970975 0.41405535 -0.086044006 0.19918968 0.06671559 0.2468282 -0.22406782 0.038865916 0.22742733 -0.1744647 -0.33386922 0.25417757 0.16953279 0.10359302 -0.6676994 0.2110816 -0.29875287 0.30298835 0.11196538 -0.33138502 0.35401165 0.09451854 -0.44469664 -0.27018747 0.51618993 -0.46555176 -0.046771552 0.25831684 0.5755312 0.049008947 0.08441957 0.3220796 -0.013877421 -0.39791888 0.42960674 0.15978214 -0.07192153 -0.15955085 0.6953159 0.3552487 0.2828289 -0.19032976 -0.37822297 -0.1707642 0.2869523 -0.45692068 -0.07315802 -0.191547 -0.44401672 -0.08341761 0.012742466 0.17113422 -0.20007454 -0.10855884 0.09883469 0.0718274 0.0031161818 0.21651217 -0.16359171
不错 0.07000798 0.12131094 -0.28721562 -0.47871697 -0.09484954 0.44605553 0.20799552 -0.047744248 0.30058396 0.16460337 -0.22224583 -0.1043968 -0.033089645 0.12695651 0.08498814 0.052042123 -0.04378302 0.20302269 -0.27186254 -0.3289229 -0.33028787 -0.15241842 0.12606941 -0.068121955 -0.28013864 -0.035898935 0.3564358 0.04054172 0.023630187 0.17388226 -0.14464365 0.051459562 -0.056446616 0.42730358 -0.18413578 -0.5425782 0.039306786 -0.080070995 0.09636451 -0.00022269324 -0.094381474 0.2623449 0.41570532 0.1474448 0.38955137 -0.07422809 -0.23986544 -0.36436084 -0.3362296 0.24000654 -0.35437205 0.44419938 -0.3733259 -0.038165502 0.12523568 -0.19568576 0.06475621 -0.3129495 -0.43120813 -0.017505685 0.06634849 0.3825342 0.14620963 -0.20220906
变速箱 0.017778236 0.23383823 -0.38320285 -0.08121552 0.42198765 -0.13657196 -0.05981835 -0.09177775 0.14104466 0.47163984 -0.11490085 -0.2983313 0.28154978 0.23400393 0.49346936 0.25176552 -0.016138121 0.04053094 -0.07699565 -0.13044211 -0.16096236 0.327721 0.0716085 0.13730243 0.07817526 -0.1174633 0.26627785 0.09711024 -0.06938329 0.39256945 -0.042981055 0.14313468 -0.16258344 0.084134124 0.01845728 -0.06920515 0.68216133 -0.08127913 -0.29661137 0.612787 0.22261354 -0.20006832 -0.29750308 0.36898923 0.114443436 0.21395238 -0.454084 -0.5974639 0.2749104 0.5185775 -0.237359 0.022185914 0.008229465 -0.04923124 0.32676655 -0.040813934 -0.11719851 -0.25013432 0.3661766 -0.023877688 -0.32862848 0.31363365 0.39488393 0.09582126
个 0.28749502 0.23668623 0.03860404 -0.15532272 0.024579966 0.39953336 -0.100838654 0.23678109 -0.103318326 -0.17599553 -0.057372566 -0.11254647 0.17181168 -0.06487163 0.025813093 0.094758846 -0.37248117 -0.101715386 -0.1433245 0.14113095 -0.14973442 0.0598524 -0.10509895 -0.18982098 -0.024265384 0.0083657075 0.17910296 0.23383436 0.36202878 0.23174581 0.09552276 0.11806374 -0.051151875 -0.016479203 0.10983609 -0.087824926 0.28435627 -0.13852468 -0.42155293 0.4656008 -0.13636248 0.09265274 0.033096697 0.4852078 0.21231769 0.26760426 0.2416116 -0.51993036 0.5660441 0.04388012 -0.20622209 -0.019932788 -0.17310034 -0.026984405 -0.03338731 -0.2229738 0.29976833 -0.07996178 -0.21910225 0.0002927806 0.024742432 0.2178273 0.013916368 0.14224021
优惠 0.65222126 0.42381573 -0.065445036 -0.13205813 -0.075005196 -0.23248711 0.23677249 0.287844 -0.29223832 0.12040397 0.27760714 -0.14887244 -0.16753027 0.14904943 -0.055857833 -0.38073248 0.410043 -0.15569618 -0.11758313 -0.16127123 0.114432454 -0.35777637 0.122863665 -0.059514504 0.328523 0.17493255 0.066065304 -0.37822032 0.30835783 -0.014327459 -0.3864521 -0.35984173 -0.20998491 -0.2770845 0.058914136 0.030313145 0.050178815 -0.2694394 -0.12855765 0.78574383 -0.34689462 0.38881236 0.3820866 0.6894435 0.0368793 0.25658754 0.042816486 -0.41807204 -0.2876312 -0.73636466 -0.18008724 -0.5093888 0.46076113 0.6297535 -0.34374896 -0.039634217 -0.537802 -0.5552531 -0.39257893 -0.15577002 -0.22794358 0.91271186 -0.119933985 0.19637233
后 -0.004474403 0.27181703 0.024981236 -0.23525845 0.17810798 0.18131982 0.15767513 -0.07605349 -0.0090762675 0.03953523 0.21420813 0.09172774 0.05077501 -0.3333115 0.17448862 0.2770209 0.26029035 0.18563212 -0.12886076 -0.0674195 -0.040337067 -0.34339276 0.018974211 0.22317089 -0.07779042 0.14234431 0.2893843 0.07703975 0.17416547 0.46328565 -0.06555633 0.1959724 0.1346163 0.14051683 0.10530582 -0.07047388 0.1211107 -0.0056431894 -0.25453624 0.60066265 0.07490921 -0.14706029 -0.12070521 -0.004866713 0.14842497 -0.066243194 0.049593735 -0.38341963 -0.35865507 0.46088544 -0.3205102 -0.044805054 -0.30603978 -0.13869376 0.07349266 0.19003871 0.1564165 -0.1724189 0.2482589 -0.17687933 0.22928639 0.28780222 -0.01494112 0.41741747
的话 0.13461578 -0.009455926 -0.09715604 0.12782837 0.14233644 0.09477741 0.095970355 0.18139942 0.054951914 0.12778836 -0.10421612 -0.037270565 0.14316265 0.1849229 0.22612624 0.27628428 0.16965592 -0.20936199 -0.31136072 -0.18916313 -0.23535745 0.10370355 0.54074407 -0.30916807 -0.09195273 0.2091171 0.16697982 0.24333557 0.042319436 -0.06423015 -0.22520201 -0.17600252 -0.23842855 0.21351552 -0.17050801 -0.23603523 0.15375033 -0.289034 -0.080166 0.13842449 0.013832254 -0.017504895 0.060223546 0.121671684 0.28840092 -0.15549088 -0.13136892 -0.50117755 -0.14140832 0.0899912 -0.31080276 0.0112152025 -0.24157675 -0.056506008 -0.28725654 -0.57137173 -0.05431713 -0.12318766 -0.14833443 0.11275595 0.14602941 0.24259128 0.10988407 0.0042203534
保养 -0.013865955 0.040522132 -0.15971665 -0.27029955 -0.18107125 -0.17809379 -0.23475182 0.042842377 0.11333912 0.18005517 0.26683214 -0.23118901 0.3269486 0.21683957 0.116216 0.22847712 -0.103925735 0.21035916 0.02705952 0.3747986 -0.2749592 0.11668099 -0.07041238 -0.45975444 0.12414166 0.1318397 0.47749686 -0.10444648 -0.17754745 -0.085352026 -0.11876003 0.101746626 -0.14762573 0.24756446 -0.4042182 -0.25556698 0.3561508 -0.18794169 -0.4851659 0.11217953 0.18946671 0.37953836 -0.10200513 0.3242696 0.2570324 0.3481451 0.07683865 -0.36875144 0.056637418 0.05759638 0.020436874 -0.32323116 0.3379846 -0.04363374 0.27594545 0.021594292 0.045262538 -0.65147245 -0.4674327 -0.30423367 -0.08201273 0.6629165 0.6231365 0.35065225
那 0.16892238 0.36565104 -0.14273717 0.04064573 0.13558711 0.3019768 -0.01617758 0.03481581 0.05323996 -0.10542363 0.050752528 -0.21335715 0.06279919 -0.06662526 0.24096493 0.16171099 0.06174272 -0.23942198 -0.13463119 -0.22433367 0.2980747 -0.042252097 0.17657708 -0.06627584 0.27875468 0.09302855 0.16108245 0.3497322 -0.04292658 -0.029986504 -0.29774064 0.058140043 -0.1884078 0.07923793 -0.22908796 -0.12004118 -0.002275116 -0.14484072 -0.15287241 0.18352038 0.015348621 -0.017602041 0.17756562 0.08733927 0.15971239 0.14187557 0.19082376 -0.61586976 0.007437502 0.075846314 -0.13886696 -0.22614104 0.086953774 -0.035702005 -0.05346356 -0.03930143 -0.13104104 -0.24157579 -0.24528085 0.10263585 0.068560086 0.14414717 0.1477786 0.14812176
再 0.13959657 0.804142 0.053235333 -0.21767543 0.016751733 0.115884274 0.13520145 0.20962873 -0.10076432 -0.007435898 -0.056239862 -0.020657767 0.10058892 0.0545214 0.38763142 -0.115402 0.32081637 -0.15118706 -0.5517168 0.09018944 0.13818182 -0.23144159 0.2204705 0.0969384 0.20598662 0.20930362 0.28890133 0.06408114 0.026575353 0.19228242 -0.19644806 0.019380018 0.0105011575 -0.07814132 0.097145006 -0.34463486 -0.00033493296 -0.055240635 -0.051712517 0.38501716 0.031589143 -0.22114648 -0.14666529 0.057141375 -0.06642622 -0.2158388 0.09029431 -0.4497726 0.2497433 0.05619194 -0.09737018 -0.12934391 -0.053785443 -0.061208125 -0.078320496 0.059425328 0.13312678 -0.36785507 -0.10427614 0.1180933 0.033534944 0.23009571 -0.057910312 0.4641275
对 -0.29170924 0.18468112 -0.19771446 0.12999685 -0.24238224 0.007566308 -0.018741164 0.06909887 0.13329473 -0.33571327 0.05638656 -0.105101675 -0.15429217 -0.010530036 0.08975761 -0.115750626 -0.024625903 -0.09992829 -0.24875517 0.07795905 0.06322511 -0.146402 0.3251724 0.12931673 0.24920066 -0.15764189 0.0328728 0.02732162 0.048291583 0.23428884 -0.18630591 -0.17736134 -0.34234336 0.26486132 -0.044400945 -0.30193383 0.27383316 -0.39775974 -0.121460296 -0.10865585 0.082932174 0.017295916 -0.048250105 0.34885094 0.42545363 -0.18187305 0.04997415 -0.37346673 -0.2530564 0.0061507565 -0.4582879 -0.08955781 -0.35545617 0.017382937 -0.31977105 -0.16652921 -0.070540816 -0.105025634 -0.4844448 -0.08449646 0.3412969 -0.059045617 0.2270417 -0.21121378
知道 -0.0601899 0.3099773 -0.21116543 -0.2193163 0.00446206 0.17428643 -0.023511698 -0.22840922 -0.032850444 0.1505409 0.19311075 -0.06947686 -0.23937011 -0.12896354 0.0062159845 0.037091132 0.015394287 -0.4944316 -0.13422489 -0.14698789 0.19669175 0.07301875 0.0578853 0.25265422 0.14920698 -0.11219666 -0.04307202 0.22449724 0.18716258 0.27314046 -0.21828817 -0.23416935 0.07072787 0.26919794 0.07384094 -0.19102006 0.12661006 -0.06987078 -0.36902934 0.31848457 -0.1426847 0.14005515 0.08901627 0.1930082 -0.06185269 0.08379317 0.06953292 -0.30428904 -0.24143006 0.07089705 -0.3297943 -0.1483627 -0.11201402 -0.13706003 -0.26985848 -0.003154701 -0.028161537 -0.11409945 -0.14622134 -0.0904467 0.17091843 0.2985574 0.0784894 -0.109574385
不过 0.12965582 0.3281936 -0.1978998 -0.20759612 0.28784323 -0.081104115 0.16212012 0.10688907 0.119187854 0.0696759 0.20101754 -0.08017114 -0.012823686 0.20276403 0.18571126 0.15047006 0.04291407 0.18398859 -0.081899494 -0.09376228 0.23237522 -0.0106540695 0.08266993 -0.09039269 -0.065843865 0.04587182 0.13294373 -0.0660391 0.16202559 0.22930564 -0.053911563 -0.043216962 -0.07438942 0.21077313 0.16611302 -0.43291295 0.28919867 -0.31746575 -0.10064423 0.09369275 -0.114668325 -0.34435868 0.19831519 -0.24283902 0.47127315 0.0048870845 -0.068963416 -0.3745182 0.023112427 -0.05515533 -0.39813948 0.20959446 -0.23605154 0.01742084 -0.2533556 -0.24807528 0.2350464 -0.30791715 -0.19035275 -0.26772735 -0.013588552 0.3758023 -0.060875967 0.026819134
一下 0.033307523 0.15954472 0.0037250286 0.06391269 0.5067388 0.3153488 -0.040032335 -0.084795006 0.020572532 0.39951685 0.29290587 -0.08886731 0.0024750829 -0.15588845 -0.14195065 0.17390843 -0.06299206 -0.4218531 0.16721934 0.17678192 -0.11190176 0.38424113 0.18152037 0.15136325 -0.14323972 0.55475986 -0.057401285 0.020973738 0.31049934 0.48547158 -0.135616 -0.069387406 -0.0038433748 0.09651576 -0.093079135 -0.38295007 0.20198104 -0.28881547 -0.3541824 0.36512166 -0.19051766 -0.09240323 0.0858161 0.23155296 -0.13079171 -0.15113471 -0.008800467 -0.04471039 -0.1954908 0.13041683 -0.22589746 -0.10120468 0.090559974 -0.11394837 0.069675185 -0.31966528 0.31301713 -0.31450298 -0.44211596 0.071958765 -0.03468364 0.2907712 0.15252669 0.5066992
万 0.36664468 -0.016626356 -0.00978279 -0.10170591 -0.086337864 -0.109921105 0.27407497 0.21242267 0.031739663 0.038206484 0.13132206 -0.19650665 0.0074122185 -0.028135216 0.2846022 -0.241932 -0.046722017 0.18251206 -0.3905475 -0.27018642 -0.23359287 -0.12778974 -0.037921146 -0.1983644 0.13803434 0.16851816 0.13042252 0.0906893 -0.122709736 0.1305166 -0.03874808 0.41538012 -0.11024652 0.288506 -0.11700418 -0.113448165 0.4323905 0.42951733 -0.19360991 0.83511025 0.09804048 0.49722737 0.2770413 0.3407265 0.444745 0.32878602 0.22308137 -0.78147066 -0.13454054 -0.3587956 0.08085584 -0.27054995 0.07938822 0.4121902 -0.07327907 0.2649252 0.33783627 -0.68547404 0.061448723 0.07302115 -0.29476917 0.37031063 0.026634997 0.14111477
喜欢 0.5456314 0.33265087 0.019031852 -0.5480573 0.14930592 -0.3270165 -0.025782112 0.16339424 0.21927476 0.09157101 0.0017653891 0.05089329 -0.3705601 0.15659404 -0.031345222 -0.023543896 0.22333384 -0.104945116 -0.5370692 -0.17179105 0.12110398 0.36256638 0.011980184 -0.23075773 -0.34201244 -0.06198274 0.51149523 0.3800647 0.2709728 0.015802866 0.06278925 -0.43180764 -0.31990942 0.39878464 -0.23196228 -0.20496505 0.22693929 -0.41346672 0.03453663 -0.15213232 -0.02508484 -0.18629101 0.38233298 -0.09522356 0.34272775 0.25526863 -0.020034041 -0.25518054 -0.026502142 0.0013625157 -0.4281133 -0.056812577 -0.1809798 -0.44861555 -0.2814329 -0.0076697674 -0.24815387 -0.407217 -0.6030103 0.071331345 0.017368093 0.36446032 -0.0080973515 -0.1924359
还有 0.21757114 0.30720142 -0.25983664 -0.15058815 0.06595472 -0.00807531 0.017410835 -0.11045737 0.09199383 -0.12616709 0.08121201 0.07185465 -0.043786813 -0.09476019 0.19523329 -0.073202625 0.20562096 0.082438104 -0.0780986 -0.17864786 -0.17105354 0.013031102 -0.07396635 -0.046914827 -0.21215145 0.18678328 0.19244818 0.21209879 -0.0969453 0.47373044 -0.098870955 -0.27641365 -0.4240729 0.5277248 0.017530728 -0.035215423 0.26581523 -0.42121184 -0.26261324 0.35059914 0.23336112 0.027008006 0.26535955 0.30742 0.18383533 0.032616146 -0.113630265 -0.29362053 -0.09234249 0.34812284 -0.24543144 -0.3783924 -0.13831317 0.028880024 -0.16655365 -0.12132538 0.15984185 0.06083946 -0.14697808 0.32170922 -0.012283438 0.19416109 -0.011491641 -0.0029747016
更 0.13106798 0.17877942 -0.027441999 -0.24622376 0.18220718 -0.31249484 0.2085054 -0.028064186 -0.13694222 0.017016739 0.09214017 -0.18856104 -0.062206566 0.20506868 0.1629742 -0.11555859 0.111378364 0.075645566 -0.5359137 -0.14481987 -0.032737922 -0.07329441 0.55714023 0.14124985 0.2918692 0.12725806 0.084736064 0.0109667145 -0.0700102 0.13938121 0.06911872 -0.23286927 -0.014438597 0.25458574 0.02484842 0.2574521 0.3272787 0.04988905 -0.36418593 -0.18815582 0.18788528 0.11621217 0.010133305 -0.028619299 0.48523632 0.16572201 0.0132473465 -0.20477466 -0.025902802 0.08396516 -0.45261815 0.1641513 -0.38469484 -0.4592438 0.19124712 -0.4425539 0.059101384 -0.056330662 -0.23404917 -0.13576724 0.23369282 0.06911142 0.0885145 0.31398368
低 -0.4518245 0.118051484 0.118005954 -0.054267924 0.07292551 -0.034534466 -0.045106832 0.2576675 -0.25914654 -0.23213251 -0.07093731 0.2686147 -0.17842455 -0.09836159 0.11216914 -0.31475836 -0.020685406 0.20027882 -0.2871182 -0.28948787 -0.383439 -0.12404007 0.073494114 0.22368559 0.078514256 -0.20555544 0.20487018 -0.007708476 0.36912048 0.0443103 -0.36868116 0.081681214 -0.0075745326 0.96152806 -0.013058247 -0.07273417 0.45475626 0.045692354 -0.3599571 0.34012178 0.0372106 0.17359957 -0.12098688 0.086185284 0.76440436 0.35522482 0.1440612 -0.19754872 0.09481542 -0.13431723 -0.74422926 0.20155597 -0.1402514 -0.044167023 0.19551435 -0.38979504 0.35565707 0.035153724 -0.2440544 0.00955521 0.21601504 -0.23821521 0.07351575 0.10366748
性能 0.03168399 0.114699155 -0.07060367 0.07687431 0.21892875 -0.013916789 -0.14945903 -0.19180043 -0.14454392 0.1298257 -0.08731592 -0.4565542 -0.051789235 0.15963995 0.58799255 0.094658144 0.23056713 0.23427609 -0.87293833 -0.36592212 -0.31005523 -0.11287462 0.75954854 0.19245224 0.06692956 0.15771073 0.24775094 0.1578459 -0.11084884 0.030932844 -0.27185184 -0.05306379 -0.046286926 0.71878314 -0.124482304 -0.25572824 -0.056188885 -0.2685124 -0.040807378 0.18426712 0.19850677 0.20362733 -0.20573674 -0.013933171 0.19323131 -0.073850416 -0.034216926 -0.09797952 0.09263031 0.001292461 -0.5336965 0.29856607 -0.0643435 -0.016905775 0.24733862 -0.17846183 0.04989285 0.02986681 -0.20572288 0.15148745 0.064171225 0.13054729 0.25171927 -0.28846347
下 -0.033713657 0.43115345 -0.08549831 -0.27138406 0.6023155 0.27306843 -0.083229914 0.14998087 0.014021236 0.10229601 -0.02682625 -0.19142805 0.10540635 -0.25342542 0.13000016 -0.096365854 0.2542255 -0.08472426 -0.022133257 -0.12400818 -0.24901865 0.0131354965 0.24045247 0.1114224 -0.05450672 0.023233555 -0.01433675 0.11799486 0.019790992 0.19534601 -0.09619983 0.13054456 -0.048861425 -0.17612647 0.31022537 0.08904951 0.19853517 -0.25280672 -0.08234232 0.33761322 -0.04283691 0.025469104 -0.15254834 0.26227698 -0.029958736 -0.20198247 0.027213303 -0.37352633 -0.03663446 0.43361482 -0.40715355 -0.10646775 -0.050411414 0.03270816 -0.10375658 -0.23994611 0.4090663 -0.14880453 -0.3412307 -0.1181846 0.16619235 0.4778114 0.34266034 0.34908253
时候 0.05391014 0.40387446 -0.2104108 -0.14764556 0.18020831 -0.049938966 -0.10982882 0.048448145 -0.06733114 -0.10051865 0.024589323 0.08884736 -0.111108795 0.10549122 0.007437449 -0.06296713 0.12292822 -0.08671956 -0.074679114 -0.110187665 -0.2487509 -0.27444404 0.33165866 0.23576534 0.04297703 -0.045204896 0.06137686 -0.0327376 0.09361484 0.46681947 -0.22040506 -0.09120101 -0.33322686 0.2348438 -0.09226741 0.28762951 0.3040312 0.023156842 -0.28612375 0.25304845 0.044789415 -0.09717424 0.07435347 0.14342624 0.15208608 0.04107989 0.010617448 -0.4516106 -0.29505745 0.17330158 -0.09877633 0.2732032 -0.0081418995 0.030653045 -0.28444678 0.0656397 0.19105631 -0.14938094 -0.21774009 -0.041975245 0.22978464 0.12027076 0.14215316 0.4483074
给 0.44257835 0.26106963 -0.26121777 -0.17022343 -0.101453215 -0.085559145 -0.0004225915 0.033809744 -0.04747554 -0.23764764 0.2932944 0.058220413 0.0971938 0.079592355 0.2614739 -0.0059713167 0.030596294 0.115525335 -0.23886475 -0.1424106 0.111711755 -0.053976428 0.079379104 0.38843173 0.19880149 -0.05845497 0.10672221 0.18995653 0.27382138 0.13890362 -0.25292274 -0.0141545115 -0.34717178 0.0649466 0.039777745 -0.19927475 0.2720243 -0.1962557 -0.1800107 0.31244704 0.11147756 -0.0074273394 -0.06422776 0.19298416 -0.14045489 0.088016905 -0.17288154 -0.38026783 0.028174244 0.048080426 -0.01634708 -0.29104513 0.046987053 -0.29871866 0.21541867 0.40505537 -0.2739543 -0.22163792 -0.62399614 0.17278934 0.08538983 0.49173686 0.37558872 -0.05677907
一点 0.0342099 0.21067454 -0.116952464 -0.20631865 0.10949361 -0.2599627 0.11108033 0.05591867 -0.018573688 -0.12024025 -0.22037555 -0.065208964 0.10120475 0.26660892 0.30044484 -0.10186484 -0.1437164 0.09819129 -0.41205665 0.066426985 -0.44063684 -0.32365862 0.18118535 0.07252297 0.21636793 0.27966803 0.31939802 0.015473323 -0.06514984 0.26325342 -0.47193423 -0.2037079 -0.3922264 0.32827547 -0.13368717 0.026788063 -0.046137754 -0.34638146 -0.58304065 -0.020416643 -0.18151477 0.2092328 0.051959343 -0.22438414 0.18422082 0.06894816 -0.023419647 -0.21671443 -0.16409387 0.17968789 -0.22438186 0.12640171 -0.22346966 -0.018304495 0.0722724 -0.2711643 0.06051625 0.110350706 -0.192799 -0.09717727 0.12530676 0.061611235 0.025749909 0.25562888
左右 0.09226669 0.013921577 -0.15039703 0.21079502 0.11636648 -0.016614271 -0.2670998 0.39084324 -0.46284994 0.026777677 0.2794372 0.30923063 0.5071058 -0.029743362 0.05413304 0.30614525 0.03565957 0.25851953 -0.076365866 0.047534578 -0.27311715 0.04896571 0.23850766 -0.33694807 -0.32883745 -0.119566984 0.2700126 -0.0328608 0.19629595 0.52976996 -0.012796224 0.14500351 -0.37323904 -0.09340499 -0.094738185 0.36427113 0.08266065 -0.16967712 -0.25577727 0.4123763 -0.3161679 0.26249418 0.2547874 0.09962987 0.32053944 0.08691418 0.46798342 -0.76735073 0.14653012 0.0119846165 -0.51064724 0.30035582 -0.10639935 0.21969119 0.068952896 0.01638685 0.28372937 0.014061323 0.091334224 -0.28448835 0.16636676 0.64094496 0.23343812 0.29205155
很多 -0.20538452 0.15935974 0.08280307 -0.13939105 -0.12925857 0.12439493 0.26105735 -0.020322064 -0.23873957 0.19547273 -0.1669585 0.053275373 -0.076545425 0.23232366 0.2099086 -0.12075531 -0.041276533 0.08587253 -0.5699296 -0.113502994 -0.03255204 0.019860348 0.009782198 0.12184892 0.10554001 0.2097113 0.10827647 -0.2306848 0.17160565 0.33755058 -0.33189157 -0.07295438 -0.04778619 0.1606129 0.06494145 -0.49134085 0.12752216 -0.12660497 -0.16635378 0.15607022 0.029800957 0.34218827 0.11506487 -0.2641868 0.2548262 -0.021892611 0.169513 -0.18464494 -0.21912825 0.2671364 -0.2152521 0.08012738 -0.1508993 -0.028283246 -0.2789283 -0.24336669 0.26807368 -0.19122413 -0.48108578 -0.09610313 0.08330388 0.11944297 -0.12389618 0.12291671
才 0.0012360013 0.25232756 -0.12884372 -0.043761887 0.12811825 0.10805845 -0.15565538 -0.020382835 -0.04006903 -0.2633175 -0.061037123 -0.15576205 0.023407457 -0.049190108 0.32025257 0.12541842 0.039287124 -0.029804884 -0.16059726 0.08031705 -0.16835102 -0.13820614 0.032427374 0.36777484 0.0904007 -0.26040256 0.005403206 0.17868531 -0.14430147 0.10607074 -0.003112695 -0.14910926 -0.15540203 0.22578408 -0.056434873 -0.04659708 0.033895645 0.002083912 -0.23834474 0.21924052 -0.02896025 0.16062544 -0.21605921 0.025570787 0.20899908 0.09286536 0.07457347 -0.58418864 0.002006892 0.22749887 -0.34047884 0.014671495 -0.34935227 -0.17140476 -0.16713181 0.018563094 0.252405 -0.22795232 -0.1936737 0.07624098 0.14963034 0.55740243 -0.04074624 0.29102004
油 -0.09905107 0.05540935 -0.17906916 0.36928755 -0.1618726 -0.028654493 0.07899831 0.077456936 0.2549802 0.24017169 -0.24531664 -0.22808024 0.16465782 -0.039546836 0.7332725 0.15702766 -0.34108898 -0.21197027 0.3289468 0.38886547 -0.40154445 -0.054650422 0.03601524 -0.08177898 0.09873046 -0.30011362 0.24296601 -0.21017876 0.1633336 0.36450493 -0.00010539833 -0.22391494 -0.40339231 0.13979842 0.17260839 -0.45091936 0.7745073 -0.011375638 -0.30297935 0.6419114 -0.18790896 0.12559403 -0.13325582 0.44678548 0.05821853 0.20929983 0.11009434 -0.7271697 0.453415 0.25359818 -0.4875889 -0.11408927 -0.015430266 -0.053119726 0.036639735 0.08348804 -0.21153846 -0.21465705 -0.124348976 -0.30031878 -0.4443872 0.15924324 0.4636368 0.23541129
肯定 -0.0021842034 0.0977885 0.114008255 0.09100972 0.11372929 -0.07337119 0.06189314 0.18259522 -0.07425596 0.18988766 0.06928817 -0.084692605 -0.015753234 0.4036736 0.1533079 -0.039265316 -0.010926174 0.025163356 -0.47762063 -0.21394725 -0.36016044 0.07976644 0.27612424 0.24353363 0.2004901 0.11992625 -0.06058381 0.098098435 -0.01387069 -0.24832906 -0.17477584 -0.28601786 -0.24686696 0.46940738 -0.16495791 -0.37354994 0.21715122 -0.21013077 -0.2611312 0.24832961 -0.2689524 0.31103867 0.21177492 0.09455374 0.53808933 0.010558279 0.13902004 -0.222824 0.18666449 0.150551 -0.27017096 -0.09205562 0.043882687 -0.24173729 -0.109526485 -0.1877096 0.10795521 -0.3924338 -0.15088299 -0.14258702 -0.023851972 0.08590795 0.050274357 -0.13424003
小 0.06219619 0.03727502 0.008286716 -0.44346187 -0.007974575 -0.032337997 0.1847542 -0.02789204 -0.28911516 -0.01201595 -0.108766615 -0.07183205 0.31245148 0.33925524 -0.111427486 0.15293412 0.18117644 -0.15697657 -0.34854943 0.09482327 -0.20189029 0.0757195 0.0031399415 -0.14339304 -0.23542371 -0.06686447 0.13586143 0.03381218 0.0061267084 0.0973751 -0.48110178 -0.04172972 -0.46396136 0.6135431 -0.2771839 0.112077616 0.27872804 -0.20596416 -0.42549047 0.051847547 0.181803 0.15582003 0.042960774 0.35407946 0.27043486 -0.054380164 -0.21422087 -0.22212838 -0.30327818 0.039158158 -0.5729354 0.122605905 -0.25398827 -0.31083262 -0.0076998295 -0.35688737 0.16660197 -0.109522656 -0.11046927 -0.0476984 -0.21072242 -0.2518184 0.113164276 0.14973374
年 0.06244918 0.11146137 0.045446366 -0.055792283 -0.08784993 0.1471191 0.15995324 0.05621775 -0.19175863 0.04183539 0.14588408 -0.41339737 -0.054902226 0.26570493 0.063592926 0.025716504 0.074240476 0.13978605 -0.0171506 -0.22298099 -0.31699264 -0.18667944 -0.4090456 -0.100718625 0.12141096 0.0326416 0.41046035 0.16581163 -0.14962159 0.26846895 -0.025949 0.21139367 -0.031803735 0.26214266 0.0044745146 0.19011348 0.14639407 -0.09974951 -0.28648016 0.4149497 0.1568431 0.39588988 0.30385375 0.3947437 0.2940818 0.025436332 -0.110249065 -0.6493198 -0.17106745 0.05075306 -0.20261492 -0.7583373 -0.18027599 -0.028462874 0.4395712 0.077220686 0.05415254 -0.265088 0.04317241 -0.33851624 0.054009065 0.6245969 0.1358741 -0.15182443
又 0.55485743 0.3005371 -0.40310696 -0.012418945 0.28171137 -0.06852207 0.1854549 0.07450567 0.08389116 -0.36304355 0.1385409 -0.09931256 0.4220842 0.20239308 -0.08150853 0.18133229 -0.015779411 -0.033549093 -0.67614585 -0.12088606 -0.3540689 -0.16387129 0.2914491 0.17709859 -0.3074402 0.055808276 0.24769937 0.35846445 0.12511387 0.22389159 -0.07362732 -0.4027592 0.32088777 0.21845362 -0.03248368 -0.17982754 0.17360447 0.0050474494 -0.32828385 -0.028399827 -0.1806551 0.044248696 -0.115438014 -0.04923734 -0.1278201 -0.03540222 0.064498745 -0.32666507 -0.053203184 0.27668852 -0.5369376 -0.43690738 -0.2626825 -0.22424817 0.047082443 0.30387962 0.27389124 -0.25188395 -0.039812103 -0.10048957 0.0712001 0.1646465 -0.2209495 0.35974374
不会 -0.13274923 0.30889028 0.10004516 -0.32320237 -0.06422976 -0.47830358 0.015136625 0.039166678 -0.12630583 -0.06673701 0.2883063 -0.1361094 -0.22994284 -0.022152763 -0.07871418 -0.026013149 0.29948068 0.06903014 -0.39516014 0.17828293 -0.075724505 -0.13158746 0.115315765 0.5604394 0.3024964 0.037381828 0.4343216 0.3037465 0.062665544 0.18390939 0.15230119 -0.1865351 -0.072974354 0.0072465907 0.26729658 0.0037558458 0.019452894 -0.5062398 -0.1945786 0.021467278 0.12796693 -0.08167025 -0.08809354 0.26578164 0.30279908 -0.027879093 -0.0088438075 -0.64254534 -0.16699708 0.23248585 -0.13830318 -0.10002722 -0.34087542 -0.29196706 -0.41854638 0.031674422 -0.04406379 -0.08136943 -0.19555318 -0.14265151 -0.017424406 0.18970025 0.07687695 0.33249313
跟 0.285435 -0.15040348 -0.05499129 -0.114644945 0.17314847 -0.0056148767 0.19135192 0.10639515 0.010251005 0.27190638 -0.01722654 -0.2768962 0.14164437 0.1847172 0.27340576 -0.062131446 0.11058889 -0.2817992 -0.3792369 -0.26254946 -0.099771574 -0.06311119 0.6492789 0.08264625 -0.079818904 0.15655726 0.057884466 0.0777963 -0.19529709 0.101158075 -0.24865343 -0.074222624 -0.011081867 0.3399214 -0.10967819 -0.011157243 0.09107044 -0.16487668 -0.39045244 0.50614613 -0.235923 0.13084365 -0.078858584 -0.112647675 0.32076606 0.13022514 0.20312215 -0.41410613 0.037933305 -0.16710997 -0.20979638 -0.008990247 0.33530676 -0.35595432 -0.19744423 -0.11994564 0.009517468 -0.11607878 -0.3133181 0.034428336 -0.04540563 0.10287933 -0.00895863 -0.064140074
等 0.0008061262 0.5858691 -0.1757364 -0.0851899 0.45191967 0.09522182 0.0011605005 -0.16384913 -0.04099599 -0.011001431 0.21450965 -0.024834087 -0.12411021 0.31440276 -0.018484548 0.12529089 -0.06798855 0.19075334 -0.36398637 -0.060915776 -0.0020378018 0.2017582 0.06503146 0.46659952 0.07481819 0.44631127 0.11807892 -0.29316178 0.29993278 0.13075812 -0.25915843 -0.116848834 -0.40656072 0.050843433 0.055218164 0.0755772 -0.07947339 -0.20095055 0.18477082 0.16792543 0.1044954 0.36812687 -0.17188835 0.32242763 0.135741 -0.35626155 -0.14229001 -0.48980495 -0.054783788 -0.024889035 -0.10562845 -0.33641464 -0.3535976 -0.24250656 0.046391796 -0.15867627 -0.055728674 -0.21616717 -0.18869497 0.27872464 0.1511116 0.1783351 0.14039741 0.54245734
所以 0.016409334 0.22837573 0.07296229 0.017031964 0.30087733 -0.1666691 -0.19293606 -0.03463157 0.11373747 -0.010652229 0.10819571 0.10653931 -0.34950104 -0.22550641 0.007735552 -0.051475346 -0.21719024 -0.10358985 -0.4472287 0.08130273 -0.029042827 0.024105446 0.14877596 0.22930503 0.19718422 -0.036622845 0.11773412 0.09737658 0.24067478 0.288072 -0.1161919 -0.46104363 -0.38586298 0.11617021 0.029220788 -0.13685617 0.23433322 -0.14582957 -0.26275936 0.0050027263 0.21373607 0.09027395 -0.2388764 -0.046565544 0.32267082 -0.004732282 0.06425762 -0.38072067 -0.041389704 0.10960868 -0.2907601 -0.16436055 -0.12692256 -0.26755953 -0.023121942 -0.19705305 0.16766164 -0.43386692 -0.14331113 -0.11242679 0.060077995 0.18091886 -0.12150596 0.12655294
正常 -0.31815523 0.022596207 0.08879926 0.22770531 -0.056624945 -0.068712935 -0.16481844 0.13953792 -0.013042587 -0.184075 -0.030369822 -0.021753758 -0.21440648 -0.13361426 0.39522284 0.15962297 0.00476414 0.097430125 -0.17336151 0.22661562 0.00486126 0.01962885 -0.19636503 0.031314477 0.297544 0.22699164 0.18161903 0.08638452 0.38283786 0.46878213 -0.18334204 0.2584328 0.06808267 0.10098513 0.12546547 0.12975745 0.29205614 0.02068655 -0.0667568 0.3038635 -0.23825264 0.21502301 -0.3420831 0.07235799 0.088259175 0.23292856 0.05620052 -1.0490295 -0.22824582 0.4096961 -0.0032284209 0.006152968 -0.17173047 -0.12935801 0.2201308 -0.04087527 0.25528768 0.13210276 -0.04553804 -0.22081323 0.22656372 0.41735232 0.14222096 0.3682071
加速 -0.38629678 0.25525376 -0.22226037 -0.1997842 0.005016145 0.032796707 0.348944 0.60199916 -0.22594662 -0.16500384 -0.26977694 -0.39008662 -0.1531629 0.27115455 0.6059642 -0.17001459 -0.07578725 -0.38375717 0.11971648 -0.009046366 -0.27056888 0.007519705 0.26975754 0.27964306 0.39126745 0.17530988 0.4612443 -0.17623474 0.43198553 0.5979278 -0.29906684 -0.18428713 0.09093323 -0.13198668 -0.07881302 -0.19935308 -0.016893212 -0.08675886 0.018023076 0.038572274 -0.21268642 -0.24395022 0.46984714 -0.007918787 0.33977383 0.31133384 0.51699644 -0.6404696 0.16551757 0.17093359 -0.22276413 0.32433143 -0.031313494 -0.24064535 0.27027854 -0.20198987 0.062087238 0.3671747 -0.08516676 0.3847545 0.3350464 0.12009614 0.5268536 0.43874517
可能 0.03369658 0.62983745 0.15330909 -0.15209784 0.025874376 -0.11323306 -0.020305147 0.08156742 -0.15293334 0.03414703 0.07345067 -0.17412266 0.2977657 0.030287238 0.0025698026 0.048723046 0.18308893 -0.057472594 -0.55869025 -0.20971914 -0.21325974 0.19514598 0.21813385 -0.0590887 0.2955617 0.1300225 0.442691 0.014883717 0.14268398 0.17684719 -0.058208033 -0.0049718274 -0.34949073 0.34342507 0.12781057 0.1258186 0.16902111 -0.29821742 -0.36816016 0.16669284 -0.03247491 0.2080689 -0.051388126 0.05149922 -0.21790157 0.040258575 0.054166466 -0.03323095 0.050721645 0.3326149 -0.16149905 0.07770638 -0.24471883 -0.05441439 -0.2299975 -0.23920707 0.117112495 -0.1586893 -0.14166965 0.055884756 0.048900675 0.085667804 0.1844884 0.19267172
一般 -0.31419814 -0.11176755 -0.15151809 0.36856663 0.2188891 0.44199336 -0.07120234 0.07806402 -0.084566735 0.030786742 0.23333415 -0.14634845 0.27053514 0.31210124 0.0999363 0.20687963 0.36237004 0.050696705 -0.3189895 -0.008580409 -0.1202335 0.07140716 -0.151623 0.20473763 0.06896732 0.20584916 0.27453238 0.13045616 0.09120952 0.22938555 -0.49694464 -0.06427305 -0.020613225 0.25359684 -0.35945746 -0.23971489 0.26570964 -0.24998884 -0.007903089 0.15608826 -0.07667866 0.36762568 0.08898558 0.078765415 0.2663646 -0.023501812 0.006599668 -0.23218954 0.06523547 0.34263912 -0.16250736 -0.0441012 -0.3087107 -0.012102328 -0.25891203 -0.30756986 0.042947978 0.18644978 -0.5106302 -0.30341846 0.06976718 0.29682767 0.20983654 0.14841911
有点 0.053508308 0.24452385 -0.30595452 -0.09706409 -0.19353405 0.005332217 0.36443773 -0.050835233 -0.07529219 0.15855578 0.2585951 -0.038032755 -0.101544395 0.042877093 -0.12906617 0.30689946 0.033320747 -0.2908162 -0.21522367 -0.24062085 0.13955757 -0.07584497 -0.24218042 -0.26746097 -0.061787765 -0.22860974 0.36260626 -0.015453794 0.13077115 0.66990924 -0.49409008 0.14147507 -0.14301981 -0.12764767 -0.23465829 -0.57139325 0.16364898 -0.30054358 -0.4580102 0.19402848 -0.044822298 -0.21785437 -0.030355552 -0.1953182 0.2730192 0.21208154 -0.28938103 -0.73976105 0.086342596 0.2274739 -0.06332422 -0.013429986 -0.37758568 -0.02428021 -0.3222127 -0.38756028 0.16782202 -0.1128967 0.20842047 0.18034191 0.07470302 0.22434862 0.11870431 0.047806796
声音 -0.66114235 0.45563808 -0.29738703 -0.16689289 0.19094254 -0.77041405 0.14355597 -0.023647748 0.16983236 -0.18224812 -0.0040418827 -0.30288786 0.14063337 -0.03860353 0.09378099 0.17066807 0.50209886 -0.1070308 -0.30815434 -0.2982614 0.112253316 -0.42372286 -0.12603958 0.024372663 0.14336294 -0.34567454 -0.19717303 -0.2357045 0.2940098 0.82015663 -0.08074597 0.1077466 0.35054013 -0.2894634 0.25916308 0.0011442589 0.2591256 -0.106786735 -0.24590923 0.39732817 -0.24416475 -0.20597138 0.1366745 0.14693837 -0.43163332 0.14401574 0.024906356 -0.5407754 -0.64705974 0.30985487 -0.113124765 0.38087845 -0.09351855 -0.066977255 0.25191253 -0.0989603 0.38250956 -0.29868352 0.15194148 -0.7885898 0.3003576 -0.035819855 0.7136474 0.50782514
建议 -0.048320845 0.32490966 -0.3505147 0.12384143 0.2122415 -0.08799179 0.18215074 -0.06547377 0.10862219 0.21906014 0.13802198 -0.39771286 -0.1576485 -0.33606422 0.08913056 0.22109507 0.0412218 -0.014248684 -0.15854236 0.17189968 -0.48710686 -0.015545719 0.34691256 -0.28017077 -0.18955448 0.14803167 0.34795305 -0.13378134 0.15116611 0.25227797 -0.25191557 -0.12134591 -0.3645852 0.10074531 0.1969776 -0.3075413 0.09197065 -0.052224766 0.025107836 0.4652984 0.19784287 0.26708117 -0.21516797 0.2561638 0.10480658 -0.11415991 0.22540577 -0.0078361025 -0.47706112 0.17173101 -0.48104054 -0.49308425 -0.32448733 -0.038986143 0.08408524 -0.46361122 -0.2789149 -0.38465363 -0.14810543 -0.13523982 0.16254921 0.32685313 0.1626081 0.080149546
噪音 -0.18893361 0.36009726 -0.37538323 -0.17986313 -0.43314332 -0.23179187 0.13327867 -0.28882813 0.079113826 0.27694258 0.10761771 -0.19583474 0.12188964 0.11183991 0.056559447 0.1605995 -0.42000607 0.24287407 -0.55287814 -0.36879385 -0.033193402 -0.14684537 0.019883359 -0.008921291 -0.16202125 0.062527336 0.14642796 -0.21423551 -0.030442584 0.90330315 -0.27198288 0.26301673 0.34252053 0.5029684 0.15331863 -0.37919238 -0.1420955 -0.31728822 0.059978794 0.037575796 0.19639455 -0.1408796 0.5929562 0.19659589 0.28601474 0.12443408 0.017531656 -0.45311838 -0.4854417 0.12994885 -0.3231105 0.3336603 -0.05319708 -0.001353807 0.26083136 -0.12654631 0.22006334 -0.22968403 -0.20201354 -0.78954154 -0.44402027 -0.2607605 0.07477323 0.11563575
差 -0.11150249 -0.15675327 -0.3618045 -0.35180068 -0.08689295 0.13613592 -0.026688317 0.06505256 -0.007344768 -0.19157669 -0.30060178 -0.14660993 0.09186858 0.14888068 0.23563462 -0.030993415 -0.052345097 -0.3580104 -0.19175972 -0.5522614 -0.12468727 -0.053298302 -0.03040595 0.0071599805 0.2226216 0.38796204 0.23687853 0.14370361 -0.07111348 0.6522296 -0.5391516 0.09919822 -0.05380595 0.25106427 0.14238594 -0.247573 -0.014177419 -0.2753162 -0.40724042 0.02452549 0.24091849 0.3862392 0.5773485 -0.13430789 0.5185778 -0.02269657 -0.24674222 -0.3012262 -0.007908594 -0.18679714 -0.48996982 0.29184377 -0.083291456 0.53043973 -0.047170322 0.112683766 0.054591756 -0.15362532 -0.022121536 -0.31776857 -0.22857213 0.14877306 0.21920902 -0.08726556
把 0.12487363 0.3247338 -0.20543396 0.18233278 0.17537098 0.10948123 0.021205228 -0.12859082 0.016295753 -0.12463552 0.29257846 -0.016380427 0.22050527 -0.16631109 0.23451221 0.0038173818 0.03935007 -0.116840586 0.04322331 -0.10683277 0.5027016 -0.036768034 0.11846743 0.60610265 0.039629217 0.0617117 -0.10222996 0.25767997 -0.13987106 0.3747677 -0.16658981 -0.27399984 -0.21976067 0.00604194 0.072566606 -0.042467598 0.1361669 -0.2910179 -0.6052039 0.7086728 0.056155946 -0.07669427 -0.053944543 0.09599695 -0.00060462137 -0.26822326 -0.06684702 -0.3297266 0.0006599259 0.16943707 0.1920453 -0.07623611 -0.120683424 -0.3221821 -0.16729978 0.09840075 -0.041268256 -0.21448494 -0.073986724 -0.22435325 0.17951454 0.09451791 0.14198442 0.30041155
确实 -0.04677802 0.11597984 -0.16685885 -0.53755677 0.11869756 0.20029436 0.23762134 0.12770136 0.15399931 -0.13081123 0.027121674 -0.1283304 -0.017656168 -0.018437086 0.034237567 -0.11065473 0.12549658 0.030767879 -0.11095983 -0.1249745 0.14680299 -0.20320854 0.50947815 -0.25669917 0.02248718 -0.056729615 0.14884868 -0.010408123 -0.12554131 0.20263752 -0.25900772 0.1418489 -0.2130597 0.45180374 0.13104932 -0.2335664 0.08075308 -0.004333045 -0.20734704 -0.022662124 0.042187266 -0.12328044 0.11957214 0.25623843 0.3519091 0.38061044 -0.015728554 -0.36745736 -0.1440089 -0.2312222 -0.549632 0.2434499 0.04424004 -0.22398995 -0.04800248 -0.13748913 0.2785713 -0.31604335 -0.48642433 0.022002865 0.19123231 -0.0033534009 0.018726867 0.17149644
而且 0.084845625 0.3236218 -0.12213615 -0.31642854 0.2119011 -0.008176826 -0.04951834 -0.02547973 -0.13347627 0.18092154 -0.14426216 0.06824506 -0.053293817 0.058518372 -0.026709368 0.088514574 0.2657004 0.2783455 -0.48728812 0.047214642 -0.11549644 -0.07251592 0.29540268 0.42393285 -0.28333464 -0.14670601 -0.05681377 -0.3373847 -0.1019046 0.023049733 -0.11426343 0.04870294 -0.14788744 0.5261518 0.04157079 -0.18918495 0.017531762 -0.25258535 -0.32552356 0.21789809 -0.14281693 -0.16173153 -0.006277889 0.29083377 0.4309763 0.23654312 -0.14202519 -0.61713296 0.028765012 -0.05888084 -0.17742544 0.25396875 -0.30574223 -0.13288638 -0.046576675 -0.38319644 0.23769292 -0.37310797 -0.032341346 -0.07593114 0.20112033 -0.022260789 0.1844815 0.04710785
森 0.34864697 -0.21653205 -0.14570977 -0.46911904 0.31232035 -0.34134907 0.2520919 0.15615115 -0.3218931 0.2251075 0.18835023 -0.20507422 -0.02347299 0.51713353 -0.005882424 -0.16770636 -0.13038442 -0.1557173 -0.1497218 -0.14391916 0.27674386 0.27560258 0.30324188 0.16166636 -0.61300004 -0.014235721 0.3039864 0.13852388 -0.16288921 0.048057128 -0.22198941 0.016367802 -0.22977695 0.20430177 -0.02796126 -0.38705623 0.16143113 -0.17605197 -0.35347563 -0.35756165 0.35715076 -0.093960956 -0.03431719 -0.06451359 0.72280985 0.120936 -0.06249009 -0.35010943 -0.051305667 -0.1952925 -0.30967075 0.24094768 -0.3100262 -0.45702603 -0.16368437 -0.4060852 -0.013142261 -0.06529115 -0.2507927 -0.2384591 0.44104972 0.2187393 0.08381719 0.3365736
想 0.42332983 0.061141524 -0.42389852 -0.39501715 0.31392214 0.0026663889 0.20958385 -0.42040622 -0.0015317756 -0.14194219 0.04842145 -0.206617 0.16522849 -0.0041747303 0.019035926 -0.084019154 -0.17783672 -0.09073353 -0.45179713 -0.08360248 0.0011116843 0.029273614 0.146446 0.16475609 0.097066455 0.18173999 -0.054319993 0.24072017 0.28912836 0.057374403 0.09815079 -0.4380505 0.07502027 -0.086224966 0.23469089 -0.06918517 0.16501662 -0.20952103 -0.45875058 -0.08419195 -0.3187062 0.18862264 0.162768 0.095448494 0.1707826 0.013529662 0.37600636 -0.25675505 -0.1977062 0.17255151 -0.38427377 -0.46940964 -0.1866181 0.11871582 -0.01278067 0.011657702 -0.06428034 -0.12404904 -0.56198007 0.16069281 0.0066233147 0.24381852 0.27254474 0.13073932
其他 -0.054540217 0.4260862 -0.071923286 -0.26507294 0.11577489 0.18440701 -0.13473615 -0.15807958 0.044549912 -0.07241268 0.16038874 -0.42847782 0.103381 0.049671482 0.053455196 -0.11597658 0.22075053 0.106049955 -0.12231552 0.10513821 -0.12935677 0.19714853 -0.1954264 0.20521687 0.055918343 0.23500726 0.30272055 0.02324082 -0.23901662 0.25352025 -0.2960922 0.017227678 -0.29485393 0.10693178 -0.41472346 0.013931133 0.23813246 -0.1097045 -0.3945024 0.28245085 0.48913157 0.2700536 0.024131695 -0.019050451 0.1653643 -0.021339355 -0.21662639 -0.5065103 -0.089448474 0.10048398 0.094917096 -0.0198785 0.15421692 0.10132598 0.12885499 -0.2310105 0.04126032 -0.38239086 -0.2815461 0.0021645767 -0.05740559 0.07410152 0.07007292 0.108383566
楼主 0.15515727 0.035543893 -0.08638718 -0.041572534 0.07973057 -0.14135376 -0.073642075 -0.6955064 -0.056892566 0.12374803 0.22604369 -0.026519097 0.15833019 -0.13273594 0.38977712 -0.29334697 0.015238381 -0.22158256 -0.26403114 0.053579904 -0.15166026 0.19881602 0.15147813 -0.16362847 -0.054036047 0.03967794 0.28646305 0.25900763 0.16490158 0.29490516 -0.16703202 -0.2608687 -0.074290544 -0.09660296 0.06512766 -0.26050684 -0.12973936 -0.21455967 -0.069177166 0.63042325 0.20363416 0.32914233 -0.027335264 0.2150738 0.08736303 -0.33709654 0.050475918 -0.22837608 -0.019722281 -0.07766801 -0.15701787 -0.20865281 -0.34428445 -0.30269203 0.23983324 -0.104453765 -0.032256704 -0.14966851 -0.5346887 -0.027235124 0.013752272 0.2700811 0.08609114 -0.10277124
座椅 0.15712208 -0.087899625 0.17166036 0.12882902 0.02748489 0.44212124 0.20848739 -0.25095534 -0.022690337 -0.48765743 0.19263141 -0.39601028 -0.053127486 0.4290042 0.113381736 -0.2803785 0.45588437 -0.03502053 0.287085 -0.5109318 -0.35934034 0.23831908 -0.1908829 0.2436969 -0.5308025 -0.12883572 0.41923374 0.6843926 0.05183934 0.5954518 0.15927549 -0.052491423 -0.7716796 0.4453318 -0.016420387 -0.21485898 0.14717366 -0.550757 -0.26843166 0.23261485 0.5228084 0.22786832 0.068015546 -0.17254376 0.068202466 0.12942195 -0.50622 -0.29298267 -0.04863063 0.16959135 0.18168058 -0.33277798 -0.3133167 0.15702167 -0.1453584 0.08156571 0.5700023 -0.096193865 -0.30460492 0.015224267 0.3638905 0.37737745 -0.29021096 0.36186504
啥 0.18273343 0.058014106 -0.3111478 0.14264765 -0.12568662 -0.0813455 -0.11585457 -0.13726813 -0.13494425 -0.3898076 0.040022418 -0.07763703 -0.031475678 -0.07695937 0.33647215 -0.20293951 0.16167587 0.044345383 0.035174586 0.0063233194 0.1262183 -0.066195786 -0.031459827 -0.08457161 0.14251412 0.1631388 0.10108338 0.2394832 -0.27518466 0.21116672 -0.28074402 -0.41046557 0.08071065 -0.077687964 -0.27034214 0.057049416 0.21791622 -0.27505532 -0.4561005 0.03114933 -0.15020919 -0.14449237 0.29626825 0.35940963 0.30639097 0.19132778 -0.08238555 -0.56750387 -0.16514792 0.44488472 -0.2020849 0.07738922 -0.26590943 -0.1259456 0.12531006 -0.4630833 0.21997885 -0.369371 -0.22251259 0.31864506 0.09955037 0.45260525 0.12613831 -0.19346571
差不多 0.33594182 -0.1682136 0.14556815 -0.05604101 0.42956188 -0.33884543 -0.059265893 0.3314183 -0.3433034 0.15499304 0.20260362 -0.37815267 -0.03934135 0.19724073 -0.30437654 -0.04114469 -0.031863783 0.25899968 -0.34449315 -0.14024769 -0.21584901 0.032740943 0.28276727 -0.054639302 -0.061484072 -0.57792854 0.3740844 0.18995793 -0.06965446 0.043343462 -0.13155903 -0.05739925 -0.23791052 0.42933604 -0.22418962 -0.20749946 0.33752996 -0.37563613 -0.5073169 -0.08280476 0.00066611555 0.19709682 0.0075146714 0.060131527 0.088249385 -0.21306944 0.1466414 -0.34858227 -0.11697408 -0.020188559 -0.38221934 0.22277828 0.075829 -0.20514609 -0.20905024 -0.56238973 0.20427348 -0.447824 -0.11657478 -0.20170225 -0.038994037 0.5341099 -0.044512786 -0.078275464
