4559 64
森林 -0.20200846 -0.11144872 -0.3310247 0.16186273 -0.053743444 -0.14611684 -0.07678995 -0.061028413 0.09421585 0.11205592 -0.3111082 0.13009219 0.085022815 0.42203596 -0.16979259 0.2913788 -0.10323395 -0.0660768 0.3284625 0.11283612 -0.45818377 -0.24947065 -0.08753122 0.05717445 0.2206085 -0.5129996 0.57470036 -0.4913567 0.3277066 0.048640054 0.33824548 0.0657768 0.072612725 -0.24248692 -0.07163858 -0.05490984 0.0635597 -0.09185111 0.17564787 -0.113178186 -0.027482912 -0.24729496 -0.13731076 -0.17415774 0.0045489417 -0.07409051 -0.18475425 -0.40981218 -0.20454822 -0.3531798 -0.016238268 0.106002994 0.082365364 -0.2911261 0.0844871 0.13214697 0.18170191 0.22156678 0.29662314 -0.08539944 -0.041206807 -0.37300637 0.36576945 -0.19314855
发动机 0.27191254 0.034819018 -0.48381373 0.13762112 -0.15464178 -0.62455577 0.13592543 0.02083627 0.09959147 0.020686083 0.3154523 -0.022700572 -0.03921108 -0.017111192 -0.3054464 6.11738e-05 -0.13600571 -0.31465042 0.08251634 0.045444813 -0.29612637 -0.016357908 0.11438258 0.10971579 0.10423571 -0.4805845 0.25875813 0.017147997 0.30478305 0.19595417 -0.048568767 -0.010716132 0.030867694 0.15805289 -0.0539962 0.17961456 -0.19495606 -0.07878842 0.09061737 0.26070327 -0.015235574 0.19373249 -0.015533333 0.27305788 -0.0930708 -0.33288035 -0.07661927 -0.24461357 -0.11126039 0.059028767 -0.1222456 0.33112645 0.0618751 0.26646948 -0.25354517 -0.34224805 0.013161312 -0.049461577 -0.33249232 -0.26584265 0.2001326 -0.09294415 -0.29680517 -0.008683649
油耗 -0.10099013 -0.019274717 -0.553452 0.24478652 0.04588354 -0.38084388 0.6938803 -0.33062434 0.43441054 0.20921427 0.010171579 0.18232244 -0.013690646 0.01108587 -0.20694782 -0.0007035784 -0.19867843 -0.064058445 0.22635275 -0.084609166 0.31799316 -0.10437946 -0.2257695 -0.17351528 -0.39549318 -0.28924173 0.21027423 -0.12292662 0.41837868 0.27992713 0.37528226 0.23088732 0.009012243 -0.31488955 -0.0047688265 0.07878525 -0.3831531 0.07105401 0.2572438 -0.17110723 0.01856235 0.18150061 0.11264449 -0.35352963 -0.19693375 -0.19990477 0.3120815 -0.4817585 0.009128989 -0.41019568 -0.16776714 -0.21945459 -0.35617727 -0.38301376 0.059300393 -0.011383638 0.3581158 -0.20465471 -0.16500273 0.1919241 0.070381545 -0.11452726 -0.2289601 -0.37338406
机油 0.39165714 0.38789204 -0.9149733 0.107890576 -0.37856558 -0.45810884 0.15111145 -0.021811975 0.10874698 -0.24133198 0.30635706 -0.11190718 0.0018587294 -0.08126688 -0.47246045 -0.28885138 0.07156199 -0.30210128 0.12015875 -0.237626 0.16122456 -0.06558428 0.37157738 0.10917278 -0.191551 -0.28432834 0.25198454 -0.09295519 -0.14613476 0.33905935 -0.10317125 -0.45080245 0.07930975 -0.39695615 -0.20508416 0.077726655 0.10166172 0.23291035 0.19795266 0.08408617 -0.0150318965 -0.030647893 0.28536022 0.490398 0.15845619 0.09389177 -0.1914721 -0.12344608 -0.51500154 -0.06493988 -0.48709744 0.17747322 0.1730704 -0.015976036 -0.34550703 -0.21668458 -0.011646494 0.07899116 -0.08916078 -0.14238276 0.46551955 -0.32995316 0.084946066 -0.020322269
车 0.15603028 -0.31504145 -0.39690858 0.23757808 -0.038700633 -0.24416766 0.08604912 -0.03223285 0.09874974 0.22875659 0.09965682 0.05908299 0.17601787 0.09416398 -0.13562894 -0.07188749 -0.018572362 -0.05260379 -0.076357245 -0.170629 -0.36160797 -0.07906767 -0.2096505 0.23218666 -0.14455007 -0.37281346 0.36053455 -0.21024585 0.25243005 -0.03570741 0.26269978 0.2613509 0.10088722 -0.1111147 0.02560639 -0.08031696 -0.35264787 0.3916702 0.10357475 -0.01070203 -0.20498 -0.34866282 -0.119140014 -0.068890415 -0.25635958 -0.0052328836 -0.13842401 -0.06966308 -0.16790783 -0.23478581 -0.200843 0.053767484 -0.064552076 0.059693452 -0.2138011 -0.14705583 0.17799403 0.22110999 -0.1589529 -0.0784886 0.15374342 -0.43371448 0.14326182 0.13756663
价格 0.4186325 0.11716854 -0.5124538 0.07274325 -0.7029188 -0.11966824 0.1467022 -0.18564251 0.033070236 0.373925 0.2765921 0.051089536 0.17138933 0.009396909 -0.13491139 -0.09579523 0.09760426 0.07508478 0.086024955 0.18898045 -0.27773347 -0.3245372 -0.19119802 0.2666013 0.13598007 -0.007018374 0.31649488 -0.09085692 0.06701275 -0.07739536 0.50817335 -0.091381855 -0.2719548 -0.14854515 -0.23316278 -0.5086592 0.12111737 0.19828561 0.075959966 0.12358292 0.23071961 0.05239379 -0.3208682 0.0090665845 0.0402095 -0.23987405 -0.056117907 -0.066554375 0.29900253 -0.21015792 -0.16104095 0.20546629 0.1681668 0.32556155 0.3165366 -0.058337033 0.52531135 -0.41878185 -0.11722093 -0.22296052 -0.12797064 -0.18933284 0.18032347 -0.14291278
动力 -0.19606023 -0.42878926 -0.37497565 0.016732337 0.05038312 -0.31041276 0.29841393 -0.15443268 0.37074772 0.25954136 -0.05857999 0.2805162 -0.063945875 0.30840662 -0.15729119 0.04511562 -0.2069582 -0.17919768 0.3216831 -0.1997974 0.029525703 0.20920622 -0.24685071 0.12349565 -0.07983703 -0.46702722 0.3597268 -0.0059092594 0.05138392 -0.065940365 0.29049006 -0.2780987 -0.015133802 0.12543994 -0.090278655 0.04567303 -0.23390864 -0.07206735 0.3671613 0.33457336 -0.0672248 0.0531426 -0.10457819 -0.16566043 -0.09117488 -0.3271963 -0.5137586 -0.31709534 0.1460489 -0.26413062 -0.113279924 0.046270233 -0.31026918 -0.26160312 0.35006592 -0.115317136 0.028185774 -0.078171164 -0.08194409 -0.21401958 0.36838138 -0.4377968 0.01932374 0.3891622
没 -0.010803188 0.04258834 -0.16195615 -0.090885185 -0.07658263 -0.14497471 -0.0035578692 0.08218712 0.12580357 0.15801717 0.26847097 0.23705053 0.15504359 0.13122968 -0.0056607653 -0.09909557 0.059290633 -0.2883643 0.022932595 -0.111895844 -0.2311756 -0.08297529 -0.006763884 -0.027076289 -0.06445554 -0.23507053 0.27922046 -0.1796222 0.12860423 0.057395976 0.20375039 0.13288139 -0.10164264 -0.23282696 -0.15995331 -0.1355219 0.22751859 0.18991058 0.2788605 0.14480178 -0.09869936 -0.047732748 0.11409812 0.10735727 -0.0649094 0.02220541 -0.22789887 -0.07192246 -0.09270047 -0.37483877 -0.18433137 -0.10155428 0.04685479 -0.30904666 -0.03723827 -0.275004 0.4227915 0.06587972 -0.049045697 0.13314183 0.101135716 -0.4050697 -0.10675012 -0.06574043
买 0.25068724 0.05433132 -0.3061342 0.04584716 -0.37814048 -0.013103716 0.16098602 -0.26016915 0.010504038 0.1635838 0.17095324 0.037085947 0.17409319 0.11936566 -0.07511236 -0.09137332 0.034608394 -0.032069977 -0.0062335636 0.04745982 -0.4900808 -0.09957782 -0.122861624 0.089031555 0.36280254 -0.44212556 0.39264527 -0.3055582 -0.0076034716 -0.090066105 0.39991564 -0.11584371 0.0852196 -0.29296967 -0.14322408 -0.35738182 -0.020093268 0.19496678 0.0824946 -0.17874129 -0.12166845 0.007046606 0.060434766 -0.054036215 0.028760562 0.070856184 -0.35681453 -0.114706576 -0.19328092 -0.40582502 -0.37949163 -0.39988425 0.19555794 0.016178237 0.11024126 -0.15135758 0.04868345 -0.2509866 -0.28616068 0.056869972 -0.081520684 -0.38979107 0.19483076 -0.056514524
说 0.16261458 0.10344767 -0.18947649 0.013572515 -0.3716719 -0.041017253 -0.026414888 -0.009315458 -0.19909967 0.11909601 0.18058789 -0.026212873 0.2637215 -0.0666433 -0.24222027 -0.047139037 -0.18094397 -0.14008322 0.024316506 0.07515349 -0.05268257 -0.003988548 0.07101729 0.060508184 0.09486067 -0.15430507 0.4251991 -0.039714955 0.10002677 0.26120365 0.16752437 0.036020473 0.1070531 -0.087175116 -0.015042912 -0.15042633 0.23478271 0.26542664 0.13852152 0.21917628 -0.17407414 -0.018734787 0.031105565 0.23922007 -0.012819818 0.013341478 -0.33032155 -0.27478766 -0.16623843 -0.3083601 -0.10686841 0.049543727 0.04986434 -0.12900484 -0.31641653 -0.3057531 0.15542895 -0.15997115 -0.057275906 -0.21440072 0.035823725 -0.122578435 -0.03434016 -0.21730962
换 0.34026733 0.14339133 -0.43151608 0.27009615 -0.08475828 -0.08057498 0.4154842 -0.47645196 0.04096587 -0.3002269 0.32135868 3.978503e-05 -0.09322884 -0.12122264 -0.26949888 -0.3321835 0.25616834 -0.063365415 -0.39076492 0.088406146 0.0494269 -0.17288713 0.47060713 -0.15733692 0.14846231 -0.12884393 0.4156193 -0.39205363 0.03364862 0.071401045 -0.08028947 -0.15290102 -0.07129352 -0.46155074 0.09199437 -0.035635296 -0.17222272 -0.10837791 0.00791409 0.19222176 -0.26321384 0.31704208 0.3672113 0.5105449 0.17380169 -0.0061390186 0.099959284 -0.101979345 -0.153835 -0.34441668 -0.31360272 0.078606844 0.31441072 -0.07894684 -0.051822096 -0.40209797 0.32204115 0.08827773 0.0052092867 -0.11737924 0.029451273 0.012983781 -0.18831795 -0.06117802
问题 -0.034228876 -0.13569942 -0.017648334 -0.108046934 -0.012778923 -0.353419 0.15472794 -0.013280995 0.01579192 -0.09543321 -0.11958991 0.07114728 -0.097010285 -0.15648994 -0.3391079 -0.1400502 0.051059086 -0.43197164 -0.030669576 -0.24853344 -0.38274443 -0.16188166 -0.010763836 -0.19895406 -0.051637504 -0.15620059 0.45550632 -0.051598057 0.31421018 0.0510738 0.1288195 0.07914847 -0.35219687 0.15224783 0.1016298 -0.119314805 -0.06968591 0.06762535 0.19585913 0.30621827 -0.093744144 -0.02936085 0.066971704 0.46180317 -0.03281463 -0.026684228 -0.07352542 -0.014028645 -0.046958733 -0.07476918 -0.11822582 0.20628934 0.21965095 -0.07065424 -0.14437576 -0.4982547 0.3164317 -0.033111125 0.10303435 -0.07689156 0.25824592 -0.35992858 -0.39631218 0.1204579
内饰 -0.12658021 -0.18417375 -0.2609834 -0.043289542 -0.4733551 -0.08363086 0.07670032 -0.2611614 0.32904485 0.24199101 -0.29977924 0.07006973 0.7814314 0.27864334 -0.44289094 0.23649733 -0.029990453 0.50744724 0.48955032 -0.030793907 -0.3676058 0.06787341 0.20053352 -0.119031556 0.24793845 -0.48862666 0.7178552 -0.24145043 0.46505666 -0.18690383 0.15681721 0.26821986 -0.037009016 0.0022615928 -0.08727232 0.15949696 0.4260215 -0.18040033 0.057581726 0.08831415 -0.41994873 -0.27140674 -0.53471965 -0.26661193 0.1416341 -0.07041071 -0.08861649 -0.07624878 -0.17193985 -0.39228457 -0.04797903 -0.03427243 0.045230873 0.062780604 0.2735895 0.066487275 0.00866492 -0.046280965 0.29168707 -0.10556702 0.13726136 -0.13227329 0.3693527 0.12308378
款 0.051602 -0.11669307 -0.56065315 -0.081995435 -0.28116795 -0.3314944 0.21013871 -0.0032683196 0.48368928 0.082336895 0.21114384 0.43804514 0.101767495 -0.114973694 -0.37956792 0.2933601 -0.013841124 -0.15130904 -0.100497015 0.20213257 0.06801766 -0.39015588 -0.0042717555 -0.042231366 -0.028993884 -0.20402166 0.19009519 -0.094618596 -0.06633265 -0.19668722 0.12126969 0.3192928 -0.54029655 -0.32954794 0.21115498 -0.03183601 -0.062389594 0.08910193 -0.37506768 -0.02366802 -0.2336812 0.1447937 -0.17070888 0.18152297 -0.018566297 0.46650574 -0.22888826 -0.3568885 -0.14283806 -0.32654795 -0.4412743 -0.10704558 0.010363653 0.22480527 0.1612635 0.37287104 0.1339137 -0.28597507 -0.105777524 0.23580126 0.46570462 -0.4333287 -0.18114701 -0.12327382
感觉 -0.19985 -0.030145228 -0.33070025 0.15488921 0.11001728 0.09679752 0.026608909 0.11788995 0.15534428 0.23654269 -0.08955835 0.10768376 0.095763475 0.1326757 -0.27304983 -0.030923638 -0.23713101 0.12408248 -0.30528462 0.078650005 -0.012592366 0.0022793883 0.3431281 0.03656309 0.2922865 -0.3262939 0.4366899 -0.076537445 0.15121053 -0.17076251 -0.009700237 0.44383857 -0.09458309 -0.25842112 -0.25573698 0.5100734 -0.09899909 -0.31488973 0.29516983 0.103828326 -0.11914316 -0.23525938 -0.004526114 -0.089477845 0.08982623 0.21322697 0.11309779 -0.34643933 -0.04546082 -0.61772686 -0.26214063 0.18262841 -0.04588288 -0.13675204 -0.122596785 -0.35605246 0.18745364 -0.14423387 -0.0610536 -0.1087882 0.16979714 -0.6331272 -0.1634091 0.4302927
开 -0.14203307 -0.26993632 -0.2785786 -0.068302736 0.04122008 0.089237645 0.02524657 -0.18199676 0.36884823 0.3013594 0.051991075 0.13918214 -0.20886177 -0.014833258 -0.24174881 -0.0981554 -0.08917578 -0.3345156 -0.004801511 -0.087908186 0.033475216 0.23082803 0.12531357 -0.019658135 0.02936759 -0.3192463 0.4652201 -0.20389505 0.32878914 0.07280191 -0.22318763 0.048488136 -0.08375031 -0.336135 0.11892007 0.3203917 -0.30051997 0.23406403 0.15844682 -0.090905614 -0.052167293 -0.13806906 0.11336981 -0.059216842 -0.23547702 0.00972803 -0.15683332 -0.45845166 -0.053898267 -0.3579836 -0.09345695 -0.05099321 -0.11453619 -0.2910679 -0.27056107 -0.5175986 0.33069712 -0.028438384 -0.10169164 -0.12016431 0.31004453 -0.37201932 0.19198745 -0.009683356
空间 -0.21588054 0.062385477 -0.3887118 -0.02644045 0.09145894 -0.25561595 -0.049273845 0.2558989 0.12424265 0.21164493 -0.09170955 0.08514596 -0.11269975 0.39437842 -0.024437547 -0.5000097 -0.14185424 0.009764187 0.46267393 -0.043538988 -0.52646714 -0.23144199 -0.22888266 0.032331083 0.293064 -0.4655645 0.6006636 -0.2661131 0.38330323 -0.60335076 0.3523286 0.06752604 0.096428774 0.21458414 -0.16239986 -0.33102217 0.008518134 0.31557608 0.4477563 0.14270669 -0.19080365 -0.26023763 -0.36206543 -0.15948197 -0.026270563 -0.20864168 -0.3319359 -0.73437923 -0.169487 -0.5008681 0.09949465 0.28951785 -0.076347105 -0.49011412 0.17687707 -0.05233638 0.26504403 -0.1430408 0.23384374 -0.05685521 -0.28229573 -0.5259202 0.6861989 -0.3202626
高 -0.015782813 -0.35974705 -0.4527991 -0.11878443 -0.13868147 -0.2591993 0.1500703 -0.10055761 0.18975683 0.08113256 -0.032981727 0.22053342 -0.08379085 0.2283231 -0.2205102 0.12532766 -0.065498754 0.043134227 0.36078367 -0.0032966868 -0.33703482 -0.045979865 -0.26397952 -0.17044204 -0.035158098 -0.3306624 0.38327825 -0.014330609 0.0038242685 0.4286462 0.048695512 0.007992383 0.19456743 0.08949988 -0.15872769 0.2334661 -0.041976575 0.085788235 0.105196625 0.02808421 -8.107012e-05 -0.23786962 0.010610869 0.006007425 -0.055543188 -0.14738938 -0.042434823 -0.27922055 -0.056795485 -0.29190823 -0.26490158 0.23686029 0.0052900617 0.13785245 0.16034916 -0.17146462 0.11557562 -0.10638008 0.141436 -0.18898411 0.09683983 -0.27496278 -0.013216703 -0.098941036
配置 0.058542296 0.07241995 -0.345544 -0.22541657 -0.44287124 -0.32210797 0.23061956 -0.25580236 -0.019253287 0.4502116 -0.0599677 0.3356583 0.3679238 0.2881602 0.4107335 0.049149595 -0.056469217 0.032788925 0.6065212 0.19443336 -0.8270487 -0.019883908 -0.26976475 -0.09974293 0.20707753 -0.08697854 0.41082174 0.008531245 0.20438248 -0.07253172 0.42158893 -0.10164743 -0.0872769 0.037685424 -0.10909847 -0.114695236 0.015030271 0.42037725 -0.24197845 0.34376583 -0.20282766 0.05191202 -0.41197908 -0.4161584 0.2949765 0.021902513 -0.48478067 -0.19466473 -0.041686065 -0.52708846 0.054357048 0.23781484 -0.35621667 0.075815715 0.3604265 0.0655786 0.037954956 -0.1119968 0.22974975 -0.16154808 0.089726806 -0.44170636 0.20758255 -0.21719833
烧 0.1299566 0.121635295 -0.76035166 0.09434208 -0.56926614 -0.211369 0.30012318 0.3677121 0.2972772 -0.15993814 0.19101593 0.074879795 -0.13339272 -0.1203016 -0.7167567 -0.16866943 0.17368211 -0.3053347 0.113193765 -0.31061694 0.10576867 -0.30740643 0.32074103 0.052141737 -0.1373797 -0.3173437 0.36823756 0.15026861 -0.18510893 0.27773353 -0.007872761 -0.3823195 0.035760723 -0.3366366 -0.3221152 -0.00014559497 -0.009268709 0.19563095 0.42221153 -0.060451005 -0.21384124 -0.1807913 0.4066749 0.27365857 0.029718034 -0.015074026 -0.3574063 0.011402184 -0.47467712 -0.101020254 -0.41673416 0.17378744 0.16333188 -0.036882803 -0.1368834 -0.18142085 -0.08161665 0.014891206 -0.10108442 0.046649598 0.6475746 -0.40739363 -0.016752353 -0.01476609
斯巴鲁 -0.030356005 0.01581411 -0.12334928 0.32968745 -0.2751992 -0.5100339 0.2643835 0.1078586 -0.014143351 0.21993871 0.03967296 0.16569075 0.4967907 0.38362253 -0.14735757 -0.0060470942 -0.0871341 -0.1391166 0.29459393 0.02484934 -0.46758598 0.02339736 -0.118330754 -0.22472383 -0.078876026 -0.38959554 0.43255222 -0.0037761566 0.02108735 0.2954364 0.38461554 -0.21094596 0.09967628 -0.26898256 -0.21545026 -0.27136183 -0.07362523 0.36711952 0.095095 0.2478352 0.10709306 -0.00026476127 -0.09647124 0.04244559 -0.07610567 -0.09276788 -0.3559339 -0.07936168 -0.18887149 -0.34193206 -0.10246189 0.32506827 0.032671344 0.04891197 -0.016312081 0.0977231 -0.034517527 0.11981932 0.028025249 -0.29327732 -0.10450792 0.0422413 0.03099637 0.15185109
现在 0.19314352 0.15501757 -0.3267494 0.17996255 -0.34425047 -0.051651135 0.047089078 0.03447861 0.13177216 0.26613608 0.09509295 0.2569944 -0.012991515 0.028874421 -0.035735108 -0.065444745 0.099756114 -0.3177893 -0.071264334 0.16354102 0.20283028 0.01777585 -0.057100154 0.0038530359 0.037954897 -0.29576418 0.62862265 -0.2307111 -0.028306339 -0.23007785 0.05631192 0.12570632 -0.3813818 -0.31344363 -0.04265165 -0.089177445 -0.3550002 0.036322497 0.075490355 0.17602043 -0.11380331 0.19696638 0.03222706 -0.07211447 -0.034343638 -0.077041924 -0.28651834 -0.19694754 -0.06610048 -0.2960354 0.13844225 0.062395025 0.034935694 0.015033267 -0.14584057 -0.12095666 0.11925402 -0.0844597 -0.14513697 0.10199955 0.039999526 -0.43494463 -0.03344365 -0.039715603
刹车 0.15860657 0.109685935 0.4782544 0.10401906 0.33688095 -0.048865847 -0.17499581 -0.45370036 0.24758086 0.12245415 0.047582347 0.3271028 0.38289273 -0.32866216 -0.3199649 0.329853 0.16175258 0.14901607 -0.31673288 0.1362216 0.29921886 -0.25090998 0.31324404 -0.14940055 0.1605687 0.14255442 0.33017388 0.13927193 -0.10631568 -0.05840921 0.40270618 0.08571059 -0.2374436 0.27549994 -0.07648899 0.37008348 -0.32607043 0.12553167 0.0524466 0.5117929 -0.13195616 -0.029038973 0.21179448 0.30394307 0.066879794 0.020889131 -0.19189373 -0.25276202 0.28121966 -0.42376843 -0.698921 0.8643958 0.22734697 -0.28810248 -0.29238287 -0.5519194 0.64541405 -0.013997271 -0.16980836 -0.26352188 0.08112294 -0.12422445 -0.54354054 0.25359735
四驱 -0.32707378 0.21334204 0.12975977 0.16206351 -0.30373883 -0.4976172 0.110365726 -0.32287586 0.008146487 0.4044663 -0.18449108 0.04848099 0.06727128 0.669156 -0.2236834 0.39151087 -0.31416622 -0.20538138 0.09530807 0.26517817 -0.5990585 0.099432126 -0.18472117 -0.20727758 0.37837502 -0.7283391 0.40604082 -0.24744761 0.69051945 0.0091883335 0.45936522 -0.18500163 0.18782882 0.012549071 -0.08911795 0.09746829 0.16475706 -0.10419318 0.60518473 -0.21047524 -0.039364934 -0.07322938 -0.3252206 -0.19332854 0.055004753 -0.53338087 -0.27314007 -0.4486414 0.14011265 -0.3579828 0.1446382 0.20129763 0.17481983 0.032357756 -0.00873528 0.07625174 0.13009241 0.015374796 0.23836365 0.17773153 0.19699265 -0.31687808 0.49329376 -0.44903326
跑 0.025673691 0.06320301 -0.4798311 0.15660763 0.09302437 -0.26125512 0.43463987 -0.2519397 0.35284084 0.18869142 -0.104103416 0.16754544 -0.28916577 -0.10530148 -0.30133703 0.15745606 -0.015200377 -0.49033585 0.19213423 -0.19822049 0.0958378 -0.24956055 0.06308371 -0.2978195 0.023087008 0.056293163 0.39365503 -0.3268149 0.21539147 0.59731036 -0.116576865 0.10621581 -0.10481745 -0.12505814 0.12494468 -0.056663 -0.2768797 -0.2603699 0.39695498 -0.041724168 -0.090811096 0.09198709 0.5184352 0.21173719 -0.21278524 0.06899949 0.33012626 -0.02710161 0.11527043 -0.59989953 -0.11058417 -0.4526901 -0.07224965 -0.39504543 -0.26825306 -0.33743292 0.20753089 -0.41760716 -0.025228946 0.04738003 0.007956832 -0.44154292 -0.3845535 0.1525915
高速 -0.13706355 -0.18244521 -0.506355 0.064565636 0.32212248 -0.2092782 0.420648 -0.13956968 0.44134852 0.36704153 -0.0074502234 0.3119777 -0.13111252 -0.17220177 -0.24438465 0.021375949 -0.3876913 -0.2682232 -0.007892395 -0.0061322665 -0.023250865 0.019001411 -0.06550178 -0.18474571 -0.015035804 -0.23927023 0.21491274 -0.29973936 0.23593636 0.19375803 -0.39044854 0.050216924 -0.20029403 -0.09132601 -0.2764022 0.17597477 0.001335171 -0.21311812 0.56765604 -0.18096043 -0.07140893 -0.3317806 0.044546966 -0.11691992 -0.16991022 0.04365437 0.01825772 -0.17230083 0.013536207 -0.44958693 -0.33082107 -0.0813732 0.17559859 -0.70678276 -0.3873243 -0.2292406 0.23284608 -0.119928345 0.1557675 0.28746155 0.6450826 -0.30777133 -0.19478606 0.20755842
操控 -0.3105791 -0.24639267 -0.3110926 0.3718477 -0.015328071 -0.0424592 0.18512166 0.13883287 0.069132395 0.3025431 -0.1343729 -0.031032613 0.118958496 0.21914296 -0.20115256 0.23080036 0.10656215 -0.0123517085 0.009228512 0.2800003 -0.3318798 -0.20063265 -0.12569028 -0.12449243 0.14941518 -0.6844324 0.6597821 -0.54100865 0.27639806 -0.13708502 0.39983544 0.2231173 0.27128145 -0.041310422 0.11247384 3.6614347e-05 0.19866963 0.21134792 0.62181014 -0.10600866 -0.16550967 -0.43100825 0.03813389 -0.33785424 0.2174443 0.15728465 -0.27849454 -0.558813 -0.24661344 -0.41137123 -0.08193363 0.006683045 -0.23425852 -0.39904004 0.42019865 -0.09175589 0.24393936 0.388983 0.24045031 -0.020524964 -0.023973206 -0.31075415 0.46617922 0.2438037
导航 0.10311432 0.42751065 -0.6098195 0.67850435 -0.2348478 0.1816508 0.5182439 -0.154601 0.3011324 0.37639955 0.12588361 0.32266802 0.569143 -0.0527684 0.10889756 0.3657427 -0.014412388 -0.21410504 -0.19814858 0.06735579 0.108348005 -0.102508746 0.42085662 -0.48645908 0.21271624 0.031335134 -0.022982918 0.41183388 0.08118632 -0.07727275 0.41530284 -0.33514878 -0.4264482 0.013662918 0.19093378 -0.6425007 -0.068786286 -0.24272518 -0.7591328 0.0639519 -0.4249601 0.429728 -0.6032854 -0.015501733 0.06903047 0.36587456 -0.5069737 -0.08024535 0.16200332 -0.47384685 -0.28033465 0.041328963 0.22647184 0.011025724 -0.24149849 -0.62536436 0.06402915 0.22103694 -0.16697747 -0.47795144 0.41121826 -0.15010579 0.32060328 -0.6869073
觉得 0.18359393 -0.068455674 -0.17621264 0.02280966 -0.171897 0.20494676 -0.13600984 -0.18164806 0.2551971 0.01776484 -0.1190223 0.1713135 0.14668807 0.22630659 -0.09537005 0.0346083 -0.08508112 -0.10884788 0.123204574 0.035804708 -0.11380004 0.058563877 -0.073634475 -0.09379393 0.18025742 -0.21612695 0.4411053 -0.22490165 -0.43271017 -0.079509094 0.33189797 0.24398765 0.20950744 -0.27260837 -0.169775 0.0015577268 -0.035369214 0.12752603 0.2244581 0.0073150825 -0.1770981 -0.13952953 -0.08237158 0.008254566 -0.13933761 -0.06978635 -0.25547218 -0.24068871 -0.136264 -0.61829776 -0.030383378 0.111937925 -0.26093104 -0.013774552 -0.25420815 -0.19471852 0.32234755 -0.0041242647 -0.12699996 -0.16115585 0.034674216 -0.41165823 0.06562733 0.10005132
公里 0.20054671 0.26837122 -0.9518577 0.24565251 -0.13844325 -0.3548318 0.347911 -0.41307622 0.033554062 0.25813183 0.15154943 0.123829454 -0.0745359 -0.5296378 -0.3873076 0.23901282 -0.13498354 -0.38526803 0.47962916 -0.15983203 0.41645798 -0.117511116 0.10110282 -0.089232296 -0.25821102 -0.26136863 0.12352245 -0.33086896 -0.07860677 0.08171161 -0.14120129 -0.07933036 -0.47476175 -0.32852903 0.0010854308 -0.089173295 0.061576065 0.10944166 0.004865634 -0.34796792 0.045492075 0.073243015 0.43595317 0.1269726 -0.1776701 0.09913157 0.27312157 -0.26873413 -0.0019175844 -0.45302075 -0.51671433 -0.38875157 -0.10583732 -0.23110716 -0.20112467 -0.26246122 0.23047128 -0.32537535 0.048041925 0.13157661 0.394189 -0.1109097 -0.29457533 -0.27726653
空调 0.15212294 -0.37566417 -0.22554247 -0.038894698 -0.0834997 -0.09883518 -0.03837997 -0.7958418 0.08581288 0.03884365 0.1619183 0.16532066 -0.2389583 0.17107727 0.35294083 -0.22759597 0.08583308 -0.040799588 0.074854046 -0.27398792 0.2532557 0.019318655 0.4492782 0.42927745 -0.13637446 -0.07879873 0.17046961 -0.44370997 0.43934274 0.17856437 -0.5417183 -0.32519212 -0.036278225 0.14172421 0.040047146 -0.0024196408 0.0053084763 0.30972868 -0.06319457 0.22860846 -0.16306457 0.42039195 -0.22568409 0.6466725 -0.5060084 -0.0015311386 -0.23431751 -0.58984184 -0.17248338 -0.35593948 -0.17256196 -0.07712385 0.15401839 0.07263562 -0.10317237 -0.66065025 0.69312567 0.09710154 -0.33974332 -0.3468594 0.33572367 -0.23840939 -0.30949154 -0.46980345
应该 -0.058338102 0.011204739 -0.2739181 0.07886113 -0.15511253 -0.17081617 0.3463565 0.19300485 0.056576464 0.04034941 0.028121727 0.12973505 -0.15157388 0.17358275 -0.071222045 0.10818798 0.115418315 -0.17029364 -0.15376455 -0.1419991 -0.05159341 -0.045652866 -0.17878604 -0.024127422 0.07760038 -0.3507038 0.4343016 -0.25150296 0.16401947 0.13658854 0.38253093 0.16568372 -0.045700017 -0.08224376 0.08946491 -0.288212 0.30858567 0.06558262 0.24877688 0.5183909 -0.21955931 0.062838875 0.26337647 0.11959634 0.15205881 -0.22899877 -0.1563727 -0.48368353 0.017324518 -0.17651275 0.12977636 0.56675 0.1418026 -0.18990435 0.1341937 -0.25487536 0.24582425 -0.17034943 0.005405515 0.0030620478 0.13432175 0.017842734 -0.24962151 0.01896
比较 0.0075612813 -0.023683997 -0.70209175 0.1295925 -0.020976534 -0.07382345 0.37124893 -0.122972265 -0.15745752 0.6389332 -0.21992207 -0.0072041345 0.037245903 0.09560009 -0.3075064 -0.16711827 0.04245419 -0.064761005 0.0930183 0.14196979 0.05648406 0.04422949 -0.14330252 0.34658137 0.13868748 -0.15324666 0.20836535 0.013541527 0.13629338 0.01855223 0.28029233 0.2503206 -0.029534249 -0.27829096 -0.18691452 -0.0027591905 -0.08282107 0.22629659 0.47223952 0.09336463 -0.24909034 -0.12392207 -0.24568231 -0.13857074 0.016025523 -0.06991669 -0.13905215 -0.07603478 -0.25462 -0.5251368 0.035534013 0.38477403 -0.1570375 -0.1962578 -0.035265885 -0.096186124 0.2597504 0.10750389 0.26232448 -0.1304938 0.17460474 -0.033818774 0.06961186 0.06782706
外观 0.09630444 -0.1701777 -0.36773196 0.21541458 -0.58857626 -0.26542 0.10422334 -0.1340439 0.50792295 0.19040965 -0.3301089 0.099383295 0.47523788 0.14222655 -0.08519212 0.089839816 -0.019429095 0.08430214 0.553236 0.049395863 -0.66788304 -0.24599747 0.12845027 -0.11725709 0.50440985 -0.49194336 0.83368134 -0.05817581 0.4127394 -0.062229708 0.8364982 0.1111291 -0.18355285 -0.058347426 -0.07136626 0.19870973 0.7836341 0.08901367 -0.11262623 0.22883475 -0.31534478 -0.10479105 -0.46956968 -0.13908133 0.045711655 -0.20570184 0.01163561 -0.11906627 0.012702765 -0.0322577 -0.34768707 0.19474915 -0.15477163 0.20951131 0.7305814 0.27851677 -0.313285 -0.5556287 0.19675286 0.33040026 0.07668084 -0.24913554 0.025847562 0.05816618
底盘 -0.012189809 -0.06646025 -0.3175011 0.34400418 0.18138021 0.0070200865 0.15531588 -0.33631954 -0.21157019 -0.09582782 0.053832766 0.085353754 0.37240866 -0.15703589 -0.29852223 0.2966693 -0.20632382 -0.081347145 -0.051673327 0.06469288 -0.27163666 0.07932188 0.09719978 -0.07347642 0.44379795 -0.3398747 0.5390655 -1.0035673 0.3231167 -0.056201406 0.2227193 0.42964104 0.29872906 0.13706519 0.012781367 -0.030134056 -0.1854592 0.36774138 0.267993 0.24545912 -0.2439134 -0.6478361 -0.47815004 0.2108738 -0.20030773 -0.044236828 -0.26643765 -0.043389328 -0.12652965 -0.06744563 0.034218993 0.20422798 -0.13449153 0.17464308 -0.21642411 -0.31453884 0.05325307 -0.28884968 0.126071 -0.07974485 -0.31953022 -0.052308187 -0.16215783 0.24957204
不错 0.20279129 0.10130295 -0.5254381 0.10307315 0.13123386 0.311919 0.2763847 -0.3018522 0.024478734 0.2713587 -0.27179417 0.46979326 -0.0499655 0.30318666 -0.21078931 -0.05788777 -0.20920777 -0.06977558 0.20697303 0.0017269598 -0.18404025 -0.09094179 -0.0190561 0.049185354 -0.08822313 -0.049841456 0.5186581 -0.1675946 0.10303964 -0.32661855 0.2570651 0.19854258 0.0051284875 -0.31905267 -0.056828223 0.10392927 -0.42465886 -0.17665294 0.29543957 -0.11407835 -0.18528877 0.09556833 -0.46363938 -0.04771086 0.51731974 0.052599933 -0.068662934 -0.43769658 0.04962042 -0.5215503 0.16765632 0.34218192 0.21215495 0.092276916 0.40691605 -0.306766 0.03904478 -0.031599615 0.08642253 -0.202747 -0.069719955 -0.17303848 -0.2283254 -0.2847442
变速箱 0.26323062 -0.3035008 -0.16702393 -0.083364934 -0.14230001 -0.45046905 0.32059425 0.18048619 -0.2109953 -0.083414204 0.33826205 -0.069398105 0.3161884 -0.00044976614 -0.03613691 0.05064668 -0.16384277 -0.24351181 -0.09493811 -0.007185369 0.18478242 0.11818244 -0.027228847 -0.004086273 0.21342626 -0.7409376 0.10386724 -0.31758413 0.06197564 0.17732875 0.010334802 -0.24723929 0.46916798 -0.13268484 0.012860159 0.38808113 -0.101212785 -0.3124558 0.115462735 0.01418876 -0.34003392 0.017520944 -0.11126176 0.78832686 0.018482303 0.014936142 -0.14842524 -0.4233415 0.017175881 -0.43497473 -0.4922666 0.04999235 -0.01668143 0.18675537 0.32467508 -0.31536186 0.1750242 0.2209061 -0.1757295 -0.08964609 0.20472296 -0.06715874 -0.31912068 0.042055305
优惠 1.1098094 0.33332485 -0.47719702 0.07002484 -0.92549384 -0.14120297 0.4266089 -0.36077404 0.09921336 0.7243562 0.14122641 0.5509716 0.50575227 -0.2776868 0.4296628 0.061502725 0.32206735 -0.22854766 -0.25735238 0.1034881 -0.10944458 -0.18198961 -0.57846785 0.15339218 0.36688074 -0.39392227 -0.23753162 -0.4343337 -0.46400145 -0.110002905 0.19958337 0.3408354 -0.5833106 -0.09660488 -0.33658722 -0.4175101 -0.083277605 0.24579823 -0.19262572 -0.43832943 -0.0024067159 0.24761122 0.0022935006 -0.13276829 -0.25418252 0.41466692 -0.66208106 -0.019829009 0.17175736 -0.543694 -0.029721143 0.0013746961 -0.018985147 -0.040295858 0.115773916 -0.15339617 0.46219885 -0.3924973 -0.079558134 -0.25734457 0.16334908 -0.5103871 -0.05390827 0.22962712
保养 0.2576397 0.1614902 -0.97488606 0.097187065 -0.40829742 -0.5225431 0.14675167 -0.50786376 -0.34346887 -0.1376296 0.16736934 0.043542758 0.09731345 -0.3183974 -0.16390154 -0.45183936 -0.058631707 -0.079524264 0.02906923 0.1797954 -0.04490264 -0.010980806 -0.026959917 0.020141354 -0.18795629 -0.28516737 0.44203246 -0.3869755 -0.031059003 0.17206958 0.14972799 -0.4246568 0.031789526 -0.23816934 0.17795414 -0.32987335 0.30096176 0.08929179 0.107215695 -0.10292307 -0.4622652 -0.17969716 0.09451874 0.36883953 0.17820035 0.36085913 0.1257191 -0.10168052 -0.30745932 -0.39337757 -0.084726416 -0.3555615 0.24401438 -0.24433386 0.02785922 -0.14016901 0.2235783 0.0299529 -0.1418993 0.01472683 0.36089015 -0.066648066 0.20123404 0.15999494
知道 0.11820645 -0.13494067 -0.24063103 0.02970639 -0.3709557 -0.08170412 0.12132943 -0.19276088 0.19823918 0.24970986 0.031828046 0.1851922 0.06377379 -0.09697453 -0.22668277 0.2686637 0.049161144 -0.1560423 0.10494508 -0.072535336 -0.17606619 -0.027571743 0.22214332 -0.0018197928 0.16914192 -0.22917892 0.39081126 -0.06572112 0.29560083 0.12823202 0.1833089 0.011967256 -0.04729202 -0.13908923 0.046465177 -0.15100719 -0.22847731 -0.1698108 0.03288509 0.23359878 -0.1282242 0.14843526 -0.028388765 -0.022800911 -0.27961367 -0.15829162 0.016893858 0.16112031 -0.34436482 -0.16019006 -0.1485802 0.1508031 -0.055287085 -0.08558985 0.043856684 -0.22595945 0.095833525 -0.063563175 -0.007471184 -0.13222444 0.16427268 -0.06545527 -0.1927519 -0.093162365
一下 0.025129538 -0.2714478 -0.22771941 0.04679931 -0.257205 -0.40898907 0.08840172 -0.30097756 -0.06334704 0.23603731 -0.12839404 -0.08258613 0.007650753 -0.37417758 -0.17677365 -0.020851938 -0.070944235 -0.3510646 0.074844986 0.051286396 -0.13897021 -0.022675563 0.3352146 0.00823919 0.47732964 0.024152385 0.35270023 -0.0008501274 0.29152328 0.18830419 0.3784642 0.48611534 -0.137565 0.018977286 -0.061434206 -0.06060563 0.061258007 -0.09396108 -0.07007187 0.28621683 -0.11590732 0.08914872 -0.18079877 0.31658366 -0.21305086 -0.057045966 -0.11233941 -0.059278328 0.042455375 -0.38909864 -0.28957263 0.13371101 0.4414026 -0.72933626 -0.08394229 0.16668308 0.035472665 -0.06948287 -0.07615109 -0.06826347 0.04683158 0.074810944 -0.27925715 0.04001917
万 0.4181595 -0.14159465 -0.29850954 0.17282756 -0.46280688 -0.46811718 0.47762784 -0.2962333 -0.16278645 0.03891309 0.16255297 0.23498558 0.36234054 0.22368908 -0.5299001 0.1262637 0.23511806 -0.085975766 0.045432672 0.5978127 -0.3102983 0.010896669 -0.47620803 0.019261047 -0.22012204 -0.4733315 0.2228502 -0.37769157 -0.07774169 -0.14577058 -0.016983712 -0.05329729 -0.10725846 -0.42323926 -0.1807614 -0.39481774 -0.4718168 0.26411146 -0.1979578 -0.024978599 0.1781493 0.32904238 0.3274175 -0.045449916 0.03919336 0.240395 -0.2552813 -0.434679 0.052671913 -0.19700761 -0.35436502 -0.43192443 0.066508256 0.29359683 0.052898545 -0.16064763 0.2897687 -0.25795197 0.100390345 -0.035751306 0.26888496 -0.061915744 -0.1553612 -0.19845939
喜欢 0.04438415 0.062162798 -0.1392729 0.15104714 -0.37861347 0.21813393 -0.11377162 0.22585678 0.19938855 0.02026082 0.15034954 0.17443062 0.4939102 0.12498941 -0.24072237 -0.19520628 -0.24184506 -0.3614029 0.16502583 0.05215584 -0.14987089 0.14449649 -0.17706288 -0.26833776 0.23559465 -0.6949315 0.5410427 0.096838176 0.1809628 -0.41311076 0.5193118 0.18488625 0.044545606 -0.2299757 -0.27373287 0.28740922 0.1480827 0.22450784 0.36807695 -0.12005461 -0.52767813 -0.23227367 -0.3432641 -0.005544428 0.021795092 0.048393387 -0.18976088 -0.60616004 -0.31373647 -0.48355314 -0.030172588 0.27253008 -0.16286857 -0.309876 -0.03711476 -0.15204494 -0.07229016 -0.18974113 -0.17394213 -0.1605379 0.022695491 -0.1283043 0.3220033 0.18949883
更 -0.21277964 0.26352546 -0.34625533 -0.18318439 -0.18078302 -0.4778213 0.047981456 0.0446687 -0.22021486 -0.122240536 -0.1030199 0.39129215 -0.119102426 0.42334053 0.009558933 0.16282466 0.114279926 -0.29441315 0.23525122 -0.21049754 0.07722326 -0.024678 -0.13462341 -0.063131355 0.10428826 -0.14778417 0.43700355 -0.19348416 -0.23058368 0.12139426 0.40885484 0.040717915 0.35617277 -0.1313943 -0.1062114 0.286347 -0.023683235 0.20355076 0.39912635 0.031832993 0.07216769 -0.55691975 -0.08076363 -0.15616605 -0.1960334 -0.100622654 -0.08306305 -0.3975019 -0.39052835 -0.18806265 -0.25833294 0.057791945 -0.03546797 -0.1731184 -0.17548873 -0.115898505 0.26271188 -0.25451156 -0.10863946 -0.3174993 0.06791046 -0.6847662 0.15541865 0.046694066
低 -0.23820181 0.048410494 -0.35876563 -0.08417372 -0.030094152 -0.32290486 0.23104304 -0.31096253 0.430553 0.32693923 -0.081309706 0.28583226 -0.06540282 0.3456407 -0.2259669 0.09469183 0.14003724 0.12589498 0.35588303 0.3631499 -0.21241769 0.014330834 -0.31653544 -0.13170585 -0.36856183 -0.35829225 0.290125 -0.35587916 0.36126927 0.24551658 -0.03846331 0.07218511 0.1479694 0.007415598 -0.10628688 -0.12069205 -0.5991688 0.28331 0.44939584 -0.09031187 -0.26419297 -0.18200122 -0.20312087 -0.18973926 -0.027362162 -0.37732264 -0.16123606 -0.0677725 0.039733265 -0.18885681 -0.2599549 0.23538 0.14817515 0.10711715 0.0724826 -0.19187693 0.001655496 -0.35922062 -0.018755093 0.13520834 0.18731552 -0.21612121 0.13392207 -0.023569591
性能 0.059626613 -0.04574666 -0.4741063 0.34208786 0.0843986 -0.3029178 0.020609545 -0.11126086 0.011413125 0.46521273 -0.11270304 0.059874326 0.20332439 0.49137577 -0.20465386 0.068343766 -0.25147814 -0.15525852 0.25412607 -0.009774938 -0.3557996 -0.022094091 0.1402623 -0.3334481 0.5007252 -0.042424742 0.17472288 -0.35925013 0.15493953 0.29624176 0.7711846 -0.08140087 -0.06843778 -0.023086278 -0.2670714 -0.13741139 -0.24561186 -0.13657424 0.43152905 0.29233584 -0.118102215 -0.38673192 0.22650006 -0.10889394 0.14237188 -0.2923992 -0.15894626 -0.051387023 -0.22760622 -0.39137512 0.34012 0.19384925 -0.011890012 0.20459542 0.1841968 -0.11602145 0.335215 -0.33134115 0.1610331 -0.17101248 -0.13279611 -0.13606474 0.26901287 0.23291178
一点 -0.04572404 -0.033512563 -0.4249986 -0.07930685 -0.18784244 -0.31060892 0.25275934 -0.021633498 0.10912087 -0.15164356 0.015643734 0.36836693 0.08773766 0.3094584 -0.08310087 -0.018916134 -0.09674557 -0.19259715 0.23190823 0.15055063 0.06798241 -0.20850992 0.106852315 0.025372608 0.03055149 -0.23840787 0.29534444 -0.37466684 0.12894468 -0.044509735 -0.0074917534 0.10881218 0.005972486 -0.0042407047 -0.16763677 0.17486045 -0.12375893 -0.06386754 0.20529242 0.16160375 -0.010928898 -0.08886956 -0.07936644 0.015071011 -0.060970448 -0.081963904 0.022127885 -0.08551255 -0.31353486 -0.16323473 -0.34716812 0.15908812 -0.17016357 -0.037791852 -0.12670651 -0.18118006 0.49135864 0.21706206 0.047963873 -0.014088709 -0.23183624 -0.28306207 0.32034057 0.1840527
左右 0.35988736 -0.20068721 -0.40734714 0.089801796 -0.08593167 -0.19775333 0.59935796 -0.31695092 0.3079294 0.22951995 0.2896917 0.0017590708 -0.021445626 -0.38625497 -0.1881632 0.46715644 -0.372974 -0.13210285 -0.0036098512 0.14554329 0.17423666 -0.26478755 0.12572113 -0.05262312 0.093456656 -0.26444584 -0.1454454 -0.29841292 -0.15371962 0.13359909 -0.38455826 -0.03172412 -0.11735436 -0.2691037 -0.018316125 -0.41094404 0.026672367 -0.02242845 0.29887557 -0.031922057 -0.2436431 0.14430618 0.0687967 0.054874353 -0.13699317 -0.06586669 0.33507383 -0.24714676 0.033612177 -0.3743483 -0.2982963 0.017295718 -0.41035467 -0.064236596 -0.14264941 -0.04925345 0.65228784 -0.4396465 -0.15707405 -0.017799392 0.10097208 -0.14380644 -0.22644186 -0.46075347
油 0.33399963 -0.058613233 -0.7961037 0.058572646 -0.109077066 -0.7076426 0.39079252 -0.45132512 -0.120972 0.0056893504 0.3716646 0.10519539 0.14817406 0.026417265 -0.054513928 -0.36850083 -0.19527219 -0.28951326 -0.019350108 0.023753429 0.3588915 0.058859084 0.20825826 -0.28035584 -0.2184151 -0.39467934 -0.10322591 -0.6228307 -0.026219016 0.028806845 -0.102513485 0.034570184 0.4544782 -0.21260293 0.0703437 -0.08975532 -0.5073635 -0.25131196 0.0640873 0.08307304 -0.09088999 0.38137752 0.29467168 0.8270294 -0.020753268 -0.26366988 0.086051844 0.113283254 -0.17524873 -0.7160337 -0.23710322 -0.1408187 0.23029083 -0.10602169 0.16143157 -0.28096488 0.21603961 -0.011803388 -0.18071473 0.14336237 0.21499588 -0.0019917132 -0.7523009 -0.0241608
肯定 -0.049863953 0.010054948 -0.33964163 -0.041803245 -0.49380276 -0.27331 0.34649467 -0.08600183 0.3658731 -0.12244214 0.03581445 0.23268984 0.033773843 0.2282168 -0.20186862 0.1448417 -0.1957708 -0.09617274 0.37285802 -0.13064298 -0.108441845 0.105282135 -0.19049297 -0.14147495 0.25185162 -0.22316581 0.043481432 -0.2231448 0.24965331 0.14723417 0.42437395 0.03668751 0.082041964 -0.03505116 -0.29391587 0.04350135 -0.2110813 0.036211476 0.10009314 0.11035879 0.016863363 -0.057951182 -0.24998584 -0.018493408 0.010720051 -0.49471107 -0.54657155 -0.17110701 -0.008969205 -0.37582248 -0.04915298 -0.19814545 0.16111417 0.023536883 0.05322366 -0.26292336 0.118687995 -0.042882383 -0.19738011 0.05574951 -0.16057864 -0.1972962 -0.110112526 0.038115267
年 0.022644779 -0.17954753 -0.49859998 0.49523106 -0.37773615 -0.22449502 0.68099463 -0.10534637 0.064741746 -0.28531015 0.16086806 0.0014744604 -0.008683557 -0.2617206 -0.46941903 -0.06249035 -0.023165654 -0.112130664 -0.16016787 -0.015720107 0.12648548 -0.14505583 -0.018470876 0.20941594 -0.38656145 -0.5443569 0.35129613 -0.24263096 -0.042149767 -0.3159097 -0.07858825 0.0917778 -0.26371926 -0.4476848 0.21916771 -0.42632166 -0.26909873 0.14449555 -0.3452626 -0.2005315 -0.2331842 0.032317795 0.02676553 0.40487447 0.089776814 0.124683134 -0.44537184 -0.08261344 -0.18014793 -0.32698506 -0.30158654 0.008737287 -0.28480855 0.45904085 -0.13402271 0.028939523 0.36761042 -0.1007214 -0.10858912 -0.068849735 0.14524254 -0.2651242 -0.4355438 -0.068381056
正常 0.2030352 -0.29047087 -0.23799267 0.30823818 0.19378169 -0.51167905 0.2220542 -0.53006226 -0.034579504 0.1498386 0.034193926 0.0014621296 -0.081945844 -0.34765837 -0.28822282 0.09967086 0.17187512 -0.07408027 0.13896284 0.05246403 0.30415565 -0.017468706 0.2749881 0.029382072 -0.25064832 -0.329505 0.4044221 0.097810075 -0.09399471 0.43219283 -0.15762675 -0.133453 -0.103037395 0.003717913 0.18702294 0.16504627 -0.14571463 0.34583956 -0.20311837 0.30902606 -0.14038134 0.23290093 0.07015919 0.31085643 -0.163498 -0.094067834 0.14629339 -0.34247568 -0.3130294 -0.06933674 -0.43357953 0.228841 -0.15065542 0.35597882 -0.43064603 -0.53135645 0.40234235 -0.1459841 -0.10716078 0.013523749 0.2129711 -0.14309867 -0.3130509 -0.30038008
加速 -0.1711365 -0.28500408 -0.23374277 0.12923498 0.5580939 -0.22428559 -0.3552761 0.110347345 0.55490476 0.6868852 0.23766041 0.37441644 0.035275623 0.37494028 -0.6150072 -0.08115009 -0.08512751 -0.5689596 0.46782857 -0.101183794 0.24049951 0.34447262 0.09775114 -0.2307099 0.10969426 -0.20856225 0.29412565 -0.3501084 -0.0331074 0.26522017 0.18517138 -0.11803415 -0.35564715 0.13230337 -0.13298365 0.14150584 -0.3385163 -0.17950436 0.20841782 0.21577787 0.118001536 -0.42539957 0.11419629 -0.1042304 0.14064956 0.33042467 -0.34886524 -0.104160696 0.23598078 -0.62178487 -0.22829157 0.0056053055 0.13818337 -0.39089003 -0.038331613 -0.77981496 0.6897076 0.041502234 0.17252527 0.23052248 0.12400949 -0.07905344 -0.4339823 0.23299058
有点 0.118416764 -0.26772654 -0.019464174 0.2219106 -0.026169237 -0.20938395 -0.15627871 -0.1474812 0.06320598 0.045174394 0.31980604 0.09600409 0.121344745 -0.122377515 0.067916945 -0.012922059 -0.26029155 0.03569738 0.30946892 0.2552003 -0.09710109 -0.06873643 0.18429945 0.14508091 0.26756784 -0.5073629 0.5472786 -0.3517064 -0.056788933 -0.16456042 -0.28896955 -0.009814734 -0.3135064 -0.3670715 -0.004486743 -0.017367445 -0.32742882 0.20055011 -0.06976212 -0.011638806 -0.10049609 0.06569133 -0.26403877 0.11991654 0.23431979 0.45052716 0.21833819 -0.22699592 -0.1503812 -0.2654603 -0.17818421 0.2367649 0.28726295 -0.10460896 0.07587738 -0.21119283 0.32966557 0.14592582 0.043873206 -0.41828346 0.47425652 -0.26484776 -0.22888537 0.2806247
声音 0.46696106 0.08947277 0.029015003 0.40256935 0.37884253 -0.42302638 0.21202746 -0.19742365 -0.3444571 -0.15481439 0.55669487 0.66529316 -0.18600935 -0.18565907 0.032229815 0.32558754 -0.24010612 -0.367583 0.056445748 -0.27476674 -0.2131935 -0.24293095 0.7571476 0.078788705 0.50342983 -0.25912935 0.23012036 0.078265645 -0.19676204 0.34884083 -0.5317629 0.22446267 -0.2730319 -0.136305 -0.2508067 -0.10444677 -0.12210746 -0.20377098 -0.093532 0.15620048 -0.67936516 -0.04921971 0.2799247 0.31846803 0.6252023 0.009176223 0.36371455 -0.31219235 -0.100731835 -0.10409768 -0.50928324 0.47878456 -0.045824368 0.17114799 -0.6831999 -0.8647544 0.013889786 -0.06645714 0.15322514 -0.5840355 0.1755726 -0.491039 -0.16372664 0.04314829
建议 0.6685198 0.0049126158 -0.49634272 0.039680634 -0.05846572 -0.3683051 0.31561807 -0.09613458 -0.21483709 0.52186537 -0.049017254 0.08901242 0.28282005 -0.40796664 0.0012603711 -0.26008478 0.059753865 0.08258062 0.112008706 -0.06118388 -0.10763869 0.09587001 0.16922262 0.16812366 0.11660781 0.049690768 0.0027758074 -0.23357353 0.015176001 -0.3614392 0.15040755 0.48698172 0.20035273 0.14219299 0.037626453 -0.16468856 -0.038254987 -0.054743446 0.25173682 0.1286509 -0.008823941 0.070599005 -0.2326159 0.24468891 0.27246663 -0.27434063 -0.39138556 -0.25049743 -0.27790794 -0.2222197 -0.20889603 0.17289448 0.100411855 -0.32037616 0.30698964 -0.35314333 0.24322627 -0.29168645 -0.18045363 -0.15406461 -0.07621212 -0.24553776 0.0757626 0.1386597
噪音 0.055629056 -0.39342088 -0.5413963 0.23492335 0.21517526 0.06543093 0.27316794 -0.11669841 -0.044889048 0.22597404 -0.09437435 0.54718286 -0.1719665 -0.045119666 -0.37479267 0.34803045 -0.31237742 0.07511557 -0.20061016 -0.04188651 -0.37701616 -0.058581777 0.13004497 -0.5162873 0.09602865 -0.5340229 0.73661375 0.052395828 -0.1354941 0.23002852 -0.15662338 0.08552477 0.058418743 0.022434112 -0.5341127 0.46343005 0.067943096 -0.58286387 0.2653943 0.05121736 -0.37290558 -0.22562222 0.112535015 0.20116226 0.5348108 0.20243253 0.37798294 -0.025527451 -0.12458707 -0.30043206 -0.24689448 0.35490167 0.47263393 0.16003028 -0.32338834 -0.0765662 0.547905 -0.090270676 0.3922227 -0.087869436 -0.08475376 -0.36396047 -0.27358204 0.065472834
差 -0.19136976 -0.1302761 -0.22576547 0.012109556 -0.30064794 0.15356602 0.34749475 -0.58147323 0.27022576 0.17918953 0.30622473 0.42082167 0.14748868 0.31927156 -0.18171446 0.2840746 -0.30365536 0.297176 0.15108155 0.123628706 -0.2805915 -0.15012777 -0.04068646 0.20339645 -0.16324644 -0.3354211 0.5425027 0.11043619 0.38514945 -0.11162785 -0.15057632 -0.25653577 -0.1267615 0.012976992 0.012220856 0.39901558 -0.27207136 -0.108982906 0.52108926 0.0908617 -0.0029037234 -0.3137563 -0.07798075 0.25346625 -0.046604447 0.22234361 -0.39459354 0.21329609 0.016730215 -0.47078896 -0.27344468 -0.29002056 -0.016474783 0.1638404 -0.0160407 0.101026624 0.37128168 0.17192611 0.50943476 -0.31092623 0.10375661 -0.4442704 0.03765659 -0.062272567
确实 -0.016020898 0.07767724 -0.28370866 -0.122213185 0.25043786 -0.18726419 0.20065236 -0.25025877 -0.21469918 0.17539637 -0.04889248 0.13482535 0.23663254 -0.063535064 -0.42474622 -0.061361868 -0.32266185 0.0607461 0.19591026 -0.029528247 -0.050926212 0.08991412 -0.26199365 0.0398605 -0.149683 -0.46904144 0.57196426 -0.5192823 0.042497173 -0.07816941 0.18747629 0.040807478 -0.07127838 -0.24327348 -0.22013761 0.11964069 -0.44200692 -0.11568213 0.22331929 0.1781477 -0.21624215 -0.14700745 -0.32048923 -0.09628542 -0.2202545 0.020859525 0.060477223 -0.010282044 -0.39771548 -0.20092107 -0.14482671 0.31323647 -0.014294883 -0.23700923 -0.09961105 -0.3173585 0.10465127 -0.12018785 -0.1515366 -0.11200679 -0.014933826 -0.33405682 0.012956826 0.21293445
森 -0.23742643 -0.048785124 -0.49100208 -0.32158905 -0.23507594 0.051822152 0.23645829 0.35212296 -0.23650427 0.17403448 -0.11880446 -0.050529514 0.5835151 0.1397672 -0.107143834 0.026572619 -0.27512679 0.38329738 0.20301674 0.34390673 -0.15544653 -0.08397091 0.03685066 -0.11427173 0.19261043 -0.47816414 0.41964105 -0.50464153 0.1749067 -0.09671978 0.43933567 0.4980248 -0.11040846 -0.5833022 -0.024777338 0.087720074 0.039326627 0.3142718 0.59494966 0.5045321 -0.16225266 -0.5231034 0.062388025 -0.32954556 -0.12213018 0.115371466 -0.10874824 -0.56012964 -0.08210112 -0.05841385 -0.2937667 -0.07867926 0.19857287 -0.38688478 0.23000269 -0.44786984 0.3748023 0.20903589 0.23019488 -0.112095624 -0.058282215 -0.33262044 0.39978078 0.15128984
想 -0.0246154 -0.025164982 -0.0959427 -0.19576818 -0.21333672 -0.22524405 0.23804621 -0.054618876 0.44925025 0.41746396 0.2649449 0.21744157 0.09358591 -0.10507971 -0.10578823 -0.22282484 -0.019984342 -0.29284638 -0.06465521 -0.20822625 -0.36488852 -0.25376973 -0.25261348 0.08709704 0.28580233 -0.28026 0.25820982 0.006992624 0.15195002 0.19808221 0.4349811 -0.06440638 -0.12024136 -0.15528776 -0.13931215 -0.60935014 -0.21637015 -0.14787926 0.07241337 0.18984675 -0.16608314 -0.2540542 -0.013328132 0.39248994 0.11229781 -0.30232996 -0.13822542 -0.22294345 -0.12467328 -0.31583542 -0.14169654 -0.032328095 0.54714555 -0.41275537 -0.12000461 -0.3294278 -0.054812737 -0.37115955 0.0021099024 0.12573639 -0.34236264 -0.3556277 0.098935194 0.11947344
楼主 0.052655082 -0.1777956 -0.70596224 0.15893863 0.035843536 -0.21241881 0.3114955 -0.017787738 0.2250371 0.16242303 -0.20745523 0.38304016 0.2517958 -0.3327825 -0.22785003 0.021862308 0.0021048824 -0.07430692 0.0188096 -0.056367874 0.10633669 -0.31750327 -0.19486117 0.20565477 0.43678272 0.12785712 0.25695896 -0.026274918 0.23255403 0.13113827 0.33383647 -0.05063763 0.049082212 0.059332933 0.15926832 -0.15641363 0.30017528 0.099767886 -0.03080514 0.15093333 -0.10399389 0.071556866 -0.09914639 0.32706767 0.13779145 -0.08959178 -0.078404985 -0.0022492893 -0.21696554 -0.1957868 -0.27591908 -0.043456905 0.18204731 0.063889414 0.077655844 -0.07988863 0.25553006 -0.1974241 0.059473563 -0.06294898 0.14805293 -0.29519656 -0.06901484 0.16215852
座椅 -0.074598774 0.59507525 0.17646834 -0.36752614 -0.37689605 0.012942242 -0.5062928 -0.38101977 0.7434442 -0.24655151 -0.19080287 0.12909545 0.30581328 0.10388152 0.11414317 -0.0887773 -0.007871365 -0.035823654 -0.3926552 0.042620357 -0.35516542 0.30513576 0.0020716826 0.096021265 0.1828256 0.04195175 0.5515856 -0.34994087 0.7512144 -0.43986523 -0.26579797 -0.015532864 -0.58299464 -0.35435042 0.5104015 -0.38938287 -0.36683625 0.2708719 0.21826838 0.051295653 -0.24039672 -0.07323784 -0.68379533 0.34357566 -0.33072054 0.05130557 -0.08591776 -0.38365948 -0.14601597 -0.3249719 -0.19339249 -0.033598468 -0.6733536 -0.30867422 0.13941972 0.045183685 0.7276356 0.23627749 0.13566573 -0.66123927 0.5283164 -0.28924713 -0.22684096 -0.20554213
太 -0.32934174 -0.26269546 -0.25700143 -0.18875952 0.10053462 0.07342584 0.14170663 -0.16711688 -0.020861484 0.659781 -0.07292146 0.18763839 0.040828146 -0.19682091 -0.322862 0.16363901 0.05689597 -0.22316028 -0.13377158 0.03535261 -0.17166114 -0.15918997 0.1327326 0.020266883 -0.016898755 -0.45317894 0.5142819 0.27097356 0.1997175 0.01155538 0.35008484 -0.14759046 -0.22543319 -0.11471447 -0.29802963 0.44591904 -0.4993115 -0.022144783 0.180039 0.020942785 -0.35101333 0.09267835 -0.25156543 0.19758697 -0.15240078 0.2883803 -0.2441186 0.08290642 0.069073536 -0.5932692 -0.29556233 0.31355515 0.4428729 -0.09848293 -0.34645647 -0.093516186 0.2783557 0.19200125 0.15591666 0.19693677 0.15850224 -0.21063054 0.2647212 -0.022135023
全时 -0.32067016 0.28933913 0.04217639 0.021953374 -0.28682214 -0.4379546 0.058714263 -0.1951218 0.18461563 0.27407748 -0.110994 0.16513805 -0.047602594 0.6995438 -0.3524166 0.62200415 -0.5446609 -0.002103068 0.019447634 0.38940218 -0.7266248 -0.10966907 -0.070299104 -0.46484247 0.3160852 -0.57801163 0.3139432 -0.27444142 0.75636095 0.16297947 0.44401783 -0.530161 0.06623972 0.2573253 -0.104309715 0.013597178 0.071916655 0.13952711 0.49273348 -0.45931455 0.090500206 0.20140262 -0.27026394 -0.013424027 0.25706515 -0.7244122 -0.1524296 -0.25060216 0.30934808 -0.42639315 0.12887171 0.33954054 0.1457131 0.15426514 -0.23498844 -0.13316078 0.24677017 0.01602592 -0.055755667 0.2364044 0.12392319 -0.09320836 0.12068086 -0.38673085
市区 0.06255231 -0.09407864 -0.66628265 0.30288282 0.46153644 -0.14034425 0.37492818 -0.45725545 0.38683763 0.41565254 -0.10955651 0.08826974 -0.23521185 -0.15747339 -0.23943496 -0.044482034 -0.32254913 -0.40223807 -0.0582762 -0.0069381306 0.2728513 -0.2997177 -0.07038631 -0.073843405 -0.19437812 -0.5593032 0.2795138 0.0005051939 0.3301459 0.2167889 -0.23547028 0.12003697 -0.11634171 -0.49819824 -0.102109484 -0.046888288 -0.087034434 -0.36897063 0.39223996 -0.46027339 0.099496394 -0.42914706 0.100588016 -0.43188062 -0.24843444 0.28977197 0.08267903 -0.2833238 -0.037316427 -0.70269597 -0.2430812 -0.23840666 -0.29533792 -0.69115645 -0.1218869 -0.32513967 0.18106608 -0.19049855 -0.38789862 0.13975957 0.60419655 -0.44313058 -0.008172746 -0.24214667
加 0.4759367 0.39885318 -0.8368808 0.28524643 -0.23286764 -0.42561254 -0.13845123 -0.1469423 -0.06950145 0.3027584 0.2587365 0.3678075 0.25860122 0.19336748 -0.30338165 -0.29999885 0.023145685 -0.25913587 -0.13709934 0.13181627 0.22534336 -0.0021271552 0.33047003 -0.41709918 0.005053978 -0.060773607 0.07195612 -0.5612776 -0.3830928 0.013090018 -0.09063626 0.32016578 -0.21050432 -0.24991478 -0.010056991 0.038296074 -0.29463664 0.124595486 -0.29541752 0.16382633 -0.044490788 0.36193383 0.2655299 0.040417656 -0.33345002 -0.3350275 0.32932788 0.34092027 -0.19423278 -0.355347 -0.24799964 0.015392225 0.20124938 -0.37688547 -0.124617726 -0.16862144 -0.057978015 -0.44522035 0.20351411 -0.2993452 0.1943201 -0.5980433 -0.4710722 -0.28628415
10 0.07888582 -0.34106427 -0.44527072 0.4725146 -0.35718653 -0.45622662 0.56989855 -0.08500701 0.082198754 -0.09762656 0.25086895 -0.044198044 0.027399871 -0.33607018 -0.31422734 0.22296748 -0.12105103 -0.15485933 -0.39365235 -0.09084375 0.43913803 0.034381647 0.1032992 0.01738655 -0.3802127 -0.05610383 0.2803624 -0.48265323 0.079903245 -0.04154868 -0.20769538 0.2866125 -0.10307576 0.04220798 0.37375218 -0.26275375 -0.32250977 0.102396265 -0.2790167 -0.13458183 -0.11192374 -0.16877481 0.013927712 0.08124995 -0.24454142 0.1385197 -0.051038936 -0.23754588 -0.32198444 -0.49975514 -0.5077701 -0.21409613 -0.3509781 0.090188965 -0.29782754 -0.13666715 0.33883092 -0.3896086 0.031442974 0.16121118 0.20170055 -0.2802288 -0.3758369 -0.3258956
越野 -0.6779917 0.1929559 -0.37533942 0.3609159 0.32019264 0.004201487 0.49743867 0.2436244 -0.18007581 0.45783785 -0.3967652 -0.10259577 0.25389078 0.43069252 -0.120722786 -0.44407517 -0.47865963 -0.2748126 0.41973078 0.23401894 -0.4402853 -0.15487963 0.3068076 -0.5384072 0.7225901 -0.6487222 0.6307462 -0.24124362 0.29622516 0.2040708 0.68439263 0.22899799 0.40811923 0.7147124 -0.0071967645 -0.66093993 -0.09666755 -0.049571946 0.8708675 -0.26923048 -0.20054786 -0.5517357 -0.2959487 -0.16861379 -0.10973072 -0.028875094 -0.331794 -0.682413 -0.21700159 -0.4481019 0.48209214 -0.09618571 -0.3951274 -0.30805328 0.13820595 -0.04600714 0.1807434 -0.037632145 0.2501699 -0.30750772 -0.08724489 -0.16519436 0.23389104 0.014716327
方向盘 -0.16255862 -0.29673505 0.40417585 0.18329908 0.02525831 -0.30182678 0.23331308 0.224 0.09605758 -0.29957464 -0.41713217 0.21950085 0.3920494 0.18818921 -0.33367324 0.20219828 -0.024933932 0.14932533 -0.46866786 -0.12324481 -0.09987756 -0.11444443 0.15585576 6.3571875e-05 -0.4191439 -0.09841143 0.20755965 -0.14352494 0.26750797 0.2203741 0.07164879 0.16219324 -0.41531622 0.34174556 0.57447225 0.41621798 -0.24483134 0.0981029 -0.096793264 0.47427014 0.021039752 -0.027677916 -0.7942885 0.6792784 -0.2823903 0.17796943 0.19813392 -0.65279245 0.19199283 -0.40313837 -0.28828457 0.42484206 0.10437171 -0.61933213 0.17563078 -0.4742668 0.75989974 -0.13452266 0.32460713 -0.47564006 0.58912516 -0.06406425 -0.22389494 -0.10169451
点 -0.19332425 0.01831881 -0.29753345 0.37217155 -0.107788175 -0.24676068 -0.08305073 0.031219391 -0.0622215 -0.22608799 0.30427694 0.17804344 0.3873958 0.010716881 0.17308462 -0.17760624 -0.14202093 0.24780391 -0.15553711 -0.51709694 -0.2998137 0.009745585 0.01031428 0.07543334 0.49750572 -0.3225065 0.32648662 -0.34715888 0.2799324 -0.21951608 0.29041857 -0.22392866 0.0037677458 -0.20078214 -0.25196964 -0.27709755 0.059725173 0.27781808 0.34417582 0.052402534 -0.5926561 -0.06709143 0.050965942 -0.35064128 -0.0876945 0.20912369 0.09991977 -0.51573247 -0.509841 -0.46914583 -0.21225815 0.20898616 -0.14454049 -0.40749654 0.028905638 -0.34774074 -0.15604022 -0.42125016 -0.110707514 -0.12898828 -0.06922693 -0.36563072 -0.046844095 0.20384991
16 0.11648007 0.4129898 -0.08447812 0.2076101 -0.30049482 -0.17060708 0.055206757 0.055504285 0.012478617 0.39698297 0.15428491 0.42492402 0.20189476 -0.032578137 -0.35633373 0.20673653 -0.103279054 -0.088478275 -0.18154538 -0.22227862 0.13570462 -0.066976815 -0.0674629 0.073936686 -0.32483533 -0.27184746 0.24415602 0.0506009 -0.049705543 -0.056586374 -0.08190587 0.2830041 -0.43281537 -0.3820796 -0.08739758 -0.03235741 0.40421605 -0.07088077 -0.49513373 -0.035796385 -0.19535306 0.023563076 -0.06903042 0.30106696 -0.15070713 0.43164563 -0.38933927 -0.49264264 -0.1490001 -0.47504961 -0.24501537 0.07766193 -0.21833874 0.07377607 -0.3539727 0.043648634 0.14383104 -0.074597046 -0.14568473 -0.103606336 0.5801868 -0.7928998 -0.16122681 0.0366843
看看 0.36231393 0.11512191 -0.67636466 0.18772227 -0.15473418 -0.082839675 -0.068717964 -0.06295275 -0.27011922 0.24373154 -0.13803592 -0.1299139 0.31340304 0.022892991 0.10911919 -0.16947861 0.17012024 -0.25731453 0.3729459 0.24233876 -0.21813011 -0.04011424 0.25114363 0.3965757 0.20489134 -0.2490701 0.44186914 -0.25365427 0.26525977 0.18984133 0.49360725 0.49972188 -0.35589656 -0.123116985 -0.037105773 -0.2286206 -0.02869475 0.19290176 -0.06990684 0.29224056 -0.23472223 0.10196175 -0.1451465 0.06593022 -0.17075178 -0.010828055 0.010990353 0.2965368 -0.05316074 -0.12525149 -0.396959 0.36971572 0.29147503 0.17069988 0.07338949 0.0004604905 0.4218053 0.06706711 -0.19776915 -0.16968004 0.01833581 0.18387489 0.04277332 -0.14131728
主要 0.2770872 -0.27806142 -0.11542158 0.012009211 -0.3356561 -0.2016127 0.19351949 -0.29557207 -0.10999792 0.21736218 0.14899261 0.26288462 0.053882908 -0.22841996 -0.15785152 0.06686788 -0.042637784 0.4357368 -0.04987004 0.19171873 -0.28966424 -0.3350307 -0.06961469 -0.38818446 0.48392174 -0.29327896 0.18564953 -0.140025 -0.16078497 0.005594032 0.1304401 0.03892292 -0.0008809691 -0.2843839 0.12661226 0.06760208 -0.049602233 -0.15393466 0.21677692 0.3394148 -0.12188583 -0.36760142 -0.14077662 0.19882277 0.0048039025 -0.25215888 0.06329862 -0.074233845 -0.04620915 -0.20994335 -0.11013253 0.13193747 0.18897109 -0.101898596 -0.47604117 -0.031241056 0.34899074 -0.1457271 0.17525686 -0.16745687 -0.05342328 -0.3892118 0.051015396 -0.035412204
考虑 -0.04922429 -0.23820566 -0.5355909 -0.04113798 -0.16336238 -0.07816604 0.38074696 -0.3911904 0.0066718184 0.124179825 -0.09206931 -0.23517428 0.13368084 0.20929876 -0.09753031 -0.15818495 0.0146804685 -0.1451265 0.043723874 -0.39928263 -0.19139582 -0.01979977 -0.35630822 -0.01637553 0.016437909 -0.41739976 0.46320215 -0.08710927 0.68939114 0.09119214 0.2501974 -0.09209629 -0.23010835 0.019517306 -0.17452525 -0.26413682 -0.08094202 0.09389597 0.32439783 -0.13829753 0.20459254 -0.37400502 -0.10457985 0.1988994 0.024453303 0.06878609 -0.29308692 -0.32772174 -0.24027571 -0.5996224 -0.056061383 0.13282518 0.30505836 0.027439186 0.22682111 0.011262332 0.25253016 -0.17542347 0.18775521 -0.19032845 -0.31466293 -0.080618426 0.4187814 -0.1629732
做 0.24045749 0.12023395 -0.28575107 0.13334954 0.113950625 -0.34336704 0.26442745 -0.5160787 -0.13198172 -0.050724246 0.41643474 -0.21124615 0.09042945 -0.3444108 -0.30391148 -0.11937869 -0.57183987 -0.11005104 -0.053017788 0.04560305 -0.4366356 -0.31772166 0.36433977 0.21142025 0.32453427 -0.096446835 0.27125758 -0.52610224 -0.19645801 0.50495756 0.11232069 -0.0014550908 -0.21699998 -0.13082325 0.12589812 -0.38346735 0.2614628 0.20312577 0.36100897 0.2773239 -0.20243737 -0.09016747 -0.0037088618 0.38948235 -0.28561306 0.21893366 -0.06864363 -0.0054731374 -0.1882239 -0.23902449 -0.085379526 0.036720254 0.24359421 0.12902445 -0.117969446 -0.37642586 0.44188038 -0.15430637 -0.22993658 -0.25132972 -0.054224506 0.17382136 -0.07978554 -0.31531152
新款 0.1759796 0.19071391 -0.37659633 0.012760149 -0.69492245 -0.18594347 0.43311414 -0.23321088 0.18963198 0.6913844 -0.2676885 -0.31979147 -0.039454754 0.4071994 0.45250028 -0.087450914 0.013751411 0.053776298 0.35196474 0.16887972 -0.018271465 -0.0075313863 0.20510279 0.23172021 0.820063 -0.6937861 0.17839229 -0.24792364 -0.27169362 0.037334476 0.2990761 0.41537145 -0.19985725 -0.40548608 -0.13759372 0.033632964 0.0061083874 -0.30054685 -0.019550446 0.14450383 -0.25281832 0.17272128 -0.28608352 -0.42211333 -0.27988833 -0.19942999 -1.1504277 -0.12524289 -0.15338983 -0.15294969 0.07346704 0.59085065 0.4355885 0.036585823 0.36183044 0.18986747 0.3224939 -0.112578526 0.0030967274 0.17817456 -0.13675831 -0.5465844 -0.21340743 0.076177955
时 0.31823748 -0.41670504 -0.3919869 -0.27889863 0.016917307 -0.50359064 0.32831743 -0.2217022 -0.04576399 0.058201972 0.16542938 0.1442444 -0.08747293 -0.24542612 0.15219785 0.31907055 -0.094300695 -0.17768379 -0.20262662 -0.2742236 0.10001676 -0.06871127 0.22263381 0.46986055 -0.042003367 -0.009689674 0.31566194 -0.11786306 -0.028881608 -0.30002594 -0.26725027 0.038347173 -0.20475267 0.38703814 0.25168365 -0.03401561 -0.3352109 0.12534046 0.3578711 0.45197177 0.044061054 0.52511406 0.09132982 0.6609147 0.29580936 0.027690832 0.2919019 -0.35915634 -0.04466468 -0.13994992 -0.6112644 0.14271295 -0.29449973 -0.3428899 -0.27534515 -0.39547187 0.3284149 0.13630414 -0.1238448 -0.10688795 0.53873515 -0.27492929 -0.13098718 -0.042248655
水平 0.02302453 0.18115029 -0.37021798 -0.089688875 -0.40710643 -0.45011216 0.13902643 -0.09090248 0.47949898 0.18597946 0.14692704 0.3838967 0.13806404 0.23812822 -0.6334479 0.29381776 -0.43793476 0.20386569 0.07063598 0.42017728 -0.5471084 0.1471711 -0.098449536 -0.3683642 0.27492332 -0.65237516 0.19526307 -0.22987127 0.89146197 0.47494015 0.21770853 -0.1248858 0.2570384 0.038137328 0.08367572 0.13160166 -0.42585975 0.27577883 0.3793554 0.15596002 0.2247345 0.19219247 -0.062291093 -0.09828885 0.059358157 -0.396955 0.06139028 -0.33500856 -0.2491339 -0.15130207 0.09160242 0.29450512 0.02511797 0.4738507 -0.5166341 0.05946266 0.04393958 0.07141828 0.049193922 -0.18380217 -0.030471288 0.32529297 0.1336686 -0.2515741
万公里 0.5465816 -0.0401613 -0.55475867 0.061420012 -0.35406956 -0.326959 0.5882293 -0.029095544 0.04574393 -0.33844414 0.041522462 -0.079844564 -0.11646875 -0.40949547 -0.61287016 -0.055288296 -0.0065493267 -0.5309223 -0.097666815 0.076089665 0.40680218 -0.093916446 -0.012577985 -0.25529838 -0.22753082 -0.48135757 0.47577277 -0.2729089 0.23642027 -0.41673648 -0.138347 0.055248097 -0.07227854 -0.50167227 0.20002738 -0.4017824 -0.20927857 0.22904786 0.08927403 -0.21304703 -0.45951027 0.1005073 0.13840877 0.45806575 0.02307471 0.11267425 -0.165016 -0.12258212 -0.19618218 -0.28470176 -0.16293006 -0.32294214 -0.32559934 0.21633406 0.17834947 -0.26128054 0.3135781 0.17632802 -0.18196793 0.27383426 0.37599015 0.13758917 -0.7343297 -0.040967483
后排 -0.010971568 0.12250082 -0.24463248 -0.42098206 -0.052327022 -0.2762665 -0.5354476 0.0630573 0.504974 -0.06637407 -0.40621787 0.28321743 0.07851851 0.3129766 0.23757435 0.15702887 -0.054203287 0.052130323 0.22610301 0.007350707 -0.3449006 0.34297633 -0.13197455 0.16166478 0.8303082 0.19637062 0.8379779 -0.1438377 0.56158906 -0.24599053 -0.30369118 0.18277368 -0.4116541 -0.17848219 0.34094974 0.028222347 0.2245948 -0.38723084 0.2383804 0.13462888 -0.69085425 -0.38709736 -0.6091714 -0.04304466 -0.52806973 0.08029379 -0.34300432 -0.43622306 -0.18931626 -0.7958902 0.17716677 0.19969164 -0.21664804 -0.50392854 0.43411982 -0.06225521 0.36101255 0.044305656 -0.20421682 -0.54030967 0.040373795 -0.30200115 0.35269043 -0.43846282
T -0.011372425 0.11120345 -0.73779666 0.02449053 -0.42204055 -0.47359526 0.21488377 -0.16308558 0.49143842 0.24579237 -0.14855982 0.12577534 0.77898264 0.58295053 -0.540725 0.09895738 -0.29988864 -0.39093614 0.2904103 -0.5536901 0.38534698 -0.4444113 -0.38108534 0.16871057 0.14017577 -0.24733132 0.4495678 0.4831561 -0.13266815 -0.26376367 0.15724254 -0.074767135 0.31077412 -0.12073114 -0.39193568 -0.25256574 -0.46643773 -0.36288503 0.49139643 0.5979194 0.3989751 -0.18710181 -0.31915107 -0.3162414 -0.3184775 -0.29022297 -0.20276758 -0.4348545 0.17141089 -0.40652722 -0.23283769 -0.11052656 0.115077876 0.06353182 0.44858217 0.046961714 0.03424068 -0.49286243 0.096811205 -0.03477608 0.36775413 0.20326693 0.47644353 0.9072483
轮胎 0.07202243 0.13189796 -0.053621963 0.37753 0.134254 -0.113662206 0.559308 -0.09229702 -0.11022289 -0.4160753 0.07215452 -0.33824205 -0.09854745 -0.35030743 0.055370644 0.16784838 0.3049107 0.031033415 -0.21308157 -0.19766332 0.321262 -0.8250757 0.13431445 -0.651396 0.32525754 -0.081174515 0.6776709 -0.31754377 0.14807038 0.16170838 0.31659636 -0.21494067 -0.20897402 -0.3988016 -0.17986043 -0.16100334 0.37974656 0.0007462149 0.044945348 0.4532812 -0.40599278 -0.019345926 0.18366866 0.1889765 0.3402002 -0.5691204 0.072191685 -0.52698535 0.03324958 -0.57635504 0.016075734 0.7000045 -0.11887897 -0.067010924 -0.27452075 0.016147928 1.0094677 -0.18928535 -0.011620683 -0.2229159 -0.5237759 -0.010490819 -0.35609877 0.6235405
估计 0.117208466 0.21305569 -0.2928238 0.061463326 -0.2663205 -0.061392028 0.32295582 -0.32161742 -0.28586498 0.24067685 0.06863666 0.25392765 0.15318814 -0.22676083 0.19907972 -0.08909392 -0.14565746 -0.27321878 0.1589547 0.2081241 -0.067306735 -0.048912928 -0.15292297 0.27720794 0.12329343 -0.48797283 0.5218957 -0.11515326 -0.12262547 0.18457033 0.08951387 0.038873214 -0.32031822 -0.03495378 -0.13607424 -0.0466562 -0.44510534 -0.26015308 -0.044688385 0.42728284 -0.14699222 0.18121943 0.113328725 -0.19242376 -0.17576276 0.029244233 -0.36793348 0.083461516 0.22484025 -0.3309101 -0.33374143 0.18217285 0.20898607 -0.017183488 0.3831522 -0.1489771 0.14110391 -0.2556282 -0.2547666 -0.03849732 -0.028476391 -0.28282756 -0.0012744892 0.1760863
驾驶 -0.28438395 0.053054594 -0.5905024 0.033445828 0.24048756 -0.041733183 0.08004999 -0.3387915 0.24699937 0.45158905 -0.21701996 -0.03642035 0.056386918 0.057898674 -0.31218812 -0.26267576 -0.6195358 0.10074529 0.21706481 0.6184193 -0.071976125 0.005264004 -0.085238285 -0.2976426 0.22268143 -0.19530909 0.19496718 -0.10270128 -0.029633498 0.11773855 0.27371386 0.25560135 -0.0035063343 -0.017324058 0.5329772 0.12121307 0.23481448 0.33279553 0.5201622 0.095593154 0.07226979 -0.047610868 -0.25336593 0.015294059 0.15178557 -0.2642007 -0.15161113 -0.57554585 -0.4300077 -0.30308235 -0.19342734 0.026216151 -0.5598474 -0.24634975 -0.5030216 -0.30035436 0.43146908 -0.4542682 0.4682924 -0.40781376 0.044641584 -0.13740622 -0.012816487 -0.23958966
安全 0.13980787 0.19249634 0.0965773 0.15073566 -0.056151815 -0.39193386 -0.042034738 -0.13622533 0.03542334 -0.12010937 -0.50586635 0.6377864 0.5852045 0.2275666 0.13579705 0.28739572 -0.6458211 -0.31316835 0.22703667 0.059942942 -0.58104616 -0.03051604 -0.1412202 -0.3040373 0.44559264 -0.09430089 0.69083095 -0.0006192834 0.19704038 0.003147422 -0.18973106 -0.10054473 -0.32200646 0.06863319 -0.069573335 0.15864745 -0.10509054 0.25407627 -0.07117485 0.8210286 -0.059892494 0.07275658 0.37623096 -0.2951732 0.5158831 -0.17732109 -0.7206025 0.13063876 -0.12414542 -0.74821585 0.24407107 0.5696185 -0.3741951 -0.38792166 -0.25810358 0.22448215 0.3942045 -0.3357262 -0.08438589 0.051251058 0.07082585 -0.25662908 0.22972733 -0.051249485
异响 0.25042862 -0.24263395 0.029617919 -0.10036611 -0.12453991 -0.050369717 0.21896216 -0.25679493 0.060809743 0.21069375 -0.07768921 0.0925319 0.11953955 -0.11038664 -0.71873796 0.0027436807 -0.02702198 -0.31583592 -0.095146604 -0.04985492 -0.24997768 -0.38295817 0.32079965 0.36479297 -0.109574154 -0.38561076 0.54674417 -0.35727176 0.30005768 -0.048497323 -0.3327815 -0.062477037 0.18950725 -0.101770245 0.530143 -0.06549378 0.16517507 -0.35885203 -0.08984046 0.31247154 -0.9105881 -0.24112372 -0.17461456 0.34063062 0.65333545 0.029575406 -0.19374558 0.1846604 -0.035881966 -0.16522764 -0.4539241 0.13413884 0.2625292 0.07238895 -0.26701164 -0.34175047 0.0029293834 0.43592513 0.274717 -0.2957776 0.5828731 0.0371428 0.07316849 -0.40131253
便宜 0.1439087 0.23595564 -0.123740844 0.117515676 -0.48940995 -0.31569615 0.2905654 -0.71710664 -0.302025 0.060636662 0.5197516 -0.17113526 0.022574311 0.09563759 -0.035610605 0.09616859 -0.007907992 0.3389276 0.14769138 0.31413096 -0.32592198 -0.11520347 -0.17810072 -0.05818654 0.15331 -0.10923095 0.54768354 -0.36087528 0.06196959 -0.08061646 0.7740947 -0.4730927 0.075978145 -0.12728179 -0.36736903 -0.103364944 -0.023878518 0.35556018 0.269614 -0.11064271 0.16160457 -0.30395576 0.058358766 -0.33897117 0.5905463 -0.23394825 0.37319002 0.0231032 0.15037575 -0.6337788 0.10024508 0.22755198 0.16279525 0.46302152 0.5075599 -0.35113275 0.5512839 0.02040936 -0.0024327904 -0.41965526 -0.14572123 -0.283919 0.11545532 -0.46709406
贵 0.09637154 0.0551737 -0.55783486 -0.34310076 -0.7560642 -0.049040172 0.6629246 -0.7934342 0.30337164 -0.020394757 0.39777216 0.121264786 0.2726067 0.21756437 -0.35730535 -0.010094866 -0.005739651 0.24438544 -0.15612409 0.3819896 -0.7796514 -0.29422334 -0.11618585 0.04561222 0.19490261 0.29065526 0.7059532 -0.33004647 0.09207483 0.43702203 0.30216235 -0.4163107 -0.040364236 -0.003564407 0.272405 -0.43484887 -0.2732047 0.116081804 0.14261457 -0.052072484 -0.031764258 0.07625094 -0.010115496 0.38757244 0.27555767 0.16997494 0.155064 -0.10164736 0.10606325 0.05311919 -0.26617667 0.007973451 0.082283504 0.17869836 0.3612013 -0.023724226 0.09364802 0.36044306 -0.22124036 -0.097888134 0.13314049 -0.22989644 0.5824546 -0.38027328
已经 0.19523259 0.30120263 -0.173827 0.21060659 -0.3015231 -0.32037282 0.35995984 -0.020061072 0.121919505 0.13006948 0.12939239 0.3123788 0.262534 -0.22305328 -0.12048656 -0.019718505 -0.0471267 -0.04720294 0.04989487 -0.04532975 0.16359536 -0.08669704 0.07529913 -0.359075 -0.015703775 -0.16762605 0.342992 -0.043227866 -0.00045238322 -0.12622254 0.25841346 -0.27585846 -0.23053764 -0.42094985 0.041804772 0.11451619 0.087498486 0.028325524 -0.13354743 0.4486782 -0.06527788 0.26976082 0.011425828 -0.23895155 -0.04842934 -0.096973024 -0.18616691 -0.29716766 0.14577837 -0.15278839 -0.03413153 0.25087374 0.017472342 -0.23183411 -0.071277656 0.24160054 0.36919796 0.19206823 -0.17690682 -0.10217651 -0.16999985 -0.4194901 -0.40739208 -0.023620855
需要 0.40750265 -0.12909022 -0.4079118 -0.1325133 -0.4123251 -0.4957777 -0.0045745247 -0.5916311 -0.24962391 -0.077803805 -0.15614416 0.052251652 0.104079045 0.13381368 0.25630674 0.024904864 -0.19137669 -0.22355571 -0.016537873 -0.1067423 -0.30823228 0.12715663 -0.093380764 0.049746513 0.024436511 -0.071027234 0.042454403 -0.36216548 0.4002216 0.081331685 0.27389386 -0.18824174 -0.24248582 0.7437379 -0.22389457 -0.26498723 0.013588544 0.118697435 0.075942636 0.5382798 -0.12338117 0.18802553 0.17213655 0.43271625 -0.18752527 -0.27626926 -0.4257474 -0.2051562 0.2542788 -0.08754379 -0.26446062 0.27264592 0.29569614 -0.4143833 -0.14734715 -0.30585098 0.38395387 0.029311338 -0.29731345 -0.16601896 -0.021586854 -0.03726141 0.238678 0.19201958
踩 -0.07989217 -0.38150522 0.28292596 -0.09946936 0.19224983 -0.1714836 -0.40838763 -0.55516416 -0.066203564 0.43743908 0.1190658 0.3530079 0.08381449 -0.45411915 -0.5508557 0.1517668 0.15634309 0.1352993 -0.05544274 0.035269435 0.15247178 -0.19771981 0.28147224 -0.19951613 -0.09740295 -0.36332664 0.15157948 0.38695675 -0.19254972 0.120817944 0.18128239 -0.008532965 -0.5151329 0.4517406 -0.41326672 0.79282147 -0.8275993 -0.10421891 0.35762453 0.3497804 -0.06421003 0.3533214 0.21829076 0.22631678 -0.12355703 0.054434508 -0.18559788 -0.75139874 0.27543142 -0.6323754 -0.9394841 0.8483014 0.084254 -0.8701437 -0.25642073 -0.72393 0.6098337 0.6359198 -0.19066702 -0.16225104 0.52581364 -0.035662428 -0.22384237 0.46346518
情况 0.24966271 -0.176838 -0.04241332 0.19443417 -0.2592378 -0.3789427 0.36995503 -0.24948496 -0.17137589 0.4063338 -0.19363631 -0.08521735 -0.39131665 -0.31191584 -0.4267949 -0.120209605 0.044637173 -0.073811516 0.22152895 0.020449676 0.050764006 -0.1299284 0.1420201 0.081228174 0.024001393 0.018832834 0.049272057 0.19490106 0.11765124 0.4896871 0.13943677 0.010184522 -0.07679875 0.16473241 -0.045923628 -0.007676002 -0.18674289 0.16835463 0.107546836 0.23757173 0.13756187 0.13989742 0.17448397 0.22456206 -0.32863057 -0.2931974 -0.31401712 -0.11517894 -0.1221845 -0.19366592 0.02310518 0.50705105 -0.08973756 -0.13174307 -0.37610766 -0.69430697 0.44217485 -0.18667845 -0.067791216 -0.15408511 0.22813246 -0.43036833 -0.23506033 0.083798476
选择 0.007928592 0.31733888 -0.95133597 0.09770974 -0.025958307 0.22454122 0.2814571 -0.24066356 0.113166615 0.24258663 -0.6344201 0.28534684 0.2752602 0.5004489 -0.19581236 -0.18348923 0.0024983168 -0.091616586 0.5912101 0.1538133 -0.39562815 0.10097424 0.13506322 -0.042098574 0.4218059 -0.5004924 0.24874908 0.12450758 0.5162295 -0.3968567 0.14645688 0.016575348 0.1108349 0.06754865 0.38635746 0.2736557 -0.0153701035 0.059168015 -0.050593182 0.0012561731 0.23246957 -0.19664948 -0.15615544 0.18518287 0.088632755 -0.33867568 -0.33863497 0.0920902 -0.21570623 -0.24260585 -0.09116325 0.33556515 0.11324258 -0.37477693 0.27523607 0.11557186 0.213018 -0.20949283 0.16195256 -0.19511786 0.1953644 -0.019048039 0.07655062 0.02759904
新 -0.06604945 0.49103123 -0.46492872 0.106941596 -0.45480156 -0.13550892 0.3783058 0.16740683 0.40209058 -0.14715838 -0.29024845 -0.5055088 0.1719269 0.17241432 -0.04578992 0.13254593 -0.07535433 -0.025619771 0.25331587 0.114014514 -0.51306903 -0.44700548 -0.17822684 0.20237623 0.18975878 -0.2458297 0.9224199 -0.30664778 -0.19491929 -0.26885438 0.041962013 0.36579105 0.23342746 -0.09103637 -0.17786886 0.27709046 0.017101407 -0.23427872 -0.107591026 0.46369928 -0.44283098 0.19560733 -0.03349508 -0.194228 0.11398094 0.25088748 -0.17050897 -0.2494817 -0.03547486 -0.40296838 -0.08210856 0.24241829 0.10843558 -0.41666767 0.47617796 -0.23538662 -0.08890273 0.13107291 -0.24101174 -0.067820445 -0.23491524 -0.09131109 -0.10460309 -0.25906885
原厂 0.47827357 0.37344596 -0.62814337 0.21965675 -0.14985862 0.008937903 0.15435106 -0.5004212 -0.053425856 -0.42719942 0.16583692 0.1369116 0.015271188 0.23688072 -0.13087933 -0.039998714 0.3140399 0.0071922396 -0.2065002 -0.07126519 0.0641184 0.12257005 0.57410353 -0.41051683 0.33625272 0.27602658 0.4527943 -0.36741894 -0.18785793 0.26014745 0.43220964 -0.060278717 0.1130161 -0.38758427 -0.21392171 0.18391293 0.3145766 -0.13630098 0.2117662 -0.058063835 -0.32810348 -0.076701306 -0.25513038 0.5063167 0.11835945 -0.09948039 0.34255725 0.1637145 0.13639165 -0.25384519 -0.5120137 0.3698802 0.050050173 0.0943932 -0.04244091 -0.3565979 0.29144144 -0.20380144 -0.32689926 -0.6250588 -0.08403853 0.04377866 0.080108926 -0.16157106
省油 -0.21518928 -0.52979594 -0.5270617 0.012939043 -0.022425892 -0.38700378 0.12637585 -0.2543574 0.4704684 0.6127988 -0.39022735 -0.19267246 -0.17426567 0.16934231 -0.24023002 -0.223648 -0.34883025 -0.3616286 0.13338092 -0.51148957 -0.07621425 -0.34003642 -0.124017365 -0.29646945 0.030098451 -0.25253013 0.4513138 0.10986983 0.22069167 0.2802554 -0.15526685 -0.006864911 0.11019211 -0.18354017 -0.3906693 -0.018384995 -0.43490428 -0.5891496 0.5804278 -0.18581672 -0.011288453 -0.49352273 0.3984423 -0.38280386 0.15403788 -0.23796262 -0.39881253 -0.24203527 -0.14002264 -0.19772899 -0.40734488 -0.1559985 -0.16002707 -0.45768744 0.076392524 -0.6087249 0.019026894 -0.44698358 -0.33762616 -0.09166682 0.04231625 -0.42762613 0.08741612 -0.17945315
真的 0.29661232 -0.09124298 -0.10335984 -0.3127087 -0.368454 -0.32358143 -0.20308611 -0.41038486 0.35586378 0.19216803 -0.044613916 -0.021338003 -0.072534285 -0.029679956 -0.2971234 0.3603491 -0.016514359 -0.19926026 0.5573921 0.22886895 -0.4702628 -0.08404426 -0.2245964 -0.19471692 0.46980143 -0.24548079 0.51956046 -0.10050291 0.30691764 -0.32641852 0.3391528 -0.23314986 -0.37750962 0.23471765 -0.13759401 0.06149297 -0.24097596 -0.20807424 0.4737618 -0.1872949 -0.028094843 -0.007367031 -0.1998765 -0.3167959 -0.0894953 0.2038777 0.00027866574 0.13442001 -0.24588473 -0.41655618 0.05345656 0.080798045 0.052264553 -0.09869925 0.05848461 -0.011091196 0.11624667 -0.2805707 -0.15801325 -0.31397152 -0.0861266 -0.57399845 0.3436832 -0.27263388
目前 0.03229598 0.2736804 -0.36796537 0.22317281 0.14124317 -0.16304307 0.67002004 -0.44467452 0.0687649 0.43352908 0.022181233 -0.004900287 0.36658025 0.1193446 -0.5125093 0.1561299 -0.010992977 -0.26311433 -0.2702677 -0.5518533 0.4934861 0.4059209 0.10038717 -0.3817406 0.0450721 -0.26251882 0.10217846 0.4412667 -0.09369543 0.16663598 0.3048356 0.05872079 -0.5206861 -0.6046047 0.09237916 -0.101841025 -0.14088961 0.1509375 0.2746395 -0.07520608 0.17968081 0.21680664 -0.1734945 -0.09962263 0.06456542 0.11201271 -0.26873624 -0.6845022 0.089534506 -0.24163066 -0.18257038 -0.0720371 -0.37665892 0.053616747 -0.47431913 0.07196097 0.063639276 -0.28180957 0.28539246 -0.43899518 0.54642355 -0.19273728 -0.19503671 -0.050466698
傲虎 -0.21003659 0.2957973 -0.09651497 -0.83214897 -0.3291628 -0.3764317 0.44084567 0.045314077 0.30275574 0.22647016 -0.3534699 0.083401926 0.35608247 -0.13377528 -0.020802151 -0.30473685 0.18952315 0.6010081 0.8284908 -0.27390683 -0.31893128 -0.73769027 0.021163013 -0.4595332 0.56564116 -0.51657885 0.36455804 -0.22169176 0.48083994 -0.7017441 -0.23279093 0.6154594 -0.19981994 0.098679714 -0.17855409 -0.1366279 0.45287457 -0.1191061 0.24517204 0.07844929 0.74043113 -0.5291771 0.14914235 -0.46908286 -0.06766927 -0.25215966 -0.18799883 -0.711914 -0.23439862 -0.7571587 -0.07417704 0.08643663 0.20520397 -0.31426907 -0.051182102 -0.1649112 0.52392465 -0.03984112 0.78304577 -0.6206619 -0.11502289 -0.6768732 0.7080174 0.019007875
豪华 0.02193583 0.04836354 -0.19664168 -0.06503116 -0.30754736 -0.35477737 0.24043798 -0.3927949 0.18207859 0.21168062 -0.041469004 0.17233567 0.46787795 0.10883369 -0.2086315 0.33551034 -0.31461635 0.5152055 0.0076317005 -0.2983292 -0.77422655 0.32821998 -0.132717 0.23880103 0.09172183 -0.3553572 0.17249095 -0.37072083 0.07688458 -0.08452785 0.38776785 -0.0022863187 -0.73500896 -0.05717744 0.21311523 -0.367147 0.50165457 0.53684026 -0.45627075 -0.039210364 0.010880268 -0.4212317 -0.45165065 -0.6186656 0.12221923 0.33923817 -0.5714619 -0.26757562 -0.185899 -0.6966742 -0.2469709 -0.41325969 -0.24336132 -0.35903266 0.07160315 -0.2506851 0.33392286 -0.26008672 0.5989814 -0.34834346 0.42771783 0.16230054 -0.081300184 0.04242687
直接 0.201517 0.27121624 -0.4365066 0.24087478 -0.1887023 -0.13281614 -0.036605176 -0.43877304 0.22428766 0.2654714 -0.039918873 0.10582438 0.26452565 -0.25555575 -0.32446906 -0.27483612 0.13609353 -0.19191127 -0.21965894 0.043652248 -0.14788261 0.0951452 -0.009586967 0.16790435 -0.005242329 -0.31572202 0.105386585 -0.27596936 0.029373517 -0.37987062 -0.09171322 -0.3779227 0.010017079 0.4222116 -0.14303182 0.56136775 0.058990333 -0.14014043 -0.04832537 0.2986523 0.16709876 0.20566487 -0.09760819 0.66985893 -0.25188097 0.11428918 -0.14187044 -0.7036274 0.17543253 -0.12562793 -0.39279035 0.3212508 0.02703506 -0.22890417 -0.25945026 -0.11858776 0.37021333 -0.23688203 -0.19937493 -0.39933926 -0.1885439 -0.12917863 0.046913154 0.053497244
里 0.33144495 -0.3046057 -0.010918753 0.19779718 -0.10449648 -0.09735823 0.30909026 0.10992261 0.2254019 0.47866058 -0.15983471 0.24931687 0.0716937 -0.16764462 -0.33980575 -0.07424855 0.3488656 -0.12907848 0.2783995 -0.5852029 0.11592301 -0.16757922 0.20815895 0.14888811 -0.20779926 -0.5310331 0.46552604 -0.16788247 0.54889745 0.4113575 0.62974554 0.100054145 0.08723145 -0.16125332 -0.100169 -0.30790815 0.018909879 0.16380563 0.15165187 -0.09688571 -0.12010393 -0.089788 0.13635091 -0.030158993 -0.20603995 -0.44566366 -0.46877667 -0.14252445 0.1503009 0.0029882467 -0.20721143 0.18465307 -0.1771513 -0.317219 -0.04388578 -0.052706677 0.18596321 0.21093777 0.0075659524 0.1944866 0.1150895 -0.06964716 0.35837603 -0.17048125
不好 0.06572841 0.14284918 -0.20178261 0.003766959 -0.19524175 -0.19688521 0.10268447 -0.032936387 -0.050398707 0.3672607 0.058051717 0.22995406 -0.023574563 0.068627566 -0.35016373 -0.18214287 -0.036701124 -0.056996625 -0.04242541 -0.32414788 -0.031223059 -0.14157212 0.18646084 -0.03793213 0.093659915 -0.17311658 0.27690828 -0.272816 0.07114921 0.24387044 0.12753323 0.07038287 0.25980353 -0.10195094 -0.124518774 0.06769084 -0.13019626 0.21083146 0.16312888 0.37775642 -0.16468823 -0.17366861 -0.0010834571 0.33612722 -0.1331395 0.29351056 -0.111176126 0.3234475 -0.36445814 -0.32425645 -0.044824544 0.1729049 0.23973817 -0.09341588 -0.27491415 -0.573804 0.20355809 0.2590152 -0.16147058 -0.3394494 -0.114059955 -0.2550392 0.08321566 0.3640519
13 -0.061229583 -0.1562073 -0.60402215 -0.14655668 -0.027508607 -0.32944816 0.6112663 0.056013443 0.3110672 -0.1777369 0.47304744 -0.090578325 -0.03924634 -0.33921164 -0.5862662 -0.117091686 -0.18782605 -0.3700118 0.10721938 -0.13819538 0.114290014 -0.11620617 0.19359948 -0.02395724 -0.091435924 -0.27537853 0.40371472 -0.18604578 -0.030032957 0.15242374 0.04699532 -0.017298771 -0.4779478 -0.63027567 0.2537841 -0.3221005 -0.097599044 -0.17460561 -0.08375786 -0.22954671 -0.33718756 0.11953948 0.056367323 -0.008781437 -0.11540996 0.3357017 -0.28474468 -0.17864048 -0.2604685 -0.4823322 -0.24359724 -0.14544511 -0.1479609 0.17573304 -0.22477435 -0.113438144 0.23490265 -0.19626175 0.19889557 0.3786977 0.6775991 -0.2400612 -0.47007364 -0.15353572
前 0.3108542 0.29852465 0.12791243 0.25859886 -0.13382086 -0.18825269 0.050866295 0.20681706 0.24146914 -0.07485082 0.2065552 0.13656583 0.4742624 0.007921731 0.098976776 0.28452873 0.32580245 0.23775242 -0.1143155 0.15453288 -0.040124707 -0.10576861 0.39252532 -0.061594103 0.6970888 -0.6538013 0.27357823 -0.5102895 0.22548346 -0.27686054 -0.1994589 -0.010099428 -0.49418962 -0.15652126 0.29759523 0.2849162 0.0965514 -0.2072139 0.14495915 -0.2023156 -0.05412414 -0.051503528 0.13308164 0.4282517 0.027438227 -0.2199451 -0.18069775 -0.48464876 0.0971063 0.036945947 -0.08590139 0.0681571 -0.022252858 -0.06790237 0.068212755 -0.11730267 0.23302524 -0.18864608 0.078807384 -0.1293853 0.46257904 -0.38186812 -0.44136074 -0.34286138
性价比 -0.023464987 0.17131604 -0.99621224 -0.07041058 -0.35023865 -0.061971523 0.08772565 -0.77576154 -0.25556523 0.46201932 -0.11088056 0.16941611 0.2168579 0.28922147 -0.103763126 0.23540647 -0.49953583 0.121866375 0.17982985 0.3479448 -0.8350619 -0.18315524 -0.13305576 -0.16080312 -0.22058132 0.015096705 0.6227546 -0.35330048 0.09960452 -0.3328711 0.029761363 -0.32175973 -0.032918222 0.10986733 -0.519752 0.32862273 0.0386651 -0.23381993 0.29922748 -0.12156783 -0.05481076 -0.16029535 -0.3737024 -0.11553154 0.34673545 -0.11633697 -0.33838573 -0.183568 0.08565443 -0.4276925 -0.034684572 0.07986554 -0.11412942 -0.03226821 0.31140155 -0.19088404 -0.2290459 -0.02643444 0.074500196 -0.31192148 -0.14157878 -0.5693045 0.36963782 0.09350436
隔音 -0.31836283 -0.20896544 -0.21019098 0.22887701 0.047923103 -0.3811976 0.3338106 -0.5834492 0.03059901 0.8276472 0.2111437 -0.07034403 0.11550235 0.0016962731 -0.5553674 0.41338813 -0.5522473 0.35144493 -0.08850525 0.07500052 -0.47433165 -0.11326757 0.16762874 0.060015317 0.54063225 -0.10771296 0.52123964 -0.09967985 0.015109862 -0.37308607 -0.38274515 0.6496299 0.24907438 -0.3164856 -0.3622151 -0.14338921 0.48210123 0.21175045 0.16752201 -0.11612957 -0.21012318 -0.50907487 -0.4550683 -0.40636754 0.48534 0.6239013 -0.08151614 -0.046819568 -0.062831216 -0.4594434 -0.11791737 0.18487385 0.47135848 -0.47870037 -0.32078362 -0.63173044 0.09776616 0.2481517 0.34245285 -0.39535156 0.1560957 -0.1283062 0.27500135 -0.05933199
快 -0.026297143 -0.4214828 -0.37968352 0.3804939 0.1308514 0.2886871 -0.24677923 0.20277488 0.2071751 0.5081522 0.111579224 0.03512604 -0.3205899 0.39217693 -0.013533357 0.077225536 -0.3504617 -0.32152134 0.16817333 -0.3334424 -0.13223597 -0.22297941 0.040675037 0.16234742 0.35022563 -0.73116714 0.32185072 -0.078370586 -0.058292184 0.20825912 -0.12571545 -0.14431736 0.027349511 -0.22764122 -0.08181387 -0.08775231 -0.54643273 -0.15250018 0.26539275 0.21086809 0.31740716 -0.22930504 0.13656275 -0.14809324 0.16384803 -0.36980048 0.124725945 0.18911569 -0.23711802 -0.851956 -0.4816659 0.003504451 -0.045898497 -0.26407757 -0.020270895 -0.69046557 0.26675093 0.5005404 0.02669323 -0.07178036 -0.025219142 -0.17921197 -0.19553319 0.014641447
明显 -0.27818143 0.1127063 -0.7849735 0.05662887 0.1314751 -0.35217482 0.105979614 -0.013910479 0.37901 0.15551494 -0.12292432 0.48059604 -0.070250295 -0.13340968 -0.57020336 0.055199098 -0.31931698 0.043773517 0.13588482 0.19461222 -0.2798462 0.3268092 0.17616361 -0.59157354 0.2387419 -0.4147574 -0.027075578 -0.31673986 -0.26487985 -0.10349739 -0.04987893 -0.02617952 -0.1508442 -0.3052318 -0.30072007 0.19722365 0.0964746 -0.067093596 0.22063385 0.2634154 -0.20129956 -0.11858626 0.03912537 0.28944698 0.42600906 -0.0037425233 0.15085006 -0.1548664 0.29294157 0.27110413 -0.17387381 0.32331786 0.16503619 0.11105983 -0.44317713 -0.4836152 0.51025057 -0.28883725 0.08312404 -0.1666005 0.056288205 -0.38893265 -0.33852363 0.05995872
20 0.27646303 0.7259861 -0.5628915 0.36720622 -0.16106842 -1.1530856 0.3708544 0.11798667 0.07282738 0.10902583 -0.020285629 0.14486282 -0.086446255 0.06285632 -0.41984653 -0.14126101 -0.23268223 -0.16284922 0.35267204 -0.21210617 0.26326993 0.2183231 -0.515666 0.077271074 -0.05211667 -0.053883966 0.503654 -0.11755401 0.15328255 0.290618 -0.0764301 -0.39391994 -0.088566706 -0.00828893 -0.4745104 0.07463828 -0.12801597 -0.13271697 -0.06958414 -0.2719152 0.39169657 0.359698 0.31517088 0.37588844 0.024823852 0.2758905 0.064885266 -0.14804241 -0.13400431 -0.3700401 -0.6327502 -0.2587889 0.0047576576 0.31108567 -0.3910107 -0.6517437 0.07097249 -0.19596162 0.3312665 0.025768017 -0.2057943 -0.46318245 0.012911333 0.066071115
12 -0.1312521 -0.36996672 -0.7668771 0.07138363 -0.43034205 -0.69845515 0.6437714 0.14420924 -0.054345116 -0.1375417 0.39449224 0.09120792 -0.14544569 -0.30639538 -0.36670163 0.2477577 -0.21001615 -0.4571195 -0.2475808 -0.085357495 0.7275123 -0.23169531 0.24999326 0.09192986 0.12224461 -0.23066449 0.58600456 -0.10048291 0.024114726 -0.21103945 -0.1727938 0.062231466 -0.11447747 -0.84674317 -0.10749843 -0.6782592 -0.16610083 -0.15654667 -0.051942516 0.013169054 0.34630206 -0.10456347 0.080944724 -0.12449244 -0.5102729 0.21531607 -0.19349194 -0.28343782 -0.5684996 -0.5872577 -0.21109626 0.122054435 -0.5321935 0.32259277 0.18829525 0.16574605 0.08798166 0.038093876 -0.022099122 0.4467343 0.7136254 -0.012872864 -0.26874518 -0.173071
30 0.80184454 0.44692877 -0.5008791 0.44458878 0.28374556 -1.3474352 -0.1949224 -0.11920764 -0.1244653 0.0326628 -0.19446822 0.18912444 -0.35540015 0.4379852 -0.40962467 -0.28175116 0.0125432005 -0.24810562 0.2119899 0.14796416 0.4402928 0.22764175 -0.12933701 -0.054306157 0.030091422 -0.18216082 0.31605065 -0.055309854 0.2250521 0.016455358 0.16289411 -0.4424969 0.15153795 0.020158283 -0.6212539 -0.02066755 0.07543198 -0.29561672 -0.10277234 -0.120742194 0.2754489 0.34948832 0.29752234 0.136485 -0.024595497 0.28982165 -0.17443508 -0.1345092 -0.37180522 -0.4489289 -0.69984084 -0.3998516 -0.0024415904 0.11567051 -0.27236077 -0.56897384 0.28509104 0.17130673 0.6324664 -0.06674596 0.15578765 -0.505604 -0.09643792 -0.21195278
刹车片 0.5527472 0.09305298 0.14597975 -0.16930373 0.1358546 -0.09102058 0.61122936 -0.5176756 -0.07337784 -0.5093814 0.32422912 -0.14231378 -0.27498153 -0.33114472 -0.14881457 0.07521495 0.10593987 0.017746303 -0.21933451 0.30876118 0.11005467 0.037433874 0.42030427 -0.32086268 0.21242243 0.1219641 0.49300283 0.05082385 0.14849348 0.15769474 0.28042838 -0.42848778 -0.100155555 -0.43692702 0.29045787 -0.19020341 -0.43138877 0.2893525 -0.21190962 0.5595056 -0.6443734 0.4851168 0.6358839 0.6261428 0.41741714 -0.20435663 -0.03614847 -0.61141825 0.07254271 -0.37719774 -0.5854361 0.8771404 0.020211462 0.06385062 0.42325604 -0.20501448 0.6831485 -0.35510036 -0.030310567 -0.10958969 0.32378078 0.010873603 -0.39411482 -0.095246404
4S 0.52757525 0.31863853 -0.5625297 0.3724976 -0.3000317 -0.6738162 0.4594572 -0.29094845 -0.10309595 0.17872614 0.14110506 0.15956813 0.29922232 -0.4815605 -0.15860206 -0.24650058 0.13837907 -0.02590896 -0.059645623 0.1649177 -0.16497849 -0.39699665 0.5987417 -0.027943075 0.15849479 0.049682233 0.26501086 -0.2788769 -0.25612348 0.5051246 0.19142222 -0.028258981 -0.38508394 0.045661476 0.3811514 -0.5042877 0.2371738 -0.03498134 -0.2522809 -0.013446934 -0.10200298 0.4945654 0.2791986 0.4101254 -0.094245076 0.18380901 0.07266284 0.18390957 -0.019247198 -0.4012407 -0.20601018 -0.298228 0.17679407 -0.15131582 -0.023728786 -0.15354551 0.22608866 0.14012401 -0.1158829 -0.32556456 0.056462467 0.08395507 -0.23804818 -0.29663306
后备箱 0.18078771 0.031520408 0.20338316 -0.08165853 -0.07429554 -0.40962148 -0.1609389 0.16367492 0.17492774 0.12998247 -0.2805215 0.40996242 0.0632922 0.24584334 -0.17650509 -0.21900158 0.6748318 0.026120711 -0.19442105 -0.93547297 -0.35113037 -0.29615793 -0.07961173 -0.27002025 0.64736646 -0.1148634 0.28874242 -0.40531886 0.39384726 -0.05619567 -0.6535795 0.30147395 -0.43823063 -0.14927308 0.20245193 -0.28283638 -0.2937596 -0.3203193 -0.2564479 0.2027969 -0.57632095 -0.34483775 -0.22277656 -0.10787186 -0.06500062 -0.08311507 0.27272743 -0.41909525 0.4781865 -0.5501447 -0.10842361 0.12020946 0.053204473 -0.41898614 -0.37017393 -0.36823702 0.21967034 0.16326202 0.032920428 -0.651062 -0.20244549 -0.16805954 0.19146746 -0.7512221
版 -0.076241784 0.5543024 -0.8451911 0.40906763 -0.37977293 -0.020609433 0.095782556 -0.27659267 0.4827795 0.32935593 -0.49681702 -0.034015287 0.10067595 0.26241657 -0.11673467 0.08963413 -0.019935321 0.08593295 -0.112577125 0.47480384 -0.5289139 -0.34866613 0.12999396 -0.13797753 -0.030371722 -0.32286784 0.44574383 0.042390157 0.17847475 -0.2368296 -0.04247724 -0.101595394 -0.106298834 -0.107558526 -0.045516536 -0.5804801 -0.09864357 -0.54709315 -0.87297297 0.035150867 0.008244111 0.36731747 -0.16348201 -0.5361269 0.08749325 0.26759347 -0.45867407 -0.38958603 0.18370575 -0.3614341 0.13518673 -0.038393803 -0.5702618 0.16149628 0.3615739 -0.14560312 0.37667653 -0.18739691 0.26754323 -0.38962305 0.7811309 -0.3709962 0.003392315 -0.07445453
是不是 0.62264174 -0.120045036 0.033144623 0.31377602 -0.17220046 -0.12076169 0.23716575 -0.45169705 -0.054381147 0.2758391 -0.0024693196 0.06271878 -0.17489806 -0.075813085 -0.09122977 -0.03673751 0.1769079 -0.038626485 0.0747169 0.30018628 -0.37074488 -0.23442066 0.15633227 0.29552692 0.3398674 -0.006444657 0.63790673 0.009205522 0.04221392 0.3726894 -0.18026055 0.042622257 -0.113498874 -0.124418885 0.062465172 -0.34463018 -0.121646 -0.22594757 -0.06478788 0.12893723 -0.3202196 0.109690025 -0.38904876 0.56970584 -0.26948133 -0.26783845 0.10345528 -0.101970494 0.13728553 -0.059742518 -0.39711344 0.35319942 -0.11719548 -0.117583916 0.19286591 -0.33535773 -0.22461218 -0.13645926 -0.092619896 -0.21735401 0.2721543 -0.0012765065 -0.22448507 -0.31887186
月 0.13978216 0.22396496 -0.514941 0.54874444 -0.5336273 -0.2696103 0.61321056 -0.099339545 0.16087787 0.15026104 -0.12730879 -0.0104651395 0.16425152 -0.48984915 -0.18789388 0.07294275 0.37134427 -0.2761575 -0.0818787 -0.07995414 -0.10486898 -0.18483916 -0.2317199 0.31512752 0.11944841 -0.4840653 0.2983132 0.16740365 0.0023103522 -0.24053043 0.17779692 0.41842777 -0.562295 -0.3340766 0.09528119 -0.40882057 -0.13211225 -0.07488738 -0.4336642 -0.51451594 0.0017077918 0.61020994 0.04027603 0.13168004 -0.147803 0.48321208 -0.17569678 -0.10739168 0.06481887 -0.6522053 -0.17878594 -0.14885227 -0.31895643 0.16665095 -0.5385415 -0.23331818 0.4466841 -0.046137538 -0.21264048 -0.0185837 0.049850054 -0.35146755 -0.27302036 0.019299753
最好 0.29440343 0.13639672 -0.60058105 -0.5137969 -0.0047195693 -0.1766098 0.0513602 0.12180908 -0.026310712 0.11542413 -0.25020415 0.2589504 0.14892088 0.14032392 -0.58317345 -0.45553768 -0.5358523 -0.018024474 0.21758072 -0.033660743 -0.15645683 -0.32250205 0.001456627 0.0010820143 0.88540316 0.021259742 0.25715086 0.29504168 -0.08015841 -0.34447992 0.47318208 0.11040642 0.14611383 -0.02872802 -0.27442542 0.01989373 0.1790422 0.057189014 0.29666385 0.27984118 -0.095972486 -0.17310998 -0.0075027035 0.14670454 0.15247016 -0.07303965 -0.17175981 0.43470833 -0.10260325 -0.4344473 -0.36873797 -0.15751243 0.1288606 -0.31280914 0.037787825 -0.70218545 0.4604199 -0.23470053 -0.16681167 -0.024148878 0.0017865074 -0.1563502 0.25658727 -1.2326003e-05
不用 0.09126191 0.219982 -0.4890937 -0.110764146 -0.058313183 -0.015816038 0.094608985 -0.025518015 -0.13857675 -0.014953663 0.18240893 0.029417621 0.1470249 -0.16572419 -0.073274545 -0.054027446 0.13881369 -0.15676074 -0.017437957 -0.337326 0.046205167 -0.1514908 0.2619115 0.021838665 0.0046047373 0.18219134 0.533957 -0.25246912 0.08201534 0.011253396 -0.025807997 -0.15383475 -0.034041114 0.46115428 0.085039295 -0.117658086 -0.31159198 0.22728473 0.23021458 0.17574672 0.0065608528 0.10579819 0.0060133417 0.21377888 0.2614861 0.16358021 -0.4301567 -0.31539685 -0.011280096 -0.3470153 -0.32290247 0.17155261 0.187264 -0.13941939 -0.06845463 -0.41577828 0.09829763 -0.05685851 -0.0018181627 -0.3259946 0.13027537 0.072861806 0.23816445 -0.33502075
选 0.014486826 -0.07921892 -0.50412035 -0.14411332 -0.276877 0.060853504 0.19200368 0.3200719 0.19351797 -0.21530762 -0.13604595 0.36524558 0.34645316 0.41500908 0.019422257 -0.560714 0.14898232 0.34115052 0.6443001 -0.12074236 -0.64584225 -0.39189875 -0.12957315 -0.25761336 0.05614764 -0.5263004 -0.0097012045 -0.22391616 0.6182233 -0.25069493 0.49734318 0.27041474 0.44550094 -0.09058796 -0.24777141 -0.47798893 0.44435096 0.2518625 0.09130928 0.02280614 -0.021665847 -0.18708494 -0.21164572 -0.5332875 -0.10702923 -0.18162848 -0.3613549 -0.69313794 -0.28051096 -0.4510221 -0.4202898 0.25830984 0.0014167861 -0.30588943 -0.32230216 -0.1707573 0.49737749 -0.18716446 0.367962 -0.33330417 -0.22046149 -0.40302202 0.3997043 0.001494182
之前 -0.105540544 0.22300437 -0.610274 0.37396005 0.27604827 0.19202043 0.14448753 -0.17117548 0.049828667 -0.1198008 -0.10239189 -0.015600483 -0.039278317 -0.01325782 -0.19906823 -0.017724892 0.18935865 -0.3836892 -0.30700666 0.040543348 -0.17039643 0.0007666922 0.43752325 -0.15425706 0.16541956 0.019604642 0.57259727 -0.18887046 0.095894374 0.2751405 0.21198592 0.15607855 -0.14722809 -0.5131601 -0.024768982 0.07278135 -0.071264 -0.14484654 0.0939791 -0.16086592 0.1470736 0.15263873 0.06825103 0.06077216 -0.020162463 0.014657079 -0.09667433 -0.23689348 -0.3018377 -0.40860328 -0.430254 0.40805003 0.04579347 0.06852443 -0.12982805 -0.2589467 0.36828834 -0.023532191 -0.14652342 -0.017747086 -0.13686673 -0.20393702 -0.0056047924 -0.09970813
车子 0.19121848 -0.008027354 -0.0941133 0.2889995 0.10777702 -0.28579164 0.16669814 -0.30546883 0.19933541 0.22973475 -0.13350219 0.4380516 -0.042390887 -0.2419438 -0.36693475 -0.33881652 0.019122291 -0.07651701 -0.02221833 -0.11831689 0.044121593 -0.041221227 0.20943308 0.014788387 0.020833148 -0.040681824 0.31045106 -0.17476779 0.06544863 0.1629173 -0.23194133 -0.033486407 -0.14453644 0.16677575 -0.13513193 -0.0207211 -0.0714082 0.2332773 0.075176865 0.2393502 -0.058227763 -0.12673515 0.12264095 0.619016 0.16508879 -0.01905961 -0.1221216 -0.009801609 0.15337667 -0.32436982 0.040021457 0.036225177 0.25600296 -0.16694376 -0.22591366 -0.22191812 0.49960667 0.029957648 -0.116484046 0.05194658 0.1376409 -0.29857355 -0.34437808 0.09831867
对置 0.02465318 0.30317497 -0.55057716 -0.06770289 -0.8517321 -0.38293377 0.11051421 -0.060438856 0.29793388 0.05636849 0.13618982 0.41628665 0.0023920191 0.2623766 -0.6532553 0.3145719 -0.5247882 -0.111302435 -0.0203407 0.6407928 -0.91138136 0.16591346 -0.11129336 -0.38022533 0.17544916 -0.71790314 0.21533331 0.012871549 0.9077453 0.21455719 0.15300705 -0.42490995 0.4833919 0.026332835 0.12761937 0.10625933 -0.5690118 0.3977924 0.19830129 -0.21227662 0.15042454 0.35927632 -0.22148933 -0.04612854 0.013991829 -0.62902045 0.268846 -0.38814738 -0.30170614 -0.08747734 -0.15060121 0.37057787 -0.2875964 0.6156852 -0.42182988 0.07699226 0.09200421 0.010991177 0.10044094 -0.13832943 0.09979279 0.262729 0.18487068 -0.3177957
挺 0.3452093 0.08868806 -0.11308831 -0.15001144 -0.47702137 0.1261861 0.03351996 -0.22050276 0.10260225 0.325085 0.048005857 0.40582114 0.091688946 -0.08656651 -0.2851645 0.06567849 0.06759609 -0.13971062 -0.020715922 -0.0770733 0.19542013 0.15816167 0.07728953 -0.17696019 0.2755361 -0.31808725 0.1843571 -0.19406629 -0.062860005 -0.082019575 0.18370377 0.17761876 -0.29354906 -0.30738172 -0.288981 0.25258324 0.076965354 -0.008166 0.3757724 -0.1365223 -0.33388856 -0.16655122 -0.50223726 0.16326107 -0.06695092 -0.03923208 -0.33554667 -0.16007549 -0.041899007 -0.571019 -0.1819504 0.11760581 -0.24579291 -0.22826184 0.36431187 -0.31848964 0.019111095 0.020186942 -0.08979414 0.11537751 0.10848109 0.13124278 -0.06837436 0.056514814
发现 0.12442709 0.18712796 -0.40138236 0.44431788 -0.46105143 -0.09461936 0.25169325 0.006075574 0.1050786 -0.060887847 0.69313204 0.28360996 -0.1151068 -0.3211703 -0.3183719 -0.18036497 0.11358549 -0.31120935 0.11768952 -0.037690744 -0.034146097 0.033511184 0.498054 0.39268088 0.14508507 -0.26197454 0.07714814 -0.065339305 0.055167526 0.12026757 -0.34624398 -0.10625851 -0.8314026 -0.30776867 0.2689269 -0.10110652 0.09921864 0.08489079 0.09216263 0.037511375 0.07955001 -0.036855202 0.34313235 0.4069407 0.21863076 0.22711119 -0.034779705 -0.45406002 -0.092162006 -0.3122453 -0.21334657 0.24885966 0.3873229 -0.23221779 -0.15040353 -0.20551161 0.10368083 0.06188187 0.3481202 -0.26774782 0.28227025 -0.7557768 -0.12643306 0.17774223
东西 0.5329742 0.25006142 0.08255804 -0.033920847 -0.4017601 0.3636047 -0.06285719 -0.4185552 -0.061725937 -0.08813238 0.331056 0.73194283 0.23318925 -0.24444056 -0.28811133 -0.19541214 0.24018653 -0.28373748 -0.19202153 -0.40767008 -0.27920175 -0.15712531 0.13461185 -0.35944176 0.6096596 -0.102942005 0.17658225 -0.3691408 0.2325507 0.061504673 -0.11779711 0.14566557 0.28287646 -0.22586103 -0.18866052 -0.19205919 -0.28249237 0.4040466 0.360937 0.33175153 -0.4060174 0.14004003 -0.5569325 -0.07212662 -0.38279608 0.034223538 -0.6832951 0.20141129 0.076271124 -0.48122153 -0.31944546 -0.003491289 -0.20231366 0.13046281 -0.22343096 -0.29452008 -0.14207073 0.10843432 0.0019396965 -0.2611441 -0.41302353 -0.300675 0.114903376 -0.031754807
好像 0.23740338 0.2437952 0.06892161 0.03731739 0.016409706 -0.20623147 -0.097000495 -0.14790915 0.13509002 -0.055483688 0.48593244 0.2155881 0.027741017 0.17578194 -0.09826696 0.035000566 0.24450631 -0.2651743 0.30388817 0.1937131 0.020304779 0.12294614 0.4827021 0.116434835 -0.258644 -0.3710828 0.38821575 -0.12730235 0.012823027 0.28522578 -0.23764439 -0.12285848 -0.55597603 -0.31686452 -0.16718556 -0.37086278 -0.24084087 -0.13448995 0.16053864 0.27919877 -0.07117607 0.078227825 -0.11279439 0.1776976 0.05407589 -0.19287777 0.017561184 -0.47698715 0.1179277 -0.14304611 0.08260113 0.24802598 0.61580974 -0.013489608 0.26314676 -0.09965742 0.3922701 -0.26862964 -0.050571814 -0.8496046 0.36906064 -0.17641163 0.14028169 -0.25028494
影响 0.2995434 0.22311558 -0.3755804 0.04046552 0.013872132 -0.34522656 0.4259542 -0.0029397013 0.31947216 0.09656701 0.25414884 0.3939597 -0.34634784 0.2613106 -0.23020644 -0.060433548 -0.1433114 -0.33781353 -0.21358834 -0.21203445 0.04855673 -0.13220525 -0.19747935 -0.4775372 0.20301534 0.16181713 0.25386778 -0.5465523 -0.092008285 0.619398 0.11428002 0.023318605 0.24034658 0.39823887 0.2925026 0.19592889 -0.2585575 0.18317883 0.085622735 0.51190716 -0.17570494 -0.030637547 0.084162585 -0.079365246 -0.2067937 -0.27656186 -0.11813478 0.022803029 0.0044817487 0.22028682 0.1805174 0.58627313 -0.1519022 -0.030224817 -0.16832793 -0.65505964 0.63357085 -0.30768004 -0.24299593 -0.31905964 0.3847438 -0.09908288 -0.16055843 0.18372716
中 -0.2365485 -0.015915614 -0.39266512 0.4288537 -0.13140279 -0.09339248 0.5282936 0.4696715 0.24183185 0.32832077 0.32315823 0.1439752 0.20583268 -0.06950979 -0.30644643 -0.37555894 0.35482362 0.04594583 0.15653045 0.14304371 -0.50917923 -0.058133066 0.2512482 -0.47359124 0.13035618 -0.13295609 0.011133091 -0.3646195 0.0418221 0.20661566 0.013872643 0.11874088 -0.13215019 0.19412982 -0.0975697 -0.038308434 -0.32657835 -0.14191073 0.030919109 0.11319861 0.28102735 0.10225044 -0.23681052 0.0077142823 -0.23943895 -0.25887632 -0.14410895 -0.10851701 -0.038561486 -0.3361343 -0.19534971 0.45990252 -0.030861065 -0.02520867 -0.17878883 -0.31018806 0.11918499 -0.27551892 -0.029802239 -0.33575627 -0.19960299 -0.20152234 0.029519135 0.047436904
不到 0.06956761 0.054384585 -0.2830059 0.07748239 0.017429356 -0.36680532 0.12681967 -0.26843742 -0.18126562 0.0032289526 0.23430246 0.22987589 -0.07943488 0.019811785 -0.22231849 0.085324444 -0.037061658 0.0061778366 -0.18720618 -0.12543538 -0.08488962 0.12555076 0.05243073 0.07260306 0.18421039 -0.08241344 0.42403704 -0.23666169 -0.114875965 0.39196685 0.13152967 -0.25155184 0.17283763 -0.3762851 0.24797252 -0.12138394 0.053509917 0.18462476 0.080126934 0.22054899 -0.20131549 0.3158751 -0.08259715 0.49299973 -0.34282568 0.0087298555 -0.30927938 -0.11969119 0.018320842 -0.6004613 -0.48516908 -0.45203862 -0.029698888 -0.18982914 -0.17765376 0.018618194 0.2221314 -0.052558716 -0.019767428 0.022730144 -0.14903684 -0.22294001 0.13441996 -0.31746432
进口 0.14677857 0.041126896 -0.59302074 0.27505282 -0.7373673 0.079438664 0.16067888 -0.030498993 -0.30219346 -0.021676907 0.10803925 0.008168616 0.3890799 0.24837448 0.009511114 0.076494515 -0.45423752 0.3153443 0.0920662 0.19846979 -0.6502018 -0.20219067 0.35085064 -0.11433833 0.26470003 0.063885 0.6302161 -0.49863356 0.08777223 0.4744597 0.6944722 -0.21141426 0.17734805 -0.28427538 0.24355237 0.2846368 -0.64844257 0.19084685 0.18260689 -0.27023906 0.015653271 0.24879807 -0.34269986 -0.5248925 0.121473484 -0.15112361 -0.044409163 -0.16012454 0.40895528 -0.03323585 0.19608317 0.51139027 -0.25931665 0.2567578 0.09396295 -0.2094981 0.5450645 0.31430954 -0.03873385 -0.15472926 -0.20873423 -0.4807444 -0.13174933 -0.63624674
舒适性 -0.019059334 -0.5081026 -0.42532003 0.25418693 0.122596644 0.51568985 0.22509037 -0.43871415 0.3530189 -0.0003586076 -1.068449 0.17483169 0.023655588 0.23453604 -0.4367027 -0.1629604 0.014789678 0.026993785 0.35642543 -0.05109401 -0.0463978 -0.009209234 -0.5227925 -0.46141312 1.1874218 0.16606475 0.32585797 -0.08169741 0.100056365 -0.15460907 0.24466617 0.32093748 -0.58901876 -0.39665347 0.014790107 0.05514743 -0.20000325 -0.3545482 0.68733686 0.041835107 0.17521763 -0.16232239 0.17436312 -0.2809813 0.6140684 -0.7817428 -0.09644741 -0.4099357 -0.07525574 -0.94045275 -0.039551143 0.28301242 -0.22354719 -0.1038831 -0.2708382 0.17925641 1.2811024 0.016711963 0.53275365 -0.63718534 -0.346571 -0.09322558 0.23669012 0.12702669
18 0.60397595 0.12777893 -0.16828899 -0.018102204 -0.60129666 -0.095777124 -0.18762691 -0.3356072 0.47696126 0.40608776 0.114967965 0.5242929 -0.28272673 -0.170902 0.29873177 0.4432096 -0.22004037 0.5451489 0.19075942 0.28847775 0.2194025 -0.10705195 -0.18950398 -0.23150489 0.0352192 -0.26370528 0.6569869 -0.35367912 0.073216 -0.028315792 0.43508562 -0.06736879 -0.80192584 -0.13277277 -0.22437955 -0.16383831 0.00045604963 -0.08115378 -0.5851499 0.12757654 -0.2886904 0.11896118 -0.5436049 -0.10487557 -0.16280194 0.32766718 0.06920783 -0.657803 0.1587136 -0.10719374 0.059505567 0.3133759 -0.12070589 0.30623803 0.34450984 0.10496045 0.304124 -0.39194244 -0.32636142 0.34992304 0.4141916 -0.9237097 -0.099276885 0.13510449
