4256 64
森林 0.06564967 -0.15296002 -0.010248722 -0.03777069 -0.28884727 -0.14028077 0.2641684 0.10215145 0.30194607 0.08623795 0.10619984 0.043996517 -0.03587216 0.34455994 -0.16198763 -0.027697967 -0.17465834 0.42540836 -0.283587 -0.17167076 -0.21111514 -0.23897436 -0.123214595 0.13853717 -0.074332885 -0.16237813 0.19262597 -0.64672387 -0.37659526 -0.07368399 -0.41875502 0.19316834 0.073434986 0.26229298 -0.030911813 0.3276495 0.1958112 -0.3759911 -0.38363218 0.22943798 -0.2162027 0.14156042 0.23169681 0.31602532 -0.120603085 0.105175786 0.10335052 -0.11169274 -0.29587266 -0.08901331 0.4724317 -0.005472815 -0.16790996 -0.2884619 -0.076510906 -0.18177122 0.013761183 -0.28567675 -0.14327043 -0.022945393 0.069417365 -0.09598901 -0.04718189 0.039999075
发动机 -0.37154195 0.4399526 -0.035829708 0.03000066 -0.17923589 -0.058195546 0.12270892 -0.31780294 0.05314718 -0.31900913 0.2276164 -0.40275773 -0.0059675453 -0.46993253 0.23227596 -0.27249438 -0.023928324 -0.065224834 -0.07885831 -0.19041912 0.17415886 -0.15168786 0.19200434 -0.042308547 -0.032350004 -0.23400433 0.4280921 -0.2211531 -0.25011197 0.041125033 -0.51382554 0.20060037 -0.06376334 0.043556325 -0.13463356 -0.22357248 0.13769302 0.037276156 -0.037570495 0.4158937 -0.14520167 0.25094196 0.3599753 -0.18531342 -0.15309368 -0.048970256 0.000505067 0.006114406 -0.12758213 -0.15880154 -0.06351156 0.07430101 -0.36097372 -0.35517457 -0.19557382 -0.16739358 -0.08156992 -0.15190063 -0.24352157 0.14699097 0.25623187 0.12007951 -0.025537388 -0.36493522
油耗 -0.08988845 -0.037689775 0.07439321 -0.15568712 0.009804673 0.15210038 0.03143055 0.10558541 0.24104135 -0.045883156 -0.27584523 -0.049654398 0.16724533 -0.045452405 0.23953058 -0.4353245 0.120834544 0.3442466 -0.42172477 0.1425605 -0.110027686 -0.5741198 -0.19070281 -0.041097324 -0.13793063 -0.14713281 -0.05284039 0.051082738 0.15175754 -0.008132044 -0.15632086 0.39820042 -0.27977562 0.19303913 0.017175851 0.05663214 0.1624698 0.05021601 -0.23543732 0.54989773 -0.35213596 0.23646341 0.06945253 0.3310784 -0.12094086 0.3225519 -0.1162689 -0.28949597 0.20924306 0.06634583 0.4242854 0.20178051 -0.28922918 -0.34131047 -0.39976376 0.14700256 0.010734255 -0.45172986 0.4730535 -0.05534629 0.44794834 0.35486245 -0.44629812 -0.5027139
机油 -0.08819394 -0.16830151 -0.43042406 0.16090892 -0.4380445 0.1430466 -0.098459125 -0.17237104 -0.20837092 -0.18660082 -0.46268892 -0.48214585 -0.15754728 -0.54353243 0.08226357 -0.74737316 0.22727208 0.115844965 0.34765536 0.060092084 0.1491741 -0.035590913 0.10973087 0.34291697 0.03155146 -0.10357613 0.5135406 -0.3063213 -0.15239055 0.10788972 0.018847357 -0.06273549 -0.30902866 -0.16303521 -0.18974197 -0.14810367 -0.029177358 0.0040328056 -0.55900633 0.33219737 -0.20767005 0.06687301 0.3189479 0.23371965 0.069126144 -0.0008422466 -0.014559715 0.12712869 0.056302648 -0.21066974 -0.12492221 -0.026307162 -0.27743545 -0.012813574 -0.05132552 -0.08287522 -0.0045836037 -0.2629399 -0.12594682 0.057580706 0.4855201 0.18561287 -0.25080693 -0.11277023
车 0.057515528 0.008168774 -0.4428998 0.1845501 -0.3807678 -0.2291101 0.056569867 0.1426488 0.19978777 0.050132923 -0.14416409 -0.054249592 0.0086252345 0.088814005 0.025485251 -0.12784842 0.049704034 0.40860572 -0.04181674 -0.22632992 -0.28372598 -0.16654399 -0.012016426 0.15804614 0.03255063 -0.019669779 0.39379492 -0.35837793 -0.11338154 -0.3185714 -0.2682072 -0.004311698 0.15636972 0.07413744 -0.11153135 0.12035106 0.19223142 -0.053674348 0.03702868 0.1380577 -0.102705576 0.11932435 0.12379476 0.22132654 0.21310614 -0.13209343 -0.05145495 -0.026034666 0.1506858 -0.17957008 0.30082843 0.037147418 -0.32281604 -0.1988264 -0.14055446 -0.28588104 0.1383246 -0.29236126 -0.19754496 0.051241938 0.081217304 0.002526812 -0.030282393 -0.2562847
价格 0.5759055 0.30749702 -0.17773446 0.02739678 -0.8890578 -0.25244933 -0.10242803 -0.23922428 0.21712397 -0.072223164 -0.27719104 0.05550098 0.2921259 0.011259867 0.09753381 -0.4825037 -0.010225935 -0.024286354 -0.3922832 -0.47439814 -0.11998247 -0.5128359 0.029240448 0.27652594 0.19595762 -0.15309867 0.18862277 -0.20686257 -0.18707334 -0.27584288 -0.091014065 0.079693645 0.12140653 0.05061807 -0.023469798 -0.040181898 0.1161715 -0.10808002 -0.37499624 0.011599881 -0.032523625 0.018805454 -0.20511162 -0.09205585 0.092115596 0.2537102 -0.18205659 0.11105349 -0.013345211 -0.18548197 0.37025204 -0.08888857 -0.37297064 -0.404445 -0.17572217 -0.1519683 0.16436577 -0.34636047 0.32514265 0.10598745 0.07427544 -0.37166244 0.07253569 -0.13068044
动力 0.12700938 0.25207394 -0.1299235 0.14860977 -0.30442822 -0.17906207 -0.13584706 0.13475525 0.08810736 0.45727026 -0.1928948 -0.243793 0.18096715 -0.13058348 -0.100834765 -0.27355736 0.1131862 0.3180976 -0.2676162 -0.41898635 -0.14048898 -0.20032501 -0.025838679 -0.22255889 0.18369143 0.06985383 0.21002008 -0.3701273 -0.017511554 -0.029247709 -0.29301026 0.35849658 -0.10585849 0.029794032 -0.3756986 0.42570683 0.35606617 0.06732495 -0.14226133 0.40566304 -0.2966583 -0.054648075 0.17651215 0.011437937 -0.07521497 0.050622527 -0.057470124 -0.2453823 0.2006717 -0.17049475 0.15100935 0.27449867 0.035968702 -0.21474966 -0.090560764 0.07014589 0.06735441 -0.021126347 0.038032036 -0.38776657 0.35598645 0.07892145 -0.29596874 0.025893694
没 -0.2696843 -0.10548488 -0.44425985 0.11835236 -0.18988685 -0.0533146 0.0059681926 -0.025894444 0.042084612 0.17406268 -0.24504317 -0.21971788 -0.09235088 -0.084716275 -0.08148812 -0.00068363664 0.14919971 0.09163291 -0.20039889 -0.32032275 -0.119993046 -0.29324117 -0.009040402 0.02585388 0.117399886 0.037953462 0.14221679 -0.17053702 0.09644748 0.077139035 -0.26206174 0.14875253 -0.15576942 0.10365125 -0.17697828 0.20769967 0.09395539 -0.12110864 -0.14202313 0.39072746 -0.14759065 -0.10327566 0.04833414 0.32236838 -0.23301935 0.2506901 -0.18538879 0.11530121 0.035511486 -0.04260559 0.23754641 -0.105468914 -0.13386093 -0.23809288 0.15698996 -0.001971085 0.03653862 -0.110879555 -0.16502342 0.17072086 0.024106178 0.23330656 -0.3166815 -0.16725855
买 0.11414359 0.19645028 -0.53805155 0.009636582 -0.49466467 0.012228288 -0.1342746 0.05753594 0.257019 0.19373587 -0.19122428 0.09170553 0.21385753 0.15019545 0.059553646 -0.34958276 0.015742943 0.017053187 -0.13861758 -0.28838262 -0.19488624 -0.15286684 0.008356756 0.24736574 -0.045307197 0.110584535 0.30296838 -0.18976992 -0.12264944 -0.2937361 0.03274475 -0.019547282 -0.11770312 0.008343664 -0.05374128 0.2767906 0.16422707 -0.18131372 -0.38859373 0.2079232 -0.32462305 0.053713568 0.3537614 0.10938997 -0.23231657 0.25276715 0.09898731 -0.16170143 -0.076758906 -0.38009804 0.36458984 -0.06552821 -0.11311535 -0.008662395 -0.12993766 -0.22664571 0.22931531 -0.19696541 0.079295956 0.16210039 0.06391602 0.09201236 -0.18026622 -0.23569421
说 0.13873637 -0.03899978 -0.2396627 0.056881584 -0.48970973 -0.12587512 0.0044089947 -0.18377265 0.101016924 -0.14640543 -0.013804187 -0.06816708 -0.09724017 -0.026413523 -0.16491209 -0.18134846 0.1162378 0.19535834 0.15051182 -0.38243237 0.051431615 -0.21178003 0.093173906 0.1624459 0.13958044 0.122656874 0.27176845 -0.1880795 -0.17838942 -0.06364352 -0.07363804 0.021508334 -0.04035491 0.13890041 -0.09442218 0.14646465 -0.02702126 0.06670324 -0.15829526 0.25404045 0.025302634 -0.025712268 0.18081051 0.20345049 -0.023914294 -0.01090943 -0.08645482 -0.08022396 -0.07636492 -0.08712341 -0.1068822 -0.21578854 -0.1656864 -0.105529316 -0.104473755 -0.23149326 -0.17097534 -0.31839752 -0.39162132 0.15557365 -0.14739816 0.066741854 0.050588887 -0.16714135
换 0.1506173 0.051548865 -0.22106998 -0.2875314 0.04747561 0.4130977 0.044883043 0.16851357 -0.0017383018 -0.043134887 -0.54299366 -0.023828585 -0.19448239 -0.3477376 -0.037856415 -0.5269877 -0.027844148 0.21206054 -0.092304334 -0.24517006 0.35110843 -0.1567707 0.290296 0.22046235 0.22788495 0.30775297 0.24583709 -0.13501796 -0.0023368073 0.097700745 0.22752902 -0.3861916 -0.051296078 -0.026599582 -0.35124633 -0.2031546 -0.3001967 -0.25137395 -0.407545 0.48052764 -0.08965955 0.14072062 0.23682971 -0.038366746 -0.1615326 0.59557056 0.14231154 0.10164856 -0.13507982 -0.21964784 0.14740214 -0.42326257 -0.47053137 -0.12470764 -0.102012455 0.11478927 -0.049151354 0.016193885 -0.14900559 0.28187966 0.096920565 0.34862766 -0.05617729 -0.12555598
问题 -0.21213499 0.25287145 -0.34633848 0.021835769 -0.0907583 0.07157108 0.07809043 -0.097744584 0.016385334 -0.010025416 -0.027718237 -0.11533136 -0.06664215 -0.2865998 0.11154065 -0.41492292 -0.017508762 0.08866539 0.04152336 -0.40802553 -0.011146168 -0.060296856 -0.013268636 -0.1352243 0.14077902 0.1580176 0.3983799 -0.12070072 -0.08638018 0.07537848 -0.24266821 -0.02064743 -0.062029757 0.20704012 0.0059265536 0.087138414 -0.05932734 0.021478117 -0.094198875 0.2695973 -0.15595384 0.08174881 0.25295073 -0.011802815 0.0876421 0.26043782 0.04180447 0.20300065 0.2504209 -0.06463882 0.026950458 -0.07581579 -0.3435888 -0.4888277 -0.20823647 -0.18207943 -0.025801692 -0.09683277 -0.08384683 -0.06831971 0.24687089 0.20056607 -0.15458766 0.10078162
内饰 0.56519705 -0.017234357 0.03063944 0.01612057 -0.429667 -0.3180568 0.26877722 0.13372718 0.2750633 0.056999967 0.25676602 0.19449414 0.021010162 -0.14562644 -0.17466445 -0.13141267 0.028499803 0.32760942 -0.12801449 0.00037426804 -0.46014315 -0.1689281 0.48837546 -0.07353835 -0.2993058 -0.08914041 0.13327232 -0.68634915 -0.048061986 0.04646232 0.15852107 0.19848494 0.09343358 0.053717438 0.18681948 0.31585398 0.38650665 -0.5295858 -0.13655554 0.32321775 -0.14580011 0.49446627 -0.15503527 0.14940013 -0.05839381 0.14793995 0.1083253 -0.16372573 -0.44412562 -0.33157244 0.73784524 0.42146933 -0.24737546 -0.21604367 0.038345173 -0.30254036 -0.0018277564 -0.15023808 -0.46796176 0.05542858 0.35632354 0.0013180842 -0.04430564 0.11973764
款 -0.098722905 0.17325805 -0.60949624 -0.09361157 -0.22836529 0.012271102 0.19269973 0.040381253 -0.16925015 -0.1984126 -0.15915243 -0.08298505 0.1900707 0.0025232742 0.08933159 -0.1505507 0.30224895 0.004202425 -0.07797623 0.015093657 -0.35769314 -0.20987937 0.36110696 -0.021596005 0.04413368 0.025144514 0.42213744 -0.23241307 -0.3388695 0.13455181 0.08474692 -0.14202358 -0.06033409 -0.09567295 0.040794354 0.13005984 -0.16055103 -0.1458161 -0.24307378 0.4434887 -0.12916127 0.11803447 0.3183542 0.3798823 0.008677226 0.295253 0.043870106 -0.042923484 0.04015328 0.004447883 0.24899133 -0.083562225 -0.056238335 -0.12666924 -0.23923549 -0.14922804 0.11381244 0.03084379 -0.020621445 -0.06330986 0.07129692 0.3582852 -0.13660388 -0.33880115
感觉 -0.04665298 0.24218133 -0.4315154 0.2406444 -0.25968257 0.16424635 0.1276056 0.04012811 0.21521293 0.05984184 -0.16250417 0.09406085 -0.00072437286 -0.17669335 0.33069777 -0.052340083 -0.011207712 0.2844383 -0.26302192 -0.3145475 -0.4278433 -0.015851414 -0.10687446 -0.094805434 0.11545284 0.012585548 0.27948874 -0.058389485 -0.10812243 0.15848172 -0.10337559 0.059149552 0.14127606 0.2465153 -0.42407277 0.23326305 0.07658302 -0.0911349 -0.20907247 0.41187048 -0.2139651 0.071553245 0.12639894 0.15042613 0.021964218 0.0062406044 0.19998223 -0.5710516 -0.17277507 -0.07554603 0.12114209 0.30713066 -0.39385772 -0.20995958 -0.06438115 0.19465855 -0.015277078 0.19557834 -0.2994844 0.13193035 -0.22261062 0.35111743 -0.1117803 0.047189213
开 -0.33212513 0.04757409 -0.46603397 0.1987178 0.044954315 0.029146649 0.19567385 0.090190955 0.25878605 -0.042559672 -0.005164862 -0.19632964 0.2127369 -0.15031548 0.1907184 -0.17925905 0.025885971 0.22958061 -0.05513937 -0.24253665 -0.19175297 0.10107029 -0.13472442 0.08961898 -0.010466647 -0.08038245 0.15806161 -0.2267975 0.05937643 0.05319478 -0.34958813 0.049892142 0.053234965 0.43784943 -0.1497641 0.19083777 0.16512819 -0.04914321 -0.20298456 0.22130547 -0.09008369 0.38004324 0.23339078 0.43439442 0.019738516 0.14668436 -0.04650039 -0.15870005 0.31633225 0.18609585 0.1497082 -0.035820186 -0.24359185 -0.1861037 -0.054628517 -0.1928992 -0.112200536 -0.3186518 -0.40445104 -0.06783399 0.01213147 0.006281249 -0.56237143 0.14070497
空间 0.060452405 0.16437326 -0.11416548 0.018375285 -0.2956975 -0.4565154 -0.21554683 -0.08789801 0.19439867 0.015782855 0.3676592 0.29647145 -0.14962012 0.6048117 -0.29383895 -0.19698037 -0.07347253 0.43265805 -0.5520385 -0.38989505 -0.33202422 -0.174413 -0.28402755 0.0664597 -0.022239206 -0.16449527 -0.085725464 -0.89760774 -0.21985632 -0.33187574 -0.25991267 0.33944717 0.04883216 0.63063735 0.09023701 0.13295545 0.17942536 -0.21348459 -0.6062311 0.28191128 -0.21008277 0.068400666 0.011582843 0.43318626 -0.10971086 0.05426439 -0.1328263 -0.065091394 -0.058642197 -0.2670205 0.3840987 0.23368745 -0.3605929 -0.23750454 0.05667279 -0.0053840834 -0.3603457 -0.37046108 -0.3328753 -0.25908837 0.01657881 0.006521845 -0.3355529 0.10465045
高 -0.15760534 0.18055195 -0.102019206 -0.30529585 -0.15437071 -0.19641352 -0.12415008 0.024704805 -0.11058894 -0.08582699 -0.12104347 -0.15647735 0.24059217 -0.00743874 -0.12900107 -0.35148627 0.017868904 0.16586442 -0.25660333 -0.026951225 -0.12882756 -0.3861932 -0.08105218 -0.2252565 -0.10823684 -0.19184132 0.17972596 -0.46077538 -0.10432213 0.31905702 -0.5392886 0.22505414 0.16850223 -0.09561705 -0.18469895 0.10029142 0.5032803 -0.09947663 -0.070749596 0.4383899 -0.107181236 -0.04473207 0.104891755 0.12610842 -0.16997913 0.07315333 0.092795305 -0.044682834 0.101282924 -0.096208334 0.0076224105 0.025626615 -0.25755715 -0.27099195 -0.18271121 -0.29909915 0.093980014 -0.268983 -0.05723915 -0.08851653 0.37789947 0.17695081 -0.208622 -0.1363098
配置 0.43791306 0.45093086 -0.09433995 -0.11008999 -0.80590856 -0.45906413 0.14845996 0.3242372 -0.12355711 0.0190064 0.31205747 -0.12752059 0.40770313 0.30318674 -0.22508317 -0.25868464 0.17050095 0.20585878 -0.5508474 -0.2110016 -0.11315262 -0.10674707 0.37687886 -0.19852518 -0.010252626 -0.3081624 -0.12019182 -0.6690483 -0.3186273 0.042394444 -0.16625234 0.0018251308 -0.047012962 -0.17505921 -0.052621286 0.35253182 0.3401263 -0.06424973 -0.26855084 0.30686736 -0.1208603 0.18376797 -0.3697211 0.06867953 -0.083201945 0.24101204 -0.12784564 -0.09931052 -0.2764838 -0.45141876 0.31520033 0.024071 -0.18548426 -0.08886884 -0.06222403 -0.2380721 0.10638161 0.31171247 -0.21410806 -0.10800528 0.2513236 0.073336914 -0.1857022 0.089638025
烧 -0.29922253 -0.19834596 -0.5096734 0.41605455 -0.3990513 -0.038875703 0.039376367 -0.15063775 -0.10349792 -0.32608292 -0.30059654 -0.42175266 0.06614785 -0.46471632 0.12158504 -0.5748498 0.28018028 -0.049895484 0.6523719 0.04645119 -0.010899008 -0.271146 0.123904884 0.2970353 0.15626204 0.1552874 0.7241592 -0.36085415 -0.22389969 -0.0018573859 -0.0032530003 0.17868833 -0.23969221 0.039307196 -0.09949493 -0.018570734 0.21864259 -0.22842392 -0.146223 0.2550796 -0.3832592 -0.052235644 0.31798112 0.5011628 -0.09865015 0.0427031 -0.28156966 0.21119516 0.040537678 -0.28157538 -0.3705927 0.1613498 -0.5874842 0.12581652 -0.29898334 -0.14192009 0.055475347 -0.22981346 -0.04263818 -0.054470196 0.5267131 0.21837062 -0.29092032 -0.032762684
斯巴鲁 0.38743442 -0.00020815589 -0.19490841 -0.09996625 -0.5712671 -0.2110638 0.030272968 -0.1291639 0.09826579 -0.09036051 -0.1769159 0.0042021815 0.17287728 -0.2635934 -0.031625215 -0.42816183 0.11136255 -0.090791926 -0.15783925 0.037661113 -0.01825507 -0.27722207 0.18963861 0.29140973 0.22242472 0.24573213 0.009160634 -0.47221315 -0.07851679 -0.036387682 -0.39625686 0.24079312 -0.18796155 -0.26617604 -0.1176552 0.55683655 0.09379838 0.16857965 0.20796834 0.19607951 -0.27203086 0.41696638 0.0070290673 0.10974152 0.08559556 -0.22524342 -0.43983188 0.121910796 -0.10815717 -0.25106362 0.091604695 0.026496943 -0.16051336 -0.35617012 -0.17374998 -0.20355546 0.07556047 -0.17121597 -0.4260868 -0.042741112 0.16689095 -0.09427622 0.26868874 0.15537596
现在 0.14510539 0.2330181 -0.37580213 0.013700095 -0.26378384 0.19990009 0.24801469 0.3466731 0.08333248 -0.0002458798 -0.35754323 -0.112206586 0.2657062 -0.11798434 0.28448394 -0.27291325 0.044308305 0.26408252 -0.080374695 0.023443643 -0.22413051 -0.1207974 0.23447998 -0.031160377 0.073653996 0.07772687 0.2285887 -0.010703898 -0.1710447 -0.14421529 -0.08193227 0.16279577 -0.29614255 0.21657884 -0.08202621 0.055143442 -0.054816075 -0.015276605 -0.23511194 0.4566937 -0.15407604 0.2797444 0.12364372 0.45726222 -0.14718077 0.17865507 -0.12991792 0.26641044 0.0830731 -0.045224328 0.34634236 -0.11099612 -0.12641719 0.00048172008 -0.08999451 0.07211805 -0.107405856 0.12627403 -0.073588446 -0.018317832 0.01662716 -0.05246146 -0.3827822 -0.10422145
刹车 -0.24285561 0.8118663 -0.031266887 -0.028327549 0.12902234 0.24814026 -0.02828382 0.018797822 0.30079192 -0.2226364 -0.72153217 -0.6385524 -0.0094408365 -0.012324939 0.08125136 -0.24461563 0.32970747 0.44698584 -0.07312729 -0.2921487 -0.17711842 -0.28454214 -0.1766159 -0.35954377 0.06633496 0.23607497 -0.1454738 0.19820246 -0.20064633 0.21086635 0.069634646 -0.13189368 0.23326255 0.25763294 -0.49397194 0.30618086 -0.056514356 -0.045453418 -0.019268982 0.54628116 -0.0026687458 0.033825193 -0.13916987 0.13811316 0.22021152 0.13622063 0.057836898 -0.29970533 -0.20067896 0.20555598 -0.34212995 -0.29043275 -0.43423364 -0.43137038 0.3081701 0.18533833 -0.052699402 0.34254462 -0.54658204 0.23335674 -0.07438552 0.8125837 0.03347934 0.17122152
四驱 -0.036663838 0.20786011 0.15929927 -0.2371238 -0.2524419 -0.043185778 0.51448745 0.11094975 0.5151177 0.03165511 0.11065182 0.10924791 -0.08418115 0.2956878 -0.10653371 0.18586203 -0.27377495 0.1640576 -0.20284146 -0.12702934 -0.12865552 -0.57692266 -0.20662174 0.06397828 -0.37622288 0.1286854 -0.03612069 -0.5403116 -0.15166368 -0.17723751 -0.5818862 0.41257447 0.28523555 0.5536819 -0.0032273643 0.517093 0.46776548 -0.36380318 -0.107311144 0.44335833 -0.40992624 0.14353934 0.3055965 -0.029365174 -0.3823948 -0.24714476 0.16905133 -0.027376687 -0.10057186 -0.14146116 0.2603787 0.026010102 0.06995926 -0.7750339 -0.13016988 -0.28156474 -0.6606917 -0.42667952 -0.25005478 0.26400235 0.26438212 -0.21814859 -0.25954315 0.15254857
跑 -0.1536765 0.077433355 -0.26363954 -0.006817247 0.1626826 0.35610142 -0.14492922 0.39018607 0.09515774 -0.07784163 -0.6044886 0.10451236 -0.24303113 -0.07042168 0.29524678 -0.29302427 0.0021421157 0.4183939 0.119949415 0.17364618 0.053419158 -0.26431885 0.19335335 -0.010742409 -0.12997375 -0.19098842 0.0510376 0.055139314 -0.10027324 -0.042270247 0.039653312 0.40246946 -0.007154596 0.10753919 -0.29152888 0.18536201 -0.08573461 0.19947924 -0.15842171 0.56604445 -0.47712237 0.25625739 0.5597066 0.016531587 -0.056437217 0.23895802 -0.012857576 -0.2162834 0.22218141 0.060232002 0.11482117 -0.028290372 -0.35247436 -0.3128981 -0.18607971 -0.017085714 -0.098688476 -0.054815847 0.30470988 0.02890886 0.3378923 0.521191 -0.45475286 -0.14210887
高速 -0.14081678 -0.061163746 -0.47717974 0.24388447 0.016133526 0.175917 0.16848932 0.07296171 0.31822297 0.06773098 -0.02661923 -0.071945086 -0.06523622 -0.3009545 0.17760919 -0.021745997 0.23078817 0.65734667 0.16388799 0.042445965 -0.337205 -0.5571711 -0.026875209 -0.07778363 -0.20944667 -0.0023638508 -0.08711385 -0.017770406 0.2622947 0.08339815 -0.33952665 0.47177485 0.028758144 0.19510627 -0.32719398 0.1294485 -0.1766958 0.13995823 -0.085426286 0.5163067 -0.16792724 0.27102792 0.4371201 0.24706468 0.01862288 -0.026116082 -0.12928538 -0.4032267 0.42397764 0.2354523 0.1445045 0.36857748 -0.29736468 -0.29977357 -0.10707298 -0.061694983 -0.115970664 -0.22935738 0.037751663 -0.00011303653 0.11228051 0.54377025 -0.50836515 -0.021058718
操控 -0.27854308 -0.017375896 -0.2672599 -0.11535973 -0.25703073 -0.27650484 0.27829596 0.07512622 0.13955107 0.031647533 -0.06754353 0.3800977 -0.1445905 0.30707768 -0.5603773 -0.0633003 0.09549226 0.35150903 -0.23692185 -0.14489742 -0.40214127 -0.23906027 -0.31914368 -0.086835295 -0.12191333 0.3382715 0.22699104 -0.6287601 0.051326036 -0.4069777 -0.09620893 0.33397034 0.25751024 0.079293005 -0.081071354 0.35644 0.22019273 -0.4590741 -0.05036002 0.42823887 -0.12796725 0.08804763 0.15631045 0.20876953 -0.17819959 0.12283537 0.07107783 -0.18430549 -0.21731098 -0.19607854 0.6222963 0.022165192 -0.4570982 -0.63535964 0.14385636 -0.27989027 -0.08852329 -0.2744923 -0.27060264 0.07489712 0.14951108 0.1280012 0.07332232 0.03632403
导航 0.42133865 0.25564528 -0.41170877 0.5646628 -0.75293225 0.39453948 0.01496881 -0.26521403 -0.62271976 0.41195107 -0.14646196 -0.0852454 0.23638524 -0.046102397 0.08796595 0.29282764 0.18982403 0.4057986 -0.27328208 -0.023447117 0.23728253 -0.5683991 1.0560927 0.0002413669 -0.11134088 0.43322745 -0.103553414 -0.14647268 0.37397048 0.060261365 0.31301463 -0.29143527 -0.26065826 0.4302911 -0.14333048 -0.0043315967 0.049931142 0.10714613 0.17214322 0.27933526 -0.20495135 0.44517976 -0.12152013 -0.087820955 0.3025704 0.6486202 -0.19141588 0.39322966 -0.53335464 -0.10529649 0.27383986 -0.47562563 -0.0962112 -0.11016655 -0.12051245 0.029511107 -0.15124731 -0.07947916 -0.35019448 0.06460568 -0.04426932 0.37913364 0.09051557 -0.33935454
觉得 0.18022008 0.07681961 -0.39597324 0.21343176 -0.57458323 -0.1847212 -0.051597863 -0.07697076 0.22459342 0.014638754 -0.5048914 -0.07240081 0.07679256 0.19185542 -0.035217956 -0.31547982 0.11530719 0.30121037 -0.096531995 -0.06080662 -0.17619893 -0.15412103 0.22179124 0.14611131 0.07880906 -0.090116575 -0.09972338 -0.19426093 0.093720786 -6.256032e-05 -0.047778375 0.1203861 0.09831625 0.12588462 -0.17347647 0.25960192 0.07327742 -0.069618344 -0.21971202 0.15019242 -0.32910487 0.24957454 0.043116804 0.09728056 -0.1215074 0.053064305 -0.06856604 -0.28325784 -0.031676933 -0.118079305 0.110639095 0.09194642 -0.20405184 0.08305626 0.098714784 -0.09609989 0.060614746 0.15439546 -0.4336669 0.12703292 -0.16187309 -0.015922735 -0.100053035 0.13364562
公里 -0.26030254 -0.25762087 -0.45518315 0.1737359 -0.111557 0.18454991 -0.12763922 0.12028834 -0.23003289 -0.39751676 -0.4473195 -0.29331443 0.082067184 -0.41029188 0.39836153 -0.4890632 0.35537913 0.09112697 0.019601412 0.18541786 0.14376654 -0.71162957 0.18383127 0.09797255 -0.0645015 -0.36291727 0.23135561 0.040260315 -0.0026002799 0.047586594 0.32642484 0.22249137 -0.22384804 0.119316734 -0.20030943 -0.13821167 -0.0896654 0.048067693 -0.31211895 0.47275573 -0.47418612 0.33893085 0.42725572 0.3971773 0.64833844 0.3501384 -0.09260065 -0.07509874 0.36584017 0.16991277 0.2843046 0.06454372 -0.19742702 -0.04044209 -0.12728412 -0.13225257 -0.06646731 -0.2523263 0.38476834 0.30309436 0.27924925 0.15115929 -0.7146631 -0.40821663
空调 -0.3018725 0.23818909 -0.30185685 -0.03373205 0.49610597 0.49058196 0.031025961 -0.2478658 -0.13249066 0.33643383 -0.37996906 -0.55481595 0.5042427 -0.113660045 0.6858598 -0.19580989 -0.27370113 0.048354324 0.355397 -0.2311665 0.12204522 -0.08681693 0.19671102 0.3561884 -0.082354255 -0.22313587 0.007242915 -0.0442259 -0.10599863 -0.035127982 -0.2703333 -0.47970185 -0.12524575 0.3412561 -0.26324186 0.21286918 -0.023287138 -0.28411686 -0.78620744 0.45876768 -0.27464303 0.8267841 -0.46971083 0.08221734 -0.18425253 0.29319304 -0.12178351 -0.15727168 0.5603885 -0.008504924 0.06353501 -0.69522756 -0.073827535 -0.2878798 0.04223335 -0.27975997 0.040215943 -0.4190551 -0.35749087 -0.19247945 0.11783099 0.3459784 -0.5927552 0.0074855927
应该 0.022224998 -0.049615793 -0.06357781 -0.33766827 0.09956021 -0.14326218 0.18710688 0.21005067 0.12802248 -0.0803311 -0.12743996 0.17111522 -0.08951288 -0.12069974 0.06200963 -0.2600632 -0.002879107 0.19218959 -0.16653477 -0.53061926 0.11714002 -0.1807034 0.32244524 -0.16943313 0.08543312 0.2597861 0.01151106 -0.43083963 -0.09619505 0.003908877 -0.20931174 0.2971208 -0.17254204 0.033572704 -0.12093823 0.016223403 -0.1338436 -0.11208328 -0.22398862 0.48240414 0.06606446 -0.018311912 -0.07721106 0.3592024 -0.16464509 0.28866208 -0.011120993 -0.1062387 0.1617451 -0.2939995 0.050232742 -0.19168445 -0.39156246 -0.3306998 -0.02977652 -0.02389 0.069542885 -0.058471717 -0.032982383 -0.015403944 0.0822509 0.08773989 0.13928264 0.14868103
比较 0.19659804 -0.07989949 -0.22682433 0.26905596 -0.46930522 -0.23441458 0.08961402 -0.048107773 0.40686047 0.15943286 -0.3317471 0.32112968 0.097576074 -0.27206865 -0.03752322 -0.6329909 0.1270637 0.724373 -0.41034916 -0.015578658 -0.12888338 -0.23825514 -0.11622537 -0.17487694 0.21419755 -0.054242853 0.0052413875 -0.09441588 -0.043860115 -0.1448918 -0.32559526 0.19100945 -0.020106971 0.17970286 -0.18125449 0.15538493 0.1771596 -0.036040053 -0.13729896 0.25649044 -0.08070075 -0.027023407 -0.14406064 0.18921395 0.06623383 -0.24757354 -0.02796615 -0.22865786 -0.24367735 0.015080212 0.22622764 0.08787351 -0.19178256 -0.34290722 -0.25531945 -0.12147021 0.2806443 -0.19025758 -0.24848518 -0.23723263 -0.029068133 0.1413551 -0.0635755 -0.14429045
外观 0.58257586 0.47570816 -0.22817717 -0.016756346 -0.91030025 -0.26998416 0.34531727 -0.15624261 0.25483465 -0.09823573 0.44555444 0.16664587 -0.1044323 0.025877254 -0.28382212 -0.20980108 -0.059575945 0.10133243 -0.28881305 -0.2717934 -0.38464952 -0.32681906 0.06448144 -0.3469665 -0.10763505 -0.312665 -0.01149011 -0.49502307 -0.3388795 0.45226827 0.034609985 0.33149537 -0.44041857 -0.30962843 0.34489363 0.3644782 0.75116897 -0.5222619 -0.2272931 0.42074838 -0.19506274 0.4421291 0.027889956 0.05134236 -0.6671537 0.26964805 -0.006989236 -0.023501722 -0.21145985 -0.18652777 0.3929122 0.037417147 -0.07342086 0.0741516 -0.023296244 -0.38522956 0.044251427 -0.23435798 -0.33730856 0.18189472 0.3291962 -0.24839368 -0.011533744 0.0944008
底盘 0.31292206 0.10188532 0.02844426 -0.13860911 -0.20226839 -0.08458389 0.13801849 0.034176905 0.08190779 -0.22011562 0.03576428 0.18357614 -0.1490726 -0.09179968 0.098332345 -0.19404218 -0.25587982 -0.063857704 0.25602296 -0.7095806 -0.019743701 -0.13651818 -0.0076310453 -0.18485482 0.03030328 -0.2556489 0.35674533 -0.9654835 -0.16756278 -0.011870923 -0.030627685 0.18700667 0.4961967 0.25380692 -0.43725652 0.09137283 -0.48507628 -0.40332085 0.12970111 0.36267075 0.23757412 0.09509514 0.02944973 0.014370041 0.11644591 0.0037998015 0.31504706 -0.14466967 -0.19041875 -0.11985287 0.19690107 0.024626413 -0.099546745 -0.03660437 0.039790194 -0.4072769 0.04820233 -0.29162937 -0.33298045 0.16281538 -0.17048922 0.22978222 -0.27710143 -0.45193097
不错 0.019035112 0.47309217 -0.3049648 0.014586761 -0.29890576 0.0028831095 -0.13635825 0.18529019 0.10718365 0.35211697 -0.32181555 0.12526 -0.026384164 -0.075040765 0.09954206 -0.29932186 -0.43212947 0.6953767 -0.37199536 -0.08518363 -0.14476119 0.0985439 0.21206051 0.027263382 -0.114186294 0.14981814 0.07257934 -0.15858467 0.14732696 -0.112701245 -0.10479571 0.09877603 0.2274237 0.22826205 -0.2074131 0.15612823 -0.17565794 -0.22675297 -0.52828866 0.33412552 -0.16464648 0.03700719 -0.054053992 0.30845904 -0.0622808 0.008053971 0.015189539 -0.2513513 -0.2755009 -0.044501238 0.36447433 0.21575713 -0.2529847 -0.2644923 -0.3749583 0.13839602 -0.05756469 -0.033993877 -0.021222621 -0.037388694 0.2649746 0.06267915 -0.12655851 -0.11894966
变速箱 -0.097044505 0.08737023 -0.23083717 -0.29066372 -0.112968214 0.2754087 0.16738087 -0.32875994 0.34472558 0.12736571 0.0014955073 -0.52255774 -0.3336867 -0.70212185 0.17252137 -0.067740805 0.051559363 -0.0073657427 0.29975516 -0.28961164 0.5222839 0.26640436 0.1041923 0.0051840185 -0.048258137 -0.28402585 -0.02535741 -0.32348824 -0.07551059 0.10572971 -0.16373777 -0.100144036 0.18641788 0.012069233 -0.5791076 0.040811896 -0.23311713 0.03448313 -0.07496665 0.38324413 -0.33970743 0.06766717 0.4644423 -0.26743066 -0.071322516 0.5140693 -0.22152223 -0.2210838 -0.14858949 -0.53006685 0.0056091007 0.00795533 -0.17599234 -0.42842168 0.07186949 -0.4459525 -0.12615299 0.0033394329 -0.15847005 -0.045476247 0.3704723 -0.14057256 0.0140697425 -0.417808
优惠 0.81828856 0.3121428 -0.39963895 -0.246094 -1.4250239 -0.6551908 0.09707067 0.36132044 0.21263391 -0.30651754 -0.32481754 -0.415498 0.5140911 0.12360581 0.36036697 -0.31995583 0.33611134 0.099686876 -0.18235616 -0.18408647 -0.24739544 -0.6812073 0.11666525 -0.06834477 0.09417669 -0.14803062 0.14876166 -0.3818726 -0.20002049 -0.29851353 0.046068292 -0.31902665 -0.042893287 0.24945992 0.14285257 0.078209385 -0.44584835 0.27510583 -0.19394091 -0.14057091 -0.13018973 0.21978553 0.48594704 0.19638607 -0.22574337 0.3660835 -0.33422568 -0.009934877 0.16782527 -0.55764216 -0.0043566125 -0.5993657 -0.06507328 -0.085707456 -0.16764303 -0.1954492 -0.105523236 -0.2572545 0.5899091 0.075842954 -0.50603974 0.15059243 -0.08138919 -0.08199812
保养 0.2431462 -0.23078424 -0.27433485 -0.17027427 -0.5192247 -0.04254239 -0.0051363446 -0.10968944 0.26821843 -0.07858456 -0.25938886 -0.0365418 -0.18407279 -0.44119698 -0.1120529 -0.5015237 0.3534747 0.20804946 0.09081633 -0.016379317 0.2243382 0.011526315 0.08198525 0.6112087 -0.25636438 -0.31914145 0.4755366 -0.22197878 0.09591711 -0.15309532 0.09527968 -0.2870989 -0.29308867 0.035427254 0.04319068 -0.1981101 -0.061128587 -0.16969326 -0.86469275 0.5399993 -0.32216486 0.19818315 0.46674943 0.12427292 -0.009876859 -0.05880701 -0.20182368 0.11677094 -0.07383137 -0.186354 -0.12862247 -0.23456916 -0.018634804 -0.4501556 -0.24372222 -0.121286266 0.30710483 -0.23945054 -0.04216658 0.53321797 0.41272512 -0.10790149 -0.3889004 -0.2967144
知道 0.2296474 0.29866588 -0.25420964 0.12018797 -0.093230635 -0.1266663 0.15876094 0.11359049 0.15562199 -0.107936166 -0.22196975 -0.07372557 0.20803365 -0.19671164 0.07222025 -0.1838559 0.06492067 0.2734951 0.11765524 -0.29463345 0.11494513 -0.24242066 0.09418144 -0.08060267 0.10071959 -0.024369804 0.23418956 -0.18602763 -0.24059476 0.20177568 -0.20494717 -0.18700743 -0.17595226 0.129176 0.21282381 0.20847951 -0.13951595 -0.12282585 -0.08861087 0.36641756 -0.2191533 0.25983694 0.024914918 0.04986124 -0.058466077 0.1585959 -0.103645585 0.07315358 0.08210406 0.01038797 0.11859935 -0.10176784 -0.0994017 -0.12404153 -0.06808759 -0.019793473 -0.085886486 -0.14947127 -0.08302787 -0.061767794 -0.04459217 0.21940544 -0.10258044 -0.112211965
一下 0.16903503 0.0336836 0.043193407 0.0061142053 -0.51220226 -0.09939954 0.0055396757 -0.30676565 0.14215071 0.12053782 -0.123761915 -0.27217492 -0.21688512 -0.33763176 -0.0087783635 -0.49434003 -0.25335914 0.59103245 -0.02485346 -0.197919 0.0074655423 -0.4186888 -0.023824153 -0.34057173 0.2254784 -0.063960835 -0.20679286 -0.055420402 -0.103772245 0.118820645 0.34129277 0.35971588 -0.24228434 0.19936936 0.21262816 -0.007236901 -0.1899752 -0.39699933 -0.47676614 0.4101644 -0.008975612 0.28943983 -0.28976876 0.15583512 0.48866796 0.06806246 -0.20006084 -0.18858647 0.0615021 -0.15350465 0.1812144 -0.12477158 -0.1971915 -0.19677873 0.119214304 0.19208801 0.14128768 0.0731132 0.029750576 0.48011318 -0.46631145 0.14686713 -0.04711568 -0.36127466
万 0.5665844 0.14631021 -0.52126384 -0.51511574 -0.48410603 -0.2786524 0.404957 0.19565058 0.045017425 -0.42137766 -0.3350799 -0.19741476 0.3463015 -0.0135221435 0.22792204 -0.2587958 0.28854626 -0.14918336 -0.22778173 -0.12786813 0.14370465 -0.18631487 0.26889572 0.2557355 -0.09998813 -0.14375436 0.3453841 -0.43068177 0.08655663 0.13383694 -0.008945366 -0.24985139 0.48085427 0.050105672 -0.33565807 0.14373006 -0.014958189 0.2042791 -0.34260052 0.34925655 -0.3932682 0.031897288 0.098419935 0.29204342 -0.00040798844 0.7740712 0.07105379 -0.18758264 -0.029911043 -0.22352271 0.36688238 -0.3106256 0.0962285 -0.19468531 -0.22198738 -0.13378574 -0.10200425 -0.17519681 0.6298556 0.242574 0.10634254 -0.17821592 0.045805667 -0.049421445
喜欢 0.08241994 -0.07943687 -0.5325174 0.26310277 -0.74919516 -0.27087352 0.040948633 -0.10809611 0.19866298 -0.15036555 -0.033976674 0.23714495 -0.057635322 -0.10949959 0.017346792 -0.112720214 -0.043893393 0.48701414 -0.38511175 -0.35153148 -0.73829776 0.0023450279 0.021609854 0.19596457 -0.13537252 -0.049243994 0.08029482 -0.36671397 0.2527186 -0.050124392 -0.14238484 0.03512445 -0.48288622 0.1897573 0.09971941 0.6374112 0.15616615 -0.086820506 -0.20216455 0.2121512 -0.059617262 0.13040179 0.21338211 0.36969864 -0.20043251 0.1016957 -0.3337659 -0.18122491 -0.31602573 -0.16420262 0.21995679 0.5631463 0.106277645 -0.0644401 -0.15753399 -0.060411178 -0.28585353 -0.46041134 -0.5334806 0.13705152 0.16987231 -0.31896508 -0.31062368 0.05975006
更 -0.20527625 -0.10721621 0.021197012 0.28230518 -0.023431454 -0.093644686 -0.1385278 0.052296985 0.2870157 -0.37830758 -0.07129901 0.074633114 -0.046932407 -0.060697928 -0.20023476 -0.19060768 0.123278014 0.697812 -0.28901464 -0.13300234 -0.05986798 -0.21417502 -0.2271329 0.08485549 0.098382786 0.19278221 0.2930628 -0.5496722 -0.30812767 0.19488655 -0.17547299 0.11644277 -0.1733292 0.12173243 -0.07011287 0.38616973 0.13236243 -0.31348968 -0.09785519 0.16198623 -0.12530261 0.13044244 0.008625995 0.11825338 -0.2503652 0.070586376 -0.192738 -0.39960673 0.19091766 -0.2640277 -0.3307451 0.2299869 -0.14865676 -0.1639721 -0.18664372 -0.05327611 -0.051658195 -0.14234443 -0.4707083 0.12507729 0.2821017 -0.23261909 -0.3259851 0.028604442
低 -0.10640334 -0.33014482 -0.060903244 -0.21219948 -0.27834085 0.008778304 0.08482591 0.44241822 0.42036998 -0.10784916 0.1690317 -0.21233772 0.4896921 -0.17643468 0.2523219 -0.2529244 -0.21152136 -0.08190767 -0.14919244 -0.13342384 -0.089386 -0.5262886 0.16237487 8.0677055e-06 -0.11154705 -0.018138494 -0.020117007 -0.4525868 -0.17514026 -0.19484968 -0.9399476 0.409655 -0.104566194 0.38429755 -0.12259863 0.12096633 0.34557724 0.322924 0.020661008 0.43509725 -0.2579487 0.16065253 0.09952057 -0.060299482 -0.18992892 0.262596 0.025310218 -0.1787043 -0.14682434 0.2773002 0.068463616 0.33108544 -0.16848114 -0.44997406 -0.5131606 -0.2515585 -0.19703725 -0.15575409 0.03302153 -0.18566881 0.49914902 0.21607551 -0.18831989 -0.0038735867
性能 0.20691045 0.1365656 0.27949283 -0.17958474 -0.39659813 0.36018082 0.023317812 -0.00457415 0.54960364 0.07374632 -0.39666796 -0.054659143 -0.2262054 0.3132294 -0.6506715 -0.3482309 -0.13909908 0.13790502 -0.35907707 -0.61844623 0.048697785 -0.25574332 0.20884499 -0.1729787 -0.08409301 0.022849783 0.16565974 -0.5127655 -0.39258173 -0.09795953 -0.27414674 0.2202048 0.1407637 0.11245165 -0.27228808 0.42134702 0.037804127 -0.13133107 -0.1908549 0.60260534 0.0814364 -0.21850517 0.09611354 -0.31352228 0.015715528 0.061325796 -0.06906112 -0.35867304 -0.09967454 -0.2885509 0.007113729 0.12092184 0.07889288 -0.15673462 -0.2960597 -0.27955928 0.1467759 -0.012318062 -0.325622 -0.4357581 0.5289842 -0.027793571 9.150586e-06 0.16499487
一点 -0.21833439 -0.08125612 -0.17078596 -0.058537755 -0.0945938 -0.043877553 0.008978339 -0.14777105 0.08685004 -0.17195934 -0.16788282 -0.12357259 -0.10794611 0.16185763 0.081031926 -0.32622898 0.08893024 0.21285173 -0.18462268 0.0015342851 0.02195232 -0.42751455 -0.061602343 0.21169366 -0.21137922 0.19467469 0.14702687 -0.31896195 -0.27654237 -0.033916008 -0.2890866 0.17786272 -0.04596945 0.0029399623 -0.26228803 -0.17207874 0.07169766 0.047252864 -0.3078981 0.25519174 -0.20202398 0.29378816 0.2460579 -0.016616175 -0.37053946 0.2002503 0.06771606 -0.3078972 -0.06475411 -0.27906683 0.1846181 -0.022535017 -0.30345413 -0.2847845 -0.20397045 0.14348084 -0.31153932 -0.25387132 -0.18032202 -0.25273556 -0.3302149 0.20221992 -0.029328689 0.1277477
左右 -0.17740855 0.13170493 -0.1519875 0.05516995 -0.12698509 0.24439919 0.34413862 -0.1720903 0.15707858 -0.13161872 -0.25727007 -0.0654273 0.12446119 -0.30755708 0.054935034 0.05793568 0.50972265 0.6154874 0.02634327 -0.15159033 0.1388655 -0.96439606 0.010774599 0.36904147 -0.09744363 -0.31326416 0.13080452 0.17336294 -0.05025016 -0.13908383 0.10564425 0.20195188 0.12868452 0.22123246 -0.18228246 -0.0838917 -0.43391955 0.023809435 -0.14559415 0.52732265 -0.36776596 0.2855477 0.17744775 0.17418158 -0.05196356 0.46908993 -0.041828513 -0.12403605 0.5140535 0.31370017 -0.20193607 -0.048453305 0.018571567 -0.16563003 -0.03855825 -0.31780162 0.054602064 0.09307542 0.41376767 -0.026997574 0.34362698 0.19549997 -0.34924054 -0.16487263
油 -0.11035336 -0.17264843 -0.13376507 -0.26023296 -0.15865153 0.13952003 -0.21742682 -0.104537226 0.24185516 0.12309982 -0.3158427 -0.42841223 -0.13970296 -0.91981345 0.5620257 -0.56499726 -0.057523835 0.25795186 0.24698149 -0.09673819 0.6676428 -0.063824944 0.0057546506 -0.0051741074 -0.14017208 -0.09152823 0.14940123 -0.37517837 0.14746721 0.17017812 -0.031486303 0.058845587 -0.31352657 0.014649014 -0.5468213 -0.23332652 -0.15640453 0.34197596 -0.21851423 0.48328298 -0.113875 0.5046841 0.4674943 0.0444859 -0.006779846 0.6559917 -0.15986983 -0.14010738 0.020226391 -0.09398629 -0.0015539689 -0.25509277 0.044493534 -0.38872728 0.08161619 0.005319324 -0.2584091 -0.29049337 0.48400998 0.27424803 0.19718595 0.067844965 -0.3666358 -0.21505457
肯定 0.121382736 0.13461363 -0.30165985 -0.3110441 -0.47597504 -0.04888734 0.047430918 0.27025995 0.517152 0.3246571 0.07270034 -0.2994368 -0.0014261433 -0.008099059 0.16215505 -0.33723867 0.027951177 -0.2480489 -0.29898378 -0.2121839 0.063421726 -0.31452549 0.26453513 -0.039610736 -0.04437346 -0.032496832 -0.11429369 -0.33755222 -0.04279651 0.009122745 -0.18057562 0.33624408 -0.16630097 -0.12667651 -0.33194724 0.40966505 0.032675195 -0.11892198 -0.12445425 0.29489067 -0.40839955 0.3298551 0.10775617 0.045784913 -0.27138597 0.019150706 -0.09177334 -0.13080893 0.30363688 -0.25958622 -0.12606893 -0.0011525237 0.13431843 -0.35209677 -0.21269076 -0.09126319 -0.029471923 -0.18701233 0.124356195 0.114869066 0.21896292 -0.06048213 -0.5039976 0.08523935
年 -0.15077189 -0.01947373 -0.72901905 -0.40299723 -0.2863801 0.08781358 0.19181982 0.22549118 -0.18773365 -0.32116497 -0.33475032 -0.1980711 0.22555831 -0.41780108 -0.07281885 -0.12501325 0.1732632 0.059441086 -0.0070513496 -0.29998937 -0.03801535 -0.37187618 -0.16564061 0.34420282 -0.30034387 0.024319535 0.49906918 -0.3105809 0.12790293 -0.47922298 0.09582006 -0.10218544 0.030220982 -0.064168885 0.047416337 -0.07634461 0.069797695 -0.18560553 -0.034722764 0.12999281 -0.17339517 0.21550322 0.27372202 0.32321846 -0.077762984 0.52685297 0.18026347 -0.07086008 0.13444503 -0.20498446 0.32317463 -0.4164009 -0.31210172 -0.25579852 -0.19403033 0.18422548 -0.022770358 0.061956488 -0.14424486 -0.15111382 0.3205616 0.43699256 0.018309183 -0.5600186
正常 -0.40029278 0.32868394 -0.34074524 0.15461294 0.32253593 0.2933291 0.20113568 -0.18063602 -0.029107278 -0.26518902 -0.14395314 -0.6195009 0.30495396 -0.42405456 0.33012187 -0.35512754 0.2559756 0.35598338 0.04065481 -0.33931905 0.10951028 -0.20729418 0.011584056 0.059781514 0.31338075 -0.31902966 0.44135177 -0.1744974 -0.015513601 -0.11254609 -0.18263108 0.14409022 0.002394404 0.08625308 0.09950189 -0.21278706 0.08402608 0.16560355 -0.23704055 0.3489856 -0.13135815 0.18507648 0.101397306 0.17275323 0.17217393 0.19468045 -0.00815985 -0.15109633 0.18020305 0.18841876 -0.18110655 -0.31335127 -0.40805653 -0.12738055 -0.19290105 -0.31923193 0.0002618656 -0.22871614 -0.37144098 0.03565075 0.1994312 0.06681288 -0.20758572 -0.2898565
加速 -0.51977265 0.10615175 -0.36417055 0.21693474 -0.2936867 0.018825758 -0.1526582 -0.20125903 0.20345834 -0.04982174 -0.28761673 -0.8509868 -0.09891328 -0.4318607 -0.24884818 -0.18316123 0.2992861 0.51605386 -0.20547992 -0.41315597 -0.15603611 -0.04752596 0.10838426 -0.6117321 -0.037834976 0.37437618 -0.050263654 -0.22258589 0.06521211 -0.044795424 -0.26364386 0.44807646 -0.12846404 0.17832457 -0.54551136 0.40005216 -0.0027802866 0.37849912 -0.10912717 0.47738078 -0.001579188 -0.030764079 0.43547913 0.046345696 -0.030476691 0.18276435 -0.5003359 -0.27550548 0.18294924 0.644014 0.28678083 0.31971022 0.25565135 -0.3644988 0.14839661 -0.3125016 -0.16683988 0.15143526 -0.18073075 0.064278595 0.24220781 0.43177792 -0.21056321 0.169289
有点 0.09302577 0.26677784 -0.36050838 0.034952853 -0.34760562 0.13908944 0.05896642 -0.38481936 0.24587883 0.011106304 0.19405428 -0.43956548 0.1891572 -0.18456595 0.10841825 0.20273289 0.21231627 -0.117927216 0.01702862 -0.07787984 -0.45904747 0.07511037 -0.094029985 0.24213569 0.16739482 0.31561118 -0.012113147 -0.1512677 0.07332153 0.24721889 -0.3386899 -0.1956374 0.050759003 0.0072115813 -0.43309006 -0.15119529 0.014211387 -0.0246553 -0.5649293 0.35361862 0.04165539 0.17621568 0.09450704 0.33979675 -0.37073058 0.33349338 0.04665946 -0.06586584 -0.026216311 0.02221624 0.50546324 0.31587264 -0.67174256 -0.42302558 0.020138275 -0.40672013 0.35825157 -0.03257414 -0.5326322 -0.050070863 -0.34872434 0.29284307 0.0466999 -0.19232072
声音 -0.068274 0.48697883 -0.70308036 0.76572824 0.06812594 0.41618615 0.29420277 -0.43379593 -0.002612544 -0.062436372 -0.5089571 -0.37896177 -0.3747043 -0.23372705 0.38995346 -0.017669206 -0.029417474 0.31392905 0.10112769 -0.31752577 -0.047896907 -0.39145562 0.43066478 -0.036599584 0.4393253 -0.16771051 0.58405566 -0.10932001 -0.115150034 0.5146358 -0.12537666 0.10622027 -0.035923287 -0.33404008 -0.6230619 -0.6915148 -0.54423887 0.4133624 -0.19201797 0.0025139884 -0.18426883 0.16814329 0.41912073 0.22608289 0.07812726 0.5510372 0.2371213 -0.04801796 -0.61609834 0.21108541 -0.63894105 0.015143249 -0.5001026 -0.42963016 0.03431769 -0.3791933 -0.25298548 -0.14571226 -0.5437127 0.042031422 0.051772237 0.31099316 -0.17802055 -0.019526556
建议 0.573053 0.36014086 -0.0735253 -0.11581103 -0.05362724 -0.4013012 -0.22168045 0.04953076 -0.100755595 0.12187559 -0.10320871 -0.25680298 -0.16819872 -0.47274682 0.15251946 -0.41982508 0.031243209 0.61059105 -0.27805853 -0.45615068 -0.05486139 -0.3414147 0.17160097 -0.18297736 0.0003379724 0.16851404 -0.0881913 -0.4679679 -0.1535372 -0.07312157 -0.062280737 0.23008633 -0.18534173 0.14519435 -0.09502686 -0.31440264 0.033399906 0.013722316 -0.23732813 0.07556688 0.1945444 0.032186784 0.08815813 -0.06534976 0.17526038 0.16453259 0.25072616 -0.23491839 -0.094257236 -0.2926553 0.28026047 -0.17309909 -0.025501339 0.0027052842 0.059122946 -0.1200104 0.16659036 -0.10754178 -0.20896749 -0.11597488 0.020346485 0.2420042 -0.21144544 -0.021742502
噪音 0.20560414 -0.21539278 -0.21918704 0.10316463 -0.42878172 0.7573314 0.16474493 -0.17977193 0.11853296 0.095323615 -0.49410823 -0.28861737 -0.14723198 -0.1443109 0.23778598 -0.03141911 -0.1232707 0.4501549 0.07292422 -0.44989413 0.10265438 -0.19828814 0.025454432 0.013037448 -0.24552065 -0.03881166 0.32347846 0.036272213 -0.057001967 0.064327784 -0.3705984 0.27456704 0.34873295 0.14063972 -0.2748017 -0.13159622 -0.09884149 0.13901065 -0.29932967 0.4706087 -0.29977676 -0.2706584 0.076485075 0.47349355 0.14527886 0.17216957 0.61604697 -0.04039198 -0.28033954 -0.14356609 0.11264078 0.53683496 -0.50588036 -0.28094634 -0.21865037 -0.02241949 0.09237506 0.2519188 -0.34602395 -0.1303766 0.031657428 0.40574506 0.050104845 0.103662826
差 0.1771935 0.09331804 -0.37145588 -0.3004672 -0.5608214 -0.20799239 0.137792 0.022379471 -0.08033377 -0.090759754 -0.28470045 -0.012883706 0.2548709 0.11489589 0.25330773 0.19081764 0.10945081 0.10530853 -0.1830921 0.07548221 -0.115643926 0.18211149 -0.25658876 -0.019247113 -0.4670296 0.3155774 0.39546624 -0.09777009 0.009393804 -0.49255854 -0.31063768 -0.092868805 0.35980362 -0.021725731 -0.13907008 -0.0058335667 0.35517618 -0.033499707 -0.3327564 0.72342753 -0.13426773 -0.21440504 -0.5186397 0.32222694 -0.07615786 0.23122977 -0.0953802 -0.37068838 -0.3084803 -0.33628863 0.6540121 0.16164227 -0.30623192 -0.48925605 -0.05182159 -0.22990005 -0.49560127 -0.3960377 -0.18599069 -0.34229738 0.12803516 0.8460994 -0.1852599 -0.2517021
确实 0.0964464 0.035338376 -0.1585413 0.034750048 -0.13576443 -0.14881104 0.12557134 -0.2757311 0.024857318 -0.2660463 -0.38510168 0.17817931 -0.011371167 -0.13545057 0.21797682 -0.07803825 0.059523623 0.28294656 -0.18130583 -0.20554723 -0.35970598 -0.14661972 -0.06251419 0.10803488 -0.049553156 0.01679947 0.10482818 -0.3330951 -0.16336559 -0.14095117 -0.2913216 0.20116442 0.09011894 0.3286601 -0.12395893 0.21168587 -0.11436262 0.23232715 -0.21049814 0.32917598 -0.4220135 -0.17724276 0.25488907 0.120715424 0.2497755 -0.1636637 -0.10072451 -0.26886138 -0.12192865 -0.055307966 0.19607401 0.2793653 -0.23589656 -0.027830662 -0.26912168 -0.21960108 0.15350038 -0.0788359 -0.45748445 -0.107157834 -0.0393891 0.47051093 -0.21401732 -0.28241605
森 0.05225183 -0.18494415 -0.2114428 0.23171896 0.044723295 -0.5383371 0.18545337 0.019907134 0.53167 -0.13288471 -0.05725928 0.27150154 0.12818086 -0.037070338 -0.45760453 -0.20260726 0.12457885 0.51371247 -0.2112157 -0.33790374 -0.36876345 0.1068987 -0.05480098 0.26442996 -0.033636495 0.071397066 -0.20375034 -0.49280736 -0.23156689 -0.09777445 -0.13716638 0.14072375 -0.04666268 0.24736631 -0.396286 0.32291225 0.29726133 -0.13897176 -0.36747012 0.4535698 -0.03837839 -0.23458154 0.07987145 0.5327256 0.13199508 -0.22164126 0.18660034 -0.22832279 -0.101227336 -0.047590517 0.44664818 0.24198376 -0.110061 -0.3264876 0.23828453 -0.52659047 -0.1529723 -0.60251415 -0.6555708 0.004322323 -0.22525243 0.090523675 -0.32889676 -0.19167723
想 0.11557614 0.3182918 -0.46908233 0.23408967 -0.560605 -0.21564084 -0.58945256 0.044835094 0.18673608 0.26432994 -0.036375534 -0.19942924 0.031799007 0.30291444 -0.039316963 -0.13033128 0.13604884 0.36921787 -0.14212894 -0.38383088 0.07289206 -0.11247035 0.11856772 -0.22950542 -0.2773811 0.24601126 0.09730894 0.0069893408 -0.36398858 -0.18252042 -0.12850142 0.35691845 -0.229452 0.16036823 -0.26699707 0.24339417 -0.23754904 0.05621522 0.02147433 0.5755416 -0.19305095 0.21872719 -0.13947472 0.27892813 -0.06712893 0.3778879 -0.08812984 0.012118692 0.017393565 -0.03191703 0.057786603 -0.10182788 -0.1305749 -0.15304066 -0.09734591 0.24860732 -0.055105973 -0.17041549 0.062992595 0.13272095 -0.24536729 -0.22038403 0.07135252 -0.2377208
楼主 0.31747472 0.4487281 -0.1753432 -0.013854351 -0.35139358 0.17899998 -0.21456514 -0.013589701 -0.08650573 0.33533064 -0.21285632 -0.29658845 -0.039036624 -0.3164715 -0.07526963 -0.4223503 0.36021423 0.38077986 0.08905683 -0.25259134 0.08088413 -0.23154481 0.08965141 -0.116780765 -0.30064183 -0.29787257 -0.08007458 -0.22128649 -0.2127699 0.24173066 0.3356734 0.13494353 -0.117642015 0.31784183 -0.27721888 0.11494763 0.20457505 0.06525184 -0.3741765 0.016971141 -0.10250488 0.056824405 0.024726378 -0.122696765 0.55089843 0.21805775 -0.056347713 0.22721677 0.13180481 -0.22004297 0.32446784 0.2021744 0.18375437 -0.2709576 -0.516784 -0.11864105 0.31810158 -0.22131547 -0.3006702 -0.054036383 -0.1288817 0.12564814 0.12685558 -0.12288424
座椅 0.4287503 0.54433024 -0.038904287 0.30842775 0.06660488 -0.4014275 -0.11401972 0.29098323 -0.0050001703 0.129486 0.12659478 0.14890006 0.28616476 -0.043983683 0.13846314 -0.1125767 0.1036791 -0.02771102 -0.12875877 0.12858151 -0.46655926 0.09813979 0.13545603 0.45342144 -0.46130344 0.0075160153 0.03868605 -0.00963865 -0.26499987 0.40655825 0.08272291 -0.82458645 0.34328848 0.4715004 0.14669679 -0.026896574 0.32916042 -0.4361736 0.0010261713 0.7808798 0.23766768 0.4767094 -0.168503 0.3397444 -0.052496806 0.5899659 -0.26974648 0.10518537 0.56567085 -0.19660221 0.20989689 0.20144261 -0.42957398 -0.40563595 0.12013211 -0.5230108 -0.6513495 0.31116074 -0.9277531 -0.014877521 0.01342198 0.37380064 -0.23938823 0.021129254
太 0.030842857 0.2390969 -0.4925598 0.14553669 -0.5939259 -0.19706686 0.15138996 -0.0417086 0.3210733 -0.06945158 -0.101249486 -0.026715783 0.10605177 -0.07365614 0.46399602 0.23828702 0.13621667 0.37428755 -0.12589061 -0.08875886 -0.1480124 0.016447753 -0.19932741 -0.29080752 -0.08794738 0.25537685 -0.16574408 -0.09036067 0.14892039 -0.22403477 -0.42067474 0.061142303 0.049633432 0.53030807 -0.18509208 0.27422217 -0.12349776 0.16226126 -0.27041766 0.46962222 -0.31359714 -0.0772734 -0.082236946 0.054469187 0.1684071 -0.07729946 0.17198554 -0.339878 -0.3316995 0.12146931 0.5344042 0.23630787 -0.27545637 -0.21489504 0.037832223 -0.12372373 -0.20561253 -0.14459312 -0.77368164 -0.059014358 0.030160889 0.3820009 0.07144995 0.007976713
全时 -0.06684792 0.039643664 0.1477947 -0.21101724 -0.4202355 -0.11407176 0.79953307 0.1920088 0.48542687 -0.15927662 0.27710766 0.079468556 -0.16666652 0.17363708 -0.08884437 0.115511045 -0.08418848 0.14127967 -0.14484477 -0.03713035 0.063228115 -0.7200773 0.03452066 0.27209207 -0.69803023 0.44290325 0.10523262 -0.4780807 0.005236917 0.057955377 -0.646542 0.19341817 0.051209237 0.4128552 0.024809232 0.2533247 0.60100895 -0.25501794 -0.09182302 0.4720494 -0.55597126 0.32626644 -0.034494966 -0.100172065 -0.2486366 -0.13487536 0.23706731 -0.3501369 -0.23729472 0.038328953 0.21489377 -0.08052946 -0.038070608 -0.79923785 -0.29072356 -0.16313186 -0.37422878 -0.49585772 -0.2565661 0.26808932 0.72159064 -0.26071873 -0.0063894214 0.18959194
市区 0.15429525 0.17097948 -0.55703473 0.06472788 -0.094576746 0.22096825 -0.12860374 -0.08462853 0.15952767 0.013370739 -0.13643827 0.10322904 -0.1894945 -0.04018012 -0.14058118 -0.3469335 0.16920589 0.8439477 -0.0196232 0.25432426 -0.43892968 -0.59447455 -0.20798588 0.18743299 -0.012347597 -0.14786781 -0.058439866 0.12431625 0.31960824 -0.011878999 -0.33996683 0.23461078 -0.022737265 0.32439628 -0.5611175 -0.016233088 -0.2107237 0.030794347 -0.3616313 0.62558186 -0.18150164 0.19513941 0.2536074 0.49960774 0.06671089 0.20226113 -0.2332857 -0.31553596 0.80780554 0.51652324 0.4709641 0.3320447 0.08403026 -0.22298674 -0.12643082 0.00032064194 0.039221916 -0.5769373 0.31547263 -0.1420403 0.09062613 0.6571588 -0.7878196 -0.25874925
加 0.10197732 -0.115056306 -0.00035678642 0.14386934 -0.46309397 -0.08620669 -0.44412065 -0.17077087 0.08452914 -0.08216501 -0.62022334 -0.010741926 0.23288466 -0.27970907 0.5494192 -0.56153244 0.24899496 0.35251912 -0.4744372 0.082601875 0.4228429 -0.10222707 0.040469885 0.2128635 0.3163502 -0.13801377 0.41712773 -0.14181657 -0.48774242 0.18307163 0.072679326 0.073952004 -0.19404766 -0.1774874 -0.32929543 -0.014756222 -0.07394242 0.32693592 -0.034882393 0.48673868 -0.18506525 0.50023484 0.39487612 0.31727928 -0.11790963 0.2691707 0.016096666 0.050145138 -0.18420751 0.09050009 -0.05683757 -0.17907721 0.25433543 -0.15443888 0.25503942 0.08656333 0.038843438 -0.059425727 0.33658722 0.15803503 -0.40195656 0.77534246 -0.18822554 -0.21492155
越野 0.43638402 0.07076817 0.28241196 0.16782442 -0.4888531 0.5278811 0.03692855 -0.13224535 0.016379988 0.3470541 0.3729341 0.9598754 -0.39757642 -0.04530949 -0.09807477 -0.03167188 -0.038340572 0.44238457 -0.7211025 0.06909661 -0.49037108 -0.679944 0.14860621 0.05400306 -0.26341632 -0.027477715 -0.28275073 -0.78510255 0.0020079073 -0.035674434 -0.1930168 0.74097246 0.005818915 0.81624085 -0.5508845 0.5357276 -0.07913992 -0.23178847 0.0747806 0.45408207 0.15863419 -0.01172685 0.01887098 0.004829275 0.081730664 0.036224615 -0.064191066 -0.46194896 0.50702035 -0.21861543 0.47935006 0.21634208 -0.5494716 -0.35349357 -0.120393775 -0.7097029 -0.2438637 -0.67613065 0.1482072 0.064798124 0.1404607 -0.43995652 -0.10360258 0.35156998
方向盘 -0.04246274 0.22975366 -0.0063603884 0.32997563 0.24795294 0.042123366 0.32140574 -0.3510212 -0.49628928 0.16321525 0.06256558 -0.13273649 -0.0285133 -0.42663252 0.2787359 -0.29253262 0.20858881 0.2709285 -0.6171919 -0.018749774 0.030820232 -0.07649966 -0.029367324 -0.19552533 -0.120710686 0.23025869 -0.13367413 0.16643222 0.29326567 0.40298977 -0.023416549 -0.35272926 0.14827394 -0.003126399 -0.12424146 0.56894606 0.3074951 -0.5627947 0.23175634 0.49531633 0.012203464 0.31568757 -0.006540473 0.52162725 0.48398435 0.26338986 -0.33203688 -0.110883035 0.40021664 -0.3323401 -0.050995898 -0.22394685 -0.16551253 -0.898022 -0.07402934 -0.41307762 -0.16054134 0.0033052731 -0.48598653 0.008318436 -0.64187914 0.4523707 0.3220038 -0.13826033
点 0.31631422 0.08717816 -0.0084970435 0.52351034 -0.33831638 0.010998849 -0.13881244 -0.044829715 0.50979805 -0.006140963 0.24038602 0.1529977 -0.29197186 -0.055442158 -0.1647974 -0.164832 0.3699365 0.08238363 0.10229758 -0.47873092 -0.256631 -0.15432136 -0.058194213 0.31678796 -0.032097388 -0.2592197 0.05286116 -0.26634982 -0.10926722 0.14078695 -0.18071564 -0.21224104 -0.36433396 0.16404603 -0.26192543 0.49446118 0.00405713 0.085872754 -0.3586469 0.22947212 -0.40444803 0.49915862 0.15187545 0.40493017 -0.0991997 0.14156196 0.0069475514 0.16600035 -0.16961333 0.08907219 0.09970739 0.15806285 -0.47894135 -0.045628794 0.15604885 -0.06250639 -0.009931981 -0.2391505 -0.3510515 0.31601313 0.41212758 -0.10931021 -0.21433973 0.14343847
看看 -0.19573206 0.20545249 -0.023795016 0.17610505 -0.47559413 0.0126488395 0.028593676 -0.31128803 -0.12932213 0.12111393 -0.3452915 -0.30578217 -0.03778051 -0.19720891 0.24659738 -0.5645385 -0.2497161 0.1378126 0.17087515 -0.1168332 -0.11352187 -0.17349069 0.3126985 -0.14164098 -0.14928645 -0.086336866 0.46137556 -0.7990366 -0.21763264 -0.28093973 -0.030532997 -0.1516635 0.023651857 0.21600021 0.15785961 -0.19873753 0.19946237 -0.41859442 -0.069666624 0.1887046 -0.1379077 0.31589222 -0.018050393 0.15486605 0.26724464 0.017308168 -0.20529431 -0.1681596 -0.3498183 0.2539139 0.15330125 -0.26376218 -0.044192616 0.01851446 -0.044583507 -0.21958311 0.047998317 -0.19265859 -0.3081991 0.43887883 -0.34443742 0.04337455 0.010596222 -0.19275689
主要 -0.15328921 0.31407395 -0.11886944 -0.2372906 -0.4625315 -0.12597753 0.17276706 -0.008305432 0.34930575 -0.13672015 -0.08839981 0.08313015 -0.043326173 0.029675804 0.29755485 -0.26104712 0.06778018 0.23804605 -0.3701914 -0.38731208 -0.24068175 -0.56363136 -0.22402994 0.17014422 -0.1926802 -0.13803321 0.006408936 -0.14497615 -0.15623139 0.11949065 -0.00029140856 0.2950357 0.28811204 -0.12852617 -0.060991578 0.021906039 0.06275103 -0.3887365 -0.17468804 0.2920496 0.20438132 -0.26958606 -0.01391391 0.31704995 -0.072154 -0.114136994 0.38739774 0.041270323 -0.048122443 -0.36302295 0.17170708 -0.09426657 -0.1971714 -0.18940389 -0.18327327 -0.3100603 -0.2147587 -0.1784852 -0.32266638 0.24043138 -0.06341318 0.28921545 -0.22223814 -0.078536615
考虑 0.25831014 0.2755179 -0.33402774 -0.26436597 -0.32681498 0.04799954 -0.32277545 -0.037483234 0.32868662 0.17042536 -0.10146134 0.19438787 -0.06438187 -0.11362783 -0.3131861 -0.32364678 -0.19743627 -0.0060131424 -0.16436094 -0.120378025 0.003144686 -0.31490704 0.18760556 -0.2912128 -0.36804473 0.14551 0.3021304 -0.31141382 -0.2473624 -0.18423662 0.051462952 -0.02260896 0.12658611 0.3786543 0.0787712 -0.063361734 0.108534165 -0.1031753 -0.38286123 0.15221374 -0.2850563 0.15995102 -0.1445845 0.17571376 0.12278509 0.12960488 -0.3458561 -0.12442813 0.18387015 -0.46278766 0.45719773 0.00020908397 -0.35571578 -0.085278444 0.16488989 -0.30203426 0.068689235 -0.3247258 -0.43625516 -0.06251723 0.50689405 -0.00519767 -0.3852589 0.197769
做 0.0932059 0.37866905 -0.028576707 0.2407342 -0.49601734 0.48496872 0.1256615 -0.3533952 0.19974089 0.12676343 -0.032443587 -0.077609725 0.010685579 -0.26687977 0.17736278 -0.54333156 0.23146954 -0.04919056 0.32478657 -0.46373668 0.04153905 -0.23698466 0.17006707 0.14834659 0.022357222 0.022400219 0.33079454 -0.25525016 -0.09169352 -0.113630764 0.0245111 -0.16059388 0.14376076 -0.07408173 -0.12860473 -0.10362403 -0.62851447 -0.17294809 -0.5777646 0.4267347 -0.53287786 0.16076444 0.11506679 -0.10656783 -0.02248476 -0.0015209226 -0.096108116 -0.08799837 0.06175351 -0.053121988 -0.050122816 -0.25349692 -0.013553219 -0.34855276 0.25672072 -0.03108532 0.045185264 -0.0620746 -0.046260074 0.45981854 0.07640907 0.19386104 -0.07286964 -0.26991865
新款 0.12830026 0.21925475 -0.19647808 -0.52926666 -0.99214745 -0.33515206 0.56983536 0.26402998 0.28957367 0.1014019 0.26618537 -0.18560722 0.3198474 -0.23553112 0.32703725 -0.12000973 -0.35017148 0.5399573 -0.18416296 -0.37301302 -0.81313646 -0.33530906 0.12140682 -0.07349764 0.46141157 -0.17225079 -0.22685768 -0.5612985 -0.77452385 -0.006014176 0.08727351 0.20818597 -0.5132742 0.62073773 0.3504701 0.091271944 -0.28255785 -0.42813668 -0.3379987 0.4808058 -0.09350176 0.14507146 0.0069466294 0.11567971 -0.61372674 0.031705458 -0.017356772 -0.14258079 0.041415013 -0.67135036 0.05869017 -0.4640452 0.12538664 0.33056387 0.05104194 0.024120543 0.10499834 -0.113323376 0.081017934 -0.28001305 -0.1323338 -0.0813301 -0.17834939 0.0061481814
时 -0.3071477 0.43123215 -0.49604204 -0.03349328 0.43527213 -0.010185334 -0.14251764 0.1398368 -0.4573777 0.072677605 -0.47263297 -0.54454964 0.03328629 -0.34596065 0.30662423 -0.11810162 0.40993133 -0.07832864 -0.032827854 -0.2719188 0.36580974 -0.5087408 -0.052814778 -0.17539178 -0.15688325 -0.2243697 0.37570655 -0.20156743 0.26061112 0.12416638 -0.2812585 0.120756894 -0.023631636 -0.05861548 -0.26208034 -0.12273109 -0.28767708 0.14213614 -0.44572148 0.19703159 -0.08783866 0.37796527 0.23771584 0.39140671 0.1464178 -0.10415265 -0.09844388 -0.30402175 -0.095408835 -0.51265234 0.10681126 -0.036957394 -0.49837345 -0.29818237 -0.16353628 -0.105780214 -0.11717326 -0.04270939 -0.24303812 -0.2664899 -0.07933057 0.17990495 -0.050552532 -0.2575531
水平 0.06850896 0.25459033 0.024646927 -0.21340722 -0.43555757 0.08364656 0.17426743 -0.069323055 0.3775693 -0.31692186 0.31381968 0.19602077 -0.107373536 -0.2425261 -0.11736103 -0.19171445 0.18489107 0.17141315 -0.1067528 0.113240086 0.11745477 -0.7541262 0.087826736 0.34627014 -0.70060843 0.3461646 0.31228682 -0.3772498 -0.18147542 0.4079615 -0.9460029 0.26384658 0.28750193 0.102097906 0.1958195 0.021850966 0.51501215 0.1724179 0.1644475 0.5398811 -0.28545436 0.52585644 0.47975984 -0.042713366 -0.045576237 -0.23859203 0.20251094 -0.37748206 -0.3173132 0.2890997 0.14695053 0.0982309 0.07181152 -0.5698789 -0.5147445 -0.24768046 -0.3465372 -0.21963346 -0.46496752 0.259907 0.54048246 -0.32047528 0.2374342 0.12905824
万公里 -0.19008118 0.16754891 -0.6247178 -0.058179412 -0.12886953 0.44285828 0.25992364 0.604136 0.012553529 -0.26943627 -0.40876198 -0.102363534 0.14377938 -0.78453624 0.04606745 -0.60159975 0.18482485 0.0049294443 0.21923012 -0.09509965 0.40142396 -0.09299695 0.038468312 0.25160974 -0.05161667 -0.08654557 0.64969164 -0.23617698 0.31286335 -0.15076952 0.15252584 -0.03899298 0.36051363 0.3437846 -0.439687 -0.158288 -0.24566354 -0.29579473 -0.23703194 0.2647164 -0.2803127 0.18991815 0.47732073 0.36558512 -0.016335232 0.66900396 -0.1727014 -0.090028964 0.21227254 -0.04353143 0.19686973 -0.090938754 -0.009923306 -0.081797555 -0.21583557 -0.05446845 -0.1074085 0.4887023 0.031920142 0.029685227 0.29434225 0.14411081 -0.43891346 -0.35104093
后排 0.014929693 0.35017833 0.14039226 0.38198146 0.21801236 -0.4692155 0.13770355 -0.22425628 0.012760948 0.33977196 0.38319036 0.012181412 -0.26171336 0.34193233 -0.3015697 0.30940077 -0.07464742 0.777604 -0.28268224 -0.077892445 -0.6004663 0.19934882 0.21484485 0.42320555 -0.20077683 -0.4219322 -0.089029826 -0.6326659 -0.7354637 0.30527723 0.13863827 0.0030160274 -0.055662103 0.51058096 -0.08395417 0.23734134 0.26208788 -0.68876797 -0.7333679 0.78572243 -0.3345016 0.23806775 0.10771831 0.40757492 0.080371894 0.34382564 -0.36235404 0.13885905 0.35478395 -0.53875965 0.074834086 0.24140361 0.2719192 -0.21190695 0.085231155 0.067860544 -0.27376312 0.12716722 -0.84601045 -0.4142457 -0.38077185 0.32386985 -0.08952724 0.25095072
轮胎 0.013609775 0.1895523 0.070299685 -0.3747329 -0.057820864 0.94941425 -0.09158686 0.22048731 0.06463365 -0.3144244 -0.3645373 0.08751915 -0.62231994 -0.19262803 0.018156677 -0.5944566 0.02276654 0.41708103 0.101939246 -0.59774756 0.2219581 -0.20797203 -0.18570153 -0.1045264 0.10047141 0.22167626 -0.13348213 -0.2553806 -0.12254983 0.53153133 0.30111805 -0.29922563 0.5344546 0.14504755 -0.094730996 0.46993086 -0.2828453 -0.38153416 -0.026671307 0.36249882 -0.040800687 0.10521789 -0.16215836 0.034219842 0.06933921 0.55688775 -0.11833102 -0.08852945 -0.072117954 -0.39367718 -0.57954705 -0.65213865 -0.9335173 -0.3052141 -0.061207686 0.12861158 0.602567 -0.16947745 -0.57085943 0.21260807 -0.18905026 -0.13920301 -0.22845711 -0.001936026
估计 0.2647054 0.13187881 -0.45929638 -0.16242552 -0.60585016 -0.06065999 -0.085365124 0.29819742 0.48089647 0.027201675 -0.20070489 -0.3520796 0.23622073 -0.26882926 0.19984365 -0.098513514 -0.15778606 0.08871355 -0.2532815 -0.21754393 -0.07477295 -0.228865 0.16211183 0.16341427 0.06863489 -0.27981767 -0.18825336 -0.20820646 -0.6834827 -0.06976561 -0.0878312 0.0005555845 -0.17517246 0.1595519 -0.15474904 0.1775709 -0.11674444 0.03539978 0.1223817 0.3037184 -0.5860785 -0.025157025 0.07681326 0.29124454 0.094124295 -0.023539295 -0.24127012 0.02631508 0.21415666 -0.23389953 0.319182 -0.02175715 -0.068055674 -0.11752361 -0.07977228 0.018876895 -0.16765209 0.095555544 0.12683271 0.039418094 0.014719523 0.08511889 0.029390529 -0.26407456
驾驶 -0.27499175 0.45137972 0.1747233 0.3943353 -0.34668535 0.26328707 0.17132868 -0.16214614 0.0905525 0.23251276 0.11863047 -0.120877355 0.20467304 -0.086279474 -0.039009217 -0.55070776 0.5681938 0.7965141 -0.56195104 0.089009084 -0.19480455 -0.3029161 -0.051388886 -0.0032001233 -0.45837373 -0.01624574 -0.27601978 -0.46532336 -0.053578667 0.32850125 -0.123451106 0.2612478 0.09408758 0.23191965 0.20175645 -0.03709975 0.004095466 -0.19789778 -0.0901991 0.15938054 0.16372281 -0.24835445 0.08779227 0.250244 -0.15406436 -0.07056004 0.062843494 -0.7205654 0.6144209 -0.16800824 0.1731568 0.26316646 0.10067192 -0.47386897 -0.18255083 -0.36969614 -0.1292691 -0.2981793 -0.3275804 0.19691946 0.30467454 -0.091024004 -0.054799456 0.11545979
安全 0.27512747 -0.031186255 -0.15689507 0.23387672 -0.43320712 -0.23075674 0.3309836 0.19448572 0.17620194 0.31322145 -0.11750593 -0.35256302 -0.28477183 0.43876892 -0.31722343 0.025335763 0.15341191 0.25885388 -0.29076132 -0.806173 0.44082946 -0.2959242 0.114084594 -0.15674143 -0.15883173 -0.4114803 -0.6132593 -0.481127 -0.4171255 0.35094145 -0.39474937 -0.20308375 -0.34038228 0.069292456 -0.22578077 0.25204074 0.015286239 0.36254027 0.31385174 0.5386484 -0.10665971 0.00183972 -0.06932636 -0.25693366 0.3385017 -0.3524497 0.034447037 -0.27671787 0.29303437 -0.6488072 0.10616557 0.13434778 -0.19185135 -0.54717445 0.050921667 0.22959518 0.2222098 -0.21765877 -0.80028623 -0.07146164 0.26846564 0.1884244 -0.22762886 0.6109695
异响 -0.20647857 -0.27971372 -0.5811081 -0.043778595 -0.24377501 -0.048890214 0.30616403 -0.10406923 -0.39376342 0.13400796 -0.32903022 -0.04316985 0.30922773 -0.4477872 0.04094614 0.31101367 0.08699241 0.45417315 -0.059518132 -0.2727412 -0.12958306 -0.11011577 -0.047882292 -0.036062453 -0.048588805 0.014811474 0.8097119 -0.40948018 0.20236352 0.14994279 -0.30069432 -0.3058299 0.3587176 0.15855895 0.106341325 -0.20633696 -0.35331756 -0.23598382 -0.2793395 -0.082467265 0.17333157 0.3405864 0.21708702 0.23700957 0.044027098 0.28792793 -0.25227976 0.06847178 -0.389521 -0.72481793 -0.049745783 0.24915029 -0.58749884 -0.32679337 0.22465333 -0.2469383 -0.41581935 0.1211274 -0.4657247 0.20868078 -0.008363689 0.51439935 0.3118688 -0.40506414
便宜 0.6293981 0.45585313 -0.10374391 -0.32608178 -0.515588 -0.12715061 -0.21555018 -0.033918545 0.27322426 0.019592775 -0.54247767 0.05782246 -0.15359475 -0.23786801 -0.48015958 -0.413457 -0.06584406 -0.18111482 -0.31036565 -0.3888874 -0.23014969 -0.68613786 0.3483184 0.41532597 -0.25823796 -0.00032610455 0.1843808 -0.097896054 -0.3985278 -0.24470593 -0.12346016 -0.2990217 0.08452928 -0.010652156 -0.062174343 -0.0077551906 0.12180501 0.022779178 -0.30216882 0.22405389 -0.14969319 0.09408989 -0.36525902 0.2061691 -0.30627134 0.13677277 0.21193053 -0.16890286 -0.16093992 -0.31544363 0.35034275 0.026439924 -0.3377059 -0.5510187 -0.17134298 -0.18491451 0.31575134 -0.20897076 0.14990546 0.33648083 0.19125418 -0.40100938 -0.08813637 0.13458146
贵 0.56578356 0.3294712 -0.41498673 -0.5419297 -0.59298277 -0.1799834 -0.1378555 0.12069582 0.07527505 0.111197054 -0.083443835 0.037879914 0.46799785 -0.25497952 -0.04974404 -0.5162963 -0.2625227 -0.38986692 -0.06304904 -0.113937184 -0.08616967 -0.35760605 0.48598847 0.29562148 -0.26508585 0.4402792 0.51115763 -0.05102134 -0.43240082 -0.15264107 -0.08028297 -0.22285809 0.26879954 -0.2449958 -0.20039515 -0.029642982 0.13631529 -0.18965578 -0.3005267 0.55297565 -0.21325931 0.17754775 -0.324585 -0.17793278 -0.36253342 0.16532964 -0.13538086 0.06967962 -0.37988976 -0.262055 0.3723921 0.0111024715 -0.59542716 -0.5967628 -0.16425537 -0.41889054 -0.20024396 -0.3367654 0.28347543 -0.02717664 0.44171807 -0.0681567 -0.010704987 -0.014854656
已经 0.039508782 0.09721901 -0.08572881 0.14870402 -0.53517246 0.10983881 0.2722402 0.268378 -0.3477992 -0.25969908 -0.2155452 -0.14092165 0.13318273 -0.201134 0.13144763 -0.050379526 0.08317581 0.34801215 0.043420624 -0.05102062 0.03970462 -0.25763574 -0.1217718 0.35378277 0.083805226 0.00060296786 -0.09832888 -0.12968883 -0.28010637 0.20090626 -0.14042549 -0.04708143 -0.28799117 0.10872523 0.0761987 0.028976286 -0.29935092 0.00492715 -0.2567372 0.28274924 -0.07281172 0.008846834 0.02702173 0.23528974 0.011700903 0.17685787 -0.26266783 0.32994086 -0.1269939 -0.52063173 0.17466831 -0.2158072 -0.2934296 -0.11217789 -0.28091303 -0.28829423 0.17791691 0.4769661 -0.3609745 0.054162387 0.07386954 0.08728268 -0.0925887 -0.08236597
需要 0.10403985 0.33547845 0.03500498 -0.048816305 -0.17155084 -0.1707616 -0.17075694 -0.19699934 -0.040502645 0.28798896 -0.21896413 -0.4321113 0.4473734 -0.109164834 0.18155086 -0.2440354 -0.115993276 0.05261401 -0.104144275 -0.4140307 0.41057944 -0.4938784 -0.1573511 0.046276845 0.0055887047 -0.066008575 0.16862556 -0.49923462 -0.040763874 0.27691546 -0.44183102 -0.0044512567 -0.12972966 0.14626065 -0.38635534 -0.075219385 -0.058536634 -0.08993135 -0.08307505 0.24662206 -0.18567902 0.07440172 0.03714144 -0.5074929 0.3235051 -0.0074089584 0.026880778 -0.26460928 0.40841514 -0.04124072 0.015433827 -0.24998319 -0.22728251 -0.3232219 0.060711235 -0.027526977 -0.12422311 -0.15377182 -0.31689122 0.09126111 -0.0059594517 -0.15292062 0.010978871 -0.12454103
踩 -0.52736914 0.7511601 -0.24302304 0.06368239 0.15536271 0.019898972 0.2645516 -0.14882188 0.27203253 -0.2927787 -0.7805851 -1.2839341 0.21517675 -0.15164508 0.08660155 -0.21980482 0.48826566 0.10832306 -0.47962812 -0.5695578 -0.17225032 -0.20718351 -0.16621284 -0.36972547 0.6328885 0.080390394 0.0478852 0.34370977 0.4358178 0.4038764 -0.6977879 -0.0628762 -0.04286468 0.67569983 -0.70331585 0.6798732 0.3556367 0.13514386 0.094535366 0.78908765 -0.1295697 0.028890556 0.069691986 -0.10051177 0.4388381 0.16941135 -0.32131514 -0.40958294 -0.33445013 0.2543177 0.022879235 0.27881843 -0.3289369 -0.36717147 0.57435167 0.30380383 -0.2580084 0.3096631 -0.3375915 -0.09065177 -0.2641247 0.5813197 -0.25198698 -0.14648996
情况 -0.099227235 0.69994015 -0.291248 0.09740589 -0.07524562 0.15823758 0.14602374 -0.039370757 0.04090169 -0.22296484 -0.34687558 -0.20721151 -0.26203516 -0.43140468 0.46729976 -0.3695388 -0.09550044 0.14191563 -0.04927279 -0.26402992 0.25361085 -0.30376363 -0.0633541 -0.054627817 0.35139838 0.065428786 -0.07812855 0.10651399 -0.11620722 0.17648964 -0.31510672 0.09118592 0.03442337 0.103918344 0.09939448 0.31054407 0.0045366646 -0.25370908 -0.08834048 0.06665768 -0.07072924 0.14921771 0.1345303 0.10803125 0.20467335 0.23505387 -0.03107343 -0.27315372 0.39690128 0.010512637 -0.2337941 0.082409814 -0.110879816 -0.23901531 -0.15754344 -0.0020726414 0.19848116 -0.56718665 -0.31527555 -0.23331408 -0.122667186 0.45376748 -0.33764523 -0.035191838
选择 0.29618165 0.37350345 0.084027216 -0.037687913 -0.3831487 -0.039746746 -0.010783074 -0.17383504 -0.0748692 0.4952074 0.1253911 -0.17411825 0.048935626 -0.14462136 -0.05237932 -0.5214565 0.11124116 0.36183628 -0.41214514 0.11858442 -0.11113902 -0.33735034 0.057592552 0.052883442 -0.22692546 -0.02483358 0.17313197 -0.6628082 0.23174387 -0.11629206 0.023431143 0.5499988 0.19935147 0.10118291 -0.0071163434 0.2304061 0.32505584 -0.42381948 -0.3415528 0.13623317 -0.0612467 0.08770001 -0.100470036 -0.4472084 -0.2570489 -0.01409779 -0.086686485 -0.13883907 -0.16507195 -0.28627434 0.4948258 0.05497215 0.091136724 -0.18865563 -0.4896514 0.25755316 -0.35172853 -0.43422526 -0.62713724 -0.1760112 0.11475596 0.05045099 -0.02247264 -0.009889193
新 0.58621675 0.40352237 -0.045467347 0.061238877 -0.35066375 -0.21860969 0.028456377 0.08610999 -0.23513173 -0.20913546 -0.25816923 0.20626372 -0.025212271 -0.34911987 0.10193148 0.15837412 -0.21580023 0.1856337 -0.32860458 -0.43909848 -0.59387696 0.031794157 0.071857594 -0.11155048 0.45950198 -0.468064 0.42820665 -0.5827983 -0.34311163 0.31160378 0.004306606 0.04484721 -0.35351062 -0.05004721 -0.13253689 0.00648417 -0.11686535 -0.49762878 -0.21206722 0.21369475 -0.47810286 0.2792943 0.20514888 0.1862753 -0.24236159 0.340637 -0.12278876 0.022205062 -0.23819809 -0.74425435 0.6533343 0.3994981 -0.014864845 -0.20800525 -0.110493846 0.27352327 0.035327297 0.2027853 0.21428953 0.015984625 -0.14523767 0.269655 0.24222973 -0.0512368
原厂 0.16560282 -0.058287885 0.05038983 -0.1713098 -0.058444653 0.27403852 -0.2765163 -0.13765125 0.03103039 -0.08235583 -0.8242985 0.04179316 -0.17168225 -0.23926754 0.07428098 -0.41243285 -0.12968364 0.27070656 -0.035689548 -0.27574876 0.53921306 -0.5025048 0.20016141 0.17985538 0.1856306 0.15683582 0.05603284 -0.18445952 -0.1540577 -0.2040767 0.6551671 -0.13953662 0.1483805 -0.11511231 -0.36744863 -0.29576582 -0.17021093 -0.46203366 -0.25569195 1.0603118 -0.06375179 0.074315585 0.015306451 -0.08807497 0.09786532 0.2640747 0.062389947 0.116766885 -0.30436966 -0.039933536 0.05239359 -0.30527827 -0.4044682 -0.005041437 -0.23120476 -0.01975149 0.08407683 -0.16021045 -0.24004018 -0.022905985 0.049403783 0.5161373 0.29093215 0.43580115
省油 0.16048296 0.13255095 -0.5558279 0.049124856 -0.1392618 0.31191063 -0.56724644 -0.009043229 0.7175549 0.26021817 -0.13902783 -0.03903674 0.16090678 -0.32168898 -0.22921878 -0.034673408 -0.12974614 0.8554026 -0.24730021 -0.052523237 -0.2172734 -0.22330606 -0.25531736 0.20334363 0.075559616 0.06855464 0.12967393 0.11898513 -0.13593873 0.05188125 -0.28799674 0.68720937 0.17862663 0.26862854 -0.38076344 -0.075591624 0.35818464 0.08228451 -0.11648945 0.60154206 -0.2428325 0.07991636 0.20339318 0.119370036 0.12883338 0.33482105 -0.07316017 -0.25200897 0.4885342 -0.13376994 0.24833275 0.34498066 -0.12832077 0.09970832 -0.09158578 0.12510143 -0.059018992 -0.4149757 0.25878537 -0.322077 0.2573072 0.42975786 -0.6326773 -0.12375689
真的 -0.052820247 0.32841814 -0.35076314 0.09418835 -0.522772 -0.18060678 -0.32231933 -0.15617785 -0.060777124 -0.073097706 -0.06677067 0.085796036 0.24115689 0.18437964 -0.34211698 -0.24605508 -0.07788007 0.1586035 -0.030433359 -0.4142958 -0.35488394 -0.5413043 0.28056133 -0.09530444 -0.34594783 0.019929387 -0.045538582 -0.06079064 -0.40040705 -0.067916594 -0.21990946 -0.11307791 0.21877679 0.113321304 0.21530852 -0.1535946 0.288871 0.121894464 -0.37193948 0.40510762 -0.26071152 0.019376745 0.31513372 0.3093234 -0.26741734 -0.02538426 -0.0491018 -0.2868083 -0.0600734 -0.20379402 0.39358103 0.27712098 0.028249305 -0.4365286 0.1649854 -0.40576857 0.10376619 -0.18837394 -0.24799348 -0.0948218 -0.06756489 0.2000026 -0.4873823 0.3667518
目前 0.13920183 0.0018081975 -0.1485691 0.16328523 -0.48093587 0.0021512392 0.40408456 0.26569408 0.3407181 -0.018293178 -0.32952628 -0.19241978 0.05680081 -0.49317798 0.0914954 -0.43498874 0.34219143 0.3701565 -0.3957297 0.070214815 -0.074825294 -0.6080587 0.24277562 0.20518507 -0.0069084233 -0.17676473 0.15193123 -0.0037183429 0.22930863 0.52387524 0.49379826 0.46436536 0.12394371 0.15158509 0.14041144 -0.034264337 -0.36302936 0.34513 -0.037643213 0.50578547 -0.04115849 0.19937865 -0.037507728 0.604469 0.4823445 0.13282524 0.013395392 -0.12187092 0.085118376 -0.0003898948 -0.15266816 0.1423781 -0.45650306 -0.026494287 -0.23445038 0.23648265 -0.85263485 -0.18265386 0.29627082 -0.12684716 0.6174736 -0.033095486 -0.49466485 -0.24931632
傲虎 0.2898292 0.17271528 -0.058649965 0.13839063 0.01190578 -0.47917834 0.19252034 0.11807075 0.26583055 -0.25884044 0.51589537 0.16572408 -0.14786252 -0.20823534 -0.29506016 -0.26416072 0.27396435 0.77040863 -0.23263682 -0.3317735 -0.4550473 -0.30736667 0.061149176 0.2631023 -0.18725517 -0.54767805 -0.26978374 -0.23866108 -0.44915238 0.34881073 -0.11813748 0.3784141 0.20330432 0.31934574 -0.446325 0.24549705 0.27672666 -0.47742566 -0.010317575 -0.1681537 0.17681575 0.0851828 -0.025856826 1.0420623 0.0061072586 0.5527234 0.37066516 -0.45110548 -0.09490374 -0.5588656 0.7284674 0.24204901 -0.8206629 -0.16493998 0.36391515 0.27446252 0.20457667 -0.61126596 -0.985861 -0.29335144 -0.42386332 -0.66671264 -0.9627315 0.06435193
豪华 0.7284271 0.14744551 -0.4506606 0.43708235 -0.7580823 -0.6256959 0.40294105 -0.11522129 0.29836422 0.19212762 -0.0588878 -0.08063967 0.44740635 0.050549522 -0.25371945 -0.011295263 0.49070674 0.23221207 0.09578955 -0.0739381 -0.57308227 -0.14922029 0.21003333 0.15887524 -0.550958 -0.18947254 -0.47174037 -0.48601526 0.30908355 0.52478784 -0.025581758 0.076714896 0.06379187 -0.2326173 -0.25685713 0.33466855 0.23399206 -0.2035741 0.11824135 0.18354258 0.2634896 0.25387716 -0.2641788 0.48224255 -0.00030205667 0.29917148 0.04178191 -0.35814804 -0.1145323 -0.16959357 0.44013432 -0.39471227 0.03034399 -0.30806527 0.124987826 -0.082342274 -0.03464688 -0.50875527 -0.12201994 0.3770113 0.23967935 0.09584283 -0.26282096 0.17998792
直接 0.28093508 0.52014804 0.28557473 0.09101895 -0.4395846 -0.07929441 -0.15287293 -0.21502964 -0.19271943 -0.46087912 -0.043239843 -0.2966818 0.32694596 0.028681004 0.17664675 -0.18712732 0.5152575 0.35155973 -0.18544777 -0.3132168 -0.018662434 -0.14539333 -0.069641694 -0.2619119 0.06658841 0.11695221 0.2823819 -0.20128737 0.035542835 -0.16514735 0.2064386 -0.25834054 -0.13668723 0.0111377975 -0.060148153 0.28566435 -0.0930118 0.000753826 -0.33953562 0.24381307 -0.06351985 0.26019117 0.30757013 -0.077033065 0.34974614 -0.009465346 -0.10157754 -0.5394051 -0.07487766 0.17085387 -0.2819134 -0.19220078 0.08152088 -0.5967909 0.13174444 -0.047371294 -0.12025862 0.0775059 -0.6181252 0.16196498 0.06815006 0.051188033 0.037395913 0.01672945
里 -0.14897762 0.13065588 -0.22641417 0.26256403 -0.0024173686 -0.16457757 0.35103244 0.020344405 0.04468035 0.23641747 -0.37954497 -0.05628828 -0.067084506 0.112232044 -0.14177582 -0.3688083 -0.34748337 0.39741835 0.33746746 -0.153312 0.18642542 -0.42118606 -0.037634008 -0.09338747 0.39339104 0.20669898 0.16186287 -0.53812623 -0.17772299 -0.03656599 0.20967312 0.09618041 -0.17737925 0.09544659 0.14338063 0.14243343 0.07661209 -0.007126 -0.0334018 -0.19937773 -0.10090751 0.37258473 -0.06939981 -0.1337482 0.3128796 0.2246704 -0.7558222 -0.050346043 0.061421603 -0.110312976 0.07987536 0.014261651 -0.5106988 -0.29894215 -0.37416884 -0.36646882 -0.27243522 -0.20142911 -0.38041264 -0.05824934 0.121304095 -0.03722665 -0.01792566 -0.07235719
不好 -0.0124924155 0.05881831 -0.44500706 0.17819248 -0.48832014 -0.019006483 -0.25600353 -0.29912648 0.14910951 0.03112097 -0.09814537 -0.070675775 0.1349328 -0.17265145 0.019864539 -0.52794963 -0.17309296 0.24683507 0.06047004 -0.040404566 0.104446545 0.2993331 0.041641444 0.29429725 -0.19319907 0.24894448 -0.032996293 -0.19766237 -0.055964407 -0.021984423 -0.22935486 0.35408 0.080901906 0.4042317 -0.27764553 0.29063046 -0.09644951 -0.19838627 -0.24872977 0.24146128 0.21797046 0.3290337 0.49215165 0.101141624 -0.18068439 -0.43672737 -0.042931456 0.055641677 0.10189555 -0.10722779 0.15567866 -0.20573802 -0.44862422 0.17875665 0.09514992 -0.35941675 0.0826956 -0.1271089 -0.2689828 0.042915534 -0.2029642 0.3679616 -0.18704452 -0.42459738
前 0.19053915 0.56089795 -0.10882138 -0.004349324 0.15083775 -0.23665749 0.41489413 -0.1042316 -0.015619655 -0.5545846 0.20175095 -0.19443166 -0.22646031 -0.12085019 -0.043073732 0.22624326 -0.07340731 0.2891315 0.2556657 -0.32114804 0.09636489 -0.544451 0.13731715 -0.13494807 0.16107963 -0.13727811 0.032350868 -0.33961898 -0.35646233 0.30907142 0.56630564 -0.19485626 -0.29556337 0.28042898 -0.2021735 0.0057111788 0.09453921 -0.112684876 -0.24405871 0.24794674 0.14573066 -0.07198278 0.19379508 0.215791 -0.09300139 0.86761874 0.13378535 -0.20640263 -0.01996375 -0.20787169 -0.12491809 -0.37702772 -0.2637889 -0.34182805 -0.20982368 -0.38731837 0.13962156 -0.1919049 -0.07440559 0.16975547 -0.2219425 0.4573589 -0.0432688 0.23595604
性价比 0.44149935 0.26534858 -0.5632856 -0.23307934 -0.94317174 -0.4535155 -0.3656275 0.23173092 -0.16430207 0.29908913 -0.092703536 -0.09588819 0.038877655 0.12391558 -0.0038595328 0.15860343 0.15824717 0.4760446 -0.6511879 -0.06959044 -0.25394055 -0.14344123 0.15216467 0.10725118 -0.45853412 0.038315486 -0.0023990236 -0.6898994 -0.2520688 0.122576006 -0.42833436 -0.08733919 0.156919 -0.13944279 -0.16408828 -0.0679477 0.2596736 -0.110713586 -0.26375028 0.24857676 -0.86986667 -0.24428476 -0.14114442 -0.1561198 0.05961898 0.12431012 0.11422658 -0.38022494 -0.6761052 -0.08026464 0.06277398 0.419066 -0.21560931 -0.27790013 0.061207674 -0.17502746 -0.101390004 -0.19535406 0.085082024 0.10341679 0.44646016 0.2719708 -0.2020069 0.1396
隔音 0.43023342 0.2176171 -0.49264085 0.0886548 -0.4564138 -0.5374443 0.62984765 -0.35453 0.41789833 0.22657457 -0.074192636 0.26622516 -0.40519038 -0.36694333 -0.10594209 0.21125059 0.06707297 0.7249553 -0.051982723 -0.0443541 -0.6945529 0.007977316 0.48123962 0.09986913 0.061867077 -0.051075447 -0.048898224 -0.3603425 0.2771842 -0.20102818 -0.024160327 0.36819527 0.2849341 0.33944964 -0.40449962 -0.27047393 -0.37690815 -0.17768914 -0.33813703 0.7117667 -0.07105071 0.16641715 -0.033038665 0.4742726 0.20751145 0.14771888 0.5656523 -0.038336404 -0.29842135 -0.032417823 0.14875242 0.29666716 -0.50713325 -0.09091694 0.34775123 0.03611866 0.102668464 -0.16573457 0.046572383 0.30860654 -0.12790532 0.33050865 -0.20778935 0.093152724
快 0.10093028 0.12492545 -0.8404064 0.44837433 -0.107535794 0.17208833 -0.13999972 -0.19605139 0.42450362 0.3972724 -0.04755474 -0.3969042 -0.41656712 -0.14147674 -0.14921881 -0.06669463 0.13934696 0.49468997 -0.11968614 -0.45020795 -0.013093483 -0.02683856 -0.11591634 0.06850789 0.19049662 -0.015831972 0.09256253 -0.22878407 0.055065 -0.0845815 -0.54927087 0.77308524 0.22153975 0.10999605 -0.42538938 0.37300122 0.261819 0.53782856 -0.08161413 0.31453016 -0.1979579 0.14463261 0.28788558 0.4929496 -0.33369032 0.096159704 -0.34025177 -0.24453525 0.13677593 0.02990146 0.08767714 0.12888642 -0.1859147 -0.07320046 0.10271317 0.13746989 -0.2954283 -0.16931322 -0.056281723 0.09511191 -0.37899852 0.37629738 -0.19504856 0.14603236
明显 0.09131659 -0.09677964 -0.34276596 -0.087403916 -0.21624126 0.25565118 0.21984531 -0.07099101 0.011449089 -0.32476413 -0.41060612 0.12807621 -0.110828586 -0.3477651 0.2854375 -0.21765438 0.11931936 0.39813718 -0.06429795 -0.19617352 0.26407337 -0.42905134 0.008004117 -0.34450966 -0.14779477 -0.045045726 0.3087041 -0.3064155 -0.25452462 0.1909745 -0.1882131 0.42688856 0.07694937 -0.0935877 -0.4799851 -0.23050335 0.10160458 -0.014450223 -0.16514929 0.5747269 -0.120946035 -0.048299603 0.1556824 -0.1663127 -0.026930355 0.19106258 0.24541245 0.22263758 0.059519324 -0.120055065 -0.17164963 0.43030766 -0.15044865 -0.5161064 -0.3337007 0.040998034 0.010486416 0.09288165 0.09771992 0.038284358 0.1259227 0.39296868 -0.1302507 -0.016921356
刹车片 -0.040977355 0.7297504 -0.021299927 -0.43164158 -0.12440094 0.7926235 0.14488725 0.22417887 -0.043359652 -0.49479625 -0.8910395 -0.46515316 0.0604582 -0.3828611 -0.23677723 -0.1865038 0.21105134 0.467367 -0.074703015 -0.5432017 0.63207525 -0.06028862 0.2146205 -0.2500123 0.48415557 0.4720677 0.15279996 -0.11577034 0.25532997 0.21020205 0.17669567 -0.8636296 0.43468183 -0.007365781 -0.5575957 0.11070496 -0.40184653 0.09288308 -0.5276125 0.37016895 -0.1274546 -0.28722927 0.15281281 0.43279022 0.55790126 0.698433 0.151375 0.10838349 0.19654079 -0.040680073 -0.25437853 -0.38123178 -0.7307613 -0.4909131 0.20766146 -0.022947391 0.06257197 0.25727934 -0.5899197 0.5852756 0.46770528 -0.01718138 0.044466574 -0.29074237
后备箱 -0.08548707 -0.22049852 0.18986905 0.55377 0.18739954 -0.37438956 -0.0618855 0.027763141 -0.16714686 -0.3219063 0.1494316 0.23155355 0.21899128 0.43797052 0.35489902 -0.050943974 -0.12617359 0.69765764 -0.55626667 -0.5278803 -0.66215926 -0.25173593 0.26579088 0.07688996 0.11927761 -0.40204772 -0.16615835 -0.15043624 -0.67277706 -0.03870771 -0.13644142 0.14843094 -0.20939218 0.23368858 -0.32248145 -0.4491137 -0.27118537 -0.28761402 0.22280668 -0.037354328 0.12812844 0.42532745 0.37336862 0.6120758 0.031017141 0.68474495 -0.18806721 0.23781702 -0.31055346 -0.3660729 -0.19853006 0.12522648 -0.17909333 -0.7076223 0.48031428 -0.37065533 -0.3162146 0.44589686 -0.9059891 0.084818676 0.07623605 0.020410238 -0.3475633 -0.4272995
版 0.757219 0.39884686 -0.49389136 -0.07843784 -0.48040706 0.024808094 0.38308033 -0.09331478 0.2965408 0.10901333 0.23356315 0.046061214 0.46490246 -0.05715296 -0.097765125 0.15557788 -0.023053586 0.11587776 -0.87496513 -0.16718534 -0.60640055 -0.098973684 0.61128515 0.63315594 0.010360957 -0.19985217 -0.17100906 -0.6310901 0.40248317 0.4754445 0.17628357 -0.2146438 -0.3714081 0.17943922 -0.3740186 0.13348943 0.18820731 0.035617623 -0.21791075 -0.010636138 -0.04514727 -0.21946065 0.023363903 0.19285081 -0.15964285 0.11098061 -0.060164306 -0.43527982 0.018181305 -0.430084 0.3096935 -0.2676703 -0.3658217 -0.23304245 -0.3174208 -0.0091241915 0.12141262 0.05480213 0.03797868 0.1286659 -0.15068279 0.5012685 -0.11381108 -0.08034251
是不是 -0.069771715 0.38298956 -0.46495843 0.08461123 -0.3441747 0.11905428 0.013889371 -0.27248317 -0.23603915 -0.32081518 -0.052262094 -0.33270052 -0.115373395 -0.20814614 0.17703581 -0.13301365 -0.32193443 0.14131546 0.16991161 -0.11867042 0.2463848 -0.20977493 0.22765721 -0.017709332 0.21085112 -0.07109431 0.17302094 -0.12468988 -0.2004786 0.32972723 0.2908088 -0.110491164 0.13922137 -0.015266561 -0.14292088 -0.4002258 -0.062930904 -0.08159263 -0.19353819 0.28155017 -0.31619364 0.43080783 -0.10050082 -0.09843763 0.3511422 0.45076752 -0.16779537 0.0064698984 -0.20077628 -0.25913343 -0.20841418 -0.22999588 -0.058856405 -0.26137626 -0.14176017 -0.31729832 -0.10631146 0.000326266 -0.38390276 0.12145609 -0.24153094 0.17832789 -0.025744895 0.009764931
月 -0.047796916 0.5818668 -0.6023209 0.0062785354 -0.55218107 0.03108011 0.03849049 0.31897792 0.25818217 -0.33709514 -0.30001426 0.23487969 0.24293073 -0.034863476 -0.06139482 -0.2835557 0.29745412 -0.0175916 -0.09322765 0.12754007 -0.13297513 0.005092242 0.43948594 0.456896 -0.050041128 -0.34596762 0.060112376 0.14988972 -0.22228977 -0.19818336 0.3665614 0.04687223 -0.042965177 0.5013892 0.2347287 0.015778614 -0.14915352 0.15250692 -0.082433626 0.38240263 -0.105479196 0.29452035 0.5016281 0.3626159 0.4206262 0.8445447 0.25472757 -0.11641514 0.070907526 -0.31679302 0.17925456 -0.53991634 -0.03173633 -0.487568 -0.24069333 0.16021892 0.23217337 0.18806192 0.025657156 0.15224102 -0.121216714 0.25332874 0.081564754 -0.38932267
最好 -0.0033136494 0.33607718 0.051303234 -0.1782029 -0.4583017 0.1068913 -0.136938 -0.32581377 0.21441959 0.696262 -0.23164035 -0.4790651 -0.29569307 0.07489041 -0.09443475 -0.63965803 0.24031931 0.3643199 -0.2939111 -0.17921773 -0.09628022 -0.07071678 0.0766601 0.122552186 -0.27138412 -0.12620771 -0.059414927 -0.08602088 -0.34423393 -0.14244473 0.1175038 0.4191314 0.2937244 0.049689148 -0.45676556 0.5727038 0.094824485 -0.31286162 -0.63488513 0.014615299 -0.12680948 -0.35235026 0.095669374 -0.19556004 0.25622144 0.17756045 0.23953934 0.09702954 0.11686839 -0.53866076 0.27644023 0.4180561 -0.19534235 -0.27899525 -0.08803882 -0.06046982 -0.51135164 0.030944852 -0.23568898 0.111114964 -0.22013764 0.3872107 0.24827805 0.0039605997
不用 -0.15862694 0.24593674 -0.17995691 0.11361525 0.09381419 0.002336976 -0.012106024 -0.03150749 -0.4320318 0.03811664 -0.28144136 -0.18504955 0.23600528 0.110953815 0.12835273 -0.29686642 0.32266784 0.166594 0.22944038 -0.30353764 0.37255636 -0.17182349 0.36972487 0.1983949 -0.13231435 0.0549657 -0.13808681 0.010934393 -0.25557256 -0.1515903 -0.15006582 0.05605777 -0.23227137 0.41220462 -0.45775744 -0.04760911 0.26031986 -0.04382897 0.00051451556 0.44121236 -0.03997661 0.15390562 0.021252573 -0.14595303 0.29832846 0.22947642 -0.3403846 -0.25302047 -0.23588464 -0.27948946 0.101264976 0.046431914 -0.37172648 -0.32005855 0.079919435 -0.19887322 -0.21995726 -0.098534495 -0.13859135 0.20451191 -0.052736744 -0.13043027 -0.025669547 -0.15607028
选 0.25612453 -0.45532602 -0.037247356 -0.112971626 -0.46121678 -0.57834834 -0.07929808 -0.3043278 0.18802597 0.38704845 0.22731762 0.4793606 0.23359808 -0.3092305 -0.4346127 -0.3832914 0.21308875 0.52559173 -0.18046662 -0.3593804 -0.28171027 0.03306304 0.34696183 0.16752979 -0.21263659 0.096513286 0.011432113 -0.5785225 -0.12436435 -0.003585589 -0.3736025 0.2633878 -0.2594824 0.009900071 -0.16675699 0.20507064 0.16664547 -0.31016886 -0.14130016 -0.0077142264 -0.25168774 0.055097893 -0.03752337 0.40741956 -0.21358839 0.2376647 -0.1352641 -0.49731463 -0.024834689 -0.280852 0.26380938 -0.15150137 -0.31321004 -0.10607834 -0.029423641 -0.11747546 0.052120056 -0.73578835 -0.6635209 0.15972197 -0.04117821 -0.501918 -0.5927205 0.089234345
之前 0.011389878 0.22516172 -0.49197534 -0.05873945 0.08000377 0.2721221 0.0877952 0.08973426 -0.046474855 -0.018161235 -0.34812224 0.20100343 0.060349327 0.044029914 0.0044442257 -0.49506822 -0.17125113 0.4964576 -0.055758048 0.042144902 0.047920175 -0.01730936 0.11640549 0.09479245 0.22680186 -0.257568 0.40625277 0.04641076 -0.3048651 0.2945037 0.14736603 0.18201908 0.1666004 0.3066461 -0.0855145 0.010681564 0.07642399 -0.44197705 -0.09951045 0.5758055 -0.14329061 0.22651115 0.3746561 0.46739718 0.06651258 0.11871069 -0.012334819 0.08146954 0.0346859 -0.013994658 0.29161835 -0.20156226 -0.32153895 -0.32988843 -0.0897163 0.21996026 0.21453747 0.20828164 -0.08664639 0.2907333 0.20779844 0.08255706 -0.08272167 0.24373142
车子 0.13900907 0.16470079 -0.21737331 -0.17414346 -0.2647804 -0.17853887 0.014875126 -0.19609962 0.28755262 0.019754088 -0.45814568 -0.3267944 0.07831805 -0.40326783 0.22671227 -0.16082661 0.076949224 0.25761324 -0.09058338 -0.2772755 0.07567309 -0.1612802 -0.30754438 0.16230899 0.032828692 -0.028799048 0.20299126 0.016109819 -0.12867938 0.20338033 -0.5890867 0.05480974 0.21656238 0.5016421 0.011635986 -0.1698237 -0.051575907 -0.16530749 -0.2800922 0.4235504 -0.009135965 0.057730753 -0.0017065125 0.04602419 0.23783842 0.115993135 -0.1747534 0.24913868 0.30384052 0.20245276 -0.0055320365 -0.3374164 0.032944415 -0.18151176 -0.00021915618 -0.078289084 -0.14733514 -0.13844468 -0.21649477 0.22099365 -0.1693596 0.2692827 -0.24654509 -0.14119405
对置 -0.06296876 0.38808444 0.24595721 -0.20017579 -0.46344706 0.0025756664 -0.07941702 -0.15348658 0.16957709 -0.16197886 0.35749492 -0.05352779 -0.23925552 -0.25898278 -0.16343772 -0.33480895 0.06061953 0.1344629 -0.17026052 0.13290876 0.29912296 -0.71606725 -0.18416654 0.37535334 -0.4989547 0.37633732 0.45222455 -0.58900136 -0.32236567 0.30682096 -1.1779613 0.07356052 0.33543283 0.09208768 0.21621454 -0.11727376 0.5941761 0.23226734 0.22114006 0.62620014 -0.44349897 0.47930157 0.35761526 -0.23240392 -0.13076943 -0.2682689 0.14842843 -0.22985835 -0.40919432 -0.12094969 0.19710961 -0.042064916 0.12909606 -0.5164447 -0.5429011 -0.24556476 -0.46425903 -0.25312123 -0.46362072 0.17657374 0.61868256 -0.4316348 0.20574372 0.08599824
挺 0.23874797 -0.03352865 -0.31753644 0.21221544 -0.651952 -0.12878823 0.21240386 0.38505593 0.18901396 0.027002012 -0.14176835 -0.04131746 0.20302589 0.047775164 -0.19026867 -0.15818126 -0.1284063 0.39426422 0.042907488 -0.26174343 -0.17591761 -0.024062492 0.2347381 -0.21245827 -0.331012 -0.0538346 -0.020750433 -0.2889864 0.09175677 0.32513797 0.07505848 0.14780733 -0.12533359 0.42393354 0.2524737 0.51605016 0.021962147 -0.12218056 -0.22802736 0.37729317 0.029748145 0.24348748 0.20166641 0.08464313 -0.29766002 0.33426785 -0.39593092 -0.07552955 0.006492199 0.11622467 -0.036640387 -0.09983639 0.014118202 0.17043261 -0.11058427 -0.2788603 -0.43158054 0.359762 -0.23801786 -0.030929925 -0.17932983 0.024429852 -0.36431074 -0.10331796
发现 -0.069031574 0.087975934 -0.79619616 0.6400207 -0.03806362 -0.0048664957 0.12857817 0.20891747 -0.26399186 -0.31594414 -0.43719336 -0.52808166 -0.22770421 -0.20831071 -0.09581867 -0.23979943 0.5156068 0.4198546 0.12848596 0.032526083 -0.27733535 -0.17890845 0.36606517 0.2870504 0.11303584 0.012986827 0.5300632 0.058411967 -0.58510405 0.6131993 0.0010695515 0.16335802 -0.04032439 0.22634241 -0.17081988 -0.16311927 -0.44349578 0.039453395 -0.22593997 0.25151375 0.07782271 -0.13079204 0.5159396 0.4302142 0.21549523 0.5871769 0.14099558 0.4717685 -0.0043979664 0.021377482 -0.009081635 -0.16510549 -0.32253578 0.12959331 -0.15556106 0.09049698 -0.49569052 -0.29424775 -0.25070128 0.06846711 0.105191305 -0.0030995605 -0.17672518 -0.018870573
东西 0.3404931 -0.020193169 -0.27063954 0.47139865 -0.7540779 -0.36068705 0.26127443 0.17906691 0.17328645 -0.07900341 -0.051967688 -0.20802674 -0.039686114 0.29900315 -0.10413031 -0.42606345 0.09838701 0.14567943 0.11102212 -0.577584 -0.0320786 0.19347866 -0.0026374368 0.033827744 -0.16543865 -0.03432486 0.065486744 0.113098465 -0.16143115 0.013260446 -0.36464527 0.07702366 0.52221704 0.32131562 -0.19826575 -0.09910503 -0.5754064 -0.031421 0.05156654 0.2964326 -0.23325402 0.30347082 0.056761485 0.10104781 0.06715471 0.18171409 -0.29574674 0.11870199 0.022387039 -0.23361315 0.17118917 -0.145544 -0.11740759 0.36555824 -0.048321348 -0.4644982 -0.29955223 0.27313137 -0.67979085 0.25507906 -0.18372728 0.22579506 -0.28255785 -0.0035597743
好像 -0.037445083 0.2305936 -0.33259216 0.07372927 -0.059305564 0.016547518 0.39218426 -0.43895957 0.09583681 -0.08050576 -0.16447479 -0.14082645 0.29996789 -0.19330645 0.23111625 -0.011290086 -0.17208949 0.08407932 0.09033501 -0.24454011 -0.10513547 -0.3730641 0.22626974 0.045855734 0.3377807 0.020869382 0.47941506 -0.009025317 -0.52980465 0.28810337 0.15147889 -0.040564377 0.09830249 -0.09167412 -0.26893854 -0.16920978 -0.051773276 0.10754756 -0.36619192 0.331316 -0.009822104 0.23098394 -0.17364177 0.1394238 -0.23455535 0.5660536 -0.31874344 0.2501839 -0.18423818 0.084319845 0.074825406 0.13491848 -0.10262012 -0.44724792 -0.3123141 -0.059659593 -0.023803506 -0.23119393 -0.15280387 -0.18964271 0.1849361 0.17405802 -0.10441511 -0.11226901
影响 -0.20521289 0.1149885 0.11903833 -0.13736036 -0.24643955 0.33341995 -0.24058124 0.061413 0.14236967 -0.28677782 -0.04880089 -0.3875453 0.30122384 -0.27962473 0.21871796 -0.2952939 -0.13295905 0.35416314 -0.2152173 -0.2782549 0.5192289 -0.087972306 0.0021735353 -0.10792467 -0.15877621 -0.07370875 0.18070605 -0.351352 -0.24509136 0.27030268 -0.17841272 0.55706304 0.109413125 0.16321371 0.06591989 -0.13182329 -0.39462855 0.27993795 0.14885081 0.51852393 0.6873795 0.01005395 0.44606286 -0.14741321 0.021011451 0.43596503 0.13774571 -0.29522583 0.64295226 -0.05280761 -0.21552423 -0.08933872 -0.36965036 -0.50775963 -0.3380805 -0.22547644 0.29916126 -0.24179205 -0.22400741 -0.41562805 0.15718243 0.34786826 0.21644552 -0.08548338
中 0.12745063 -0.05354011 -0.055873238 0.18647245 -0.32803246 0.40522245 -0.18550575 0.060495224 -0.42669642 -0.11617754 0.07895554 -0.0629701 0.13697866 -0.2831016 -0.4709453 -0.046409104 -0.010259712 0.4715012 -0.34681267 0.1767626 0.24196552 -0.39499798 0.421462 -0.30669072 0.038623996 0.1154083 0.30556688 -0.3692718 -0.31459424 0.12718531 -0.2109309 0.2339213 -0.14340477 0.3250968 -0.03179745 0.40086475 0.14564613 0.18974538 0.27051812 0.075496115 -0.04560429 0.11916032 -0.21618968 -0.20058778 -0.51789576 0.48658147 -0.066207625 -0.09851568 -0.2163398 0.15724114 -0.46638623 -0.24019137 -0.6257792 -0.38568422 -0.36537 -0.37667027 0.07624875 -0.27913424 -0.21374565 0.07747221 -0.12013342 0.059317827 -0.2240704 0.23336494
不到 -0.21070376 0.07711497 -0.10009483 0.25314254 -0.16536658 -0.014997574 0.014712849 0.25746813 -0.038002368 -0.17294477 -0.29915085 -0.17761236 0.08180116 -0.029925905 0.16795892 -0.16940075 -0.21577996 -0.026304055 0.02239743 0.041406404 0.47947264 -0.56838745 0.23270658 -0.16012345 0.09783884 -0.0996284 0.2545139 -0.13664901 -0.0951562 0.05925001 0.07534841 0.030006943 0.06772854 0.005949073 -0.04806917 0.114687696 -0.4192529 0.11710051 -0.499794 0.44183198 -0.32654238 0.26354805 0.05042814 0.027215505 -0.07150816 0.26049578 -0.049569573 -0.16997984 0.005026866 -0.17847538 -0.04688465 -0.3202663 0.07520424 -0.18951337 -0.13819726 -0.31183147 -0.20903084 -0.3864476 0.060043108 0.09104999 -0.019983234 0.48413 -0.02671428 -0.25882018
进口 0.011829981 0.5106918 0.20153847 0.034738027 -0.39455456 0.076687016 0.16023178 0.2252123 0.20244196 -0.03258619 -0.24187565 0.19069792 -0.15719295 0.31466603 -0.1257468 0.11514628 -0.17264986 0.30251905 -0.53800356 0.046065677 0.24147247 -0.41163906 0.0064895926 0.95389575 0.29622892 0.07972319 0.108134545 -0.37739813 -0.63894576 0.09570702 -0.24070522 0.10325732 0.17108992 0.4212819 0.16734667 0.31777254 -0.12841104 -0.167857 0.070851706 -0.10524516 -0.07147719 0.27582517 -0.06075613 0.18428352 -0.73972774 -0.06299015 0.12682965 -0.25240722 -0.4300017 -0.35066772 0.6124624 -0.42221484 -0.36140162 -0.5097579 -0.06612018 -0.7158457 0.09046413 -0.18348376 -0.24713385 0.3830504 0.7928764 -0.3057207 0.22232428 -0.06683288
舒适性 0.21490152 -0.00066034135 0.3401526 0.45068866 -0.25056934 0.16590065 0.2089575 0.22813466 0.16782407 0.73524064 -0.6499771 0.12221798 0.15710863 0.54194945 -0.2630014 -0.63638234 -0.05972002 0.5709197 -0.83244914 -0.15421855 -0.4208921 -0.54049397 -0.52122325 0.22660337 0.18431705 -0.27891055 0.21786681 -0.14578064 -0.28530484 -0.22059296 0.2137725 0.2821694 0.72307026 0.4985769 -0.15202096 0.35180178 -0.23468205 -0.78548235 0.3438732 0.717378 0.24659888 -0.18387483 -0.26470616 0.15419813 -0.21204613 0.31270194 -0.15854952 -0.70756257 -0.19480382 -0.1341145 0.11828716 0.59345615 -0.34127128 -0.24000794 -0.3659274 0.20199822 0.40458554 -0.0026388555 -0.4805273 0.08221972 -0.048922066 0.37107378 -0.3859065 0.2849371
新车 -0.35548368 0.12456304 -0.25267226 -0.022117821 -0.34309578 -0.015027148 -0.10568771 -0.050139554 0.31861272 -0.05045473 -0.167242 -0.036644414 0.30124626 0.15232871 0.62681997 -0.3638715 -0.061797824 0.2547824 0.18443143 0.028612198 -0.11635285 -0.28418887 0.07225306 -0.2718529 -0.011261291 -0.4470501 0.00923639 -0.16009063 -0.35914183 -0.008953919 0.1372925 -0.06683606 -0.19224364 0.18834768 -0.18006429 0.26850435 0.0033554058 -0.123885244 -0.3702084 0.5130475 -0.17789045 0.15019678 0.18161835 0.30748674 0.13354991 0.22281452 0.03863864 0.12629022 -0.35513082 -0.34623852 -0.22772472 0.094575346 -0.30799386 -0.058648594 0.057351712 -0.2889537 -0.058467563 0.06872628 -0.18313839 0.3751723 -0.099375725 -0.15297358 -0.016019223 -0.2854899
油门 -0.14089198 0.4524564 -0.24130994 0.26802495 0.12612027 -0.18169267 -0.053992912 -0.1440006 0.3249792 -0.4150881 -0.59877706 -0.7537183 -0.15427282 -0.22929177 0.042508688 0.114323966 0.35133854 0.28418958 -0.50916433 -0.31931946 0.25058392 0.22384818 0.22848034 -0.26582563 0.1737084 0.20767172 -0.12857714 -0.0394839 0.06747802 0.16877776 -0.13780151 0.19334584 -0.05171931 0.1221851 -0.6974224 0.6023307 0.18085673 0.14529274 -0.52758974 0.7361909 -0.18198475 0.2963764 0.2577069 0.033917993 0.26136214 0.13259147 0.08237222 -0.6583297 -0.17327139 0.34562454 0.04348777 0.46311703 -0.112683065 -0.37941447 0.73413193 0.17646638 -0.26354215 -0.09759855 -0.22822705 -0.27797964 -0.5428881 0.38381827 -0.34233418 -0.43932062
两个 0.22096632 0.3155054 0.16983435 0.23569986 0.1323754 -0.13326131 0.61628467 -0.1596036 -0.1076806 0.32536277 -0.33985075 0.216071 0.08674238 0.056388102 -0.15677485 -0.13631037 -0.21255249 0.1475234 -0.27970067 -0.34245422 0.24726748 -0.3692885 0.017668957 0.15649584 0.5741575 -0.02198261 -0.028261589 -0.16275166 -0.36606717 0.089911975 -0.04101691 -0.31708148 0.17471963 0.017942911 -0.22870874 0.019612173 -0.31529492 -0.10798533 -0.3337207 0.3074797 -0.3998676 0.24593644 0.07636956 0.24653845 0.16248457 0.42206424 -0.2295499 0.031393304 0.085511245 -0.09895965 0.19043319 -0.12352682 -0.48424348 -0.5304388 0.043424997 0.12142441 0.1054066 -0.5466544 -0.105403125 0.35406277 -0.41478816 0.016152028 0.04471798 -0.13561817
品牌 0.34438255 0.49423286 -0.15638913 0.051844392 -0.54733473 -0.17766611 -0.36797592 0.49495003 0.51505154 0.25922266 0.033968803 0.117764235 -0.53189087 0.4055721 -0.16317077 -0.32894462 -0.020483932 0.32030547 0.08594991 -0.34506795 0.027810104 -0.38328546 0.28606638 0.123096816 0.19946182 0.09518882 0.28496552 -0.31576756 -0.054809615 0.09413622 -0.26929018 0.10208599 -0.028343013 -0.3953204 0.007153176 -0.11761763 0.5617845 -0.17178035 0.015632903 0.6109876 -0.24677937 0.27033895 -0.2933501 -0.34149152 0.13927028 0.31932208 -0.027351012 0.08651381 -0.39470434 -0.353587 0.13757357 0.28774965 -0.35623062 0.31385973 -0.122007824 -0.72624964 -0.12318437 -0.3260651 -0.3271977 0.36034182 0.9020892 0.01084325 0.08504652 -0.059777062
以后 -0.025174122 0.28565755 -0.824678 0.023825653 -0.3929716 -0.09818266 0.07527567 -0.054757655 -0.3473076 0.046675846 -0.13980034 -0.22752136 0.0065267314 -0.34925753 -0.12575744 -0.070470236 -0.11926766 0.5228797 0.005298357 -0.07305878 0.07108934 0.21278735 0.31953898 -0.13906667 -0.09754579 0.10822782 0.26219526 -0.20141391 -0.34804738 -0.034426577 -0.18231061 0.075204864 -0.4203701 -0.087324284 -0.3917345 0.087625645 -0.32891867 -0.11108619 -0.38404608 0.39396355 -0.41140315 0.08511784 0.08142158 -0.23197223 0.19021699 -0.09039647 -0.18812175 0.15384321 0.1540867 0.03073675 -0.1768086 0.035217673 -0.27390313 -0.10842432 0.005557104 0.051483747 -0.18559054 -0.27335963 -0.28047994 0.22118275 0.14923732 0.024297653 -0.2530863 -0.13767987
真 0.028068097 -0.042060893 -0.6670263 0.23943315 -0.32234997 -0.107196316 0.10240367 -0.017747428 -0.16999464 -0.06713693 -0.45276135 0.09570783 0.15914099 0.031184306 -0.25369272 -0.07660992 0.19254202 0.16259721 0.18940392 -0.29137394 0.055497747 -0.008653382 -0.2595643 0.08717093 -0.09130935 0.57056475 -0.006882283 -0.33476838 0.28951374 0.010327049 -0.093312725 0.44141617 -0.21253793 -0.14830679 -0.005024783 0.22673829 0.09275084 -0.21445315 -0.017395914 0.33327657 -0.723501 0.20949447 0.2666446 -0.035432544 -0.4537455 -0.026497785 -0.24612369 -0.08164926 0.0303687 -0.4356484 0.50320673 -0.008399936 -0.25105762 -0.09701693 -0.115507215 0.20000814 0.010775099 0.15003423 -0.5391321 0.17206065 0.08534001 0.41781098 0.046227608 -0.27283448
平均 -0.24813578 -0.21925597 0.017444378 0.010691446 -0.20362036 0.3135192 0.13432065 0.2428066 0.527488 -0.43355903 -0.25215945 -0.33586538 0.15908779 -0.13781881 0.20026702 -0.5822025 0.5414339 0.4961935 -0.54291016 0.27825743 0.4345821 -1.256842 -0.1886144 0.29299563 -0.38683128 -0.76184916 -0.48755348 0.07098479 0.054824777 0.36023346 0.3062077 0.53956807 -0.21008259 -0.030785711 0.18933931 0.30883974 -0.4308323 0.23034084 -0.3232789 0.46488434 -0.8182441 0.58014363 0.012995125 0.66385853 0.7176421 0.24806227 -0.45488587 -0.37117523 0.7833175 0.3710336 0.080803476 -0.023123654 -0.05965667 -0.18192334 -0.43749544 -0.10371382 -0.15926717 -0.42922008 0.5508575 0.0023750463 0.25616112 0.5055353 -0.98780924 -0.7720574
启动 0.24536514 0.38033295 -0.44074017 -0.23718086 0.41714454 -0.31258643 0.23137017 -0.376226 -0.66315556 -0.4375224 -0.2415543 -1.2693454 0.7138518 0.20407036 0.51257074 -0.19879608 -0.2837279 0.4833735 -0.58383995 -0.12280858 -0.20410788 -0.10687822 0.6069279 -0.09489675 -0.08344483 -0.57592356 -0.08092005 -0.27974054 0.08579156 0.38026795 -0.3688558 0.28057775 -0.35837278 0.29409683 0.01059441 0.011642792 -0.1867766 -0.011845232 -0.045867957 0.419289 0.10568726 0.19299981 0.0012572112 -0.08230163 0.2514559 0.5548949 -0.04756531 -0.18612069 -0.032391254 -0.32693857 -0.61184216 -0.10077734 0.4319625 -0.14679785 0.16481443 0.0032496373 -0.11821647 -0.27067512 -0.63276845 0.19521746 0.10402206 0.27777514 -0.4120943 0.17703997
